label	0	1	2	3	4	5	6	7	8	9	10	11	12	13	14	15	16	17	18	19	20	21	22	23	24	25	26	27	28	29	30	31	32	33	34	35	36	37	38	39	40	41	42	43	44	45	46	47	48	49	50	51	52	53	54	55	56	57	58	59	60	61	62	63	64	65	66	67	68	69	70	71	72	73	74	75	76	77	78	79	80	81	82	83	84	85	86	87	88	89	90	91	92	93	94	95	96	97	98	99	100	101	102	103	104	105	106	107	108	109	110	111	112	113	114	115	116	117	118	119	120	121	122	123	124	125	126	127	128	129	130	131	132	133	134	135	136	137	138	139	140	141	142	143	144	145	146	147	148	149	150	151	152	153	154	155	156	157	158	159	160	161	162	163	164	165	166	167	168	169	170	171	172	173	174	175	176	177	178	179	180	181	182	183	184	185	186	187	188	189	190	191	192	193	194	195	196	197	198	199	200	201	202	203	204	205	206	207	208	209	210	211	212	213	214	215	216	217	218	219	220	221	222	223	224	225	226	227	228	229	230	231	232	233	234	235	236	237	238	239	240	241	242	243	244	245	246	247	248	249	250	251	252	253	254	255	256	257	258	259	260	261	262	263	264	265	266	267	268	269	270	271	272	273	274	275	276	277	278	279	280	281	282	283	284	285	286	287	288	289	290	291	292	293	294	295	296	297	298	299	300	301	302	303	304	305	306	307	308	309	310	311	312	313	314	315	316	317	318	319	320	321	322	323	324	325	326	327	328	329	330	331	332	333	334	335	336	337	338	339	340	341	342	343	344	345	346	347	348	349	350	351	352	353	354	355	356	357	358	359	360	361	362	363	364	365	366	367	368	369	370	371	372	373	374	375	376	377	378	379	380	381	382	383	384	385	386	387	388	389	390	391	392	393	394	395	396	397	398	399	400	401	402	403	404	405	406	407	408	409	410	411	412	413	414	415	416	417	418	419	420	421	422	423	424	425	426	427	428	429	430	431	432	433	434	435	436	437	438	439	440	441	442	443	444	445	446	447	448	449	450	451	452	453	454	455	456	457	458	459	460	461	462	463	464	465	466	467	468	469	470	471	472	473	474	475	476	477	478	479	480	481	482	483	484	485	486	487	488	489	490	491	492	493	494	495	496	497	498	499	500	501	502	503	504	505	506	507	508	509	510	511	512	513	514	515	516	517	518	519	520	521	522	523	524	525	526	527	528	529	530	531	532	533	534	535	536	537	538	539	540	541	542	543	544	545	546	547	548	549	550	551	552	553	554	555	556	557	558	559	560	561	562	563	564	565	566	567	568	569	570	571	572	573	574	575	576	577	578	579	580	581	582	583	584	585	586	587	588	589	590	591	592	593	594	595	596	597	598	599	600	601	602	603	604	605	606	607	608	609	610	611	612	613	614	615	616	617	618	619	620	621	622	623	624	625	626	627	628	629	630	631	632	633	634	635	636	637	638	639	640	641	642	643	644	645	646	647	648	649	650	651	652	653	654	655	656	657	658	659	660	661	662	663	664	665	666	667	668	669	670	671	672	673	674	675	676	677	678	679	680	681	682	683	684	685	686	687	688	689	690	691	692	693	694	695	696	697	698	699	700	701	702	703	704	705	706	707	708	709	710	711	712	713	714	715	716	717	718	719	720	721	722	723	724	725	726	727	728	729	730	731	732	733	734	735	736	737	738	739	740	741	742	743	744	745	746	747	748	749	750	751	752	753	754	755	756	757	758	759	760	761	762	763	764	765	766	767	768
eccitare_3	1.7271021008491516	2.3391369581222534	1.696157157421112	-0.5027461051940918	1.514918029308319	2.0214935541152954	1.1926860064268112	-6.512794494628906	0.41696006059646606	1.8541918396949768	-1.2793045043945312	0.1801944375038147	2.3194392919540405	1.3168694376945496	1.4712029695510864	3.1738572120666504	2.6123850345611572	-0.7326604127883911	0.2917324900627136	0.7355794012546539	0.4426566958427429	0.10240060091018677	-1.1882209777832031	-0.47287774085998535	-0.7751713991165161	1.910287857055664	2.005267024040222	2.5988590717315674	1.4676194190979004	1.4595989286899567	0.11282235383987427	0.6095567941665649	2.4719239473342896	3.520643711090088	2.0167495012283325	2.1163135766983032	0.31189608573913574	0.08990448713302612	-0.3380608558654785	-0.8121570348739624	-0.7006629705429077	1.2805274426937103	3.1408846378326416	1.5137097835540771	0.06236004829406738	-14.955803871154785	0.41949188709259033	3.4227283000946045	0.13277429342269897	3.2820727825164795	0.9528592266142368	-2.1762630939483643	-0.9185088872909546	0.006839752197265625	3.6827595233917236	2.6033742427825928	0.1961711049079895	-0.31206798553466797	-0.3310365676879883	3.185690402984619	-0.44538557529449463	1.2439649850130081	1.2671719789505005	1.121540181338787	2.215616226196289	2.006808638572693	0.4786685109138489	1.5582028031349182	0.7857311964035034	1.8002942204475403	0.16009455919265747	-0.807511568069458	0.7522401064634323	0.4226909279823303	1.2063125967979431	1.8456294536590576	1.517383873462677	3.1561732292175293	3.044269323348999	0.9004685804247856	0.47674888372421265	3.1838693618774414	2.9745991230010986	0.017083406448364258	0.9555798768997192	0.2445726990699768	-0.9165381193161011	-2.261274576187134	-0.3342474699020386	2.043174147605896	-0.08393847942352295	1.768519103527069	1.3238704800605774	0.5100581049919128	3.8940982818603516	-0.780695915222168	2.589715361595154	0.2922365665435791	2.5893802642822266	1.07198516279459	-0.3923856019973755	1.7215070724487305	-0.9574853181838989	1.1098997294902802	2.5994306802749634	0.8079213052988052	-1.1521360874176025	-0.02048516273498535	1.0183908324688673	-0.9122159481048584	-0.3950153589248657	2.4326682090759277	1.7556275129318237	0.8731005191802979	0.27670013904571533	1.8982337713241577	2.124011278152466	1.4288065731525421	1.2012006044387817	0.8790969327092171	-0.8118723630905151	0.28539180755615234	0.5497787594795227	2.8520575761795044	-0.22860801219940186	0.8245742321014404	0.8339002728462219	1.6875908970832825	1.489913821220398	1.2930513620376587	0.7810787260532379	2.367251992225647	-0.5242910385131836	0.11290502548217773	1.1726387590169907	2.364642381668091	1.1622203439474106	0.713883101940155	2.006118893623352	-0.40343356132507324	2.447741150856018	1.9117250442504883	0.6184273958206177	3.098043203353882	2.3097734451293945	1.8190179467201233	-0.025672078132629395	0.9398411884903908	0.03761923313140869	0.9319643154740334	2.234508752822876	0.9846138954162598	1.1812100559473038	1.4453213810920715	-0.8421157598495483	1.151958405971527	1.8451176285743713	0.42199522256851196	3.0670254230499268	2.069849371910095	1.5644123554229736	1.3832257091999054	1.2743746042251587	1.5915345549583435	-0.9358984231948853	1.609588086605072	1.0384835191071033	2.343763828277588	0.48248738050460815	0.462688148021698	0.9415586180984974	2.7650023698806763	4.5915844440460205	0.19524341821670532	1.6192069053649902	0.895103894174099	1.1875753998756409	1.8423687815666199	0.9611361511051655	1.8940368294715881	0.6369924545288086	-0.059479355812072754	-0.314190149307251	0.34355777502059937	0.2039366364479065	2.070783257484436	0.15071344375610352	-1.3217699527740479	0.6016274690628052	2.2811713218688965	2.8030858039855957	-1.3102684020996094	0.0372348427772522	1.507668673992157	0.7697795927524567	2.6178507804870605	-0.0937567949295044	2.8646587133407593	1.1010524034500122	2.7216697931289673	1.7286545634269714	0.8420202285051346	0.8970465883612633	-0.6743526458740234	0.9692865777760744	0.6097225546836853	-0.2034240961074829	2.4674006700515747	1.4790301322937012	-0.6889976263046265	1.9150416851043701	2.1430212259292603	0.009564101696014404	-1.513688564300537	2.6682472229003906	1.3347561955451965	0.4859120845794678	1.6929592490196228	4.920511722564697	0.4139810800552368	0.7828000783920288	0.3362656831741333	-0.3064767122268677	1.702329158782959	0.7148724794387817	1.8243472576141357	1.153982013463974	1.3977159261703491	-0.2226039171218872	1.4948813915252686	1.3392792344093323	2.8422138690948486	3.3379061222076416	0.7961254715919495	1.1862773150205612	1.6198824048042297	-1.0186388492584229	1.5699908137321472	0.15628546476364136	-0.8259267807006836	-1.6397640705108643	-0.427889347076416	-1.904041051864624	-0.1267935037612915	0.25748997926712036	4.441676378250122	0.6359283626079559	2.671424388885498	2.0183128118515015	5.4058756828308105	2.05515456199646	0.7481490075588226	1.1029782071709633	1.8486698865890503	2.017618417739868	1.8283540606498718	0.5162014961242676	0.24089139699935913	0.6783060431480408	-1.0716478824615479	-0.4539616107940674	0.2756921648979187	1.7435845732688904	0.17148035764694214	0.3454272747039795	4.995893716812134	-1.3910892009735107	-0.1982588768005371	-0.4957464933395386	-0.89776611328125	-0.9286123514175415	-0.7687633037567139	1.8764607906341553	3.531085252761841	2.3374630212783813	2.5943756103515625	-0.18326354026794434	0.7008863985538483	1.6451855897903442	-0.4572869539260864	1.9169930815696716	2.7452157735824585	1.1413400322198868	1.8594214916229248	1.5559191703796387	2.077155113220215	0.16961044073104858	0.5232440829277039	0.6256353259086609	2.1794817447662354	2.064203381538391	0.37337732315063477	-0.7887564897537231	-1.333528995513916	-0.06338238716125488	0.6479281187057495	-0.9796842336654663	-2.996366262435913	-1.8280186653137207	0.7067079544067383	1.57174950838089	2.2011327743530273	1.2682321071624756	-0.7979856729507446	0.49344325065612793	2.1682560443878174	-0.7112936973571777	2.0489813089370728	0.002394735813140869	-0.35491979122161865	-0.5252207517623901	1.3758378624916077	1.5285716652870178	2.1072354316711426	0.948880884796381	3.1283717155456543	2.466987729072571	0.9808103013783693	-0.9274599552154541	0.6619509756565094	-10.857680320739746	2.7770371437072754	0.9164417907595634	0.3775295615196228	1.003072323044762	0.6745324432849884	0.4373670816421509	2.1669259071350098	-2.2181997299194336	-0.39658093452453613	2.187966227531433	0.25990480184555054	-4.043424129486084	2.3160563707351685	1.8174598813056946	2.826910972595215	1.0751203522086143	-0.6946765184402466	3.4118480682373047	1.6634265780448914	1.6825030446052551	2.5136595964431763	1.5187341570854187	2.461864471435547	-0.06415998935699463	1.169894203543663	2.406648874282837	-1.2714500427246094	0.6343626379966736	2.3498458862304688	1.0358634553849697	-0.9607990980148315	1.259979397058487	3.679506540298462	1.0065826196223497	1.8294293880462646	0.7304368615150452	0.13350915908813477	1.2326333969831467	3.268692970275879	0.3687208294868469	-0.682799220085144	2.7738009691238403	0.7980449944734573	1.44047150015831	-0.7592964172363281	0.5634600222110748	2.2692270278930664	0.9914083750918508	-1.6368944644927979	0.009482026100158691	1.6277037262916565	0.7613465785980225	2.824153780937195	-0.6328508853912354	0.35686588287353516	0.4185044765472412	1.1174344718456268	1.2135659605264664	1.8170893788337708	1.39694482088089	-0.21257519721984863	0.9771040845662355	0.1296679973602295	4.328273773193359	2.7881932258605957	0.6747627854347229	-0.3012685775756836	-0.24208879470825195	0.40787285566329956	-0.28242337703704834	2.8395795822143555	0.8264746367931366	-0.18207287788391113	0.9297481924295425	1.3998907506465912	1.2109424024820328	0.8030233979225159	2.735840082168579	-0.8676126003265381	0.032895445823669434	1.3849818706512451	2.4011456966400146	1.6375930905342102	1.3446084558963776	-0.057280540466308594	0.6765895783901215	2.017291307449341	3.1976523399353027	1.006567994132638	1.2949069738388062	1.5308011770248413	-0.18243730068206787	0.11980903148651123	2.39283287525177	2.3453134298324585	1.8161959052085876	2.0975786447525024	0.8894920349121094	0.45941072702407837	1.4171909093856812	2.013408660888672	1.5851570963859558	1.6588417291641235	-1.4430863857269287	1.192787691950798	0.2508619427680969	1.3881790935993195	1.024917969480157	2.6864722967147827	1.227955311536789	2.8065593242645264	0.35517358779907227	3.758976697921753	-0.8109698295593262	-0.4928377866744995	-0.7449188232421875	2.0288699865341187	4.199606418609619	2.011852979660034	0.8957848846912384	1.037900872528553	1.058768816292286	2.0164432525634766	-0.6930582523345947	0.3661131262779236	4.05397891998291	1.5383669137954712	3.3158113956451416	3.1659083366394043	-0.22267389297485352	0.49651038646698	2.3622074127197266	2.0441397428512573	2.9785882234573364	1.427408903837204	1.1782751977443695	-0.4685322046279907	1.2435602247714996	-1.7100176811218262	-0.41562318801879883	1.795193612575531	0.9886661963537335	1.9893408417701721	1.4496349394321442	1.4196181297302246	0.7432855367660522	-0.5212229490280151	-1.601970911026001	1.2582866549491882	1.2057898193597794	1.9881722331047058	1.8019851446151733	0.6181487441062927	0.6012402772903442	0.24159538745880127	0.5196839570999146	0.5856946706771851	1.1885117441415787	1.6470032930374146	1.348763257265091	1.527495801448822	2.106129288673401	2.666963219642639	-1.8177363872528076	2.535869598388672	2.020196318626404	0.2218189835548401	0.2976534962654114	0.5614295899868011	1.8777022957801819	1.1304397135972977	-0.7570714950561523	0.3050301671028137	-1.601086139678955	0.358850359916687	1.275575578212738	0.17513734102249146	-0.017497658729553223	1.9057373404502869	0.7234039306640625	0.01661461591720581	2.8663456439971924	0.21371489763259888	3.683561325073242	0.7493269741535187	2.2054522037506104	1.4184855818748474	1.195800855755806	1.3049058616161346	5.891602516174316	0.41677695512771606	2.2477561235427856	1.791014850139618	-0.2713496685028076	0.4266034960746765	0.06759929656982422	0.6179629266262054	-0.30924975872039795	-3.4360156059265137	1.8353439569473267	0.8393383771181107	1.1558729708194733	0.08959394693374634	1.3018347918987274	0.7002273499965668	0.6943372786045074	-0.301088809967041	1.5929465889930725	3.1177446842193604	0.9334436729550362	2.9940606355667114	3.386159896850586	1.653473138809204	0.40871602296829224	1.743336260318756	-1.64597487449646	1.4947822093963623	0.8639204055070877	0.5251264274120331	2.113141417503357	2.1576311588287354	1.5158072710037231	0.9036416932940483	1.6627334952354431	1.3346310257911682	2.5049678087234497	-1.7028534412384033	2.3891040086746216	2.4608319997787476	1.5767658948898315	1.9990519881248474	0.611444890499115	0.9507225640118122	-0.1064378023147583	1.929945468902588	0.8541126549243927	0.7021876573562622	2.374240279197693	1.2751075625419617	1.0944100618362427	1.6839620471000671	1.483039140701294	2.954045534133911	0.2889831066131592	-1.056626796722412	-0.2951045036315918	2.2902793884277344	1.4061667919158936	-0.7935085296630859	20.3670711517334	1.505013346672058	-0.12134552001953125	1.7418718338012695	2.375146269798279	0.8292699754238129	2.178810954093933	2.038164258003235	1.7012905478477478	1.5522482991218567	0.4990362524986267	2.063775658607483	1.8489789962768555	0.14377498626708984	1.914107322692871	1.4921224415302277	2.4969624280929565	0.4017377495765686	3.6069796085357666	3.495074987411499	1.2020732313394547	-1.0348734855651855	2.9099663496017456	0.3791548013687134	-0.02561056613922119	2.265628695487976	1.3640679121017456	0.26772767305374146	2.730394959449768	1.624299705028534	2.3663673400878906	1.4057677090168	2.8433881998062134	3.4158051013946533	0.8874467015266418	1.6046212911605835	3.402735948562622	8.183717727661133e-05	0.9941299222409725	-0.024348139762878418	-0.8738224506378174	1.3589804470539093	-0.9724521636962891	-0.014763712882995605	0.60665163397789	2.0206323862075806	-1.477567434310913	1.9909058809280396	1.7370730638504028	0.36507320404052734	1.8421087861061096	1.1464328467845917	1.6960784792900085	2.326290726661682	4.570902347564697	0.47749412059783936	0.6293445825576782	1.1854898929595947	1.0556006394326687	1.9407101273536682	0.28122997283935547	2.524821639060974	0.6833434104919434	1.900646686553955	0.46877408027648926	1.2872442603111267	1.94908207654953	2.5539506673812866	1.6465923190116882	0.4098164439201355	1.2227090150117874	0.4263388514518738	0.3374752998352051	2.4155924320220947	2.2032614946365356	-0.5512710809707642	0.5481838881969452	1.9746344685554504	0.7416674494743347	2.1194562911987305	0.2231166958808899	0.6552360653877258	0.7491834759712219	0.7302108108997345	0.7628193199634552	-0.6118906736373901	2.7605950832366943	-0.03382062911987305	-0.6850402355194092	1.673988938331604	11.666337013244629	-0.05003857612609863	0.7512059956789017	-0.9418535232543945	1.6467227935791016	1.3528474271297455	0.977569505572319	2.562030553817749	0.6238067150115967	0.7574052065610886	1.1315830796957016	1.6798943877220154	0.1530287265777588	0.9618659019470215	0.6763718128204346	3.1168458461761475	-0.22427916526794434	2.028180718421936	-0.8264048099517822	0.021112382411956787	1.129124402999878	1.3985802829265594	3.0959866046905518	0.9436608701944351	-0.7716116905212402	-0.14052021503448486	0.5686429738998413	1.5662285685539246	1.0521599277853966	2.275349497795105	0.6767124831676483	1.3870849311351776	1.9275388717651367	0.6875042617321014	0.9589024186134338	1.4332638382911682	-1.208967924118042	0.9460360817611217	0.38691776990890503	2.6795445680618286	2.6873780488967896	-1.0960700511932373	0.5575496256351471	0.2859824299812317	0.6968902349472046	1.5709076523780823	1.690544605255127	-1.3608064651489258	2.8263019323349	3.027320623397827	1.9454705119132996	1.1246871650218964	-0.19708144664764404	1.6467975974082947	0.21086519956588745	-0.029957056045532227	0.5679563879966736	0.1278088092803955	0.07761240005493164	-0.8774821758270264	0.7790702879428864	1.0095757162198424	2.3686176538467407	-1.4054880142211914	2.1218173503875732	0.056651949882507324	1.2135162353515625	0.6842411458492279	0.30906665325164795	-0.545279860496521	1.6931129097938538	0.8287166953086853	0.3793502449989319	2.3990708589553833	1.6884728074073792	-0.6891305446624756	1.5107686519622803	0.9371101260185242	2.0030983686447144	-0.5715364217758179	1.3599398136138916	-0.2132420539855957	0.7340772747993469	0.301973819732666	2.3937883377075195	0.9062750712037086	1.4578109085559845	0.5465884208679199	3.50384521484375	2.74964702129364	0.8797410726547241	0.4891001582145691	0.1811317801475525	-0.3297163248062134	0.06247645616531372	0.5758528709411621	2.2685502767562866	1.2850310802459717	0.587517112493515	1.7977320551872253	0.6370795667171478	2.158387064933777	0.25597095489501953	2.972678542137146	0.6398491561412811	2.4008759260177612	0.7646381855010986	0.8382558673620224
echeggiare_1	1.4639147520065308	1.7714449763298035	2.6173551082611084	0.381660521030426	0.599613219499588	2.9131399393081665	-0.10376381874084473	-5.0099005699157715	1.3026433289051056	5.097954750061035	-1.353132963180542	3.0925562381744385	1.7187126874923706	1.2794048488140106	2.6397767066955566	0.7293223142623901	0.6082359254360199	0.5646073222160339	1.4635466933250427	0.33414357900619507	-0.18403339385986328	2.8577306270599365	1.6397789120674133	-0.8995405435562134	1.046880267560482	0.860231950879097	-0.11565697193145752	3.264859914779663	0.9997416131373029	4.77025580406189	1.9882652163505554	1.3892318308353424	0.2727992534637451	3.4974782466888428	0.42421936988830566	1.762061357498169	0.6731932759284973	0.48950809240341187	0.28232938051223755	-0.4049128293991089	2.633978843688965	1.6917961239814758	1.4442508220672607	1.1867604702711105	0.28028255701065063	-13.860751152038574	2.3026291131973267	2.925167679786682	0.8601133674383163	1.8297304511070251	1.705203115940094	0.019838452339172363	-0.03077256679534912	-2.0626273155212402	5.090455532073975	2.4580764770507812	4.141619920730591	-1.2528319358825684	1.9521981477737427	2.2032408714294434	1.9285407066345215	0.3710663914680481	-1.432565450668335	2.2244043350219727	2.6586402654647827	2.2206480503082275	0.6559992730617523	1.2000263631343842	4.529474258422852	1.5140621066093445	1.2002463638782501	2.182164192199707	1.3708625137805939	-2.1884500980377197	2.4744280576705933	1.4102969765663147	1.0305042080581188	0.8049566000699997	2.407816529273987	2.862216353416443	0.9695255979895592	2.874176263809204	1.5838622450828552	-0.557457447052002	0.5527269840240479	0.9503828138113022	1.7265581488609314	-1.8793985843658447	0.6203195750713348	-0.36531519889831543	-0.5141679048538208	3.6588714122772217	0.10256785154342651	1.4204063713550568	3.5429580211639404	0.9472450539469719	3.029587507247925	-0.7200947999954224	3.1951706409454346	1.1445436030626297	0.6077474653720856	2.192186713218689	-0.01733100414276123	1.2432594001293182	1.2909794449806213	1.4608244597911835	0.29914021492004395	3.199328899383545	2.322049856185913	-0.9012818336486816	0.8151802569627762	-0.7939121723175049	3.0261332988739014	-0.1731647253036499	0.7010262906551361	0.08181697130203247	-0.47547435760498047	0.3054881691932678	3.6259639263153076	2.3791948556900024	0.9906757958233356	-0.35672807693481445	0.4382454752922058	2.396403193473816	1.5926571488380432	0.3812883496284485	2.886812686920166	2.4508553743362427	-0.9874775409698486	2.9170472621917725	1.1858215630054474	1.0730638206005096	3.374237060546875	-0.25807225704193115	0.4035683870315552	0.640026867389679	2.333094000816345	2.00334095954895	1.119024597108364	-0.9492837190628052	1.4052219688892365	0.9954413366504014	-0.029434680938720703	0.44895052909851074	1.290608435869217	1.5723317861557007	-0.07088637351989746	2.9052250385284424	-0.07935082912445068	2.61440372467041	2.2765547037124634	-0.13491785526275635	-1.9251201152801514	0.8053622245788574	1.7786393761634827	0.4956352710723877	2.479347825050354	-0.9922002553939819	-1.6070125102996826	1.883768916130066	0.3238011598587036	4.151926040649414	1.0911912471055984	2.323900580406189	-0.5200656652450562	3.9015257358551025	3.3017165660858154	3.1385865211486816	1.0918214842677116	0.6869625747203827	1.6874753832817078	1.9953888654708862	0.9237125739455223	0.8908974230289459	0.6086100041866302	1.218749076128006	-0.09888410568237305	3.384965419769287	2.801730513572693	1.6185181140899658	0.6699895560741425	0.09724259376525879	0.6669528782367706	2.1169673204421997	-2.392282247543335	1.3508120775222778	2.324150800704956	-1.16507887840271	1.8286444544792175	-0.5425328016281128	0.894597053527832	-1.529388189315796	1.374326914548874	1.806765854358673	1.070422612130642	2.384637236595154	1.248855084180832	0.6100577712059021	1.5376774072647095	2.2825406789779663	1.6451327800750732	0.8785944655537605	2.6090182065963745	2.5037460327148438	1.5637011528015137	1.3291464745998383	1.5017887949943542	2.1094443798065186	0.8854626566171646	0.12497413158416748	2.3881641626358032	-0.4933673143386841	-0.676913857460022	1.7287330627441406	2.453175663948059	0.5699067711830139	1.1381643861532211	4.976606130599976	0.907617099583149	-1.839402675628662	0.325128436088562	1.8952858448028564	-1.1062874794006348	1.1713510602712631	0.8838207572698593	-0.4630089998245239	-0.6979601383209229	0.17078745365142822	-0.44776272773742676	-0.30263006687164307	0.7231726944446564	2.2666733264923096	1.8590628504753113	1.921260118484497	0.328788161277771	1.7771509885787964	-0.5080459117889404	1.3307908475399017	2.2903733253479004	2.9515286684036255	2.5915623903274536	-0.7188401222229004	0.07996904850006104	-0.4850733280181885	1.056219857186079	2.2742637395858765	1.239506110548973	2.7926329374313354	0.39591628313064575	4.5663743019104	1.7279641032218933	2.045812487602234	0.446285605430603	1.0894517377018929	1.5904935002326965	0.27129292488098145	-0.2963716983795166	0.5637145340442657	0.691283643245697	0.11993145942687988	0.6791660189628601	2.561315417289734	0.39028817415237427	2.0904126167297363	0.3222147822380066	4.221053123474121	1.4017823338508606	-1.1739017963409424	-1.1799333095550537	0.4278820753097534	2.8651351928710938	1.5533788204193115	3.3399510383605957	1.2837943136692047	1.147895872592926	1.617613434791565	-0.04974925518035889	3.2704708576202393	3.6986992359161377	1.8122584819793701	1.5620689988136292	2.618825078010559	1.2114294916391373	1.3005973100662231	0.8380841314792633	1.226967304944992	1.8568276166915894	2.226708173751831	-0.8944077491760254	2.121694326400757	1.166862741112709	-1.1563005447387695	-0.9532198905944824	0.47154390811920166	1.4376432299613953	-0.16021406650543213	-0.5704023838043213	-1.6454477310180664	-0.2258692979812622	1.1453247666358948	-0.13547420501708984	2.6915513277053833	1.6631845235824585	0.34835678339004517	3.981414794921875	0.46496379375457764	0.03758573532104492	0.3410564661026001	1.2615738213062286	0.5996314883232117	-0.4432131052017212	-2.6790249347686768	-0.4008892774581909	0.9366908222436905	0.4892619252204895	1.458223134279251	-0.08978188037872314	-0.6462744474411011	-0.41608190536499023	1.1966128200292587	-16.147804260253906	1.6419661045074463	0.6744919717311859	-0.040685415267944336	1.4830149710178375	2.6444226503372192	1.5029312372207642	0.6174379885196686	0.6360529363155365	1.2726861238479614	0.41140931844711304	2.7564539909362793	-4.161680221557617	2.6703617572784424	2.5615333318710327	0.8121535629034042	0.8330301940441132	-0.5729712247848511	0.8847191259264946	0.8750710114836693	-0.2911897897720337	2.789100408554077	0.6243514716625214	0.05814272165298462	1.2940368950366974	-1.231701135635376	1.1675880551338196	-1.0656614303588867	2.1439486742019653	0.3272673487663269	0.5871852040290833	-1.5043649673461914	0.10439711809158325	3.8653435707092285	0.8354842215776443	0.841360792517662	0.8519437462091446	0.6467718482017517	-2.229494094848633	0.40202200412750244	1.4277588427066803	3.016145944595337	2.890039563179016	0.9621650949120522	1.160327970981598	-0.1626948118209839	0.1807163953781128	2.352936625480652	1.4066800773143768	1.9465778470039368	0.3990849256515503	0.6397887170314789	1.707464873790741	1.074810229241848	-0.027037382125854492	-0.18262994289398193	0.8799978569149971	1.5520074963569641	2.187642216682434	0.6562066376209259	1.2981521487236023	-0.9876872301101685	1.0185057297348976	0.4363166093826294	1.5693893432617188	0.8539846837520599	1.6228659749031067	0.6538773775100708	-1.3335967063903809	2.835578680038452	1.9695470333099365	3.0905978679656982	0.5824713408946991	0.5473910868167877	0.3515607714653015	1.2138815373182297	4.559585332870483	1.2564797103404999	4.16422438621521	-0.4030090570449829	0.2789692282676697	2.044553279876709	-0.3575403690338135	2.4108961820602417	0.5896521806716919	-0.5826220512390137	0.37044984102249146	2.221201181411743	1.2309874147176743	0.9831812307238579	2.711848497390747	0.8389018774032593	1.2152783572673798	-0.3079643249511719	-0.21061360836029053	0.11412042379379272	1.1678489744663239	2.5184731483459473	1.5648900866508484	1.1094171330332756	2.2603310346603394	0.4141792058944702	1.8133569359779358	0.9892914220690727	0.5377007126808167	1.6172599792480469	0.24169975519180298	2.1100155115127563	1.9129196405410767	1.3417048156261444	0.9999691747834731	1.1611880660057068	-0.682671070098877	3.5727672576904297	1.0533934533596039	-1.446220874786377	0.36942124366760254	1.150062933564186	1.6302104592323303	0.6094295680522919	0.38187187910079956	1.2375004887580872	1.7636373043060303	2.3401395082473755	-0.24417877197265625	-0.18747472763061523	0.15224754810333252	0.5137447118759155	1.6686859726905823	1.2615239024162292	-0.22480559349060059	-0.4245784282684326	1.8874777555465698	1.4838204979896545	0.9992977323126979	0.16465264558792114	1.6806620359420776	-0.5982667207717896	-0.19225597381591797	-1.771108627319336	0.7912111431360245	3.628290891647339	1.3506458103656769	0.48873084783554077	4.632775068283081	1.2363620400428772	1.326996088027954	0.5589554905891418	0.9251468256115913	0.7194349765777588	0.47494906187057495	-1.6832664012908936	3.2772510051727295	2.5320353507995605	-0.2282702922821045	2.0127952098846436	2.0149792432785034	0.8408980220556259	0.7545934915542603	1.17372627556324	0.7829360961914062	0.8421811461448669	2.2172011137008667	3.032433032989502	-1.0280051231384277	2.587989330291748	2.0436073541641235	0.5540466904640198	-0.6786913871765137	1.7227903604507446	1.9114335775375366	1.8115517497062683	1.6478715538978577	0.012423157691955566	-4.290839195251465	-1.946934461593628	1.6654143929481506	0.1782657504081726	2.844130277633667	2.789097785949707	1.4520085453987122	2.3597007989883423	1.7005759477615356	1.559256672859192	4.023001670837402	0.18102455139160156	-0.12490487098693848	0.9725973755121231	1.129589930176735	-0.10807502269744873	1.4650477468967438	-1.5768015384674072	3.9113619327545166	-0.6831616163253784	1.3778594434261322	2.1214925050735474	-0.23195922374725342	2.4955157041549683	2.8152581453323364	-1.1974351406097412	1.2966827154159546	1.778027892112732	1.0291952434927225	0.5392077565193176	1.273320734500885	0.6517306566238403	-0.9089796543121338	0.05672496557235718	2.43937349319458	1.76162588596344	0.09087169170379639	2.113716721534729	2.8126426935195923	2.813011050224304	2.2482990026474	-0.403033971786499	-0.26642072200775146	1.5298940539360046	1.2751414775848389	1.5920161008834839	2.1244133710861206	0.2411348819732666	2.8737887144088745	2.0977922677993774	4.047627925872803	0.06360030174255371	-0.8285497426986694	-1.6271555423736572	0.3965032696723938	-0.11535346508026123	1.3416036069393158	0.07256948947906494	1.4634749591350555	-1.4868578910827637	3.0276458263397217	1.7934863567352295	-0.3374422788619995	0.3366280198097229	2.394447684288025	2.009996175765991	0.2295629382133484	1.1328099966049194	-0.03627455234527588	3.9745543003082275	-1.5002830028533936	2.328294277191162	0.6466643214225769	0.005683600902557373	3.26401948928833	1.9410186409950256	18.811195373535156	4.772505283355713	0.8348863422870636	1.2604455053806305	1.8116031289100647	1.169253796339035	2.0718789100646973	3.8794384002685547	2.5371631383895874	1.9368725419044495	0.6170607209205627	0.91770189255476	3.1850147247314453	0.9000019803643227	2.015195608139038	1.4459608495235443	-0.18161368370056152	0.15366578102111816	0.30920201539993286	1.8676539063453674	2.6488391160964966	-1.7387385368347168	1.4415536522865295	0.6026975810527802	1.6634921431541443	1.2625433206558228	2.3397117853164673	1.108798936009407	2.4310901165008545	2.5572774410247803	-0.15283560752868652	2.7163407802581787	1.2796278595924377	1.486328810453415	-2.0556254386901855	3.4140400886535645	3.040745258331299	-0.5638409852981567	-0.060201168060302734	-0.008795738220214844	-0.04891788959503174	0.718993067741394	0.9717725943773985	1.8532448410987854	-1.161207914352417	-0.6621581315994263	-0.312674880027771	2.2484835386276245	1.9268534183502197	-0.3911396265029907	0.051548898220062256	0.17443740367889404	0.36561715602874756	1.2737920880317688	1.9989435076713562	-0.045761942863464355	1.4417674243450165	0.6304683089256287	-0.39268410205841064	-0.5726367235183716	-1.458451747894287	0.9334644451737404	2.092142939567566	2.8608791828155518	0.7183290421962738	3.5567991733551025	2.634528160095215	2.247676134109497	0.5605818331241608	-1.2048747539520264	-1.1619138717651367	1.2071134746074677	1.85785710811615	2.131276488304138	0.807194858789444	1.5245444774627686	0.9212996736168861	2.4906680583953857	0.5744092464447021	3.047839879989624	-0.16374468803405762	-1.4856691360473633	0.39016193151474	1.243910700082779	1.4936649203300476	0.3210853338241577	2.8907673358917236	-0.7560452222824097	1.5327391028404236	-0.17729389667510986	10.846651077270508	-0.9236057996749878	0.9164799973368645	-0.08479130268096924	2.7519441843032837	1.5915206670761108	1.4667395949363708	1.3985497951507568	1.0073995389975607	-0.21283352375030518	1.8516834378242493	1.3676141798496246	0.7314507961273193	0.7130132913589478	1.5029245615005493	1.223724827170372	-0.0178072452545166	2.9327117204666138	1.4040972888469696	-0.4916961193084717	0.084292471408844	0.774824783205986	1.5185920000076294	0.3520200252532959	-0.025694608688354492	1.1517485231161118	0.22266751527786255	-0.2845674753189087	1.4419682919979095	1.6940410137176514	1.4074121415615082	1.4331460297107697	1.2639583051204681	-0.7105416059494019	0.3322756886482239	-0.3666863441467285	1.5302584171295166	-1.51023530960083	2.8049060106277466	1.9301370978355408	1.0878868326544762	0.2159944772720337	-1.371551513671875	-0.5240836143493652	0.0727996826171875	0.014356672763824463	1.929588794708252	-1.366213083267212	-0.9392424821853638	3.057427406311035	-0.5058013200759888	-1.1071171760559082	1.0916491523385048	3.6937875747680664	1.3912301361560822	4.742591142654419	0.9047350585460663	-0.9627617597579956	-0.6205604076385498	2.351287007331848	2.431342124938965	1.2122632265090942	3.1514270305633545	-0.6502962112426758	-2.441946029663086	1.170456975698471	1.1414637714624405	0.3981853127479553	-0.23824000358581543	0.04345047473907471	2.2835137844085693	2.2429119348526	0.09679895639419556	-0.10584700107574463	-0.47013771533966064	1.841809093952179	2.3047255277633667	2.215767502784729	0.42850708961486816	2.608648657798767	1.436048686504364	1.255102962255478	0.6192372441291809	0.25962477922439575	1.3991129994392395	-1.4259803295135498	2.2914927005767822	0.024074673652648926	2.8269073963165283	2.451866388320923	-2.424034357070923	3.0345206260681152	1.560512363910675	0.3738161325454712	-0.17049503326416016	0.8022283464670181	3.1150753498077393	-0.20939862728118896	-0.6595646142959595	0.38072723150253296	0.9827644638717175	-0.08476495742797852	1.7800468802452087	3.70422625541687	2.2163509130477905	0.41053372621536255	-0.16752636432647705	0.7676060795783997
educare_1	2.5567442178726196	1.9717285633087158	0.37753522396087646	0.4969620704650879	0.462207555770874	1.533357560634613	1.4159474074840546	-8.06953239440918	-1.0468311309814453	3.1986849308013916	0.7816436588764191	1.9119930863380432	1.4035252630710602	1.8704122304916382	1.2385938316583633	3.210791826248169	1.5311630964279175	0.22784101963043213	2.59664785861969	1.0025799293071032	0.7085165679454803	2.6489756107330322	-0.10196399688720703	-1.9093544483184814	1.6083214282989502	0.44651299715042114	0.10726839303970337	2.1239917278289795	1.31497722864151	0.036774277687072754	0.9651348702609539	0.6119736135005951	2.622324585914612	1.8055216073989868	0.5217320024967194	4.813711643218994	2.0684601068496704	1.1880869418382645	0.5649299919605255	-1.3898603916168213	0.9779737982898951	-1.14251708984375	3.71178936958313	1.2840412259101868	-0.12290322780609131	-16.99040985107422	1.080074891448021	1.8676471710205078	-0.3179126977920532	2.254778265953064	0.13654738664627075	-1.0832836627960205	0.020571589469909668	1.0068617705255747	5.753650188446045	2.122074007987976	1.3277276754379272	0.5149406790733337	-0.28523385524749756	4.244490623474121	1.5028226375579834	2.7485605478286743	0.7902986407279968	1.1938490569591522	0.8231699913740158	0.534474790096283	-0.49783575534820557	-0.02107095718383789	2.8043980598449707	0.6786210834980011	-0.0674365758895874	0.24645322561264038	2.9857542514801025	0.3198859691619873	2.6663728952407837	1.0945302322506905	2.7841761112213135	2.741496443748474	2.248839020729065	0.6509144604206085	1.42020383477211	-0.5669180154800415	2.624124050140381	0.5105068683624268	1.2498873174190521	0.6072212159633636	-0.6837005615234375	0.20708680152893066	2.5172934532165527	0.8042024672031403	2.2102359533309937	1.2585725784301758	-0.1819833517074585	-1.0603053569793701	2.550831437110901	1.28864124417305	0.8223256915807724	1.2059623748064041	1.1948995143175125	0.20585989952087402	-0.6554490327835083	3.267458915710449	-0.5205700397491455	0.19734257459640503	2.774130344390869	0.774780809879303	0.15673160552978516	1.7148860692977905	0.7937614619731903	0.21811139583587646	0.2962349057197571	1.540280818939209	3.2340593338012695	1.05046072229743	-2.2140653133392334	1.8174554109573364	2.3558281660079956	1.0938251465559006	2.145581007003784	0.7091628611087799	2.0518418550491333	2.169931173324585	0.5820131897926331	-0.0284574031829834	-0.11678707599639893	0.32741183042526245	1.6771195530891418	1.2864039242267609	0.2818964123725891	2.6800462007522583	1.3283224999904633	2.92719829082489	1.7160808444023132	0.23552292585372925	0.3722369074821472	1.9444910883903503	0.6750718653202057	1.612148642539978	3.0893659591674805	2.3889080286026	0.7537935525178909	1.1060803532600403	-0.03753364086151123	0.8037616014480591	2.206213593482971	1.2105683237314224	1.235456943511963	0.8475097566843033	0.855492115020752	1.4560009241104126	1.9178462028503418	1.587038278579712	0.14005714654922485	1.147705465555191	0.15829867124557495	0.22485047578811646	-0.808499813079834	-0.15066027641296387	1.4985083937644958	2.905953288078308	1.631301462650299	4.297425746917725	-1.0702319145202637	1.3793882727622986	-0.5750666856765747	0.7483800947666168	0.5920958518981934	3.6589925289154053	2.7098878622055054	0.32771527767181396	0.2963793873786926	1.2330220490694046	4.4819581508636475	2.171594023704529	0.7565615028142929	2.2068580389022827	0.9512061849236488	1.6018677353858948	1.0608081258833408	1.7963717579841614	0.9473623037338257	1.585412085056305	1.380160242319107	1.1161171570420265	-0.3605746030807495	2.029064178466797	1.2974725663661957	0.8893600776791573	0.8187440931797028	1.6204634308815002	3.020810842514038	2.684384822845459	0.6051054894924164	0.5467416942119598	0.0889926552772522	2.4046911001205444	1.2196047902107239	1.8003931641578674	2.04520845413208	1.458570122718811	0.9160017147660255	-0.7075837850570679	0.252505362033844	0.0633653998374939	0.17299336194992065	0.36644095182418823	-1.3492116928100586	1.7815930247306824	1.0035985761787742	0.17146599292755127	1.886794626712799	1.1438297480344772	0.31182974576950073	-2.08535099029541	2.456636667251587	1.05671501532197	1.3515728116035461	3.811415433883667	0.8622586131095886	1.1245045140385628	1.2518011927604675	3.1179749965667725	0.4329497814178467	0.4257155656814575	0.28857356309890747	1.346582293510437	1.8119688034057617	0.6338611543178558	-1.1452960968017578	-0.9090068340301514	1.6341546773910522	2.058322310447693	2.38578724861145	1.7357388138771057	0.1449759602546692	0.33085066080093384	1.4787595868110657	1.7085353136062622	-0.18711400032043457	-2.1563007831573486	0.6914094984531403	0.45405226945877075	0.6266064345836639	1.3129705786705017	0.39412200450897217	5.288486957550049	1.6160529255867004	2.108117699623108	1.2323080748319626	3.8285341262817383	1.5827116966247559	2.3888572454452515	0.39305180311203003	1.985716998577118	0.4777151942253113	0.387834370136261	0.6821405291557312	-0.46098434925079346	1.3743251860141754	-0.014462590217590332	0.4590425491333008	1.8729846477508545	1.5242385268211365	0.5030799508094788	0.09812098741531372	3.581981658935547	0.7665212005376816	-1.4152960777282715	-0.17790007591247559	1.2737307250499725	0.3569227457046509	-1.4043574333190918	1.4206532537937164	1.2893216609954834	1.491463154554367	2.805834412574768	1.2948592603206635	2.0654104948043823	-0.012066364288330078	-0.05215251445770264	1.285078763961792	0.9977567445021123	-1.202723741531372	3.0183863639831543	0.6818318963050842	0.6182326078414917	0.09512406587600708	0.8987413570284843	2.0415433645248413	2.2196537256240845	0.5613856315612793	-0.2640329599380493	-0.015539050102233887	-0.7951247692108154	-0.06426739692687988	1.4043372571468353	-0.49883711338043213	-1.4321935176849365	-1.124143362045288	1.6710909008979797	1.2247795909643173	1.635019302368164	1.0796043574810028	1.2682636380195618	0.007644057273864746	0.9717530459165573	0.34901541471481323	-1.4780499935150146	2.1443960666656494	-0.41045844554901123	0.8531428426504135	0.5575815439224243	0.4663430452346802	0.3566802740097046	0.9797641113400459	3.042025327682495	1.4562338590621948	2.198745012283325	-1.5439682006835938	-0.7888340950012207	-9.845369338989258	1.0690029114484787	-0.8738653659820557	1.9058693051338196	2.5274051427841187	0.8695866614580154	-0.4460883140563965	1.7354854941368103	1.320160686969757	-0.9667700529098511	0.4979068636894226	1.8975045680999756	-1.0425186157226562	1.2260275185108185	0.5434181988239288	2.246081590652466	0.45538079738616943	0.6438718140125275	1.2529227435588837	1.608236014842987	1.7051923274993896	1.7499060034751892	1.3848851323127747	2.0984349250793457	0.6764528155326843	0.24288910627365112	1.1795876026153564	-0.8131155967712402	0.8021604269742966	1.3355622589588165	-1.505366563796997	0.27560490369796753	1.5644078254699707	2.8147372007369995	0.9763568844646215	0.49974191188812256	0.9028249010443687	-0.4130136966705322	0.0044983625411987305	-0.20028233528137207	0.4991501569747925	0.35857194662094116	1.6439268589019775	0.15474218130111694	0.32961732149124146	0.7658989280462265	1.7495176792144775	0.8962057456374168	2.322205901145935	-0.051723599433898926	0.2652168869972229	2.0995233058929443	1.8501701354980469	2.4773194789886475	-0.4708150625228882	1.1716075986623764	0.8411942422389984	3.7018046379089355	1.9146881103515625	1.0834093689918518	0.8928011879324913	2.6351014375686646	1.3761294782161713	1.328778862953186	3.541057825088501	2.174409031867981	2.3010265827178955	0.5087988078594208	0.6837089955806732	0.13648611307144165	1.1559344381093979	2.6071304082870483	1.3567778766155243	-0.6198467016220093	0.9490949511528015	1.72730553150177	0.9929360491223633	0.8293233066797256	2.4022178649902344	-1.953911304473877	0.7725089341402054	1.7674944400787354	0.9259461537003517	1.632944107055664	0.8057287931442261	-0.4672427177429199	-0.6307719945907593	3.1232521533966064	1.7427031993865967	0.6355809569358826	0.3640456199645996	2.08785879611969	0.7938603311777115	1.360087811946869	1.2023663371801376	0.3292069435119629	0.9739911314100027	1.1080496609210968	2.4772969484329224	0.8600475788116455	-0.65952467918396	2.2188873291015625	1.6004329323768616	1.5655545592308044	1.286445438861847	-0.32067573070526123	0.9054244160652161	2.1760635375976562	1.343513160943985	1.864129662513733	1.7411439418792725	1.5587767958641052	1.2923353016376495	2.662260890007019	2.3312511444091797	-1.3173854351043701	-0.2409060001373291	1.3312655985355377	0.2795594334602356	-0.41861188411712646	-0.6845346689224243	1.8587378859519958	0.6718897521495819	2.836212635040283	-0.31235480308532715	0.03559762239456177	1.5103346109390259	2.883919835090637	2.0642764568328857	3.138944149017334	1.3640722632408142	2.7654387950897217	0.6528836488723755	1.9986078143119812	2.5321531295776367	0.16478919982910156	1.3700043261051178	-1.3763580322265625	2.101721167564392	-1.046543836593628	-0.6222432851791382	0.6073363423347473	1.6334776878356934	1.390343338251114	-0.7529940605163574	1.4046239852905273	1.9690524339675903	0.002367854118347168	0.37703317403793335	1.5373762249946594	1.1881928890943527	0.59499391913414	0.5021745562553406	-0.7993031740188599	1.862597107887268	0.8002591580152512	1.1463011354207993	1.3371839225292206	2.2046295404434204	1.020785391330719	2.1354002952575684	0.839412122964859	1.6907010078430176	1.3519841134548187	-2.120224952697754	1.1349608600139618	1.2154617309570312	0.8777565062046051	0.019532382488250732	1.15463125705719	1.8422397375106812	1.970306158065796	1.9782420992851257	1.0764965862035751	-1.5979013442993164	0.0780571699142456	0.020551562309265137	-0.4093327522277832	1.3524878323078156	3.343873977661133	1.5745152831077576	0.6855161190032959	2.393876552581787	1.1479069888591766	1.947845220565796	0.9495486840605736	2.376061797142029	0.08406245708465576	0.595747321844101	0.7113593518733978	2.290177822113037	-1.1667373180389404	1.7931865453720093	1.9377650022506714	0.40416306257247925	-0.047527313232421875	0.937948752194643	2.122204303741455	-0.49113988876342773	-1.1365878582000732	2.365701198577881	1.4053011536598206	-1.0493440628051758	-0.9329558610916138	-0.5981845855712891	0.6549316644668579	0.18458378314971924	0.1247551441192627	1.6197673678398132	3.0925240516662598	0.568557471036911	1.0312069989740849	2.898581027984619	0.9022458791732788	1.3043852746486664	0.27121996879577637	0.9032364636659622	1.6263540983200073	0.144805908203125	1.930525779724121	2.2140884399414062	2.35489821434021	2.559107184410095	0.9424283169209957	2.053957223892212	2.106513500213623	1.3728538751602173	-1.2892553806304932	1.813619613647461	1.6712716221809387	0.2683553099632263	2.3159788846969604	1.9804070591926575	0.7839209288358688	-0.2842991352081299	2.6246927976608276	0.44026488065719604	1.3970089256763458	2.7647037506103516	1.7547324895858765	1.3648705184459686	1.484351485967636	1.2044568806886673	2.913281559944153	1.9879735708236694	1.5702475905418396	-0.25275230407714844	-0.10179603099822998	-0.5798883438110352	2.3939706087112427	21.345327377319336	0.6878563463687897	-0.46937477588653564	0.8175698667764664	0.14622271060943604	1.6160132884979248	1.9749664664268494	2.1286345720291138	1.7641850113868713	1.3726025521755219	1.038208469748497	0.14593970775604248	1.0674078837037086	0.9151614978909492	2.5884501934051514	2.018834352493286	0.7874178141355515	1.1758336573839188	-0.050574541091918945	1.798925757408142	2.1477805376052856	0.37384748458862305	2.6435574293136597	1.3359990119934082	0.7197053134441376	1.585557997226715	0.1416894793510437	0.3889041543006897	0.6531035900115967	1.088455505669117	1.2083336561918259	1.7623117566108704	-0.8374474048614502	2.851744532585144	0.3773077726364136	-0.43549883365631104	1.6688985228538513	0.7791155427694321	0.5226490795612335	-1.0153117179870605	-0.39285898208618164	0.09273004531860352	0.2489498257637024	0.8195210993289948	2.2664724588394165	0.9817748479545116	-0.8975036144256592	1.551966667175293	1.6130749583244324	0.672410637140274	2.4759681224823	2.357984185218811	0.11113590002059937	0.7262811064720154	4.001581907272339	-0.6428834199905396	-0.45393216609954834	2.3043761253356934	-0.19037842750549316	0.5818662643432617	-0.541202187538147	1.5076554417610168	2.4703155755996704	1.9464983940124512	1.1268294304609299	0.8860066831111908	0.36170023679733276	2.669954538345337	1.016913155093789	0.7183051407337189	1.190867230296135	1.6996684074401855	0.8894614055752754	0.028921782970428467	3.032595157623291	0.6977402567863464	0.33610981702804565	3.0908501148223877	1.2836426496505737	1.9406128525733948	1.1963416785001755	1.9419909119606018	0.6663018763065338	0.8406397998332977	0.4596022963523865	-0.6812512874603271	2.248124122619629	2.321269154548645	1.6946247220039368	1.2188859432935715	9.294563293457031	0.7019811570644379	0.7111952006816864	-0.5649921894073486	1.3174905478954315	1.2026418596506119	0.12589538097381592	3.7157464027404785	-0.7411078214645386	1.9252632856369019	1.3804218769073486	1.5105774998664856	0.7090862989425659	0.6768331229686737	1.2631069719791412	2.2256243228912354	0.6577843129634857	1.1810270547866821	-0.16170477867126465	0.08654975891113281	2.4652364253997803	0.32747483253479004	2.162405252456665	1.1426728665828705	2.503331780433655	0.33926641941070557	0.20276594161987305	-0.09344065189361572	3.919224262237549	0.6487981081008911	0.30573636293411255	1.118236243724823	0.708503395318985	-0.9462676048278809	1.2867697477340698	1.4878605604171753	-0.8350577354431152	1.6261737942695618	0.5206407010555267	1.3382371366024017	2.448930501937866	-1.4076759815216064	0.4994341731071472	0.8525440692901611	0.9168301001191139	0.7634983509778976	2.6311007738113403	1.3418452441692352	-0.5228352546691895	4.156374931335449	2.0149002075195312	0.749294638633728	0.5769103467464447	1.232069492340088	2.2605531215667725	-0.40110206604003906	1.0307583268731833	0.3239327073097229	2.500642776489258	1.746752142906189	1.0746537446975708	-1.0537667274475098	1.0544970072805882	-0.19013714790344238	0.47528791427612305	1.1885929703712463	1.2565774321556091	-0.3576927185058594	1.5505619049072266	0.8166663348674774	2.3160181045532227	0.6100031733512878	1.146720603108406	0.952794287353754	3.2167656421661377	-0.006461381912231445	1.1193971633911133	-0.020254135131835938	1.7516397833824158	1.1407193094491959	5.132633209228516	0.20888668298721313	0.9423359148204327	0.5780417919158936	3.8622164726257324	0.4984469413757324	-0.3480321168899536	0.6320657432079315	1.4631753861904144	-0.5786935091018677	0.13912290334701538	2.1000142097473145	0.389590322971344	0.6781169474124908	1.5616422891616821	2.1255680322647095	3.15641450881958	2.1516287326812744	1.709610104560852	0.28979915380477905	0.299373984336853	0.2702486515045166	0.6566907465457916	1.8175364136695862	0.4007868766784668	-0.42002010345458984	0.3091003894805908	1.0634368434548378
educare_2	1.4215575158596039	1.6488232016563416	1.6440976858139038	0.790545642375946	0.7587190568447113	1.5577555298805237	1.495966613292694	-7.025720596313477	-0.25550365447998047	3.1870970726013184	1.264306902885437	1.7786977887153625	1.492571234703064	1.6992597579956055	0.8766104504466057	3.3021254539489746	1.1932280659675598	0.10775530338287354	2.1043463945388794	1.2807589769363403	0.8184398263692856	1.8845403790473938	-0.028084874153137207	-1.678196907043457	1.1614719778299332	0.26435524225234985	-0.5923808813095093	2.482878088951111	2.364140272140503	-0.6646213531494141	0.5834057629108429	1.3652491569519043	2.483071446418762	1.3519637286663055	1.144766315817833	5.16940975189209	1.615139126777649	1.8778478503227234	0.1950371265411377	-0.9602253437042236	1.7892261743545532	-0.6264095306396484	3.1880598068237305	2.626778721809387	0.7245284020900726	-18.247146606445312	1.5021395087242126	1.2530111968517303	0.5781279504299164	3.5908002853393555	0.6568774282932281	-1.0003950595855713	0.357093870639801	0.3492121696472168	3.861618995666504	1.5883146524429321	1.1664326339960098	0.6999920606613159	-0.8546867370605469	3.241046190261841	1.9790868759155273	2.50968599319458	0.7795304656028748	1.700391709804535	0.8700351119041443	1.1957818418741226	-1.07100510597229	-0.26000213623046875	2.349713444709778	0.9376967698335648	-0.1747426986694336	0.8553178310394287	2.8009917736053467	0.36999768018722534	2.5707415342330933	1.2340143322944641	1.8687965273857117	1.94677072763443	1.6869690418243408	1.3475779294967651	0.9645775444805622	-0.018703222274780273	3.0093753337860107	0.23631900548934937	1.366316318511963	-0.2175278663635254	-0.5852761268615723	0.8034875243902206	1.1944233775138855	0.6173757314682007	0.6679668128490448	1.1028419211506844	0.37652069330215454	-0.29304659366607666	3.494157552719116	1.137486532330513	-0.32902228832244873	1.4969913363456726	1.5544281005859375	-0.2002878189086914	0.05231589078903198	3.0203983783721924	-0.6991946697235107	-0.5018401145935059	2.762831211090088	1.2187029421329498	0.12282639741897583	0.9402276128530502	0.35867077112197876	0.14146608114242554	0.6724272072315216	2.5850002765655518	3.4501960277557373	1.1153274774551392	-2.8529274463653564	1.4297332465648651	1.5776970982551575	-0.18683898448944092	1.9100095629692078	0.46196848154067993	0.9662970192730427	2.9036190509796143	0.7531213164329529	-0.06260192394256592	0.3717513680458069	0.921096108853817	1.5974891781806946	2.1918346881866455	1.8230157494544983	2.6456378698349	0.6717552840709686	1.915199637413025	1.1613934934139252	1.5124781131744385	0.7111227810382843	2.1421278715133667	-0.18357837200164795	0.7806699723005295	1.8494476675987244	1.5336280465126038	1.0754323080182076	0.988210585899651	-0.0854107141494751	1.011166580952704	0.6394516825675964	0.7817783206701279	0.6707521975040436	0.9117968752980232	0.4911113381385803	0.9056301042437553	0.935274213552475	1.5081763863563538	-0.04186522960662842	1.0426417253911495	0.7709271907806396	1.0661770105361938	0.11196786165237427	0.16912764310836792	1.9354612827301025	3.329068899154663	1.204381376504898	2.1131484508514404	-0.7097188234329224	1.6745176911354065	0.0024690628051757812	1.4334950149059296	0.9412122964859009	4.222856760025024	3.8264284133911133	0.167144775390625	0.45797431468963623	1.1634282916784286	3.3622190952301025	1.3026827573776245	1.24334217607975	1.8153358697891235	-0.28244543075561523	1.5310760140419006	1.205772876739502	1.660548448562622	1.1297793239355087	1.1416264772415161	1.977480173110962	2.3605176210403442	-0.5070434808731079	1.0763161703944206	1.1005115061998367	1.3210875689983368	0.9716413151472807	2.6943295001983643	2.3671326637268066	2.971190333366394	-0.6375728845596313	0.7637450098991394	-0.29632294178009033	1.7963724732398987	0.7997166067361832	0.7614967226982117	1.6862027645111084	2.2990866899490356	2.36398708820343	-0.05385863780975342	1.0032492198515683	1.045204784721136	1.1452665477991104	0.4432496428489685	-1.266181468963623	2.022491455078125	1.5300378799438477	-0.5759963989257812	1.320660024881363	1.3797446489334106	0.22034412622451782	-2.136533260345459	2.232215166091919	1.0133784767240286	1.0010489984415472	3.822225570678711	0.927539587020874	0.6092743575572968	0.834791511297226	4.324353218078613	1.535976767539978	0.21410924196243286	0.8630906492471695	1.719874918460846	1.8150681853294373	1.2154610604047775	-0.309039831161499	-0.0006505250930786133	1.351932317018509	1.3296098709106445	2.9036370515823364	1.609693467617035	0.6546090841293335	-0.1606844663619995	1.0839077681303024	1.8942391872406006	0.6198442280292511	-0.862663984298706	0.5549881756305695	0.18374425172805786	-0.362532377243042	1.0308923292905092	0.782521978020668	4.833059072494507	1.4059717059135437	1.9667980670928955	0.347573459148407	3.5619802474975586	1.4774750769138336	1.8414142727851868	0.7342068254947662	0.9716316387057304	0.7657207101583481	0.9471932500600815	0.4373705983161926	-0.2950659990310669	1.5071597695350647	-1.1786582469940186	-0.22055351734161377	1.3287710547447205	0.9306619390845299	-0.1567518711090088	0.5301178991794586	3.4451231956481934	0.797564223408699	-1.0539026260375977	-0.2726414203643799	1.2308333814144135	1.2864963710308075	-1.213625431060791	0.43862682580947876	2.2116729021072388	0.9990750009310432	2.81877863407135	1.0954631641507149	2.4777984619140625	0.4196498394012451	0.14734548330307007	0.7928885370492935	0.7877628207206726	-0.9074420928955078	2.9802746772766113	0.8779030591249466	1.2750720083713531	0.16488224267959595	0.24989944696426392	2.6080188751220703	1.7086602449417114	0.2788829207420349	-1.308969497680664	-0.02095496654510498	-1.191281795501709	0.45784276723861694	1.5704125761985779	0.012875139713287354	-1.1126666069030762	-0.7030600309371948	0.9706462025642395	1.0607423447072506	1.0272201597690582	1.1426072269678116	0.9509083479642868	0.6024674475193024	0.908524863421917	-0.22662341594696045	-0.16959524154663086	2.0213332176208496	0.7114744782447815	0.39708882570266724	0.9445241540670395	0.8266589194536209	0.6582561731338501	2.3200724124908447	3.0460216999053955	0.709415078163147	3.1622583866119385	-0.0001385211944580078	0.17553019523620605	-8.99467658996582	0.9441693052649498	-0.2649654150009155	0.8508491665124893	2.9273903369903564	1.183810293674469	0.7374169528484344	1.5234742760658264	1.917750895023346	0.3442313075065613	1.1168724596500397	1.4625615775585175	0.2507457733154297	1.6686103343963623	0.597470760345459	2.65513813495636	0.43380284309387207	-0.008697748184204102	0.05696827173233032	1.1955798268318176	1.4701488614082336	0.6100654900074005	1.9574490189552307	2.4022066593170166	0.12724435329437256	0.5642921328544617	1.425424963235855	-1.096383810043335	0.34911149740219116	1.4980616569519043	-0.9178726673126221	-0.2880539894104004	1.8612310290336609	2.982129216194153	1.1656591296195984	0.9295600727200508	0.3433355689048767	0.4608813524246216	0.009006857872009277	-0.2092677354812622	0.31705695390701294	0.6796748340129852	0.9307185113430023	1.1201085299253464	-0.009545683860778809	0.2979031801223755	0.679312139749527	1.6594180464744568	1.793358027935028	-0.04931783676147461	0.6567899286746979	2.3287733793258667	2.0519214868545532	2.420868754386902	-0.4148975610733032	1.4184317588806152	0.9468620046973228	2.492388129234314	1.5363788604736328	1.690753996372223	1.3614661693572998	1.7282219529151917	1.0463304668664932	1.7874948978424072	3.167550802230835	1.1894486099481583	1.290117472410202	0.4949319362640381	1.0543135032057762	-0.48144376277923584	1.2370040863752365	2.6430338621139526	2.3942443132400513	-0.43249332904815674	0.9612757004797459	0.9381599426269531	1.4186376333236694	0.520024299621582	2.9624931812286377	-1.427640676498413	0.4162023663520813	1.6425238251686096	0.34716933965682983	1.4090176820755005	0.4562445282936096	-1.2589337825775146	-0.7512134313583374	3.129957675933838	2.059287428855896	0.4619408845901489	0.8785724863409996	2.313964605331421	1.4381216764450073	1.3732457160949707	1.4908210933208466	0.7517908215522766	1.440801590681076	0.36148738861083984	2.1155887842178345	0.8908018171787262	-0.8530399799346924	1.9663738012313843	1.6861989498138428	1.1907938569784164	0.4095847010612488	0.3506099581718445	1.5660266280174255	1.4798941910266876	0.0010562539100646973	1.8916297554969788	1.2149291634559631	1.7299730777740479	1.4120314419269562	3.686006784439087	1.8905500769615173	-0.25788676738739014	0.6019127666950226	1.241233453154564	0.5105001628398895	0.16222262382507324	0.34536612033843994	1.3333996534347534	1.9401134848594666	2.3932889699935913	0.13590562343597412	0.6949323117733002	1.8683862686157227	1.6236029267311096	2.49883234500885	3.6962788105010986	0.9128479957580566	3.1933186054229736	0.49476200342178345	2.2434414625167847	2.194853901863098	0.6964801847934723	0.7550777494907379	-0.9640103578567505	0.5942287147045135	0.129957914352417	0.08157098293304443	1.0970623940229416	1.7800819873809814	1.0968195274472237	-0.38987040519714355	0.8976566717028618	1.8256532549858093	0.08195304870605469	0.13716375827789307	1.7970399260520935	0.15248924493789673	-0.6587328910827637	1.4635835886001587	-1.2148754596710205	1.9191408157348633	1.109143204987049	0.20748502016067505	1.4891239404678345	1.5894510746002197	0.8287790864706039	2.0792311429977417	0.8257220089435577	1.2519015967845917	1.8312144875526428	-1.8817534446716309	1.390233725309372	1.0894864648580551	0.6640499830245972	-0.7693725824356079	0.8174348771572113	1.0439091585576534	2.241913318634033	2.30900239944458	0.6936227083206177	-0.00504457950592041	0.5156950056552887	-0.36710822582244873	0.2221691608428955	0.9973201102111489	1.979521930217743	1.206984519958496	-0.14730536937713623	2.207182288169861	1.00786036811769	1.1972043067216873	1.0415051691234112	2.088390350341797	0.5981044769287109	1.2459224313497543	1.637016236782074	2.580058217048645	-1.207042932510376	2.0297144651412964	1.8874955773353577	1.0929178223013878	0.6216423213481903	1.3423008024692535	2.219626307487488	-1.0079360008239746	-0.1616806983947754	1.4583002030849457	2.2166749238967896	-0.5411536693572998	-0.6082168817520142	0.2750803828239441	0.8256052583456039	0.34354090690612793	1.159142792224884	1.6023820042610168	2.2663495540618896	0.4032832980155945	1.0339956134557724	3.226656436920166	0.8117570877075195	1.9975872039794922	-0.03831219673156738	1.1624779552221298	0.9390846937894821	-0.06741631031036377	1.8275210857391357	2.364017963409424	2.8928359746932983	2.7593040466308594	0.7952877432107925	1.8001163601875305	2.1961086988449097	0.4231707453727722	-0.7191295623779297	2.1100876331329346	2.1575255393981934	1.5144922733306885	1.7931396961212158	2.182277798652649	0.9230513125658035	0.7926602810621262	2.590522050857544	-0.16029632091522217	0.5650424957275391	2.436897397041321	0.6960815787315369	1.3120550215244293	2.5247554779052734	0.6336248517036438	1.9824573397636414	1.4345113635063171	1.0040130480192602	-0.04986894130706787	0.39248037338256836	0.051361799240112305	1.3018717169761658	22.165586471557617	-0.13263380527496338	0.8944151178002357	-0.0327838659286499	0.7442900538444519	1.9723823070526123	1.4453343451023102	1.67713862657547	3.000612497329712	1.9791558980941772	1.0619095787405968	0.9179798364639282	1.3145776093006134	1.225984439253807	2.4128254652023315	0.9830587580800056	0.8789175823330879	0.5460725724697113	-0.692876935005188	2.1027941703796387	1.2920196056365967	-0.259177565574646	2.0830212831497192	0.7821332067251205	0.23835396766662598	1.2918006777763367	0.8068185746669769	0.21911901235580444	1.0050244089215994	1.7313963174819946	1.8193597197532654	1.142228677868843	0.6077942848205566	2.679951548576355	-0.04776608943939209	0.8635628372430801	1.830121397972107	0.3067111372947693	0.6100907623767853	-1.068465232849121	-0.5375156402587891	-0.39312314987182617	-0.4933708906173706	1.6200109720230103	2.8726611137390137	1.3014881908893585	-0.9046002626419067	1.025632543489337	2.3460222482681274	0.7008710205554962	2.06449294090271	1.947378933429718	0.39638590812683105	0.13217169046401978	2.8641345500946045	0.26198863983154297	-0.8672962188720703	2.2931833267211914	-0.48461151123046875	0.20966601371765137	-0.0020911693572998047	0.4601050615310669	2.1181524991989136	1.564727544784546	0.7409927845001221	1.466114729642868	-0.0621490478515625	1.5776055455207825	1.5922340750694275	0.5278850495815277	0.7261724174022675	1.048301812261343	0.9095467254519463	-0.5131287574768066	1.8171325325965881	1.767595112323761	0.830259159207344	2.56666898727417	1.92703115940094	2.353332996368408	2.019088625907898	0.834767609834671	-0.11456072330474854	0.9320437014102936	0.13624459505081177	-0.5886260271072388	2.087146282196045	2.147854208946228	0.6405359208583832	1.3840643763542175	9.666153907775879	-0.17411887645721436	1.1096353754401207	-0.07904386520385742	2.296467900276184	1.1487653851509094	-0.2663182020187378	3.180124044418335	0.09616285562515259	1.194944754242897	1.1437684148550034	1.1990230083465576	1.2546480894088745	0.3964121341705322	2.000137209892273	1.403765857219696	0.8201119303703308	1.385352909564972	0.13309496641159058	-0.4971691370010376	2.2515963315963745	-0.0644676685333252	2.431308627128601	1.8501774072647095	1.6062601804733276	0.35667771100997925	-0.332865834236145	-0.5160142183303833	4.081851959228516	0.6167258024215698	0.3487730622291565	1.3761987686157227	0.3510758876800537	-1.0384061336517334	1.6201931238174438	1.7894048690795898	-0.5039099454879761	1.2538482546806335	1.3837749361991882	0.4043877124786377	2.1674814224243164	-0.8284270763397217	-0.12040627002716064	0.46371591091156006	1.5207776427268982	0.509063333272934	2.1449620723724365	1.4998835623264313	-0.76506507396698	3.918586492538452	1.51564222574234	2.4010764360427856	0.378595769405365	0.9809693526476622	2.6202940940856934	0.0299532413482666	1.2719919681549072	0.09164279699325562	1.5961058139801025	1.7454649209976196	1.4043956995010376	-0.4881553649902344	1.5187129974365234	0.7733194828033447	0.3255650997161865	1.8143024444580078	0.5290305018424988	-0.2948122024536133	2.20718777179718	1.1104428693652153	1.6260725259780884	0.44429469108581543	1.9717201590538025	0.6317687332630157	3.5061144828796387	-0.0493544340133667	0.7939683049917221	0.08054995536804199	2.5546356439590454	0.8882661089301109	4.172819375991821	0.5790611505508423	0.3991331458091736	-0.678127646446228	3.7178401947021484	0.33428698778152466	0.8947891667485237	1.5757001638412476	1.2048294097185135	0.6946835517883301	-0.10384738445281982	2.5641636848449707	-0.21766221523284912	0.45581597089767456	1.5637329816818237	2.262440800666809	2.7209800481796265	2.275839686393738	1.0426709987223148	1.1866595298051834	0.15628886222839355	0.8266339153051376	0.32927608489990234	1.2471397370100021	0.2358248233795166	0.03462427854537964	0.26144689321517944	1.242340624332428
effettuare_1	0.771337553858757	1.381717562675476	1.7080877423286438	-0.09461188316345215	1.8958660960197449	2.2772390842437744	2.3698883056640625	-7.306998252868652	-0.4483335018157959	1.715559482574463	-0.17125439643859863	1.3470613956451416	2.4518293142318726	1.6564391255378723	1.2801774144172668	1.5218395590782166	0.2852547764778137	0.4384081959724426	2.9504685401916504	0.9585710242390633	0.08113366365432739	2.2108086347579956	2.2098034620285034	-0.5489925146102905	-0.2167375087738037	-1.1777114868164062	1.0792308822274208	1.0433235205709934	0.9605828784406185	0.9782036133110523	0.6797085106372833	0.5099637508392334	0.9790125209838152	1.9017218351364136	0.9844964258372784	0.7128272652626038	0.9222195222973824	1.1895994693040848	0.1786709427833557	0.9394054301083088	1.9885641932487488	0.9291616380214691	2.720585823059082	1.0580078475177288	-1.132455825805664	-18.228126525878906	1.0001324142358499	1.715343713760376	0.5709378719329834	2.865403890609741	1.5077666640281677	-1.7779016494750977	1.2286003977060318	-1.3065145015716553	6.2558746337890625	2.569801092147827	1.3771266043186188	1.4263938963413239	0.9318737909197807	3.9402477741241455	1.9211171865463257	2.3426483869552612	0.7880782634019852	1.0321371518075466	1.3499867916107178	2.1932365894317627	-0.07817769050598145	2.092363953590393	3.406677484512329	0.5599096417427063	2.6229406595230103	0.803318440914154	2.1247153282165527	1.1016764789819717	2.268778443336487	1.665533185005188	0.46732592582702637	1.6911254525184631	1.2809637188911438	1.1873240172863007	1.8821963667869568	1.8870846033096313	1.8728429079055786	0.5059121251106262	2.645848274230957	0.9094261899590492	-0.7110143899917603	-1.2344326972961426	2.7525925636291504	-1.4341204166412354	1.1890986561775208	1.9941273927688599	3.350825548171997	0.534236341714859	3.7151033878326416	0.27545368671417236	1.1384084671735764	-0.4155914783477783	0.4769912362098694	1.5227123498916626	0.29511088132858276	0.3659006953239441	-0.23769569396972656	0.3006604313850403	2.248020052909851	2.19744336605072	1.8870308995246887	1.7010850310325623	0.04552769660949707	0.7247283756732941	-1.8155601024627686	1.9115740060806274	2.7860138416290283	0.3227464556694031	0.6749491393566132	0.13377714157104492	0.05508553981781006	-0.9607309103012085	1.4232237339019775	0.883977048099041	0.042848050594329834	1.0311767626553774	1.2583856284618378	0.7329543828964233	0.5847907364368439	1.1248550862073898	0.0043814778327941895	2.1204988956451416	-0.04479074478149414	2.585963249206543	0.8137398213148117	1.7680805325508118	1.1803223341703415	1.4466403424739838	1.393907904624939	0.8658985644578934	1.2052471488714218	-0.4598836898803711	2.358451247215271	-0.24055910110473633	2.3208022117614746	1.567740797996521	0.9448006078600883	-1.0153746604919434	-0.1569277048110962	1.2958837747573853	0.5037813186645508	1.233453169465065	1.671107828617096	1.4825994968414307	1.758851706981659	1.514341115951538	1.426635891199112	1.3559969067573547	-0.2956348657608032	0.6427967846393585	1.6257068514823914	-0.09462845325469971	0.05116069316864014	3.2344565391540527	0.4717394709587097	1.8095085620880127	-0.9942383766174316	2.849690079689026	0.0078352689743042	2.7365833520889282	1.1815745532512665	3.8603835105895996	2.4600530862808228	1.2503733932971954	-0.43723440170288086	1.9006208777427673	-0.2823197841644287	1.0853403434157372	1.011871819384396	0.9289180263876915	1.158880665898323	1.2720483541488647	2.0927889347076416	0.9754043892025948	1.6833733916282654	1.435768872499466	1.3979560136795044	0.8732655793428421	-0.5983853340148926	1.067584827542305	2.291512966156006	1.560570478439331	0.4023275375366211	2.156134843826294	2.4505467414855957	-0.993183970451355	0.8216471374034882	1.8150495290756226	3.2015390396118164	-0.5099977254867554	2.8210134506225586	0.5251528322696686	0.7256433069705963	1.336127370595932	1.2463859915733337	0.3702692985534668	1.832284688949585	1.3538345992565155	0.4483828544616699	0.920870304107666	1.2853834629058838	2.13745653629303	0.0034383535385131836	0.5352158546447754	1.161031574010849	2.101858377456665	-0.308773398399353	-0.0029419660568237305	1.244784638285637	0.8282591849565506	1.5165989398956299	2.924262762069702	1.0037221822421998	0.9546289034187794	1.0092806834727526	1.1567721962928772	0.7070285975933075	-0.5921528339385986	0.343488872051239	1.679882526397705	0.14243805408477783	0.8101968914270401	-0.24061918258666992	-0.1425532102584839	2.8246976137161255	0.6176468133926392	0.961672380566597	1.835653841495514	1.8958109617233276	-0.2985159158706665	1.0953954234719276	2.2164151668548584	1.0075991614721715	-1.0668232440948486	1.1231928914785385	0.09965890645980835	-0.5890709161758423	-0.43236398696899414	0.5213552415370941	2.592579483985901	2.0352253913879395	2.25177538394928	-0.5403085947036743	4.19780421257019	0.5288311541080475	2.125710129737854	0.4415356516838074	1.8632044196128845	0.019486606121063232	0.3798832297325134	0.03389871120452881	1.381404459476471	0.9746955446898937	1.4511760473251343	1.065224401652813	2.442252516746521	-0.8777235746383667	-0.018915772438049316	0.3679702877998352	1.6605219841003418	0.2152996063232422	-1.0797271728515625	1.8522862792015076	-0.07250666618347168	0.1927143931388855	1.3972950279712677	1.0403872393071651	1.5635740756988525	1.1823079138994217	2.071985602378845	1.0056558437645435	2.2427310943603516	0.26478785276412964	1.5260679125785828	0.0014987587928771973	-0.1390756368637085	-0.47719907760620117	3.258115768432617	2.216336965560913	0.5313172042369843	0.14023250341415405	2.700568914413452	2.797519564628601	2.3358911275863647	0.3491332530975342	-1.2799766063690186	-0.3034098148345947	-0.20617413520812988	2.131697416305542	-0.2501192092895508	0.8089969456195831	-0.32628679275512695	-0.11612939834594727	2.1715986728668213	1.1188202947378159	1.9937716722488403	0.6624478399753571	-0.3373600244522095	2.475048065185547	0.3483015298843384	0.5141322910785675	0.44132256507873535	3.184755325317383	-0.9033844470977783	-0.1544630527496338	-0.641576886177063	0.7661244422197342	-0.20144855976104736	0.6427258551120758	1.8691439628601074	1.126338317990303	2.42737078666687	-0.5581367015838623	-0.29749083518981934	-10.001665115356445	1.2293440103530884	0.09301894903182983	1.0701631754636765	4.88547420501709	1.8638681769371033	0.12347382307052612	2.376028299331665	1.809328556060791	0.5311471521854401	0.42719346284866333	0.3181825876235962	-3.1818785667419434	1.3368750512599945	1.2563238143920898	2.2798749208450317	0.9796368665993214	0.6105987429618835	0.7400757968425751	1.307627260684967	-0.846282958984375	3.4464597702026367	3.8284764289855957	0.03198528289794922	1.2618657350540161	1.3312365114688873	-0.5756158828735352	-0.11485028266906738	1.1974587887525558	2.633306622505188	0.46426182985305786	-0.6344919204711914	0.36081844568252563	1.1241834685206413	0.363969087600708	0.44778168201446533	0.6765379011631012	0.8535509407520294	2.1948585510253906	0.7515401095151901	0.2848546504974365	-1.5157358646392822	1.35356205701828	1.3879677653312683	2.1996419429779053	1.2389274090528488	0.2573167085647583	2.268983840942383	1.899520218372345	1.4014443457126617	3.63881254196167	2.005240559577942	-0.27883732318878174	0.20830941200256348	-0.5274062156677246	0.9698554407805204	2.24121630191803	2.357974410057068	-1.1082260608673096	1.1865152269601822	1.2283524721860886	-0.06514763832092285	1.6312816739082336	2.3071929216384888	1.4122234582901	0.681866854429245	2.5253530740737915	0.2687910199165344	0.6351549923419952	1.7452649474143982	0.9538532458245754	0.40351665019989014	1.3760854005813599	0.9348883256316185	1.1236758381128311	0.4153953194618225	1.3846175074577332	1.0038060692604631	2.3069339990615845	-0.42950522899627686	0.09933263063430786	0.06258541345596313	1.46259343624115	0.29917484521865845	0.7682407051324844	0.6920384466648102	-0.4936094284057617	1.4356183111667633	1.0800845697522163	0.07651740312576294	1.6192071437835693	0.8958181142807007	1.2101300209760666	1.1791815757751465	2.5854380130767822	1.2726402878761292	1.2566370069980621	0.24823325872421265	1.932854413986206	0.9660895057022572	1.2171849608421326	2.1874656677246094	0.0963481068611145	0.8301354646682739	0.9260706156492233	1.989490270614624	2.132879376411438	1.5207305550575256	0.3490200638771057	1.4391006529331207	0.3258746266365051	1.9784915447235107	-1.2529959678649902	2.7624356746673584	2.3784936666488647	1.1186111494898796	0.009944140911102295	0.5616797804832458	0.27343547344207764	1.882932186126709	0.29707974195480347	0.7648139595985413	0.8563004285097122	3.2164368629455566	0.364554226398468	1.1090743765234947	0.9287265762686729	1.1198684051632881	3.0858752727508545	2.414269804954529	-0.4053844213485718	1.7473394274711609	0.010728299617767334	2.617381453514099	1.8270272016525269	0.6718264520168304	2.292538046836853	-0.7189621925354004	1.3631936013698578	-0.01856398582458496	1.7560710310935974	-0.16209328174591064	1.6536669731140137	0.5547650754451752	1.8586187958717346	-0.1427748203277588	1.5056787729263306	0.9573227241635323	2.121729254722595	1.260923832654953	0.8966560140252113	0.40907198190689087	1.9186898469924927	-0.8231394290924072	0.4223583936691284	1.3333800435066223	1.308152198791504	-0.1876680850982666	1.819405972957611	0.48254358768463135	2.009711980819702	1.1839537620544434	1.8066096305847168	0.1569421887397766	-1.4335086345672607	1.8954046964645386	2.668364405632019	1.6070144772529602	-1.2023508548736572	2.608245849609375	0.6719036102294922	0.849782720208168	1.4330549538135529	0.2837487459182739	-1.8353934288024902	-0.03714132308959961	1.2822863161563873	0.16912353038787842	1.2954907715320587	3.4493114948272705	0.6330997347831726	1.313463717699051	3.2649009227752686	0.7817216664552689	1.6663604378700256	1.3309736251831055	1.1324512362480164	0.5533998012542725	1.4748951494693756	-0.7340264320373535	1.8298097848892212	-0.34508025646209717	0.826564371585846	1.352497786283493	1.8819020986557007	0.3194751739501953	-0.011714935302734375	2.022235631942749	-0.21734392642974854	-0.4541780948638916	0.8531419187784195	2.192400336265564	1.482892632484436	-0.6137902736663818	1.0446449406445026	2.362990379333496	-0.8185988664627075	-0.21700561046600342	1.8093947172164917	1.4063294231891632	-0.25725245475769043	1.2349170297384262	4.01910924911499	-0.33065319061279297	2.7860701084136963	1.8348729610443115	-0.8184118270874023	2.0932881832122803	1.2789497375488281	1.512181580066681	1.7622855305671692	0.9293949380517006	0.48993176221847534	0.6463612616062164	2.4871374368667603	0.8755730539560318	-0.9851135015487671	-0.7683136463165283	1.8368455171585083	1.0995311588048935	0.3262537717819214	1.7175762057304382	3.579136610031128	-0.20569872856140137	1.7690002918243408	-0.8435946702957153	-0.8527195453643799	-0.28969013690948486	2.2753827571868896	1.8960450887680054	2.354333519935608	1.154390886425972	0.08925557136535645	1.8613193035125732	-0.0958489179611206	2.072458028793335	0.4541558623313904	1.5173264145851135	1.69100683927536	-0.3715568780899048	22.333181381225586	1.518764317035675	1.332017958164215	0.7766097486019135	1.8051751255989075	1.7341951131820679	1.7030525207519531	1.2419418394565582	1.8953585624694824	1.418369859457016	0.5075673162937164	1.7231395840644836	1.882697582244873	0.7648816108703613	3.0992989540100098	1.4497297704219818	0.9731739740818739	0.8300386965274811	2.1900798082351685	4.065153360366821	1.5418230891227722	1.6311949491500854	1.1102280765771866	-0.0333249568939209	1.3166316449642181	1.6421049237251282	-0.3131812810897827	0.552602231502533	0.8873296305537224	0.03735184669494629	0.8842180073261261	1.205362617969513	-0.1476912498474121	3.0302515029907227	1.0561360158026218	-0.0948648452758789	2.4177112579345703	1.183442398905754	1.0360375046730042	0.17434895038604736	0.06822139024734497	1.5766441226005554	1.3988237082958221	0.940789982676506	1.5905905365943909	0.6270207166671753	-0.549101710319519	1.4065238237380981	1.1774970144033432	0.7787367105484009	0.006005525588989258	1.585207760334015	0.10719573497772217	1.4909833371639252	2.904335856437683	-0.16373181343078613	0.21882206201553345	1.101500153541565	0.6123205423355103	1.5548592805862427	0.30928927659988403	0.778522714972496	1.954214096069336	1.8377585411071777	-0.0925137996673584	2.9884989261627197	0.6645500063896179	1.2813979089260101	0.39890414476394653	-1.0245451927185059	0.7374618351459503	0.6933053731918335	1.4711990356445312	2.8711100816726685	2.1652417182922363	1.6049530506134033	1.6066962480545044	1.1633000373840332	1.251829832792282	2.453016757965088	2.387558102607727	0.7141107022762299	1.7908860445022583	0.7898267507553101	-0.07395148277282715	0.6567098200321198	2.1844969987869263	0.5768364667892456	2.436877489089966	1.8980626463890076	8.422038078308105	-0.6221442222595215	0.9736480750143528	1.4555405676364899	0.0008167028427124023	1.9421115517616272	0.8990094661712646	3.1163015365600586	1.3498141169548035	0.007536172866821289	1.1402626931667328	0.07562750577926636	0.6253651678562164	1.76235830783844	2.1985732316970825	2.1918511390686035	0.6818505823612213	1.0107736056670547	2.0570212602615356	-0.9836835861206055	2.669959783554077	0.2785488963127136	2.3566259145736694	0.18621116876602173	0.9998664870363427	0.0037754178047180176	1.1314616650342941	-0.3944441080093384	1.7283167839050293	1.0879541784524918	-0.07465124130249023	1.68838232755661	1.2260281890630722	0.04141348600387573	1.7504666447639465	1.4094605147838593	0.5411990880966187	1.0165201742202044	4.1722283363342285	0.4760398268699646	1.8621841669082642	-1.3029119968414307	-0.198724627494812	0.00972527265548706	1.6908092498779297	1.7763528227806091	0.037416040897369385	0.8528449684381485	1.1850827187299728	2.245126485824585	1.28851917386055	1.798687219619751	0.577622652053833	1.500181794166565	0.7910509407520294	1.0808333680033684	0.7676622718572617	0.755109116435051	1.8685582280158997	0.4956051707267761	0.9251990392804146	1.4439299702644348	1.403075933456421	1.4017076194286346	-1.7174012660980225	0.1500510573387146	-0.2541835308074951	0.7353507876396179	0.38852638006210327	1.0363095253705978	1.8818684816360474	1.2364142835140228	2.648890256881714	0.9826181214302778	2.443823456764221	-0.7416150569915771	0.5873205363750458	1.7297034859657288	2.1071449518203735	1.1390269249677658	2.0816062688827515	-0.19962048530578613	0.3470938801765442	1.4113461673259735	2.0380972623825073	2.181523561477661	1.562748372554779	1.8182217478752136	1.2191947996616364	-0.5449080467224121	-0.16936814785003662	1.8821083903312683	2.1568000316619873	2.1253923177719116	0.5224688947200775	1.3763564825057983	0.6989384293556213	1.1382728070020676	1.132616251707077	1.6747137308120728	0.7833449989557266	-1.0372350215911865	0.9458153955638409	2.0862298011779785	0.9589936509728432	0.11516737937927246	0.8686711341142654	1.3573260605335236
eleggere_1	3.082322597503662	1.4144879579544067	0.12984776496887207	1.5387213230133057	0.9400410391390324	1.6728380918502808	2.4164644479751587	-5.753791332244873	-0.3990192413330078	3.159964084625244	0.5782069265842438	1.76786470413208	2.1523590087890625	1.5664798021316528	1.10420323908329	2.094864010810852	2.043417453765869	1.3868817389011383	4.076650142669678	1.2235893905162811	0.05293148756027222	3.398287057876587	2.372999668121338	-0.5797119140625	0.5766510963439941	-0.6855794191360474	0.5750536322593689	1.4609047770500183	0.378812313079834	0.4246061444282532	1.6992614269256592	0.42430514097213745	1.269966870546341	1.7268018126487732	0.4842795133590698	2.5286788940429688	1.7102054357528687	0.605383962392807	0.9158439114689827	-0.4157838821411133	1.2928951978683472	1.8055022358894348	1.4553468227386475	1.6109127402305603	-1.4417166709899902	-17.223905563354492	1.1881671994924545	1.2518645524978638	-0.015478014945983887	2.3927305936813354	1.406043529510498	-0.9107382297515869	-0.3257143497467041	-0.6859220266342163	3.927919864654541	2.6807239055633545	0.19020581245422363	-1.2274622917175293	0.6023637652397156	3.850571393966675	1.0110700316727161	1.6762569546699524	1.131774753332138	-0.6047877073287964	2.3614940643310547	1.0821006074547768	2.145217180252075	1.2486725151538849	2.58505642414093	1.3698399662971497	1.1753765940666199	0.20641851425170898	2.144163727760315	-0.20584022998809814	2.070712089538574	0.6911051571369171	2.4700835943222046	3.067567825317383	2.0927014350891113	2.4057540893554688	1.710808515548706	2.2284384965896606	2.5939029455184937	1.5258433818817139	2.0436861515045166	1.56341153383255	0.8202467858791351	0.45689111948013306	1.442615121603012	-0.23589229583740234	2.6483516693115234	1.7456656098365784	2.5452452898025513	-0.21930551528930664	1.082314670085907	-0.3479807376861572	-0.2853264808654785	-0.7052433490753174	0.39560002088546753	1.068269819021225	0.06057339906692505	2.9799805879592896	-0.7946124076843262	2.2051990032196045	2.6776576042175293	1.7172397375106812	-0.32539379596710205	0.4846317768096924	0.5100853145122528	1.1302030831575394	1.6075159311294556	1.3611324727535248	3.6900651454925537	-2.395585060119629	0.18358373641967773	0.7466250658035278	-1.165653944015503	0.4650914669036865	2.0931087732315063	1.7853041291236877	1.603927731513977	0.33759963512420654	0.8018103539943695	0.14705723524093628	0.5341162085533142	0.08474856615066528	0.26408666372299194	1.6178807616233826	1.6196696758270264	2.2827489376068115	1.0086011094972491	1.8605780601501465	0.6931001842021942	-0.3453143835067749	1.2156154066324234	1.858656644821167	0.5600007772445679	-0.10493874549865723	2.2455570697784424	1.3095759451389313	1.6388386487960815	2.4770312309265137	0.576322615146637	-1.2893157005310059	2.2009692192077637	1.1397070288658142	1.0571052357554436	1.9421759247779846	2.037708044052124	1.2746215164661407	3.483621120452881	1.043384537100792	-1.430511474609375e-05	-0.1864001750946045	-1.0097975730895996	-0.13974177837371826	1.776094913482666	0.2165285348892212	0.7601049691438675	2.7400296926498413	0.9836058858782053	1.9260469675064087	-0.9526456594467163	2.3826940059661865	0.2845849394798279	0.3487529158592224	1.0488579720258713	3.0164120197296143	3.1787757873535156	1.2541634440422058	-0.5676779747009277	2.7271348237991333	2.6712790727615356	2.5720072984695435	0.7632591128349304	1.9997522830963135	2.145503520965576	2.8926336765289307	1.6204690337181091	0.5457324683666229	1.7481711506843567	2.654863476753235	2.1697988510131836	1.5756043791770935	0.3535459041595459	0.2436521053314209	1.0651570782065392	1.171454280614853	0.4400976300239563	2.0049703121185303	1.8642608523368835	-0.16620326042175293	-0.03694283962249756	4.47657585144043	-2.0101938247680664	0.2998810410499573	2.648034691810608	0.5377542674541473	2.26944100856781	1.7960171103477478	1.4914759993553162	0.6024487018585205	0.6626793444156647	0.9234851598739624	1.3839451670646667	1.3834147453308105	-2.5263476371765137	0.7565769106149673	1.1082331538200378	0.25001686811447144	1.4637382924556732	1.270214855670929	-0.3251546621322632	-0.7824437618255615	1.4168915748596191	2.2603201866149902	0.020943820476531982	6.614355087280273	0.39502018690109253	0.43369054794311523	2.28335964679718	1.5584887862205505	-0.3042299747467041	-0.03419053554534912	-1.1545677185058594	-0.3444610834121704	0.32472139596939087	2.4429649114608765	1.5959703922271729	0.9854923216626048	2.7828398942947388	2.083616614341736	1.3210610747337341	3.616220235824585	-0.28911662101745605	0.20273542404174805	1.7238688468933105	0.14043200016021729	-0.43596839904785156	0.15637189149856567	0.9499220177531242	0.5681355893611908	0.6361168622970581	-1.0725326538085938	0.835999608039856	0.7948941737413406	1.0020303768105805	0.7972868829965591	0.9365836754441261	5.153814315795898	1.0408346690237522	2.1583662033081055	0.7082751095294952	1.773256778717041	0.0017483234405517578	0.19250702857971191	-0.011077284812927246	0.3945232629776001	1.8626201748847961	1.116545595228672	1.5465973019599915	2.0784634351730347	0.9509171210229397	1.4731667041778564	0.910417802631855	1.1630262285470963	-0.2857213020324707	-0.14252352714538574	1.6977000832557678	2.247139811515808	-0.04198110103607178	-0.6638044118881226	1.827059030532837	-0.19890046119689941	1.3506249785423279	2.3394827842712402	1.748496949672699	2.6353553533554077	1.0347882844507694	-0.039189696311950684	0.7526739537715912	0.8971754014492035	0.3480694890022278	2.982746958732605	1.8117883205413818	1.298225998878479	0.9646663554012775	3.8851821422576904	1.9171032905578613	2.4067317247390747	0.028060555458068848	-2.0846517086029053	-0.05937480926513672	0.04157453775405884	1.9375146627426147	-0.35075557231903076	0.6230348646640778	1.332419753074646	-0.7132515907287598	1.3479129076004028	0.9309008717536926	0.4453427791595459	0.32304638624191284	0.7256102859973907	1.8079872727394104	-0.6347295045852661	-0.10244143009185791	-0.18828141689300537	2.62912118434906	-2.406006097793579	0.669678658246994	0.2622479200363159	0.30627167224884033	0.22833460569381714	1.034938108175993	1.2744781076908112	3.720022201538086	3.594270944595337	-2.9230775833129883	-1.1415786743164062	-9.01210880279541	-0.23996758460998535	1.1766792088747025	1.898094654083252	4.452860593795776	0.6989190578460693	0.6024249196052551	1.5362606644630432	2.830031633377075	0.7123043239116669	2.3191453218460083	-0.1226421594619751	-2.6898610591888428	1.3043108880519867	0.047170281410217285	2.3326281309127808	0.6965537369251251	-1.1161203384399414	1.7284986972808838	3.7703731060028076	0.8169435411691666	1.4526874721050262	3.5835044384002686	1.6759350299835205	-1.526190996170044	0.754002571105957	0.6505638062953949	-0.3567993640899658	1.2422075867652893	1.977277934551239	0.051303327083587646	0.9541245959699154	0.9406765103340149	2.6318020820617676	-0.7871092557907104	0.02751260995864868	1.0734906122088432	0.3580731749534607	-0.6062661409378052	0.08359122276306152	1.250597208738327	-0.037543416023254395	1.882979393005371	1.4792036414146423	2.3880393505096436	2.098670482635498	-0.658205509185791	1.1191856786608696	0.3406555652618408	-1.0749931335449219	1.433247059583664	0.38841480016708374	1.1682961136102676	0.49414974451065063	-0.21756279468536377	1.1160328686237335	1.292910873889923	3.0871174335479736	-0.08550405502319336	0.25438886880874634	1.0314506478607655	1.7472424507141113	1.8757045269012451	1.3571972846984863	3.681633472442627	2.1170040369033813	-0.5533617734909058	0.31591635942459106	0.7757580429315567	1.8031411170959473	1.266609936952591	0.02241581678390503	0.3100244402885437	0.20139437913894653	1.87543523311615	1.3067087829113007	2.0668212175369263	2.2371599674224854	2.70202898979187	-0.7118809223175049	0.2423129677772522	0.8334162533283234	2.5890533924102783	1.2428147941827774	0.9802874326705933	0.6960195004940033	0.5230984389781952	1.4232509434223175	0.17460697889328003	1.0017937839729711	0.19934439659118652	1.4049659073352814	2.2626073360443115	-0.2984507083892822	1.3253410756587982	1.624684989452362	0.046770453453063965	3.0157976150512695	2.2295713424682617	1.9291577339172363	-1.6865017414093018	1.6790205240249634	1.4730970859527588	1.702256679534912	0.875769816339016	0.8559479266405106	-0.3860398530960083	1.74827378988266	0.5027869939804077	1.2969768047332764	0.9876893693581223	1.0373125039041042	0.12532567977905273	3.0731396675109863	1.7307642698287964	-0.19703662395477295	0.09890693426132202	1.1707526743412018	4.780007839202881	2.0640439987182617	0.6076126992702484	1.0201843325048685	2.2435611486434937	3.1082658767700195	0.2164899706840515	-0.6752514839172363	1.453222393989563	0.7825384140014648	1.873421311378479	2.809025287628174	0.9327438920736313	0.6383492946624756	1.0529806055128574	2.3233394622802734	2.302698016166687	1.5341888666152954	2.963339924812317	-0.2667527198791504	0.016377747058868408	-1.8579015731811523	0.015670418739318848	0.1333218216896057	0.9019948169589043	1.1423027068376541	2.8530956506729126	1.2870428264141083	2.201307773590088	-0.16612565517425537	1.8364064693450928	1.3778764009475708	0.44400227069854736	1.3716616928577423	2.3558759689331055	-0.6489224433898926	1.4330949187278748	-1.612196922302246	0.28939783573150635	0.24587202072143555	1.9498685002326965	0.42929553985595703	1.5604608654975891	-1.2387478351593018	1.5343729853630066	0.06480997800827026	-1.3240916728973389	-0.7237091064453125	2.822778344154358	0.6322235763072968	0.5887494683265686	1.3490929305553436	1.3731283247470856	1.6625202298164368	1.4421024322509766	-0.1097034215927124	-3.5402517318725586	-2.2998812198638916	0.7625142931938171	-0.9589360952377319	0.925744816660881	2.707964301109314	1.7187772393226624	1.6631489992141724	2.2203656435012817	1.763672649860382	0.37847965955734253	1.7237844467163086	1.5369369983673096	-0.9364537000656128	2.4078034162521362	-0.297693133354187	1.1556409746408463	1.331594705581665	0.00341033935546875	1.0117713576182723	0.3986058235168457	1.8152791261672974	-0.936516284942627	1.9929620027542114	-0.47224175930023193	-0.1263343095779419	1.1864555776119232	1.628678560256958	0.3779173493385315	0.7569257020950317	0.3011292815208435	0.3977653980255127	1.0134900119155645	-0.15191137790679932	1.7772490978240967	2.150476336479187	-0.9243291616439819	1.4996849596500397	2.534217596054077	0.9059627801179886	0.944103442132473	-0.16762995719909668	0.7134390771389008	2.391994595527649	0.14207422733306885	1.0762773230671883	1.3191511034965515	0.7839243561029434	2.0604809522628784	1.2557810544967651	2.570613980293274	2.135099768638611	0.8567928522825241	-1.117992639541626	0.7418583929538727	0.896616980433464	0.6437734961509705	1.2051566541194916	3.412464141845703	0.5524202585220337	2.2630045413970947	1.4963319301605225	-0.33029913902282715	0.45917195081710815	1.339932531118393	2.7155330181121826	0.9942998425103724	1.0906691700220108	-1.0889866352081299	3.758417844772339	1.102141611278057	0.26507097482681274	-0.46662163734436035	1.448042780160904	1.0535446479916573	2.2215524911880493	20.895647048950195	1.3314908742904663	-0.741270899772644	-0.11896979808807373	1.2087295204401016	1.7385956048965454	2.2418758869171143	1.8665688633918762	0.9156933501362801	2.874914050102234	0.09982907772064209	0.4400588870048523	1.210913524031639	1.858614444732666	1.349198579788208	1.0453071668744087	0.16217654943466187	1.5791867971420288	0.4923675060272217	3.5122807025909424	1.588597595691681	0.9664718024432659	0.5301938652992249	0.49234694242477417	1.114888720214367	2.149496555328369	0.6378384232521057	1.3569208085536957	0.8984341472387314	0.33249467611312866	0.4315093755722046	0.6976860463619232	0.7132723331451416	3.0664260387420654	-0.11233174800872803	0.27309179306030273	2.1266907453536987	0.7095659971237183	1.3037640750408173	-1.21956205368042	0.596901148557663	2.0783536434173584	1.224355310201645	2.741063356399536	2.432936429977417	0.036885619163513184	-0.7396661043167114	1.0503712110221386	1.9468974471092224	-0.43775486946105957	-0.9900386333465576	1.5100118517875671	0.5091012418270111	1.0655315145850182	2.427316904067993	1.72135728597641	-0.3971576690673828	1.9773283004760742	-0.8961869478225708	2.8709795475006104	-1.2318687438964844	1.2780811190605164	2.619360566139221	3.0156543254852295	0.8050040304660797	3.0166878700256348	0.5216798186302185	2.747174024581909	1.3007877469062805	-1.5459873676300049	0.22301560640335083	1.1749026626348495	1.0640345737338066	1.270537257194519	3.147185802459717	-0.16145825386047363	0.7285593748092651	3.3764426708221436	2.2715455293655396	2.5800864696502686	0.6918796598911285	0.3184123635292053	1.1272002905607224	0.4782184958457947	-0.06992983818054199	-0.3979053497314453	1.3239985406398773	0.9365250021219254	4.066960096359253	1.2325898855924606	8.949571132659912	-0.34680891036987305	-0.32308053970336914	0.5824923515319824	0.7632990032434464	-0.013676881790161133	0.0793834924697876	3.516629695892334	0.8647574633359909	2.0072118043899536	0.1444302797317505	-0.7424726486206055	0.6152110397815704	1.1925381422042847	2.331570625305176	2.951398491859436	0.4205586910247803	1.5983592867851257	0.9325269386172295	-1.2242331504821777	1.4735840260982513	0.9497655145823956	1.4761850237846375	0.4058677554130554	0.3427944779396057	1.4456258714199066	-0.3040369749069214	0.8151668459177017	1.8307929039001465	2.3953304290771484	0.9905451806262136	2.2203060388565063	0.9715667627751827	-0.42640602588653564	3.428785562515259	1.1253664940595627	-0.13093698024749756	2.588806629180908	2.692910075187683	0.8814192712306976	2.1088026762008667	-0.49781882762908936	0.6306547224521637	-0.366901159286499	1.3667260110378265	0.8597294837236404	2.552653431892395	1.9674604535102844	0.5620835721492767	3.679356575012207	-0.027405858039855957	1.772202491760254	0.6430321633815765	0.6286730766296387	2.2553024291992188	2.0098509788513184	1.4665127396583557	0.9598899036645889	2.3512346744537354	0.5598477721214294	1.864689826965332	0.028478920459747314	1.362675428390503	1.129810556769371	0.22773855924606323	0.8064061552286148	-0.48133552074432373	0.11904263496398926	0.04105287790298462	0.7324391007423401	0.835365816950798	0.25501108169555664	1.3625068068504333	-0.271836519241333	1.0322593450546265	1.3484116196632385	1.8404420018196106	2.279097318649292	2.747920036315918	-0.05492043495178223	1.7172656655311584	0.4678686261177063	1.6738739013671875	0.23750394582748413	0.9473659992218018	0.1600932478904724	0.8677403777837753	0.8027188032865524	2.3858238458633423	1.3438200056552887	2.362550735473633	1.3568857312202454	1.6526504158973694	0.9418992213904858	0.6718336045742035	1.961758553981781	3.104055404663086	2.0015686750411987	0.00778883695602417	0.6649767160415649	1.31984144449234	0.267031729221344	-1.9946472644805908	1.113628774881363	1.230010837316513	-1.7233307361602783	0.2374894618988037	2.089518904685974
eleggere_2	nan	nan	nan	nan	nan	nan	nan	nan	nan	nan	nan	nan	nan	nan	nan	nan	nan	nan	nan	nan	nan	nan	nan	nan	nan	nan	nan	nan	nan	nan	nan	nan	nan	nan	nan	nan	nan	nan	nan	nan	nan	nan	nan	nan	nan	nan	nan	nan	nan	nan	nan	nan	nan	nan	nan	nan	nan	nan	nan	nan	nan	nan	nan	nan	nan	nan	nan	nan	nan	nan	nan	nan	nan	nan	nan	nan	nan	nan	nan	nan	nan	nan	nan	nan	nan	nan	nan	nan	nan	nan	nan	nan	nan	nan	nan	nan	nan	nan	nan	nan	nan	nan	nan	nan	nan	nan	nan	nan	nan	nan	nan	nan	nan	nan	nan	nan	nan	nan	nan	nan	nan	nan	nan	nan	nan	nan	nan	nan	nan	nan	nan	nan	nan	nan	nan	nan	nan	nan	nan	nan	nan	nan	nan	nan	nan	nan	nan	nan	nan	nan	nan	nan	nan	nan	nan	nan	nan	nan	nan	nan	nan	nan	nan	nan	nan	nan	nan	nan	nan	nan	nan	nan	nan	nan	nan	nan	nan	nan	nan	nan	nan	nan	nan	nan	nan	nan	nan	nan	nan	nan	nan	nan	nan	nan	nan	nan	nan	nan	nan	nan	nan	nan	nan	nan	nan	nan	nan	nan	nan	nan	nan	nan	nan	nan	nan	nan	nan	nan	nan	nan	nan	nan	nan	nan	nan	nan	nan	nan	nan	nan	nan	nan	nan	nan	nan	nan	nan	nan	nan	nan	nan	nan	nan	nan	nan	nan	nan	nan	nan	nan	nan	nan	nan	nan	nan	nan	nan	nan	nan	nan	nan	nan	nan	nan	nan	nan	nan	nan	nan	nan	nan	nan	nan	nan	nan	nan	nan	nan	nan	nan	nan	nan	nan	nan	nan	nan	nan	nan	nan	nan	nan	nan	nan	nan	nan	nan	nan	nan	nan	nan	nan	nan	nan	nan	nan	nan	nan	nan	nan	nan	nan	nan	nan	nan	nan	nan	nan	nan	nan	nan	nan	nan	nan	nan	nan	nan	nan	nan	nan	nan	nan	nan	nan	nan	nan	nan	nan	nan	nan	nan	nan	nan	nan	nan	nan	nan	nan	nan	nan	nan	nan	nan	nan	nan	nan	nan	nan	nan	nan	nan	nan	nan	nan	nan	nan	nan	nan	nan	nan	nan	nan	nan	nan	nan	nan	nan	nan	nan	nan	nan	nan	nan	nan	nan	nan	nan	nan	nan	nan	nan	nan	nan	nan	nan	nan	nan	nan	nan	nan	nan	nan	nan	nan	nan	nan	nan	nan	nan	nan	nan	nan	nan	nan	nan	nan	nan	nan	nan	nan	nan	nan	nan	nan	nan	nan	nan	nan	nan	nan	nan	nan	nan	nan	nan	nan	nan	nan	nan	nan	nan	nan	nan	nan	nan	nan	nan	nan	nan	nan	nan	nan	nan	nan	nan	nan	nan	nan	nan	nan	nan	nan	nan	nan	nan	nan	nan	nan	nan	nan	nan	nan	nan	nan	nan	nan	nan	nan	nan	nan	nan	nan	nan	nan	nan	nan	nan	nan	nan	nan	nan	nan	nan	nan	nan	nan	nan	nan	nan	nan	nan	nan	nan	nan	nan	nan	nan	nan	nan	nan	nan	nan	nan	nan	nan	nan	nan	nan	nan	nan	nan	nan	nan	nan	nan	nan	nan	nan	nan	nan	nan	nan	nan	nan	nan	nan	nan	nan	nan	nan	nan	nan	nan	nan	nan	nan	nan	nan	nan	nan	nan	nan	nan	nan	nan	nan	nan	nan	nan	nan	nan	nan	nan	nan	nan	nan	nan	nan	nan	nan	nan	nan	nan	nan	nan	nan	nan	nan	nan	nan	nan	nan	nan	nan	nan	nan	nan	nan	nan	nan	nan	nan	nan	nan	nan	nan	nan	nan	nan	nan	nan	nan	nan	nan	nan	nan	nan	nan	nan	nan	nan	nan	nan	nan	nan	nan	nan	nan	nan	nan	nan	nan	nan	nan	nan	nan	nan	nan	nan	nan	nan	nan	nan	nan	nan	nan	nan	nan	nan	nan	nan	nan	nan	nan	nan	nan	nan	nan	nan	nan	nan	nan	nan	nan	nan	nan	nan	nan	nan	nan	nan	nan	nan	nan	nan	nan	nan	nan	nan	nan	nan	nan	nan	nan	nan	nan	nan	nan	nan	nan	nan	nan	nan	nan	nan	nan	nan	nan	nan	nan	nan	nan	nan	nan	nan	nan	nan	nan	nan	nan	nan	nan	nan	nan	nan	nan	nan	nan	nan	nan	nan	nan	nan	nan	nan	nan	nan	nan	nan	nan	nan	nan	nan	nan	nan	nan	nan	nan	nan	nan	nan	nan	nan	nan	nan	nan	nan	nan	nan	nan	nan	nan	nan	nan	nan	nan	nan	nan	nan	nan	nan	nan	nan	nan	nan	nan	nan	nan	nan	nan	nan	nan	nan	nan	nan	nan	nan	nan	nan
