label	0	1	2	3	4	5	6	7	8	9	10	11	12	13	14	15	16	17	18	19	20	21	22	23	24	25	26	27	28	29	30	31	32	33	34	35	36	37	38	39	40	41	42	43	44	45	46	47	48	49	50	51	52	53	54	55	56	57	58	59	60	61	62	63	64	65	66	67	68	69	70	71	72	73	74	75	76	77	78	79	80	81	82	83	84	85	86	87	88	89	90	91	92	93	94	95	96	97	98	99	100	101	102	103	104	105	106	107	108	109	110	111	112	113	114	115	116	117	118	119	120	121	122	123	124	125	126	127	128	129	130	131	132	133	134	135	136	137	138	139	140	141	142	143	144	145	146	147	148	149	150	151	152	153	154	155	156	157	158	159	160	161	162	163	164	165	166	167	168	169	170	171	172	173	174	175	176	177	178	179	180	181	182	183	184	185	186	187	188	189	190	191	192	193	194	195	196	197	198	199	200	201	202	203	204	205	206	207	208	209	210	211	212	213	214	215	216	217	218	219	220	221	222	223	224	225	226	227	228	229	230	231	232	233	234	235	236	237	238	239	240	241	242	243	244	245	246	247	248	249	250	251	252	253	254	255	256	257	258	259	260	261	262	263	264	265	266	267	268	269	270	271	272	273	274	275	276	277	278	279	280	281	282	283	284	285	286	287	288	289	290	291	292	293	294	295	296	297	298	299	300	301	302	303	304	305	306	307	308	309	310	311	312	313	314	315	316	317	318	319	320	321	322	323	324	325	326	327	328	329	330	331	332	333	334	335	336	337	338	339	340	341	342	343	344	345	346	347	348	349	350	351	352	353	354	355	356	357	358	359	360	361	362	363	364	365	366	367	368	369	370	371	372	373	374	375	376	377	378	379	380	381	382	383	384	385	386	387	388	389	390	391	392	393	394	395	396	397	398	399	400	401	402	403	404	405	406	407	408	409	410	411	412	413	414	415	416	417	418	419	420	421	422	423	424	425	426	427	428	429	430	431	432	433	434	435	436	437	438	439	440	441	442	443	444	445	446	447	448	449	450	451	452	453	454	455	456	457	458	459	460	461	462	463	464	465	466	467	468	469	470	471	472	473	474	475	476	477	478	479	480	481	482	483	484	485	486	487	488	489	490	491	492	493	494	495	496	497	498	499	500	501	502	503	504	505	506	507	508	509	510	511	512	513	514	515	516	517	518	519	520	521	522	523	524	525	526	527	528	529	530	531	532	533	534	535	536	537	538	539	540	541	542	543	544	545	546	547	548	549	550	551	552	553	554	555	556	557	558	559	560	561	562	563	564	565	566	567	568	569	570	571	572	573	574	575	576	577	578	579	580	581	582	583	584	585	586	587	588	589	590	591	592	593	594	595	596	597	598	599	600	601	602	603	604	605	606	607	608	609	610	611	612	613	614	615	616	617	618	619	620	621	622	623	624	625	626	627	628	629	630	631	632	633	634	635	636	637	638	639	640	641	642	643	644	645	646	647	648	649	650	651	652	653	654	655	656	657	658	659	660	661	662	663	664	665	666	667	668	669	670	671	672	673	674	675	676	677	678	679	680	681	682	683	684	685	686	687	688	689	690	691	692	693	694	695	696	697	698	699	700	701	702	703	704	705	706	707	708	709	710	711	712	713	714	715	716	717	718	719	720	721	722	723	724	725	726	727	728	729	730	731	732	733	734	735	736	737	738	739	740	741	742	743	744	745	746	747	748	749	750	751	752	753	754	755	756	757	758	759	760	761	762	763	764	765	766	767	768
cacciare_3	1.6012529730796814	2.5987284183502197	0.33798539638519287	0.1349148154258728	1.2018635421991348	3.7813222408294678	1.1298108249902725	-6.3182759284973145	-0.23163914680480957	4.9613566398620605	0.23763501644134521	1.7734515070915222	2.8477795124053955	3.6148903369903564	-0.10793173313140869	2.002206802368164	1.3067166805267334	1.5166308283805847	1.6566124558448792	0.29838693141937256	0.39233577251434326	3.1800129413604736	1.4151627123355865	-1.2491092681884766	2.043596386909485	0.6267475485801697	0.9806270133703947	2.109466075897217	2.2432998418807983	2.780623435974121	1.5209757685661316	-0.051901817321777344	1.2415612190961838	2.7406715154647827	1.5270199179649353	2.456364393234253	0.8287665247917175	1.375046044588089	1.492795318365097	-0.011203527450561523	0.9414175488054752	0.9376961886882782	0.577912449836731	0.39058321714401245	0.4655435085296631	-14.872955322265625	0.3416401743888855	0.5556006133556366	1.0223428010940552	1.0392698682844639	0.9769641235470772	-1.8560428619384766	-0.5946087837219238	-0.35418975353240967	3.2842319011688232	3.0366568565368652	0.7729618698358536	0.6278354823589325	-0.5762457847595215	4.223932266235352	1.1022233366966248	4.54469108581543	1.859794795513153	1.8784540891647339	1.6367135047912598	1.505102515220642	0.8651757389307022	1.4862225949764252	2.429295539855957	1.9396612644195557	1.715238094329834	1.2765291035175323	1.375509649515152	0.8193399459123611	1.5331568717956543	1.6242515444755554	1.2102040648460388	1.6899356842041016	3.093400716781616	1.8938857316970825	2.9604649543762207	0.9169753864407539	3.304781913757324	0.784047082066536	1.9726601839065552	1.0267851687967777	-0.4906346797943115	-0.8234479427337646	-0.5394699573516846	-0.11073076725006104	1.5397967100143433	3.493429183959961	1.0745031908154488	0.5143143236637115	2.7929434776306152	0.2477405071258545	2.260954737663269	-0.005711197853088379	1.03904340416193	-0.13687849044799805	-0.4017137289047241	2.410588026046753	-2.132051467895508	1.0463569946587086	2.037394642829895	1.075639232993126	1.012137770652771	1.6933225989341736	1.1604515314102173	-0.21829593181610107	-0.014081835746765137	0.7492015957832336	3.717686891555786	0.04190903902053833	1.2613880634307861	0.09406465291976929	2.4016250371932983	2.9471435546875	3.5744781494140625	0.4525970220565796	1.131451740860939	2.0132296085357666	1.2614343166351318	1.2843227684497833	-0.4942045211791992	1.4877354204654694	0.3800901174545288	1.683528482913971	0.9187411889433861	3.127964496612549	0.760485365986824	1.6966386437416077	0.27343320846557617	1.3933349251747131	-1.3139984607696533	1.2586707472801208	0.6599206328392029	0.6500804722309113	1.8816781044006348	1.1423526108264923	0.7859874963760376	1.7045509815216064	-0.3656848669052124	1.0985524207353592	1.5050800442695618	1.5639832019805908	0.13042908906936646	1.1679154336452484	1.552558422088623	0.3479772210121155	1.511435329914093	0.9915536809712648	1.1690389215946198	1.2657012343406677	2.0795117616653442	0.819202184677124	3.8671469688415527	0.8755498379468918	1.6060477495193481	0.8872761577367783	1.6211882829666138	1.4569855332374573	0.6136808097362518	0.15851718187332153	-1.2290749549865723	-0.8892738819122314	1.4300714135169983	3.7690672874450684	2.220142960548401	0.08865642547607422	0.44922494888305664	3.0975067615509033	1.0195719078183174	1.0777833089232445	3.3502869606018066	2.6610008478164673	2.3999998569488525	1.8704710006713867	0.8240399360656738	2.130403518676758	1.9535089135169983	2.6695767641067505	2.0498201847076416	1.5470534563064575	0.9988970545819029	1.2603800594806671	0.33706849813461304	0.8636701256036758	2.1122881174087524	0.38555991649627686	0.57988440990448	-1.848100185394287	0.5977374017238617	3.119628667831421	0.8920516073703766	1.8301482200622559	-0.300750732421875	1.4261910021305084	1.5323347449302673	1.2100270986557007	1.551772952079773	0.8366330415010452	1.8265365362167358	1.21553835272789	0.7285861968994141	1.3220408856868744	-0.22242820262908936	2.4251880645751953	0.7742202877998352	0.0011827945709228516	1.6204607486724854	0.08587652444839478	0.7077589929103851	2.692446708679199	1.8932744264602661	0.9601668678224087	0.8542316854000092	4.86146354675293	1.7483816742897034	-0.19745159149169922	2.1516096591949463	1.6089147329330444	0.5177808105945587	0.8945747017860413	1.0671126917004585	0.8664844632148743	2.1457618474960327	-0.30338001251220703	-0.8709031343460083	2.145180344581604	2.710847020149231	0.8537913709878922	1.8299802541732788	2.286197543144226	1.1845201700925827	2.2028872966766357	0.473408043384552	1.4857165813446045	0.2830284833908081	-1.1398301124572754	0.40778857469558716	1.100805900990963	-1.3297910690307617	1.6966182589530945	1.4587080478668213	1.0784338638186455	1.7426226139068604	1.906618893146515	0.14340537786483765	4.22346043586731	1.0530354678630829	1.619141697883606	0.5716502368450165	1.3008811473846436	0.21606862545013428	0.37903040647506714	0.0033665895462036133	0.5132786333560944	0.7765417993068695	2.2553564310073853	-0.4017760753631592	0.9946317779831588	1.505237877368927	0.18612653017044067	1.7759891748428345	3.5469086170196533	0.9710495620965958	1.018965320661664	2.4673099517822266	0.9829086940735579	-0.7448916435241699	0.09669244289398193	2.526057243347168	2.218807339668274	0.9176168516278267	2.4490917921066284	1.2428122758865356	3.596849203109741	1.5541009306907654	-0.3406221866607666	1.8581876158714294	3.343808174133301	0.8867412880063057	1.7730557322502136	0.9246576949954033	0.5963592529296875	0.3732646703720093	-0.18182802200317383	-0.932075023651123	1.8893427848815918	0.0997847318649292	-0.6780620813369751	-0.04755401611328125	-0.4315156936645508	0.7318862974643707	0.57093745470047	0.3052801489830017	-2.09173846244812	-1.4573349952697754	1.5971112251281738	2.9084750413894653	2.4378204345703125	-2.265263319015503	0.17237234115600586	0.7539682388305664	-0.0897437334060669	1.146020382642746	1.683412790298462	1.1278301179409027	0.3661825656890869	-1.0053021907806396	1.4175941944122314	-2.9325485229492188e-05	0.9108961820602417	0.3901802897453308	2.885296106338501	1.4833629131317139	0.46721404790878296	-1.575662612915039	0.32457900047302246	-16.944913864135742	1.4368022084236145	1.5647342801094055	0.7989646792411804	2.83705997467041	1.6044283509254456	0.04757779836654663	1.8023070096969604	2.150139331817627	-0.45964479446411133	1.454839438199997	0.4757121801376343	-5.506150245666504	2.076681137084961	1.249122753739357	0.7759637832641602	1.710196316242218	0.25395989418029785	3.6182515621185303	1.9219577312469482	0.8136551976203918	2.0132042169570923	1.5443788766860962	2.135244131088257	1.7209380269050598	0.12643808126449585	2.929636836051941	-0.2514544725418091	0.24556469917297363	0.650193989276886	0.9064246341586113	0.6148317456245422	0.5179831087589264	0.3555452227592468	1.6578559875488281	0.5596227943897247	1.1582980453968048	-0.4952322244644165	-1.4105076789855957	-1.0607223510742188	0.7929462492465973	2.574475049972534	2.644341468811035	0.8812510818243027	1.4660830795764923	0.38494718074798584	0.6248288452625275	1.3467873930931091	0.40315115451812744	-0.16485536098480225	0.5683285892009735	0.267692506313324	-0.8521544933319092	1.043757375329733	-0.4610089063644409	0.845302402973175	2.1634488105773926	1.067763090133667	0.382183313369751	-0.40618157386779785	1.204494670033455	1.4552087187767029	2.2116568088531494	1.437546968460083	2.0496803522109985	0.20499885082244873	2.2768715620040894	0.5860462188720703	-1.2171275615692139	2.092919111251831	1.2176018357276917	1.932320773601532	0.24216461181640625	0.3109813928604126	1.5035510063171387	1.3317980766296387	0.6013916730880737	2.6169592142105103	1.4370296895503998	0.9674287959933281	0.9114302694797516	0.6842219531536102	-0.4473990201950073	0.4135342836380005	1.9717395901679993	0.4506457448005676	1.2193422615528107	1.485260784626007	-0.3642066717147827	0.4546452760696411	0.48097920417785645	1.4352785348892212	1.2656026780605316	0.6552083194255829	-0.010720968246459961	1.1155221909284592	1.4270755648612976	1.0023038948420435	2.4369698762893677	0.2034074068069458	1.3028714060783386	2.138014554977417	1.6736443638801575	1.3018399477005005	2.0586493015289307	-0.32562971115112305	0.37308400869369507	1.8577594757080078	2.600616931915283	2.2462652921676636	-0.1319875717163086	0.6304043531417847	0.9674193151295185	2.7230865955352783	0.8660483062267303	-0.7461109161376953	0.19574564695358276	3.0008983612060547	0.7200735509395599	-0.38169729709625244	0.6991237699985504	1.8029633164405823	0.02370309829711914	1.949420154094696	-0.26248371601104736	-0.44951844215393066	1.3637007772922516	1.4062774181365967	2.0874565839767456	2.1482322216033936	0.5650726556777954	0.3700786828994751	1.5645579099655151	1.8191054463386536	0.6675308346748352	1.8420117497444153	1.804197907447815	0.04592323303222656	1.1824022382497787	-1.9412314891815186	-0.8252044916152954	1.4124505817890167	2.0007972717285156	2.3586632013320923	1.2877335846424103	0.6245587766170502	3.107414722442627	1.1728274822235107	2.1134181022644043	0.725418210029602	2.0437676906585693	0.6940113604068756	2.411161780357361	1.6465819478034973	2.5230119228363037	0.26386964321136475	1.198459267616272	0.8534091860055923	0.9519986249506474	1.7065855860710144	1.5590786933898926	1.72461599111557	0.6094641983509064	2.195395350456238	-1.8290867805480957	0.47458958625793457	1.9580186009407043	1.6253641843795776	1.8264377117156982	1.7496859431266785	0.6709197163581848	1.1726426929235458	0.791161447763443	1.2459052801132202	-2.380903720855713	2.096212148666382	0.5378282070159912	0.9296200349926949	0.6501518189907074	2.91790235042572	0.5721120834350586	0.6259485185146332	2.472699522972107	1.7174609899520874	1.0254088006913662	0.730953723192215	2.0191030502319336	0.020365238189697266	1.0468242429196835	0.3558042645454407	1.6677132844924927	1.0489549934864044	-1.1570665836334229	0.7540320008993149	0.26225709915161133	0.9066122621297836	-0.03649795055389404	0.7004649341106415	1.1035620421171188	-1.3052639961242676	1.13370780646801	0.7262668013572693	0.3448721766471863	-0.6389126777648926	0.17933130264282227	0.6930189728736877	2.5803353786468506	-0.3635737895965576	1.4127996265888214	2.426999092102051	0.23469501733779907	2.4273271560668945	0.8026872873306274	0.2653961777687073	0.18927931785583496	-0.2733426094055176	1.5198408365249634	1.1655067205429077	0.45299309492111206	0.4132096767425537	1.5191214084625244	2.085721969604492	0.7927608788013458	2.1695104837417603	2.6398420333862305	-0.2627675533294678	1.1876454949378967	-1.401918888092041	0.7703295052051544	-0.02162754535675049	0.6368242800235748	2.8894691467285156	1.576676070690155	0.298989474773407	1.7295131087303162	2.4320276975631714	-0.09585332870483398	1.1915313005447388	2.529201865196228	2.1303166151046753	1.9469451904296875	0.5975032150745392	-1.1872012615203857	2.7715412378311157	0.9271560162305832	1.9169059991836548	0.6064653694629669	0.8262325376272202	0.1364855170249939	1.2174119353294373	21.724529266357422	1.40291628241539	-0.4790503978729248	0.7064729630947113	0.7944868803024292	0.9690001960843801	2.8685009479522705	1.899755597114563	-0.07417166233062744	2.1429706811904907	0.32821446657180786	0.9572673961520195	1.4242619574069977	2.2441998720169067	1.8751997351646423	1.4344595968723297	0.08256101608276367	0.8041076064109802	1.6830752491950989	3.4234986305236816	2.599899172782898	-1.8079760074615479	1.0185912363231182	0.17366653680801392	0.605973482131958	0.885089211165905	0.4861403703689575	0.35574597120285034	2.4487613439559937	1.8081380724906921	-0.19098925590515137	1.0775431469082832	-0.24461448192596436	1.8193276524543762	-0.8432918787002563	-0.6306009292602539	2.356747031211853	-0.4489753246307373	1.7102806568145752	-0.474576473236084	1.0279938410967588	1.6224899888038635	0.21118319034576416	1.0995501428842545	1.2507735788822174	2.4578254222869873	-1.9280529022216797	2.0840303897857666	2.8725900650024414	-1.102351188659668	-1.575242519378662	2.0044325590133667	0.4014548063278198	2.6449345350265503	1.9894700646400452	-0.042453885078430176	-0.6884620189666748	2.157750368118286	-0.2609264850616455	0.7274335324764252	0.1780768632888794	2.9042826890945435	0.8364888429641724	0.8241987228393555	0.2731778621673584	3.346860647201538	0.8066136389970779	1.5355610251426697	2.7020812034606934	-1.608654260635376	-0.20337426662445068	1.3412516117095947	1.2598077058792114	0.7975698411464691	1.9912714958190918	0.30042409896850586	-1.3908088207244873	2.66103732585907	0.6724840402603149	1.700983703136444	-0.5944277048110962	-0.51422119140625	-0.4936501979827881	0.4642244577407837	-0.10183835029602051	-0.21474361419677734	3.5084035396575928	0.8251673877239227	-0.15205180644989014	2.006455421447754	11.824790954589844	0.9322795420885086	0.5842928886413574	1.516671359539032	0.570910781621933	1.5118152499198914	-0.1055067777633667	3.478339433670044	0.9482525922358036	1.8805071711540222	1.3923021852970123	-0.06493532657623291	-0.847069501876831	1.7768126130104065	2.130373477935791	3.518303394317627	2.258489727973938	2.0331960916519165	-0.3975468873977661	-0.8138513565063477	1.5562376379966736	1.3617061078548431	2.0290029048919678	1.2954719066619873	0.683936357498169	0.725499153137207	1.723163366317749	-0.8582010269165039	3.218905448913574	1.680468499660492	0.005590915679931641	0.9019937142729759	0.7540926039218903	-2.8611576557159424	0.7365626692771912	1.580299735069275	-0.3835970163345337	1.5254983305931091	1.0529814027249813	1.4437348246574402	0.4739034175872803	-2.4794628620147705	1.1073886081576347	3.031290292739868	3.1645922660827637	0.7235977351665497	-0.6616197824478149	0.4092007875442505	2.3742159605026245	2.008755326271057	0.5799100399017334	2.604342222213745	1.663956880569458	2.1494513750076294	0.937401182949543	1.9843050837516785	1.4279399514198303	-0.5272879600524902	1.7648160457611084	0.26474905014038086	2.0328539609909058	0.45430469512939453	0.3931611180305481	-0.13338780403137207	0.891524188220501	1.2826564311981201	0.21605229377746582	0.4068065285682678	0.7607526183128357	0.4522780179977417	0.7109338939189911	0.7167758047580719	1.777787685394287	2.06601345539093	1.6272929906845093	0.20117086172103882	0.8617698699235916	0.9971948897000402	0.77623650431633	1.5238945484161377	1.2791613042354584	0.6274793148040771	0.22225672006607056	3.691420316696167	0.5697013139724731	1.2818553149700165	1.875194489955902	0.3741692900657654	1.5265727639198303	-0.191642165184021	0.803894579410553	-0.719078779220581	-0.9201861619949341	0.9367632940411568	1.8149812817573547	1.0023079589009285	3.432605028152466	1.5674009323120117	0.77253358066082	1.7153816223144531	0.6130383014678955	0.45414644479751587	-0.624268651008606	3.9830591678619385	-0.23380887508392334	-0.1754465103149414	0.9590162336826324	0.558597058057785
cadere_1	0.18887442350387573	1.0957991182804108	2.1357303857803345	-0.4435451030731201	1.5193891525268555	2.916322112083435	0.9068161845207214	-4.714534759521484	-0.5715693235397339	3.1398444175720215	-0.7213009595870972	2.1108672618865967	2.3737316131591797	4.137681484222412	1.5198286771774292	1.1853405088186264	-0.9693232774734497	2.821845054626465	-0.370283842086792	0.62771937251091	0.9246318861842155	1.9405347108840942	3.4694247245788574	0.10714423656463623	1.0130870854482055	2.2998454570770264	2.5019277334213257	2.3554126024246216	1.5841772556304932	2.419180393218994	2.468692421913147	1.8789270520210266	1.1664622873067856	2.4486783742904663	1.180735468864441	-0.1877197027206421	1.6280583143234253	0.7432980835437775	0.20167183876037598	0.8774932399392128	0.5709207952022552	2.29337739944458	2.4260858297348022	0.39820361137390137	-0.6105870008468628	-14.09227466583252	2.0725966691970825	1.915627121925354	0.8606955707073212	1.582244873046875	2.475632667541504	0.44363099336624146	-1.5669364929199219	0.017093181610107422	4.033397197723389	2.0960352420806885	1.746235966682434	-0.5244375467300415	-0.19267058372497559	3.9981138706207275	1.3212792575359344	2.2901686429977417	0.7080065608024597	1.2804412245750427	1.4443070590496063	2.0551522970199585	1.6484957933425903	0.6166739165782928	2.3754477500915527	1.0500069856643677	1.4992998838424683	-0.31075263023376465	1.6001963019371033	1.6305505633354187	1.5684645771980286	3.291226625442505	2.8962323665618896	0.8815267235040665	1.7265870571136475	1.717191457748413	1.7967783212661743	1.0939378440380096	2.983561158180237	1.6845965385437012	0.33724719285964966	1.175767943263054	0.14800918102264404	-0.5482416152954102	-0.5591906309127808	-0.757102370262146	2.418330192565918	3.5474867820739746	1.8773789405822754	0.8205686956644058	1.938761830329895	1.305320382118225	0.9255498126149178	-2.482177972793579	0.540223240852356	0.03585481643676758	0.3055559992790222	3.1955149173736572	-1.4722719192504883	0.2598949670791626	1.1129742860794067	1.7092207074165344	0.8307791948318481	1.2777486145496368	-0.013091683387756348	0.12120699882507324	0.25380247831344604	0.37983202934265137	3.3306500911712646	-0.16638147830963135	2.366892457008362	0.1766829490661621	-0.29479682445526123	1.1221570298075676	1.9648339748382568	0.525174081325531	1.7082791328430176	1.7549200654029846	1.608784794807434	2.4101983308792114	0.7987507581710815	0.09446114301681519	3.1586029529571533	0.3696126341819763	1.847432255744934	1.7640802264213562	1.029973292723298	1.90894216299057	0.26188868284225464	-0.5663871765136719	1.5948861837387085	1.1659022271633148	1.8977893590927124	3.0011425018310547	0.19103145599365234	0.2168116569519043	1.283141940832138	0.9310061931610107	-0.27741849422454834	-0.1194143295288086	1.9518123865127563	0.7302241921424866	-0.06461000442504883	1.3369731903076172	2.919280767440796	2.4203672409057617	1.4988234043121338	-0.4195711612701416	0.5695385336875916	1.4142688810825348	0.9480882287025452	0.4939994215965271	3.667658805847168	-0.27232444286346436	-1.0655765533447266	2.262911796569824	0.19759267568588257	2.0620771646499634	2.8031924962997437	-0.9626525640487671	-0.43136024475097656	1.9754132628440857	1.1165669560432434	3.847304344177246	1.0875096395611763	0.3330806493759155	0.032871127128601074	1.7830703854560852	1.7688859105110168	-0.759398341178894	3.0346479415893555	1.5768215656280518	0.21504950523376465	2.7841485738754272	2.974078416824341	2.074610471725464	1.3323807120323181	1.4325119256973267	0.48646122217178345	1.3107251226902008	1.0307994168251753	1.6931147575378418	1.948803961277008	0.7922945469617844	0.34981590509414673	-0.08992123603820801	-0.17384850978851318	1.4511452615261078	1.747335970401764	2.3987945318222046	1.1205589920282364	1.5605649948120117	1.2472305595874786	1.9998834133148193	1.147958293557167	0.154971182346344	1.7273412346839905	0.4105915427207947	2.652477741241455	1.9098789691925049	1.6659333109855652	0.9952109684236348	2.0444692373275757	2.5826233625411987	0.024090170860290527	-0.1419438123703003	1.1448336392641068	-1.6358532905578613	-0.3068140745162964	1.9493034482002258	1.8709116578102112	1.7653939127922058	1.4045880436897278	6.5903849601745605	1.0431175231933594	-0.10407769680023193	2.0111993551254272	1.4135301113128662	0.7100815773010254	0.8357150554656982	0.22153103351593018	-0.22623443603515625	0.12483131885528564	-0.403698205947876	-0.2870694398880005	0.7184780836105347	2.256757378578186	0.656864196062088	1.1884453743696213	1.491216391324997	0.9039486423134804	1.9844707250595093	-0.7008340358734131	1.8239607214927673	1.9429811835289001	0.7696965038776398	0.8133631497621536	0.35103273391723633	1.2347021400928497	1.110714167356491	1.0303820688277483	2.4581202268600464	1.311806559562683	2.106230854988098	0.6453768908977509	3.941483974456787	1.8769594430923462	2.7168078422546387	0.6031543016433716	0.8432747721672058	0.35601043701171875	0.7630370706319809	-0.03969371318817139	1.0388399548828602	0.8456458747386932	0.9999006565849413	-0.3141629695892334	4.852338790893555	0.02598750591278076	-0.7917786836624146	2.044672727584839	3.6986441612243652	0.8199583292007446	1.2418063133955002	0.8709250688552856	1.8254948854446411	1.4903781116008759	2.822673797607422	3.885978937149048	1.727698266506195	1.4138342440128326	1.379541039466858	2.5360227823257446	2.917010545730591	1.560351014137268	1.8068150877952576	1.565529227256775	1.5706618428230286	-0.06966495513916016	2.074820637702942	2.3434828519821167	0.7962631583213806	1.415457010269165	0.24604588747024536	1.0067486306652427	1.41144660115242	1.4930086135864258	-1.0394330024719238	-0.9196075201034546	0.58620885014534	-1.1132664680480957	0.2043452262878418	1.895265519618988	-2.3859119415283203	-1.189863920211792	3.055649757385254	1.4507920742034912	2.7212305068969727	0.26451438665390015	0.7377980947494507	1.4159533977508545	-0.573692798614502	1.3792197406291962	1.8007724285125732	0.3341786861419678	1.9350361824035645	-0.31527984142303467	-2.950305223464966	0.1576882004737854	0.6655692458152771	1.322500765323639	1.3252334892749786	0.6600681245326996	0.04333341121673584	0.008769094944000244	1.677117109298706	-18.409557342529297	0.8525965362787247	0.7909434735774994	-0.3253598213195801	0.5158573687076569	1.0253989528864622	0.40095770359039307	0.9604054875671864	1.3515655994415283	-0.2176065444946289	1.4744932949543	-0.02628636360168457	-3.9647884368896484	1.7333273887634277	0.6024165153503418	-0.14297473430633545	1.4555151462554932	0.7797910869121552	3.583540439605713	-0.48959434032440186	1.6257845759391785	2.012285351753235	0.3629227876663208	-0.4879699945449829	2.6922314167022705	1.13489231467247	2.2885632514953613	-2.261946678161621	0.2799193859100342	1.327835589647293	0.8279529809951782	0.5431449711322784	1.0185022354125977	1.381643533706665	0.8083161264657974	0.8324310630559921	1.9953123927116394	0.8133223950862885	-0.8666011095046997	-0.16668486595153809	0.36573076248168945	1.7249259948730469	1.1030469611287117	1.0973675847053528	1.208284392952919	0.38651174306869507	-0.2315835952758789	1.0831195190548897	1.2937777042388916	-0.3625243902206421	0.40955090522766113	0.30045634508132935	0.7594879418611526	-0.19869136810302734	-0.8566932678222656	1.1345089673995972	1.1959493905305862	-0.1184852123260498	0.8404623121023178	0.15948724746704102	1.6817720532417297	-0.12703704833984375	2.1418455839157104	2.39120614528656	2.050637364387512	0.6862061321735382	2.7213547229766846	-2.207501173019409	-1.7563409805297852	0.9044094681739807	0.8767263740301132	2.9185869693756104	0.6248779296875	0.2686377763748169	0.41858458518981934	0.8440576195716858	0.7983971834182739	2.5143643617630005	0.49345988035202026	-0.24319171905517578	1.1652122735977173	0.3679191470146179	1.3174421787261963	2.5964698791503906	-0.23650240898132324	0.5153283476829529	-0.051078081130981445	1.90983384847641	-0.07046973705291748	0.16489923000335693	0.5062357485294342	1.4614222347736359	3.276749849319458	1.5762476921081543	0.5289216935634613	1.4251481592655182	3.3831653594970703	2.673703193664551	0.9905927460640669	0.36365240812301636	1.1608653366565704	2.5923131704330444	1.2726888060569763	2.991699695587158	0.2139180302619934	1.324190765619278	1.1573904752731323	0.9843458607792854	1.3495649695396423	0.2604762315750122	1.0898761078715324	1.4642650485038757	1.3173162639141083	3.2929370403289795	1.0816170200705528	0.27467089891433716	1.1854039579629898	2.2183077335357666	1.0364418625831604	1.296750247478485	0.48180538415908813	2.609957456588745	1.6979208588600159	2.9110766649246216	-0.22556829452514648	-0.07741820812225342	2.086147904396057	0.49148064851760864	2.493357300758362	1.6062836050987244	0.5635319650173187	-0.17233169078826904	-0.13284969329833984	1.2660439610481262	1.1791222095489502	1.5551279187202454	1.061472114175558	0.8524909615516663	0.7002573609352112	-0.4691213369369507	1.2661239206790924	0.485373318195343	1.903024673461914	1.8174264430999756	3.7082409858703613	2.188417673110962	1.5135279893875122	1.107689619064331	1.4358664155006409	1.3796588778495789	2.606745958328247	1.75584876537323	3.112070083618164	0.20292437076568604	1.7600184679031372	-0.7340513467788696	1.7362791299819946	0.9184235781431198	0.12869620323181152	1.3824536800384521	0.7507147789001465	0.6510197520256042	1.3283312022686005	3.0171456336975098	-1.77980637550354	0.18799233436584473	0.8030816614627838	0.608972042798996	0.49291789531707764	1.8405670523643494	0.43333351612091064	1.4156668186187744	0.19504863023757935	0.6041150987148285	-2.039003372192383	0.7979802340269089	0.4403139352798462	0.7070288062095642	1.28772434592247	1.5710157752037048	1.1954836547374725	1.7847962379455566	1.9798502326011658	-0.054791808128356934	1.5530191659927368	0.6281113922595978	-0.31742942333221436	0.3064272403717041	1.4602696299552917	-0.5616378784179688	1.9713072180747986	-1.1076316833496094	2.9986276626586914	0.6651477515697479	1.7550367712974548	1.608621895313263	0.9971421151421964	0.4751008152961731	1.821869134902954	-1.5846645832061768	0.6254775524139404	2.157309412956238	0.3788939118385315	-0.30231523513793945	0.34100502729415894	-0.9542770385742188	1.1773406118154526	0.15938478708267212	1.7863674759864807	1.0189667027443647	0.7174258530139923	1.6047433614730835	2.529781460762024	0.3615638017654419	1.4818065762519836	-0.3111156225204468	-0.028897881507873535	1.1521595567464828	-0.5411117076873779	0.028315603733062744	2.248739242553711	1.2755397260189056	1.4493890404701233	1.86475670337677	3.311769485473633	0.5247099697589874	0.2851569652557373	-0.6891319751739502	1.5700265765190125	1.956289529800415	0.6401444375514984	0.9608036428689957	3.093418598175049	1.7183620929718018	2.4409185647964478	1.0784230381250381	-0.2823895215988159	0.7057929933071136	2.6197826862335205	1.0458620265126228	2.835170865058899	0.5196887850761414	0.5036251544952393	2.276566982269287	0.46242475509643555	0.20426934957504272	0.30522584915161133	1.803614854812622	1.840614140033722	1.4640258252620697	22.783607482910156	1.0045628426596522	0.5853292644023895	1.9153006076812744	2.3877196311950684	1.2807094752788544	2.4347954988479614	1.43161278963089	-0.12689709663391113	2.1873451471328735	-0.8091644048690796	1.7138179540634155	1.5557348132133484	1.8017070293426514	1.0332049541175365	0.7923591285943985	0.5508753061294556	0.709987998008728	0.7355098128318787	3.0844614505767822	1.8175224661827087	-1.4234271049499512	0.03736114501953125	-0.25249195098876953	0.576162576675415	0.2054232954978943	0.8633182048797607	0.30334222316741943	1.8654155731201172	0.31655025482177734	-0.3053363561630249	1.0173495076596737	1.0887505933642387	1.5754114985466003	-2.1200146675109863	-0.6259737014770508	2.907800793647766	-0.8096238374710083	1.1785173565149307	0.2888765335083008	-0.08774662017822266	1.5758879780769348	-0.5437010526657104	1.4908859133720398	2.1206318140029907	2.0418710708618164	-3.502316474914551	2.7320090532302856	3.4996280670166016	-1.5646617412567139	-0.058587074279785156	1.0102032758295536	0.0523836612701416	1.7606480717658997	2.1357758045196533	-0.8960860967636108	1.1848098039627075	1.540536344051361	-0.6393064260482788	0.4810810685157776	-0.2996397018432617	0.14817219972610474	0.5473478734493256	2.151437759399414	0.5269133746623993	2.8569923639297485	0.9581926465034485	1.5853840112686157	1.1029753014445305	-1.813218116760254	0.17297804355621338	-0.005295753479003906	1.3267157971858978	1.8000473976135254	1.4717959761619568	0.2056007981300354	0.2674555778503418	2.8026134967803955	0.7094987034797668	3.375133991241455	-0.05248689651489258	-0.6716223955154419	-1.3835723400115967	0.584475576877594	0.6013537645339966	-0.1244887113571167	1.6053776144981384	0.7202038764953613	0.8018785864114761	0.9750118181109428	11.380255699157715	1.3732900321483612	1.0681314319372177	0.5749834179878235	1.2115686535835266	2.25774610042572	-0.0371551513671875	3.031299114227295	0.9314291849732399	1.216957926750183	2.251126289367676	0.8293627798557281	-0.3480501174926758	2.1718415021896362	1.1404795199632645	2.0111427307128906	1.4482066631317139	3.8048036098480225	0.9299352243542671	-0.1973714828491211	-0.1120535135269165	0.9893908761441708	1.7724003791809082	0.40422195196151733	1.1082200855016708	2.9939135313034058	1.8942306637763977	0.3694874048233032	2.2157312631607056	2.2278664112091064	-0.27459216117858887	2.28496778011322	1.4753539562225342	0.04674124717712402	0.2771764397621155	1.6063632369041443	1.9273767471313477	0.30938202142715454	3.2597572803497314	1.666342556476593	2.3686939477920532	-1.2418742179870605	1.1011102199554443	0.7384813725948334	-0.7198420763015747	-0.4064300060272217	2.3215540647506714	0.20797181129455566	0.722001314163208	2.533939480781555	-0.4400167465209961	0.830609530210495	1.0448893010616302	2.2500243186950684	1.810658872127533	2.992388606071472	2.7681981325149536	-0.15339994430541992	0.49423277378082275	1.2851714789867401	2.577237129211426	1.583432376384735	0.6007077395915985	1.946637749671936	-0.6986645460128784	-1.2278153896331787	0.890948660671711	0.13145428895950317	1.1568666696548462	0.443074107170105	1.1675709933042526	2.0102912187576294	1.339711457490921	2.9245989322662354	1.831231713294983	0.551888644695282	2.909192442893982	1.8476142287254333	-0.039696455001831055	0.9788361042737961	1.2741570472717285	-1.1948554515838623	0.14879363775253296	0.6984347105026245	-0.39892101287841797	1.9991106986999512	-0.03374946117401123	0.2880910634994507	1.7312005758285522	1.3014775812625885	1.328240692615509	-0.18835961818695068	1.453019618988037	1.931423306465149	-0.6384820938110352	0.22559309005737305	2.246345639228821	-0.7123496532440186	0.32371091842651367	0.4974813461303711	1.3109679520130157	0.974029129371047	1.0474470928311348	2.930525779724121	1.1360765397548676	0.2568606734275818	0.5610144138336182	0.8535157591104507
calare_2	0.9070748388767242	1.0622757747769356	2.1563196182250977	0.2338084578514099	0.8651143163442612	3.8163833618164062	1.9540079832077026	-6.919336795806885	-1.9141032695770264	3.6727921962738037	0.8723125159740448	1.2561172544956207	1.379135400056839	1.3944682776927948	1.2083286345005035	0.3337605595588684	-1.5347697734832764	1.8233515620231628	1.893945574760437	0.5878410935401917	1.4577646553516388	0.850646585226059	-0.02479565143585205	-0.333762526512146	0.24704885482788086	-0.30925965309143066	2.3019238710403442	2.585957646369934	1.3091803789138794	2.7119256258010864	2.648136854171753	1.3922158777713776	0.9317808970808983	2.646895170211792	0.9202215597033501	1.5379315614700317	0.6829628944396973	1.7005975246429443	2.1728419065475464	0.8819901868700981	-0.12800860404968262	2.075401782989502	1.8189417719841003	1.1853297501802444	-0.04855608940124512	-17.361652374267578	1.004061199259013	2.5529738664627075	-0.23635554313659668	3.072084426879883	2.44626522064209	-0.5208898782730103	-0.017289400100708008	-0.08493077754974365	3.7957751750946045	2.6989858150482178	1.4504475593566895	1.0268119629472494	0.3787235617637634	3.208800792694092	1.9179138541221619	1.9367276430130005	0.15564662218093872	0.37886905670166016	2.115301489830017	1.5948359966278076	-0.2688826322555542	1.1948719322681427	1.937968134880066	1.278834193944931	0.6283814013004303	1.8327020406723022	0.40326982736587524	1.6943867802619934	3.0535218715667725	0.9168423041701317	1.2986229360103607	1.0691977515816689	0.2086564302444458	0.8440433889627457	1.0173157788813114	2.3058888912200928	2.471422553062439	0.4055141806602478	0.9816917330026627	1.1784134656190872	-0.27516603469848633	-0.1184380054473877	-0.06810355186462402	0.4381689429283142	1.4206572771072388	1.4996002912521362	1.604911744594574	-0.5697591304779053	5.784453392028809	1.0379548147320747	1.9879654049873352	0.7424520254135132	1.5268147587776184	-1.2038016319274902	0.31948745250701904	0.8727349787950516	-1.4005470275878906	1.3540328741073608	4.178639650344849	0.9283047914505005	0.3775902986526489	0.9431664347648621	1.874324917793274	0.8468933254480362	1.552523910999298	0.7952130883932114	3.0734283924102783	-0.8191113471984863	-0.24376273155212402	0.8250869065523148	0.42977017164230347	1.3826518654823303	1.0414394475519657	0.3993918299674988	1.429726630449295	1.8487748503684998	1.173657849431038	1.7154874801635742	0.8328066915273666	0.945027656853199	1.795746922492981	2.0963889360427856	0.8871617466211319	1.4929408133029938	0.4595751166343689	1.997390627861023	0.709627628326416	-0.7811336517333984	1.1308196932077408	0.3729258179664612	1.4863558411598206	1.4642127454280853	0.140896737575531	-0.11891388893127441	2.3036746978759766	1.3547870814800262	0.1243356466293335	1.4611463844776154	0.31360357999801636	1.5882031321525574	0.05540543794631958	1.238490104675293	1.1595098972320557	1.7750549912452698	2.731129765510559	-0.9767796993255615	-0.3661212921142578	0.39230793714523315	0.27632659673690796	0.5914183855056763	0.8747475147247314	-0.334680438041687	0.5775687992572784	2.0802870988845825	0.49837726354599	2.083728790283203	0.437452495098114	3.3509867191314697	0.18175220489501953	1.102726235985756	1.8631735444068909	3.139176607131958	0.4780350923538208	0.4527701139450073	1.2564996182918549	3.328028917312622	1.675826609134674	-0.2860459089279175	1.9454081654548645	1.9708808660507202	-0.21776938438415527	3.900193929672241	2.2192587852478027	2.7965586185455322	3.1400907039642334	0.24882572889328003	0.9380492903292179	2.129409432411194	0.24727970361709595	0.8336763083934784	2.230012893676758	0.5948528945446014	-0.32857370376586914	0.2247881293296814	0.1811426877975464	2.151368021965027	0.28748786449432373	2.4375771284103394	1.1117235347628593	1.6506839394569397	1.9928715825080872	2.4332016706466675	0.3936867117881775	2.443186044692993	1.0946840941905975	0.919731430709362	2.337087035179138	1.0805186405777931	-0.8813116550445557	2.1495598554611206	-2.013638734817505	1.3548464179039001	-0.13299560546875	-0.7858986854553223	1.4320433139801025	-0.20331382751464844	-0.32735228538513184	0.32231998443603516	1.3723156452178955	1.3008850812911987	0.9135595485568047	4.234653472900391	1.1142100468277931	1.4903134107589722	1.0016165879787877	1.110832467675209	0.9405156821012497	1.4929855167865753	1.3552249670028687	0.8458293974399567	-0.6321713924407959	0.15784913301467896	-1.0758049488067627	0.06957530975341797	-0.03274238109588623	0.30023229122161865	1.582741141319275	1.645319640636444	0.3581976890563965	0.8682214021682739	0.7518083155155182	1.0803844332695007	1.1688472777605057	0.15922009944915771	1.520987868309021	0.18318527936935425	1.444139003753662	0.4023970365524292	0.8911900669336319	2.471763849258423	1.1794727444648743	2.7141525745391846	0.4243048429489136	4.978633403778076	0.5616576969623566	0.7608731091022491	0.98740229383111	1.9476385712623596	0.03573501110076904	-0.6809905767440796	0.8978976383805275	0.8079709708690643	0.7726274877786636	1.3288761675357819	-0.5210330486297607	2.807059645652771	0.4533030390739441	-0.011020898818969727	2.2175813913345337	4.379492282867432	-0.7501541376113892	0.2468140721321106	1.0771671906113625	-0.6655498743057251	1.5154201984405518	1.4860058724880219	1.5659979581832886	1.897568702697754	1.160834476351738	2.529936909675598	1.1865156143903732	2.3494815826416016	1.9249303936958313	0.6920197010040283	2.9251186847686768	1.011186147108674	0.44152140617370605	3.226829767227173	2.5707823038101196	-0.3926025629043579	1.1839111745357513	0.4645744562149048	1.9397162199020386	1.33635675907135	0.8991473913192749	-0.7813271284103394	-0.4527322053909302	-0.26382195949554443	1.0465879924595356	2.945741057395935	2.217325806617737	-1.9933598041534424	-1.0851356983184814	1.7544308304786682	1.4511180818080902	2.013512969017029	2.231416344642639	0.8772340044379234	1.6478237509727478	-1.6457562446594238	-0.3709489107131958	1.9106410145759583	1.5290604829788208	2.4120126962661743	-0.5581868886947632	1.0206098537892103	0.287145733833313	-0.41435694694519043	0.34313786029815674	1.503158986568451	1.7058300375938416	1.9976394772529602	-1.8410208225250244	0.32113146781921387	-12.599872589111328	1.5678684711456299	-0.7382785081863403	0.578327089548111	2.2202614545822144	2.035341262817383	2.415286064147949	1.340134710073471	2.235214948654175	0.104422926902771	0.468211829662323	0.5926103889942169	-2.297523260116577	2.850874662399292	0.6800248622894287	1.3355548679828644	0.4037390947341919	0.9808390755206347	2.8916285037994385	0.11731493473052979	1.0485563650727272	1.657862365245819	1.0162102598696947	0.12227797508239746	3.1135385036468506	0.07733005285263062	2.0819329023361206	0.3854016065597534	1.5460078120231628	1.4428713917732239	0.41234344244003296	-0.17103707790374756	0.7088020443916321	1.6702557802200317	1.6865454316139221	1.1915014684200287	1.8861291408538818	1.577035367488861	0.7515379637479782	0.08373463153839111	1.5358048677444458	1.4580051600933075	2.2426974773406982	0.18532663583755493	0.7893949896097183	0.525839626789093	1.0342777483165264	2.4493316411972046	2.246463179588318	0.3029834032058716	2.1206365823745728	3.336432695388794	2.0237964391708374	0.3265700936317444	-2.6199493408203125	1.3576160967350006	-0.19140863418579102	1.3133992552757263	1.4560361504554749	0.5159323215484619	2.1989420652389526	0.5101335942745209	0.6959086060523987	1.1817012429237366	2.3840548992156982	0.11521440744400024	1.1744685620069504	-0.3768455982208252	-1.0328564643859863	1.6874749064445496	1.5160459876060486	2.4450937509536743	1.112111210823059	-1.2371444702148438	0.5825173258781433	1.3768803477287292	2.1399474143981934	1.2582375407218933	2.2544429302215576	0.5117816030979156	0.5658381879329681	1.2185356467962265	0.8013836145401001	0.8364385515451431	0.6930901110172272	0.6412463486194611	0.10404527187347412	0.17832428216934204	1.4885902404785156	0.2791171073913574	1.099125899374485	2.795558452606201	1.2038350701332092	0.5871137976646423	2.2087955474853516	1.7599169611930847	2.598555088043213	-0.5166077613830566	0.4597742557525635	1.0075730802491307	0.05425596237182617	1.8257279992103577	2.0107229948043823	1.3549356758594513	0.14455455541610718	0.7161672413349152	0.9598553366959095	1.3469909131526947	0.8316826671361923	0.25564587116241455	1.8621644973754883	0.21237218379974365	-0.7972021102905273	2.1658430099487305	0.3687018156051636	0.35483288764953613	-0.038793325424194336	0.5148465931415558	0.793040543794632	0.47636353969573975	1.3950632214546204	2.088760018348694	2.1929644346237183	3.2859792709350586	0.9907244760543108	0.8697723299264908	0.3271312117576599	-0.014572978019714355	2.7380160093307495	1.0335913076996803	-1.007368564605713	1.505078911781311	1.504254698753357	1.7561106085777283	2.0036855936050415	0.15116596221923828	1.6972231268882751	-0.7919061183929443	1.732525646686554	-0.9334061145782471	0.49072468280792236	-1.1254253387451172	1.1726262420415878	1.4315562546253204	1.9846845865249634	0.8338343650102615	1.9821982979774475	1.083943672478199	0.6076805293560028	1.8466049432754517	1.1638191938400269	0.7850622832775116	1.2382296025753021	0.583649605512619	1.7282977104187012	1.2798525393009186	2.284292697906494	1.0402307398617268	0.9826862774789333	1.6291391253471375	1.1051618233323097	-0.06548190116882324	0.3673410415649414	0.7118791043758392	-1.783869981765747	1.9973994493484497	0.9346212819218636	1.237691655755043	-1.1365623474121094	1.5482960939407349	-0.012571930885314941	1.0682210326194763	0.25969886779785156	-0.013663411140441895	-0.6874991655349731	-1.9215257167816162	1.9987432956695557	0.6848832964897156	-0.36149144172668457	1.092633217573166	0.15756595134735107	1.8702405095100403	3.014580488204956	2.5810391902923584	2.008513927459717	-0.9747861623764038	1.003588309744373	1.0415372736752033	1.3666022717952728	0.06621628999710083	3.7765798568725586	0.8606273531913757	1.9787933230400085	1.3175998628139496	0.36541980504989624	0.0863875150680542	1.494669646024704	0.6360290944576263	1.4932212829589844	-0.9935938119888306	0.45057010650634766	2.1301909685134888	1.945318877696991	-0.8898851871490479	1.0938352271914482	1.3271079063415527	-0.8479266166687012	2.0855813026428223	1.6203820705413818	3.1940395832061768	0.31197065114974976	2.0367865562438965	2.530688524246216	1.066420130431652	0.3624534010887146	0.10787326097488403	-0.16459667682647705	0.7963602542877197	1.858607292175293	1.6583598256111145	2.4005074501037598	0.2938438653945923	1.6379268169403076	0.12031280994415283	2.0928525924682617	0.5345939695835114	1.3152250945568085	-0.7410669326782227	0.5963892936706543	1.5850449204444885	1.7814875841140747	1.230502963066101	3.3551113605499268	0.30641716718673706	1.993473470211029	0.18835294246673584	-1.2442419528961182	0.45577359199523926	2.9445773363113403	-0.2763493061065674	0.8095056265592575	1.8378965854644775	0.09270250797271729	1.1461427807807922	0.5817194283008575	1.200663611292839	-0.007611632347106934	1.8042588829994202	1.0377668179571629	1.085162676870823	20.595746994018555	2.810948133468628	-0.14826345443725586	3.0289559364318848	1.523696780204773	0.8187778294086456	0.9734827857464552	3.3113489151000977	1.1768917739391327	1.314921110868454	0.22315829992294312	1.6621719598770142	0.9563189670443535	0.2448936104774475	2.3270323276519775	0.8750410079956055	1.6324177980422974	-1.5148429870605469	1.2704507112503052	4.478069543838501	2.175442099571228	-0.5399165153503418	1.9931146502494812	-0.1469118595123291	1.327732115983963	1.7366403937339783	3.971339464187622	-0.051775574684143066	1.7568930983543396	-0.1297541856765747	1.0915827080607414	2.1962143182754517	2.3311978578567505	2.639084219932556	-1.6144847869873047	0.7317399382591248	3.4098570346832275	0.16486114263534546	-0.8818231821060181	1.1854362189769745	-0.6165496110916138	1.6488667726516724	0.44887280464172363	2.1118972301483154	1.0319055244326591	2.0052236318588257	-1.2342414855957031	2.223867893218994	0.18786990642547607	1.2367282807826996	0.005498230457305908	1.1274788975715637	0.2708282470703125	1.8043028712272644	2.265794277191162	-0.05088376998901367	-0.7562170028686523	2.784898042678833	1.7208654284477234	0.4805833101272583	0.27832210063934326	0.5359422266483307	2.3528348207473755	0.705145925283432	0.739153265953064	2.8598384857177734	0.5527413189411163	1.9351908564567566	1.951284646987915	-0.5962048768997192	0.34327560663223267	1.4700299799442291	0.6168542802333832	1.216282606124878	1.5141888856887817	1.2497288584709167	0.7859203815460205	2.1226327419281006	1.0756631419062614	2.2505873441696167	0.9305674880743027	0.3475193977355957	0.9902562974020839	0.3397027254104614	0.3041614890098572	1.8832629323005676	2.402810215950012	0.465004026889801	1.2897187769412994	1.7972495555877686	10.468235969543457	-0.04439353942871094	1.4274499416351318	0.2463136911392212	2.85214900970459	2.0126748085021973	0.1886264681816101	2.9142831563949585	0.6994324624538422	1.279718667268753	2.51313054561615	2.091053605079651	0.5454418957233429	2.2436132431030273	2.4586466550827026	1.0562129393219948	1.7221513986587524	2.8364962339401245	1.7918911576271057	-0.4913433790206909	3.1850361824035645	0.4391396641731262	2.556155562400818	1.2114264369010925	0.9422019273042679	1.053601235151291	1.0972643867135048	0.4327280521392822	1.806109607219696	1.737350583076477	-0.5280622243881226	3.463117837905884	1.5259711146354675	-2.3747410774230957	1.093917652964592	0.5167495608329773	-0.06004762649536133	-0.21981215476989746	0.33252453804016113	1.34452623128891	1.2473965734243393	-1.2714285850524902	1.444581687450409	-0.0524369478225708	-1.1127328872680664	0.2464369535446167	1.6931361556053162	-0.6531221866607666	-0.04251813888549805	2.8991222381591797	-0.6225550174713135	2.723787784576416	0.6808533668518066	2.8632988929748535	1.0402941070497036	1.1347688883543015	2.345025420188904	-0.1660710573196411	0.349201500415802	0.4265891909599304	2.9083417654037476	1.1735335290431976	1.7784531712532043	1.4051382541656494	-1.2537999153137207	1.1700811088085175	-0.11088740825653076	-0.017484545707702637	0.29083067178726196	-0.29162275791168213	1.4844226837158203	0.9013196676969528	0.39102429151535034	0.03710299730300903	1.1574447602033615	-0.2793734073638916	2.3039541244506836	1.282766878604889	1.9210903644561768	0.1962186098098755	3.630825996398926	1.5101994276046753	0.6950821280479431	1.1078999936580658	-0.24104201793670654	1.4751647412776947	1.0907496884465218	0.7207414507865906	0.7999055683612823	1.0859013125300407	-0.4768768548965454	1.0032959021627903	2.0295064449310303	0.3387995958328247	0.8153190910816193	1.3980493545532227	2.8058884143829346	0.1624796986579895	0.1552174687385559	0.03547227382659912	1.4963326454162598	1.5581963658332825	1.1044490486383438	2.3790279626846313	0.9260545521974564	-0.8925198316574097	1.111285537481308	0.6836547255516052
calmare_1	1.088772900402546	0.5177282094955444	1.6496565341949463	0.024615049362182617	2.0116353034973145	2.3093401193618774	2.145550489425659	-3.4003171920776367	0.1602163314819336	2.9121404886245728	-1.4884617328643799	0.5699188411235809	2.252828598022461	2.247051954269409	-0.6341722011566162	1.409074604511261	0.631695955991745	0.697273313999176	-1.3663063049316406	-0.005465030670166016	1.3674841523170471	0.672311544418335	1.995095133781433	0.23653388023376465	1.039561364799738	0.7743149846792221	2.303210735321045	1.4918197989463806	1.4726159274578094	2.0923759937286377	1.5861319303512573	1.0866852849721909	-0.8321946859359741	1.3703416585922241	2.352518081665039	1.4012862741947174	1.2648342847824097	1.1299455910921097	0.5874692499637604	-0.3512251377105713	1.8307618498802185	1.4651349484920502	3.372238874435425	0.9375325702130795	0.24234920740127563	-12.886241912841797	0.6395845413208008	2.1934534311294556	0.649689793586731	1.589686930179596	2.145137906074524	0.6065964698791504	0.26940155029296875	0.16116946935653687	2.2037386894226074	1.4514139592647552	1.5088754892349243	-0.3958979845046997	1.3768683075904846	3.0895557403564453	1.9189426898956299	3.093409538269043	1.9886677861213684	1.4628795981407166	2.5137161016464233	2.406710147857666	-1.697239637374878	1.6152522563934326	1.5812509059906006	-0.41595685482025146	1.0361623130738735	0.812102735042572	2.4800310134887695	0.520322859287262	1.043228518217802	2.118042230606079	2.2715996503829956	1.786191463470459	2.3588054180145264	1.5134732723236084	1.1492700278759003	2.6770453453063965	2.305032968521118	1.9265844821929932	0.2805914878845215	2.1642863750457764	-0.1849994659423828	-0.28090381622314453	-1.366150140762329	-0.06314432621002197	2.788333296775818	4.7974958419799805	-1.0400030612945557	2.226991891860962	1.9476711750030518	2.04988431930542	2.850130081176758	1.5165950059890747	-0.27204883098602295	-0.8301234245300293	0.690045565366745	2.083508253097534	-1.1264569759368896	0.9926417004317045	3.88786244392395	0.7006235718727112	-1.4147357940673828	1.7102108001708984	1.5406691431999207	-0.7526326179504395	0.8388244807720184	0.9822409711778164	2.046733021736145	0.5352266728878021	1.7242120504379272	0.6268053352832794	-0.6237871646881104	0.7534539103507996	2.3999698162078857	1.761450469493866	0.9400272965431213	-0.6797158718109131	-0.06581258773803711	1.9207674860954285	0.7573456019163132	0.04316890239715576	0.6131162047386169	-0.4248621463775635	0.0158463716506958	1.3484254777431488	1.0058644944801927	2.5714032649993896	-0.2178114652633667	1.8917683362960815	1.1984414011240005	0.648124635219574	3.9048995971679688	3.267091751098633	0.21686947345733643	1.5093793869018555	0.7469090819358826	0.696635365486145	-1.7703120708465576	0.4331803321838379	1.1364751160144806	0.19050872325897217	0.5218483209609985	1.9682739973068237	2.2725586891174316	1.1123747304081917	0.5434331893920898	1.9381877183914185	-1.310741662979126	0.8436883836984634	1.2105702459812164	1.8341501355171204	0.7771472334861755	0.718709260225296	1.0207534115761518	1.7918078303337097	2.3351892232894897	2.6617255210876465	3.0517899990081787	1.4290882050991058	-0.40199995040893555	2.4399850368499756	0.9452266618609428	2.6943650245666504	1.3459867238998413	1.4766517281532288	2.4255117177963257	3.8873019218444824	3.570328712463379	0.3560928702354431	1.549497127532959	3.17712140083313	-0.1511596441268921	3.0203757286071777	2.499606728553772	2.539487361907959	1.679148256778717	0.5078737437725067	-0.3182096481323242	1.3476290106773376	-0.5195622444152832	2.3940846920013428	1.8021164536476135	1.1633962392807007	0.7075683772563934	1.077953815460205	1.2364502251148224	-1.8209638595581055	-0.14527559280395508	0.7265759110450745	-0.2774235010147095	0.45692282915115356	-0.0037603378295898438	1.4914123713970184	1.0631322041153908	3.1044092178344727	1.379424273967743	1.3091415166854858	0.017248690128326416	-0.9698243141174316	0.7753888219594955	1.3649019002914429	-0.7371361255645752	2.622187852859497	0.8848641738295555	0.8832469880580902	0.9160852208733559	0.8055604547262192	-0.5557924509048462	1.0327263921499252	2.5948652029037476	1.1346712410449982	-0.2443448305130005	5.398492336273193	2.1756834983825684	2.0328452587127686	0.49707114696502686	2.3850865364074707	0.6087350845336914	0.7318012416362762	-0.11447799205780029	0.619679868221283	-0.7684788703918457	1.1250942796468735	-1.2282073497772217	1.708752989768982	1.9588449001312256	0.6280098557472229	1.1114329621195793	0.22867292165756226	1.0393818952143192	1.3437999188899994	-0.132948637008667	1.780366063117981	0.8784916698932648	-0.44482171535491943	-0.37715768814086914	0.9613286592066288	-0.5578802824020386	-0.06452667713165283	-1.3899433612823486	2.1391401290893555	2.103288173675537	0.8892346546053886	2.1975170373916626	5.246856689453125	1.1004019379615784	2.1066670417785645	0.7106308937072754	0.4817048907279968	1.4346674978733063	1.4409182369709015	2.357928156852722	0.2271532416343689	-0.3040633201599121	0.05889701843261719	0.9769243523478508	1.3712361752986908	1.0743725970387459	-0.5964032411575317	-1.1644206047058105	4.184351205825806	-0.955202579498291	1.2114608883857727	0.2323475480079651	0.015541315078735352	-0.28602027893066406	-0.37931346893310547	2.3421549797058105	2.3957611322402954	0.37002086639404297	1.8718161582946777	0.6827994287014008	0.3691139817237854	1.5207436680793762	0.3718074560165405	1.6969794034957886	1.0414127185940742	0.03450369834899902	1.8640294075012207	-0.34454047679901123	1.459248661994934	0.5503251254558563	0.3906576633453369	0.8416647613048553	2.722526431083679	1.6369743347167969	-1.7644541263580322	-0.00928354263305664	-2.3625741004943848	1.4823138415813446	1.526786208152771	0.7014385461807251	-2.6035375595092773	-1.330496072769165	1.2002853006124496	-0.15758132934570312	2.8022505044937134	0.8616358637809753	0.8182522654533386	-0.14307844638824463	1.297199696302414	0.5417661666870117	2.5642231702804565	-0.41206037998199463	1.1756147891283035	0.20608854293823242	-0.3863852024078369	-0.32757627964019775	0.07474255561828613	1.2057039737701416	1.3919065594673157	1.3613801002502441	1.2462934404611588	-0.8667902946472168	1.8868294954299927	-22.878568649291992	3.031782865524292	0.3253347873687744	0.8256381452083588	1.8942317962646484	0.4493599534034729	2.1197078227996826	2.128709316253662	1.3188552558422089	-0.4299428462982178	0.9231226146221161	0.39845794439315796	-5.429967403411865	2.6535104513168335	0.1313561201095581	1.49127995967865	1.1125456392765045	-0.5276564359664917	3.964146614074707	1.108047977089882	2.0938472747802734	0.6280842125415802	3.0660288333892822	0.6627987623214722	-0.08741176128387451	-0.8369925022125244	2.9813270568847656	-1.1843311786651611	0.9108269363641739	0.3487638235092163	1.8092820048332214	-0.42440855503082275	1.6820234656333923	1.757138967514038	2.0673454999923706	0.32942575216293335	0.7452174425125122	1.1476397514343262	0.7685102075338364	2.1388018131256104	2.0308964252471924	2.223936438560486	2.383784770965576	0.902796745300293	1.1214181333780289	0.8516193628311157	1.2781851887702942	1.6608149409294128	2.6818275451660156	-0.38425111770629883	1.6785162091255188	0.9341632127761841	0.5363668203353882	2.5171897411346436	-0.6163005828857422	0.16208678483963013	0.7821510285139084	0.7245026230812073	2.5383461713790894	1.658621370792389	2.160467505455017	0.2109726071357727	1.7550678849220276	0.2293221354484558	2.3913673162460327	1.8970323204994202	0.23918545246124268	1.2686574757099152	-0.2640354633331299	1.9163494110107422	1.861854910850525	-0.40247488021850586	0.6122637093067169	-1.9676284790039062	0.7814951539039612	0.004144012928009033	0.4230162501335144	0.7908868938684464	2.393345355987549	-0.16072702407836914	0.8020623326301575	1.3610287308692932	4.808860778808594	0.7740709483623505	2.2500529289245605	-0.4804805517196655	0.6545175015926361	1.6664438247680664	0.9050619900226593	0.026136696338653564	1.3331206440925598	0.518473744392395	1.6965745687484741	1.077798955142498	2.1322927474975586	-0.21549534797668457	2.7842180728912354	1.1131083443760872	2.5775487422943115	-0.33252668380737305	1.0982767194509506	1.752183198928833	2.5618144273757935	1.2469870299100876	0.2496812343597412	2.7447447776794434	-0.3654974699020386	1.3837825953960419	0.10529392957687378	1.2273388504981995	1.1548078656196594	2.020711898803711	0.737337201833725	1.20413438975811	1.4474141895771027	0.6431337296962738	-0.026601076126098633	0.5805256366729736	3.509575366973877	-0.17752337455749512	-0.9850641489028931	1.8897303342819214	1.557779848575592	3.0074615478515625	0.10092759132385254	1.0341079980134964	1.339239627122879	1.4051294326782227	1.6663349866867065	2.778616428375244	0.5004051625728607	0.19217264652252197	-0.48220646381378174	1.739328145980835	0.9931930471211672	0.6083037555217743	0.606005072593689	-0.44126272201538086	1.4780730605125427	-0.7175097465515137	-1.2892801761627197	-0.21907782554626465	2.211656093597412	2.1446117162704468	1.956507682800293	1.4100461602210999	0.9247983321547508	1.8217833042144775	-0.27666234970092773	0.16005969047546387	2.6154990196228027	0.06556868553161621	2.1423499584198	-0.5383310317993164	0.5392454564571381	1.379978597164154	-0.02830636501312256	0.754299059510231	1.757410705089569	2.72220516204834	1.1039367988705635	2.4550305604934692	3.008591413497925	1.5839514136314392	-1.1957478523254395	0.9381309486925602	1.2062961906194687	1.0362614393234253	0.49424391984939575	2.4396424293518066	1.5666142702102661	0.4463787078857422	0.5249296724796295	1.4559842348098755	-4.180321216583252	1.018806068226695	1.9009779691696167	0.03318893909454346	1.1965950727462769	1.6592448949813843	0.3821032643318176	-0.6236716508865356	1.714529573917389	1.4988329112529755	2.6585406064987183	-0.04879486560821533	1.8900818228721619	-0.3636341094970703	-0.7972395420074463	0.7618872374296188	2.5069634914398193	0.1877681016921997	3.45263671875	1.3415111005306244	1.2798801958560944	1.4571099281311035	1.389131247997284	-0.2594107389450073	0.9910991787910461	-1.8152782917022705	2.968213200569153	-0.02818012237548828	0.4239683747291565	-0.5517544746398926	-1.2285277843475342	0.6912830173969269	1.0651857629418373	0.852065771818161	1.845103681087494	3.0791687965393066	0.6165270209312439	1.9068565368652344	2.7778050899505615	-0.06685304641723633	1.203792542219162	1.7467392683029175	-1.9281487464904785	1.3767720460891724	2.416731834411621	1.8561134338378906	3.7890686988830566	0.35205161571502686	0.8880527317523956	1.4322401285171509	2.2240309715270996	0.47676390409469604	2.529471755027771	-0.1426854133605957	2.3948731422424316	2.510520100593567	1.7390577793121338	1.7258939146995544	2.400589108467102	1.6840389966964722	1.4196125864982605	0.46378177404403687	0.6683915853500366	-0.09446251392364502	3.0925040245056152	0.6569606065750122	-0.08725225925445557	1.4592313766479492	3.038848638534546	2.103370428085327	1.1170052662491798	0.8842386901378632	1.9479575753211975	1.5333413481712341	0.8195369839668274	0.6322165727615356	21.589061737060547	2.88422691822052	0.17928534746170044	2.3591456413269043	4.199021816253662	0.9625255987048149	1.0837931334972382	2.4100112915039062	-1.63692307472229	0.6964892148971558	0.6366349160671234	2.1681920289993286	1.0063013266772032	1.9956280589103699	0.5542200803756714	2.1880850791931152	0.43474888801574707	0.8183903098106384	1.8962233066558838	1.9752424955368042	3.9044322967529297	-2.4176857471466064	3.5212199687957764	0.1886979341506958	0.7141802608966827	-0.6219595670700073	2.2417354583740234	0.2498166561126709	1.7460399270057678	-0.19190454483032227	2.7140707969665527	1.2088953852653503	2.0838953256607056	1.3479468524456024	0.45933330059051514	1.4609247744083405	2.366602301597595	1.6765472292900085	1.099944829940796	0.8702808171510696	0.1746259331703186	2.4830775260925293	-0.3174099922180176	-1.1502468585968018	0.6812665164470673	1.2048764079809189	0.20403766632080078	1.0160226002335548	2.0461034774780273	-0.12304067611694336	-0.01853489875793457	0.9971544130239636	1.2064838409423828	1.9663347601890564	1.6563058495521545	-0.050801753997802734	1.5727869272232056	2.3861570358276367	0.6311176717281342	1.960793375968933	0.5183671414852142	0.7375958859920502	2.134360194206238	0.5245903432369232	1.3787899911403656	1.154555007815361	2.1634281873703003	2.3301219940185547	-0.011385917663574219	-0.7885807752609253	0.2665697932243347	0.9129831418395042	0.9430796504020691	0.6529708504676819	3.080360174179077	2.6403452157974243	0.2134142518043518	1.2931843996047974	-0.1908198595046997	0.9514477998018265	-0.34608733654022217	0.8423532545566559	-0.11489284038543701	-0.3475480079650879	1.1321367472410202	1.8369482159614563	3.3834877014160156	-0.6348302364349365	0.18299943208694458	1.0675354078412056	12.63979434967041	1.6508439183235168	0.13152384757995605	-0.5952279567718506	0.3761231303215027	1.661308765411377	0.7859054654836655	1.4255692660808563	2.239350914955139	0.004961669445037842	1.4229292571544647	1.9956032633781433	0.9687887169420719	2.3815951347351074	1.9096741080284119	1.2480057030916214	2.4227001667022705	2.408778667449951	-0.9640668630599976	2.2554004192352295	-0.21763408184051514	1.4665560126304626	1.9574555158615112	-0.09009718894958496	1.0648675113916397	-1.549020767211914	0.3088918924331665	0.6188852787017822	1.6636675596237183	1.6378772258758545	-0.8454511165618896	1.9884521961212158	2.018943428993225	-0.6619910001754761	-0.8099713325500488	1.928844690322876	-1.0103998184204102	2.5905942916870117	0.5495728254318237	2.525460362434387	0.9924343544989824	-2.2944467067718506	1.6934101581573486	0.7399721145629883	0.16634583473205566	1.2017825245857239	2.3647700548171997	-1.5512690544128418	2.226834297180176	1.7699515223503113	1.3136991262435913	1.4088059961795807	0.4724644422531128	1.7493411898612976	0.7110026776790619	3.0964856147766113	-0.660750150680542	0.424446165561676	-0.9414361715316772	0.26913678646087646	0.7287073731422424	0.42298370599746704	1.9982340335845947	0.6323057413101196	-0.6738262176513672	2.7215964794158936	0.5169915556907654	0.856746718287468	1.001146539230831	-0.8719321489334106	0.8009870052337646	0.5266793668270111	1.3414117991924286	2.419511318206787	4.591391563415527	0.7854620814323425	1.866729497909546	0.4678126573562622	1.3435770273208618	0.33393120765686035	1.505656659603119	0.8103285878896713	-0.18393158912658691	1.8456640839576721	1.84648197889328	1.3285855054855347	1.502436101436615	0.8105568587779999	4.168654680252075	0.2706602215766907	0.8543014675378799	0.7435499131679535	0.42827725410461426	-0.22297978401184082	1.2856009006500244	1.1549362391233444	2.923654317855835	0.8648151755332947	1.3946789801120758	0.789505809545517	0.7279757857322693	-0.5564405918121338	1.0607598274946213	4.190142631530762	0.8748762309551239	0.6506965458393097	0.5036890208721161	0.15996521711349487
calzare_1	0.3631933927536011	1.9087243676185608	0.2768319249153137	0.04744154214859009	0.9125227481126785	1.9379501938819885	0.2398526668548584	-5.281146049499512	-1.1685433387756348	2.4844770431518555	-1.4888088703155518	1.533458948135376	1.076749049127102	2.400991678237915	1.3353296220302582	1.4726611971855164	-1.1226482391357422	-0.5563743114471436	0.6862795948982239	0.9163558632135391	0.11514192819595337	2.255208969116211	2.912419557571411	-1.0743434429168701	0.2978472113609314	0.06656169891357422	0.23126345872879028	1.9717833399772644	0.8612272441387177	0.31151294708251953	0.7900350987911224	1.5705944299697876	1.981998085975647	1.3524762094020844	1.0204876195639372	1.0363839119672775	1.0344235263764858	1.227033793926239	1.7372732162475586	1.5481042265892029	0.8689316362142563	0.9165443480014801	2.8476572036743164	2.631476640701294	-1.8013262748718262	-15.946588516235352	1.3290463984012604	2.6838204860687256	-1.426292896270752	2.4840043783187866	1.3688403964042664	-0.440338134765625	0.9505998156964779	1.6237801313400269	3.6457369327545166	0.8572040498256683	1.8349525332450867	0.7444282472133636	0.10449421405792236	3.5991508960723877	1.3231701254844666	1.7552574276924133	0.4038463234901428	2.9320805072784424	0.8954792693257332	2.2302387952804565	-1.107072114944458	0.9687211439013481	3.3252763748168945	1.2528433501720428	1.2950634956359863	-0.12161839008331299	0.7730079740285873	1.272324949502945	0.5570336878299713	1.1761074662208557	1.4391982555389404	2.4005696773529053	1.0771473795175552	0.8823241516947746	2.649212121963501	1.1630350202322006	2.6911697387695312	1.3247725665569305	0.494509220123291	0.16677123308181763	-0.6709020137786865	-1.3523025512695312	1.3216893672943115	0.6538619995117188	1.8356633186340332	3.0211195945739746	-0.5617300271987915	-1.2207560539245605	2.1052883863449097	0.9331988915801048	1.31292924284935	-1.0237088203430176	2.313987970352173	0.985437273979187	-0.6576941013336182	1.6397626996040344	-1.0365595817565918	-0.2187865972518921	2.013432741165161	0.4493945837020874	1.4190420508384705	1.3719342648983002	0.24441510438919067	-0.03170490264892578	-0.15103483200073242	-0.1583266258239746	3.5622949600219727	0.11485761404037476	2.2336047887802124	0.42924368381500244	0.8476126492023468	0.9088059961795807	1.5150476694107056	1.3051705360412598	2.191969633102417	1.4955806732177734	-0.26145100593566895	0.7605021148920059	1.7001326084136963	-0.3628500699996948	2.771312117576599	-0.07970023155212402	-0.45441460609436035	1.1316599249839783	1.0504108741879463	2.4870296716690063	0.9090650677680969	0.4898308515548706	-0.7060203552246094	1.176559492945671	2.230979323387146	1.5921334624290466	0.5247762203216553	0.9056805968284607	1.7943215370178223	1.5852980613708496	0.11296451091766357	-1.7971107959747314	1.6580987572669983	2.2873212099075317	-0.35970425605773926	1.057884730398655	1.9592877626419067	0.9090848565101624	-0.7874131202697754	1.0372791066765785	2.412519931793213	2.187908411026001	0.010383069515228271	0.29551517963409424	1.9579808115959167	0.4459318518638611	-0.4958631992340088	2.789877414703369	1.3060326874256134	2.070056676864624	0.9050282314419746	2.23650062084198	0.8486324101686478	1.9019936323165894	1.666610300540924	3.746779680252075	1.5758482813835144	1.4264973998069763	-0.22044813632965088	2.0658674240112305	3.0693466663360596	0.46766549348831177	1.3695868849754333	3.1903491020202637	1.3915327489376068	1.6826949715614319	2.880960464477539	3.0180444717407227	0.4138517379760742	1.6695373058319092	1.1365499794483185	2.079840898513794	-0.09991991519927979	1.5262342691421509	0.9817928560078144	-0.02674579620361328	-0.3748558759689331	-0.3393981456756592	3.0629982948303223	-0.08417904376983643	-0.26661550998687744	2.4679142236709595	0.745562881231308	2.309579849243164	0.8485064506530762	1.2624564170837402	-0.11064434051513672	2.0770775079727173	1.2156394571065903	0.9517267160117626	1.4085583686828613	1.991807460784912	-0.6991792917251587	0.9538005888462067	0.2764590382575989	3.505467414855957	-0.14521408081054688	0.4639125466346741	1.8400103449821472	0.28117746114730835	-0.49517810344696045	1.6388705968856812	-0.5465739965438843	1.158994346857071	1.9522027969360352	4.452902793884277	0.744589239358902	1.0161117278039455	0.24740439653396606	0.952141210436821	0.29618948698043823	2.2316746711730957	1.3459527492523193	1.299786776304245	1.5285474061965942	-0.3050961494445801	-0.16973304748535156	0.9551642797887325	1.3168621361255646	1.278680831193924	3.125943422317505	0.8016190826892853	1.4808935523033142	2.2879756689071655	0.8413719683885574	2.7025619745254517	1.6533823013305664	1.7743102312088013	1.512612521648407	0.7313098609447479	1.522293210029602	1.5332859754562378	0.2950775623321533	2.1420267820358276	2.504498243331909	2.3618959188461304	1.410803645849228	3.9977304935455322	0.7552567720413208	3.1627113819122314	0.3850744962692261	0.8122181743383408	0.8802804127335548	0.5492937564849854	0.09290838241577148	0.5363020896911621	0.42914849519729614	0.2807070016860962	1.0307748764753342	2.703280210494995	2.3768787384033203	0.3461807370185852	1.121085211634636	3.258481979370117	-0.13172030448913574	0.569975733757019	0.4502286911010742	0.3566521406173706	-0.40868306159973145	0.5607144832611084	2.6890698671340942	0.4609626531600952	2.702227473258972	0.9020835384726524	1.0338145717978477	1.7257682085037231	0.06821656227111816	0.2791767120361328	1.511112630367279	1.4185576140880585	0.4238485097885132	2.3331083059310913	0.5091197490692139	0.6826677322387695	0.8897037953138351	0.5143837928771973	0.4461479187011719	1.954689085483551	2.579230308532715	0.4844396114349365	-2.089017868041992	-0.6593407392501831	1.4502624869346619	2.120755195617676	0.9983669556677341	-3.1400928497314453	-0.0789719820022583	0.9824662506580353	2.339953660964966	1.2238245457410812	0.6772353053092957	-0.41746997833251953	1.5061779022216797	0.5354980826377869	0.27412617206573486	1.7290014624595642	-0.1180652379989624	1.0996700525283813	0.191864013671875	-0.6490482091903687	0.10680246353149414	0.07676047086715698	1.766744315624237	2.1194920539855957	0.9745869673788548	1.078977182507515	-0.33464908599853516	1.2940987646579742	-10.800494194030762	1.5918936133384705	-0.4818880558013916	0.7471593916416168	2.0597147941589355	1.5398852825164795	1.0820006728172302	2.28217875957489	1.2733794450759888	0.5032350122928619	1.7726730108261108	0.15661919116973877	-5.046436786651611	1.860494613647461	1.2172130048274994	2.2236775159835815	1.0809298679232597	2.093742251396179	2.2630401849746704	-0.6576248407363892	1.278477817773819	2.4775196313858032	2.1230783462524414	0.48164743185043335	2.3391473293304443	1.7164281606674194	0.7881613373756409	0.033977210521698	1.913918137550354	0.28543782234191895	1.0437888950109482	-0.6020431518554688	-0.15060746669769287	2.5831918716430664	1.9351362586021423	0.582148939371109	0.3076552748680115	-0.053601980209350586	2.0806819200515747	2.80495548248291	0.6335411667823792	0.14315831661224365	1.8406144976615906	1.545998990535736	1.1082912981510162	-0.15759646892547607	-0.7979165315628052	1.326962560415268	2.745102643966675	-0.45469796657562256	1.690547525882721	1.662587583065033	1.7465303540229797	-0.45022308826446533	0.5913883745670319	1.8410277962684631	1.420484483242035	1.0069703087210655	0.985378235578537	0.3088606595993042	0.23668164014816284	0.11014819145202637	1.9369872212409973	1.3677884638309479	2.3795876502990723	2.395811438560486	1.591103196144104	-0.11403453350067139	0.6520542502403259	1.4150030314922333	-0.5474545955657959	0.21738815307617188	1.4622383117675781	0.6235578656196594	1.2890571355819702	1.8037846088409424	1.6866710186004639	1.1948912143707275	2.237432360649109	2.8102335929870605	-0.6982672214508057	0.8215959072113037	0.1452193260192871	1.2796689867973328	-0.19236910343170166	1.2880769968032837	1.5759229063987732	1.5673167705535889	1.0444716438651085	-0.7233011722564697	0.3775936961174011	0.24950164556503296	2.17540180683136	1.4994365274906158	0.01331782341003418	1.242885798215866	0.4193877577781677	0.4158163070678711	1.846771001815796	1.6547881960868835	0.49067163467407227	2.257138967514038	0.5447726845741272	0.9242642968893051	1.5725430846214294	0.7417908608913422	1.4476307034492493	3.176968574523926	0.595496416091919	-0.3614705801010132	1.3852247595787048	1.1320176422595978	0.5464686453342438	2.272580623626709	1.4731546342372894	0.38280969858169556	-0.10412895679473877	1.153416708111763	1.00905342400074	0.4589519500732422	0.09177052974700928	-0.5121119022369385	2.3188921213150024	2.4905112981796265	1.2852709591388702	1.6725395917892456	1.3983590602874756	2.8201602697372437	2.4544930458068848	1.4512509405612946	-0.8987956047058105	2.293800711631775	2.165883183479309	1.7989012002944946	1.8689365983009338	0.92155871540308	2.3434674739837646	0.9282235503196716	0.649314820766449	0.29850828647613525	-0.5578122138977051	0.4044587016105652	1.9345296025276184	1.7304925918579102	1.9858835935592651	0.36811065673828125	1.7917782664299011	-0.13854002952575684	1.8686406016349792	1.294772982597351	2.3300684690475464	-0.04233527183532715	0.5356230735778809	-0.1864107847213745	1.7998300790786743	0.8390147686004639	0.9074781537055969	0.274919331073761	2.8470423221588135	-0.3640437126159668	1.3114700317382812	1.6930086016654968	1.6489423513412476	1.6506604552268982	-1.5233235359191895	1.5489783883094788	0.8082368075847626	0.6326445937156677	-0.2579382658004761	1.0583188012242317	0.7305215001106262	2.2819958925247192	0.960294134914875	-0.002572178840637207	-3.822141647338867	0.5642288327217102	1.8191682696342468	1.4509106278419495	0.9618659503757954	3.0319690704345703	1.086046740412712	0.6452959775924683	2.8610551357269287	-0.2305300235748291	2.6287282705307007	1.4201328456401825	0.5176840424537659	0.1273406744003296	1.7841514945030212	0.6017159819602966	1.444410115480423	-0.23712801933288574	2.239404797554016	0.39651310443878174	-0.8408242464065552	1.1508661061525345	0.8848760724067688	2.0035173892974854	1.1704373955726624	-0.8799015283584595	1.3205689489841461	2.5211199522018433	0.9517346918582916	-0.24582695960998535	-0.8432505130767822	2.282000422477722	-0.06934130191802979	0.07596480846405029	1.9047352075576782	2.586920976638794	-0.2020254135131836	1.2670379281044006	2.630316138267517	1.1429421156644821	1.9728178977966309	-1.6431472301483154	-0.4203190803527832	0.6629514098167419	-0.2254016399383545	1.3571148812770844	1.57571142911911	1.2605076432228088	2.716464400291443	0.8582572638988495	2.804311990737915	0.6053640842437744	-0.10159063339233398	0.8019250482320786	0.6227710545063019	-0.26162219047546387	0.73806431889534	2.4111987352371216	3.1850922107696533	2.6616814136505127	1.1702489852905273	-0.004245162010192871	0.7893166244029999	-1.0479016304016113	2.445407748222351	3.2194888591766357	1.1999945491552353	0.9557398445904255	-0.42824435234069824	2.054040312767029	0.8659539967775345	2.2574867010116577	0.34700632095336914	-0.08772706985473633	1.5943690538406372	0.4935169816017151	23.735740661621094	0.7670506834983826	-0.14914774894714355	1.255562424659729	2.007947087287903	0.7642289698123932	1.8713321685791016	2.537068486213684	0.45376455783843994	1.8492791652679443	0.34481823444366455	-0.6291927099227905	2.6642673015594482	2.053148865699768	1.9335322380065918	0.7606155723333359	-0.31862473487854004	0.8207743912935257	2.0536404848098755	2.4910234212875366	0.6272467076778412	1.05327058583498	-0.35642480850219727	1.2047726064920425	1.9717116355895996	1.487686812877655	0.35931897163391113	-1.4397265911102295	0.765044629573822	1.7780359387397766	0.47609013319015503	1.0905401408672333	2.1107250452041626	0.021985769271850586	0.030976295471191406	1.656907320022583	1.5053970217704773	0.9772080108523369	-0.8500384092330933	0.20646971464157104	0.42518168687820435	2.7808420658111572	1.4208557307720184	1.216101199388504	0.6819265782833099	0.5890634655952454	-5.187826156616211	1.8278604745864868	2.440386652946472	0.8539439141750336	-0.24378585815429688	1.1561264097690582	1.1429918110370636	-1.11216139793396	3.017031669616699	0.6630504131317139	0.1452534794807434	-0.9734740257263184	0.642334908246994	3.267725706100464	0.21285301446914673	1.9663666486740112	1.5430182218551636	1.0473589040338993	1.702160656452179	2.6939778327941895	1.48863285779953	2.362299680709839	-0.10288643836975098	0.3135414123535156	0.5212485194206238	0.8329984098672867	1.6852138042449951	2.8653334379196167	1.1224503740668297	0.1373407244682312	0.49817419052124023	1.9485036134719849	1.6586806178092957	0.9389486759901047	0.6757684350013733	-0.15585613250732422	-0.27071332931518555	0.10908633470535278	0.927103616297245	2.795089602470398	2.3255428075790405	1.563403606414795	2.3113749027252197	-0.02681708335876465	10.744556427001953	-0.5784870386123657	-0.290024995803833	0.36117714643478394	0.8408704400062561	0.4833841919898987	0.12663424015045166	0.9128904566168785	1.188764065504074	1.9563579559326172	1.1655920892953873	2.329395294189453	0.7781729400157928	3.052666664123535	1.9199380278587341	1.670388638973236	2.6566697359085083	1.7107005715370178	1.569324553012848	-0.2783341407775879	2.6976736783981323	0.5636917054653168	2.011665940284729	0.9673808738589287	2.563653588294983	0.07214242219924927	0.16007357835769653	2.367448925971985	1.9188628196716309	0.33719080686569214	-0.12301886081695557	1.6288920044898987	2.2271015644073486	1.9207834005355835	1.1463473439216614	1.0493269078433514	0.8745779097080231	-0.6422016620635986	0.4761480689048767	2.3295198678970337	2.6119027137756348	0.10709381103515625	1.6114972829818726	1.1429356187582016	0.38197922706604004	1.1519638150930405	-0.6804971694946289	0.8330439627170563	1.354007065296173	3.0547776222229004	0.8555205762386322	1.8288887739181519	1.8510701656341553	1.2792690992355347	0.9887279067188501	1.7161220908164978	1.862952709197998	1.0929668843746185	0.7721855044364929	0.9342660680413246	2.1010693311691284	0.5922522842884064	0.7418005764484406	2.155410885810852	-0.0061348676681518555	-0.25557589530944824	-0.4099586009979248	-0.596100926399231	-0.1296178102493286	1.06088937073946	1.714227020740509	1.553972840309143	0.582999587059021	2.780072331428528	3.2853033542633057	0.9411921389400959	-0.2528660297393799	1.3840865790843964	1.4799743294715881	1.0733344033360481	2.859237313270569	0.4557420611381531	1.0478454157710075	0.6672647297382355	2.907650589942932	0.18303334712982178	-0.5734061002731323	0.6856998801231384	2.210910439491272	1.9653900861740112	0.13362950086593628	-1.0328869819641113	1.064970076084137	0.41674453020095825	0.4070209264755249	1.7812554836273193	1.8553954362869263	1.7070464491844177	0.8743109107017517	1.0822522416710854	0.7210111618041992	-0.5431252717971802	0.2980192303657532	2.2505433559417725	-0.26419246196746826	0.8777755796909332	0.8208272457122803	0.4118669629096985
cambiare_2	1.1206554546952248	0.5666435360908508	1.5756770372390747	0.32496559619903564	2.151608109474182	2.126217246055603	2.356750726699829	-7.468439102172852	0.3508409857749939	5.323629379272461	1.610390841960907	1.1128979921340942	1.8355403542518616	1.6462512612342834	1.2822464406490326	1.7977628707885742	-2.248725652694702	2.565023422241211	0.636453777551651	2.210065722465515	0.10710185766220093	3.170506715774536	2.1971479654312134	-1.5178265571594238	0.13055843114852905	0.9233318567276001	2.309353470802307	0.9313571006059647	2.3174057006835938	2.515104055404663	-0.10044527053833008	1.5068442821502686	1.949756145477295	2.0245742797851562	0.27076971530914307	1.1582904160022736	2.293226480484009	0.9848377676680684	1.0895238891243935	1.2847438752651215	0.8630203306674957	2.1461440324783325	1.9483835101127625	2.041987657546997	-0.20960760116577148	-16.429325103759766	0.44702380895614624	2.447813630104065	-1.185105800628662	2.135634183883667	3.07977032661438	0.024087190628051758	0.8418809920549393	0.2367081642150879	1.5474568009376526	0.37298309803009033	-0.13026726245880127	-0.5890166759490967	0.5534304976463318	4.084176778793335	1.077394500374794	2.3078765869140625	3.779167652130127	2.528746724128723	0.8106720745563507	2.3470404148101807	2.2053747177124023	1.640854299068451	3.1561999320983887	2.5983747243881226	-0.07600665092468262	0.8166395872831345	2.034199833869934	0.5387426614761353	2.808412194252014	2.479612350463867	2.5103681087493896	2.713878870010376	1.5066285133361816	1.1879690438508987	0.46986663341522217	2.9534631967544556	2.896217107772827	1.3339898884296417	2.2053686380386353	1.2253562211990356	-0.21086597442626953	0.4156898260116577	0.2927473783493042	0.38926219940185547	1.5558941960334778	2.341080069541931	1.3617852926254272	-0.3277263641357422	3.4902472496032715	2.2596216201782227	2.6671087741851807	0.8394583314657211	2.919097661972046	0.48776811361312866	0.5550471544265747	2.175094246864319	-0.6511751413345337	2.10837459564209	0.7831953912973404	-0.26103782653808594	-0.0509488582611084	0.4096603989601135	2.239003539085388	1.0086487894877791	-0.14009273052215576	1.6780413389205933	3.018954038619995	-0.6407736539840698	-1.1257734298706055	0.31617671251296997	1.9373976588249207	0.9929131222888827	1.5718448162078857	1.4072808027267456	1.561493456363678	2.3544774055480957	1.005870660301298	2.1281614303588867	0.20624089241027832	0.5462055206298828	-2.0484869480133057	0.9392100609838963	3.005722999572754	0.8704448789358139	-0.7246203422546387	1.6950889229774475	0.15144240856170654	1.9772220253944397	-0.4841899871826172	2.833492159843445	0.8916506618261337	2.5103163719177246	1.144176185131073	0.8663589507341385	1.20264632999897	0.47838741540908813	0.27565115690231323	1.413541167974472	1.2686541974544525	1.9422048926353455	-1.1228628158569336	0.9170621708035469	2.5560420751571655	1.4914340376853943	1.7321500778198242	-0.6201553344726562	-0.8337981700897217	-0.45512330532073975	0.1087530255317688	1.573129653930664	1.0339820981025696	1.1488947123289108	1.2441717982292175	2.9991098642349243	2.4926624298095703	1.9678207635879517	0.38106220960617065	2.3714487552642822	-0.5230346918106079	-0.42845451831817627	2.6105892658233643	2.399156928062439	0.3357003331184387	1.0129426047205925	0.1216307282447815	3.132523536682129	2.196421265602112	1.7400457859039307	1.439067155122757	1.4803320169448853	1.3226199448108673	3.4374313354492188	0.6680966913700104	2.1775652170181274	2.4720269441604614	3.0298521518707275	0.5499404072761536	1.5526318550109863	-0.09499621391296387	0.4281672239303589	1.2644585967063904	0.13567417860031128	2.862242102622986	-1.3351161479949951	1.7810107469558716	-1.0473215579986572	0.25699907541275024	2.863012909889221	-0.914239764213562	2.8965837955474854	-0.4511551856994629	0.8310673981904984	1.44588240981102	0.5104103982448578	0.9620674811303616	0.76461361348629	0.7861185371875763	4.119464874267578	1.762791395187378	1.46580970287323	0.30782580375671387	0.8117664009332657	0.40312105417251587	0.1785217523574829	-0.023273825645446777	-1.2967860698699951	1.2782293260097504	-3.252987861633301	1.6957968473434448	1.658735752105713	0.4122331738471985	5.858895778656006	4.0688207149505615	1.5785272717475891	2.3176189661026	1.6691896319389343	-0.12244188785552979	-0.24097192287445068	0.13653957843780518	-0.7236230373382568	0.7588487267494202	0.4697611927986145	-2.284036159515381	1.211628332734108	3.202989101409912	1.453738033771515	-0.5041790008544922	2.2105138301849365	-0.5739461183547974	0.06860870122909546	1.0524858199059963	2.3178457021713257	-0.26434826850891113	1.0814627259969711	-0.427623987197876	0.35236436128616333	-1.2223267555236816	0.8838961198925972	0.10668551921844482	0.8605381399393082	2.4362746477127075	1.5615237355232239	0.9164178520441055	3.6418516635894775	1.50400048494339	3.115161895751953	0.9011112600564957	0.6293580532073975	1.794769048690796	0.5969085097312927	1.2056256979703903	0.0740697979927063	1.1341007947921753	1.1081792041659355	-0.9774432182312012	4.083128929138184	0.9816073141992092	-0.9080654382705688	1.0028772049117833	1.9292018413543701	1.0846712440252304	0.5477189719676971	0.5010260939598083	2.9154058694839478	0.6733660697937012	0.3275386095046997	-0.6757779121398926	2.183276057243347	-0.5262815952301025	2.9677454233169556	2.611692190170288	2.0680757761001587	-0.239973783493042	0.13999086618423462	2.77994167804718	1.8758395314216614	0.765279695391655	3.6865243911743164	-0.27482545375823975	-0.26153695583343506	1.2626018226146698	2.031308650970459	1.9445631504058838	1.1933325678110123	0.723522812128067	-2.4440882205963135	0.47280389070510864	-0.24175798892974854	0.3567737340927124	3.2818849086761475	0.4351959824562073	-0.8988213539123535	-2.21929669380188	0.5452784895896912	0.5743172466754913	0.34453076124191284	0.9949957835488021	1.070292867720127	-0.19224321842193604	1.151891604065895	0.7728641480207443	1.282282292842865	-0.39322638511657715	1.945132553577423	0.8012271821498871	2.8097201585769653	-0.06525242328643799	-1.4734797477722168	0.15973466634750366	1.4571446180343628	2.0268495082855225	2.1079442501068115	-0.6684979200363159	-0.6412224769592285	-10.99316120147705	0.20533615350723267	0.935916356742382	-0.620316743850708	3.887922763824463	1.5396552085876465	0.13530504703521729	1.8469511270523071	1.3525790870189667	0.9143896102905273	0.21051627397537231	0.016914069652557373	-2.2456235885620117	0.38943058252334595	2.5114481449127197	1.3106600940227509	1.56437349319458	1.307807981967926	1.4915950000286102	0.8632379919290543	1.6194117665290833	2.5998423099517822	1.1504183560609818	2.140162229537964	-0.3956139087677002	-0.3113875389099121	2.889822006225586	-1.2965631484985352	0.47243374586105347	2.59804105758667	0.16875380277633667	0.38582998514175415	0.9252409711480141	2.963913321495056	1.2012378573417664	-0.28443872928619385	1.9577455520629883	0.7213701605796814	0.5282673835754395	0.3995770812034607	0.3709939122200012	2.22313392162323	0.22224605083465576	0.7351077795028687	1.8806222081184387	2.0420485734939575	1.112918496131897	1.5741568207740784	-0.3696664571762085	1.5537331104278564	3.239011764526367	0.7839739918708801	0.1874796748161316	2.764422059059143	-0.042914628982543945	1.5936389565467834	1.2024954706430435	2.3120158910751343	0.8569436222314835	1.5394105911254883	1.2913258373737335	0.6025938391685486	0.5335038900375366	2.2799021005630493	1.3262468874454498	1.6885865926742554	1.3933752477169037	-1.2408888339996338	0.24804401397705078	0.3027524948120117	1.5544314980506897	-0.8686484098434448	2.599048376083374	0.6547415554523468	0.9364170953631401	1.1037628129124641	1.5071777701377869	0.31295502185821533	2.292713761329651	-0.7354871034622192	0.14302921295166016	1.9252508878707886	3.152730703353882	0.22580784559249878	-1.1500632762908936	-1.453967571258545	-0.3489415645599365	0.841834306716919	0.1497843861579895	-0.00038564205169677734	0.5189317166805267	1.2344951927661896	1.1253545880317688	1.2629236280918121	3.041207790374756	2.046307325363159	2.6381629705429077	1.3614811897277832	0.9159024283289909	0.46720391511917114	-0.7529054880142212	1.380389004945755	1.6259058713912964	1.5985143184661865	0.15996187925338745	0.3579174280166626	1.0487963892519474	-0.7180285453796387	1.2137371450662613	-0.1382228136062622	0.952207125723362	1.9162251353263855	-0.45101630687713623	2.5586793422698975	-0.6112762689590454	-0.025176525115966797	-1.0781426429748535	3.1264257431030273	0.6786700487136841	-0.5575244426727295	0.3875066041946411	3.0267655849456787	1.4118696451187134	3.109649896621704	1.7200391292572021	-0.5400574207305908	2.1738749742507935	1.385963797569275	2.66317355632782	-0.8393832445144653	-1.62831711769104	1.265341967344284	1.7796266078948975	2.6697418689727783	0.6526696681976318	-1.312431812286377	2.9842419624328613	-0.5112533569335938	1.2263358682394028	0.5242813229560852	1.598693609237671	1.17219178378582	2.137381672859192	2.0306639671325684	1.9685757160186768	2.2570189237594604	1.7469843626022339	2.183424711227417	-1.27005934715271	1.3658281862735748	1.3605884313583374	-2.2801551818847656	1.4023907780647278	-0.331950306892395	0.8999234065413475	-1.741297960281372	2.342374801635742	-0.38729214668273926	1.3139372766017914	0.31539005041122437	0.4379234313964844	-0.4886479377746582	1.1446159780025482	0.40385502576828003	-1.9628791809082031	1.703690230846405	2.0450525283813477	-1.214754343032837	0.6170975267887115	2.1737805604934692	0.07079392671585083	2.573189616203308	0.3366703391075134	-0.47203993797302246	-1.9857401847839355	-0.9846395254135132	2.1421955823898315	-0.6354073286056519	0.9487481117248535	0.8664408028125763	-0.24299514293670654	2.918742060661316	2.279755473136902	3.655644416809082	0.3817533254623413	-0.2714388370513916	2.1949551105499268	-0.5540710687637329	1.1378535032272339	1.0107515137642622	2.0874738693237305	-1.3899898529052734	-0.8783587217330933	1.9182921051979065	-0.9245849847793579	1.001095623592846	0.41249150037765503	1.2353507280349731	1.7499074935913086	-2.3389508724212646	-0.06841063499450684	6.809011459350586	1.8599364161491394	-0.025942564010620117	-0.6889417171478271	1.3234520554542542	1.1732481271028519	-0.546057939529419	1.4004832208156586	2.4221458435058594	0.07533061504364014	1.8139638900756836	2.996646761894226	0.438968300819397	2.5038909912109375	0.9938734006136656	-0.14808249473571777	1.9065719842910767	-0.30930495262145996	1.0549193546175957	2.1196789741516113	2.5898979902267456	-0.13030433654785156	0.8462195694446564	1.4810084402561188	-0.13106012344360352	1.9219619631767273	-0.8996566534042358	1.7142073512077332	1.4505824148654938	2.8180747032165527	2.366134285926819	1.9182641506195068	1.7391036748886108	0.609270304441452	-2.5016186237335205	-0.9685101509094238	0.1613515019416809	2.7367424964904785	1.819545865058899	1.933948040008545	0.14241260290145874	0.8909626752138138	3.0532524585723877	0.058717966079711914	-1.7900233268737793	-0.9118896722793579	-0.09490728378295898	-0.7190772294998169	2.7313774824142456	23.34933853149414	0.8416040539741516	-1.1536180973052979	1.9099311828613281	2.219847083091736	1.9401556849479675	2.250784158706665	2.70157253742218	1.6619572043418884	1.3756217956542969	0.07798200845718384	2.203838586807251	3.0515553951263428	0.4552461504936218	1.758051574230194	0.6960317194461823	0.612081915140152	0.6796184480190277	0.924050584435463	1.3638423681259155	1.938096046447754	-1.5729038715362549	3.713881015777588	0.7936825156211853	-1.7676734924316406	1.1988514363765717	0.5494990348815918	-0.8274222612380981	1.4374600052833557	-2.1758575439453125	0.3302818536758423	1.6312909722328186	1.4355609118938446	0.1600775122642517	-0.16869330406188965	-0.8938498497009277	3.753551483154297	1.3778083622455597	0.5836780369281769	-0.02205967903137207	0.049811363220214844	2.1126216650009155	-0.8091367483139038	-0.8613400459289551	1.232052356004715	1.3768452107906342	0.8919487223029137	1.982437014579773	1.6708690524101257	0.08686506748199463	-0.8481705188751221	2.1741132736206055	0.7436536550521851	2.271667003631592	3.5628247261047363	0.10785478353500366	-0.7763335704803467	2.11991024017334	0.11223876476287842	0.04523664712905884	1.78778874874115	2.6921777725219727	2.1658045053482056	1.6025516390800476	0.9047079905867577	2.209935784339905	0.4555084705352783	-0.10730624198913574	1.287669837474823	-0.5779005289077759	0.589771956205368	1.4468120634555817	-0.25867462158203125	0.4406733512878418	0.7484753727912903	-0.34763026237487793	1.125900313258171	1.573632001876831	1.2803529500961304	3.3495168685913086	1.6101900935173035	-0.2990180253982544	1.4219944775104523	0.8311455249786377	-0.6766097545623779	0.2358880639076233	2.1751227378845215	0.9654306136071682	5.041356086730957	2.9747430086135864	9.47557544708252	-1.6558687686920166	0.25839710235595703	-0.16636896133422852	2.421640992164612	2.947052001953125	0.43723535537719727	2.004587173461914	2.233273983001709	2.523137331008911	3.095478057861328	1.7379597425460815	1.4190724790096283	1.8708979487419128	2.4653912782669067	2.1799235343933105	-1.2651896476745605	2.6626569032669067	0.055323898792266846	1.312081664800644	3.516080141067505	0.44351619482040405	2.64726722240448	0.7682914733886719	1.7533292770385742	0.90310849994421	0.9487431459128857	2.989898443222046	3.4979114532470703	1.7860037684440613	1.6450237035751343	2.026098132133484	1.5575169920921326	0.3603774905204773	1.8806843161582947	-0.3231639862060547	0.30521154403686523	-0.6424573659896851	0.8742687702178955	1.0893813595175743	0.8204793035984039	-1.223236083984375	2.8663790225982666	0.31652700901031494	0.5736822485923767	1.8125362396240234	1.4408039152622223	3.580059766769409	1.437532514333725	4.394406795501709	-0.07666707038879395	1.4151318967342377	-0.8390634059906006	2.2075083255767822	1.4615094065666199	0.6404384076595306	3.1817495822906494	-0.5406732559204102	3.3586955070495605	-0.15608572959899902	1.0498257651925087	0.9947336604818702	1.1185387447476387	0.2995482087135315	-0.043726444244384766	-0.568661093711853	0.8442723155021667	-3.5762786865234375e-06	1.3697817921638489	-1.4553120136260986	1.2477815300226212	-0.3605632781982422	1.309624820947647	2.4075167179107666	2.359319806098938	1.693052887916565	1.4370954930782318	1.408420354127884	1.4465714395046234	0.29831206798553467	2.6843204498291016	-0.7358239889144897	0.8403178304433823	1.3575875163078308	1.2328499555587769	0.7658642083406448	-1.0074923038482666	1.2689428925514221	1.335450679063797	2.1556737422943115	0.06871932744979858	3.07358717918396	-0.26911187171936035	-0.04579639434814453	2.760939598083496	1.6830754280090332	2.055995225906372	0.8330601155757904	2.50931978225708	3.601611852645874	0.8233155757188797	-0.2070215940475464	0.3301697373390198	1.5698102116584778	1.444272667169571	-1.5652720928192139	0.6536141335964203	1.7619372606277466
