"label	0	1	2	3	4	5	6	7	8	9	10	11	12	13	14	15	16	17	18	19	20	21	22	23	24	25	26	27	28	29	30	31	32	33	34	35	36	37	38	39	40	41	42	43	44	45	46	47	48	49	50	51	52	53	54	55	56	57	58	59	60	61	62	63	64	65	66	67	68	69	70	71	72	73	74	75	76	77	78	79	80	81	82	83	84	85	86	87	88	89	90	91	92	93	94	95	96	97	98	99	100	101	102	103	104	105	106	107	108	109	110	111	112	113	114	115	116	117	118	119	120	121	122	123	124	125	126	127	128	129	130	131	132	133	134	135	136	137	138	139	140	141	142	143	144	145	146	147	148	149	150	151	152	153	154	155	156	157	158	159	160	161	162	163	164	165	166	167	168	169	170	171	172	173	174	175	176	177	178	179	180	181	182	183	184	185	186	187	188	189	190	191	192	193	194	195	196	197	198	199	200	201	202	203	204	205	206	207	208	209	210	211	212	213	214	215	216	217	218	219	220	221	222	223	224	225	226	227	228	229	230	231	232	233	234	235	236	237	238	239	240	241	242	243	244	245	246	247	248	249	250	251	252	253	254	255	256	257	258	259	260	261	262	263	264	265	266	267	268	269	270	271	272	273	274	275	276	277	278	279	280	281	282	283	284	285	286	287	288	289	290	291	292	293	294	295	296	297	298	299	300	301	302	303	304	305	306	307	308	309	310	311	312	313	314	315	316	317	318	319	320	321	322	323	324	325	326	327	328	329	330	331	332	333	334	335	336	337	338	339	340	341	342	343	344	345	346	347	348	349	350	351	352	353	354	355	356	357	358	359	360	361	362	363	364	365	366	367	368	369	370	371	372	373	374	375	376	377	378	379	380	381	382	383	384	385	386	387	388	389	390	391	392	393	394	395	396	397	398	399	400	401	402	403	404	405	406	407	408	409	410	411	412	413	414	415	416	417	418	419	420	421	422	423	424	425	426	427	428	429	430	431	432	433	434	435	436	437	438	439	440	441	442	443	444	445	446	447	448	449	450	451	452	453	454	455	456	457	458	459	460	461	462	463	464	465	466	467	468	469	470	471	472	473	474	475	476	477	478	479	480	481	482	483	484	485	486	487	488	489	490	491	492	493	494	495	496	497	498	499	500	501	502	503	504	505	506	507	508	509	510	511	512	513	514	515	516	517	518	519	520	521	522	523	524	525	526	527	528	529	530	531	532	533	534	535	536	537	538	539	540	541	542	543	544	545	546	547	548	549	550	551	552	553	554	555	556	557	558	559	560	561	562	563	564	565	566	567	568	569	570	571	572	573	574	575	576	577	578	579	580	581	582	583	584	585	586	587	588	589	590	591	592	593	594	595	596	597	598	599	600	601	602	603	604	605	606	607	608	609	610	611	612	613	614	615	616	617	618	619	620	621	622	623	624	625	626	627	628	629	630	631	632	633	634	635	636	637	638	639	640	641	642	643	644	645	646	647	648	649	650	651	652	653	654	655	656	657	658	659	660	661	662	663	664	665	666	667	668	669	670	671	672	673	674	675	676	677	678	679	680	681	682	683	684	685	686	687	688	689	690	691	692	693	694	695	696	697	698	699	700	701	702	703	704	705	706	707	708	709	710	711	712	713	714	715	716	717	718	719	720	721	722	723	724	725	726	727	728	729	730	731	732	733	734	735	736	737	738	739	740	741	742	743	744	745	746	747	748	749	750	751	752	753	754	755	756	757	758	759	760	761	762	763	764	765	766	767	768"
"ballare_1	1.6139257550239563	1.628627061843872	1.1252743154764175	0.8690217286348343	0.8427600711584091	1.2809436917304993	1.5030477643013	-4.6993489265441895	-1.3773210048675537	4.818320274353027	-0.73418128490448	1.7832374572753906	1.7081222534179688	2.1407382488250732	1.313023179769516	1.7972179055213928	-0.4602905511856079	0.502318412065506	-0.9491437673568726	0.5819268226623535	-0.6007260084152222	2.925087332725525	2.1269235610961914	-0.5558261871337891	-0.23599112033843994	3.218585252761841	1.6684654355049133	1.918130099773407	1.0930232778191566	1.1301188319921494	1.4063363373279572	0.788111999630928	-0.4461408853530884	2.6888023614883423	-0.7633870840072632	1.5189294219017029	1.2266507297754288	0.1504853367805481	2.314008593559265	0.41594308614730835	0.21702581644058228	-0.6397401094436646	4.084672689437866	1.6851968169212341	0.17918330430984497	-13.666163444519043	0.5795944035053253	2.3988527059555054	0.3505939841270447	1.1643029302358627	1.825007677078247	0.3654019236564636	0.6579678356647491	1.5238606333732605	1.4117489159107208	0.7277051508426666	2.2830536365509033	-1.2274208068847656	0.6348800361156464	3.8274152278900146	0.6087221801280975	2.220550298690796	1.891883671283722	1.3201055228710175	0.8579105287790298	3.786083936691284	0.4708511233329773	1.234863504767418	1.0379884131252766	0.5589610040187836	2.3097671270370483	-0.6129150390625	1.317041128873825	2.3736270666122437	2.0353158712387085	1.6837301850318909	3.2281413078308105	1.6207594871520996	1.195489525794983	1.4734459817409515	0.4816247224807739	2.471516728401184	1.8145523071289062	0.6825871467590332	0.6356329619884491	0.46413367986679077	1.346312791109085	0.029720783233642578	0.13604283332824707	0.377647340297699	1.2232963591814041	3.352876901626587	-1.0400736331939697	0.5067952871322632	2.8425313234329224	1.3759229481220245	0.8822415098547935	0.03763550519943237	1.7658908367156982	0.7706479877233505	0.05555182695388794	0.9309687167406082	-1.4887521266937256	1.9476479887962341	2.841885209083557	1.1983502954244614	0.9987726310500875	1.0146755436435342	2.064720392227173	-0.36732375621795654	3.0581095218658447	0.9746027141809464	3.0550296306610107	0.09476017951965332	1.2748970985412598	0.07459527254104614	0.21310991048812866	2.2965422868728638	2.512881636619568	1.0761030539870262	2.2636102437973022	1.4226925075054169	0.5638117790222168	2.304587960243225	1.0642710402607918	0.14418810606002808	0.8105534911155701	0.9444710165262222	0.7501435726881027	2.3164347410202026	2.0446280241012573	2.568510890007019	0.7076121866703033	0.6189650595188141	0.6829433143138885	2.031701445579529	2.7741819620132446	3.010690689086914	3.569711446762085	0.9208399578928947	1.3619001805782318	0.9988349415361881	0.6157093048095703	-0.2413996458053589	1.9520347118377686	0.7565892189741135	0.6435734331607819	0.408206582069397	1.8235116600990295	0.41348785161972046	2.3536406755447388	1.685356080532074	0.8924358785152435	1.4526970088481903	3.0384981632232666	1.7890381217002869	1.5566632747650146	-0.5370248556137085	-0.33007705211639404	2.7740284204483032	1.7404715418815613	2.3089929819107056	0.5781852006912231	0.4600980281829834	0.3454173803329468	4.461489915847778	2.658989906311035	2.506093978881836	0.7356840372085571	0.041363298892974854	1.2559946477413177	0.6844959557056427	2.296843647956848	0.5841253995895386	0.771536335349083	2.2133933305740356	-0.5845643281936646	2.536641240119934	1.2969924211502075	2.558334469795227	1.4490526914596558	0.8591842651367188	1.0802617520093918	1.5342188477516174	-1.6601874828338623	1.4889173209667206	0.8451913297176361	-0.21869492530822754	1.917058527469635	-1.4255523681640625	0.683739572763443	2.8134007453918457	0.6986972093582153	0.7739527672529221	0.49457794427871704	1.3348046839237213	-0.016788601875305176	0.9207599610090256	0.9003232046961784	2.040140151977539	-0.020445704460144043	1.072648860514164	1.8651576042175293	1.3123319745063782	1.40187668800354	1.2695065438747406	0.3434836268424988	2.0190669298171997	0.7843051552772522	-1.260298490524292	1.4606246650218964	1.726866900920868	0.12739545106887817	1.3866195976734161	1.9092006087303162	1.8570446968078613	2.264632821083069	1.3129025399684906	0.8813837766647339	1.1030977964401245	0.23186445236206055	1.9793822765350342	1.3754033148288727	1.8213432431221008	0.7967170923948288	1.0997309014201164	-1.03128981590271	0.6526173055171967	0.3917786478996277	0.6776807010173798	-1.4358487129211426	-0.5067019462585449	1.8946879506111145	0.46916788816452026	0.03362971544265747	0.9216279834508896	-0.41301214694976807	3.5052120685577393	1.055548395961523	0.8183136731386185	1.3657790422439575	0.025803864002227783	-0.2386254072189331	0.9539424516260624	1.226600095629692	3.8953702449798584	1.9034766554832458	2.118871569633484	0.6305098831653595	6.749399185180664	2.2996381521224976	2.0787975788116455	1.3282972872257233	1.2892557084560394	1.0415401719510555	0.4874805808067322	0.9171762987971306	0.16430717706680298	0.6472518146038055	-1.920863389968872	0.9832958783954382	3.983491897583008	1.2397484630346298	-1.2995140552520752	0.23599475622177124	3.3638722896575928	0.772188201546669	1.0668880939483643	0.13331466913223267	0.7659696340560913	1.0848672166466713	-0.6586399078369141	1.8044912815093994	2.5355358123779297	-0.784856915473938	1.9741176962852478	0.7178658843040466	1.7878425121307373	0.45128726959228516	0.6355057656764984	0.07650679349899292	2.709692358970642	1.0077289789915085	2.113679051399231	1.2116599678993225	0.2900100350379944	0.23550915718078613	1.7734558582305908	1.966392695903778	1.1025555059313774	0.8717460632324219	-0.5010701417922974	-0.7522450685501099	-0.04456591606140137	1.2179213911294937	-0.19330406188964844	1.1798242330551147	-2.545943021774292	-2.5484087467193604	2.5683673620224	0.1725049614906311	1.983133852481842	2.5900182723999023	0.8786544874310493	1.669756829738617	0.60102179646492	0.5557838380336761	1.1954703330993652	1.2325285524129868	1.7116407752037048	-0.34076082706451416	-0.6973150968551636	-0.3595222234725952	2.1791632175445557	0.6126243770122528	2.143198847770691	2.315390944480896	0.838604673743248	0.04084998369216919	1.0341688506305218	-17.336170196533203	2.0980430841445923	-0.5137209892272949	0.9311816170811653	0.31862741708755493	0.7794050127267838	0.6369814574718475	3.236624002456665	0.15641909837722778	-1.465494155883789	0.0968671441078186	0.04191446304321289	-3.081131935119629	0.519378662109375	1.441249132156372	0.8628753274679184	0.7115289866924286	-0.3477088212966919	2.012819528579712	-0.4404277801513672	0.37398719787597656	1.8422897458076477	1.9947962760925293	0.5773554742336273	1.0562565475702286	0.4560548663139343	3.7956161499023438	0.8517517000436783	1.373593419790268	1.6084206700325012	0.5700854063034058	0.20045828819274902	0.515496164560318	1.3588272035121918	-0.418245792388916	-0.4129929542541504	0.3070184588432312	0.35504215955734253	0.3589210510253906	2.144021987915039	1.1597191244363785	0.6552754342556	0.9439187906682491	0.7746484279632568	0.1507534384727478	1.0616408102214336	1.303699404001236	1.8863252997398376	4.406573534011841	1.5857163071632385	0.8332545757293701	0.7713278979063034	2.1906672716140747	-0.43593108654022217	1.16024649143219	2.67988920211792	1.2342565059661865	1.182985782623291	1.8412274718284607	0.2675936222076416	1.7918224334716797	-0.32171666622161865	0.6777862310409546	1.2008030861616135	2.7784658670425415	1.618914783000946	1.7216420769691467	0.714104562997818	1.1675283759832382	2.1240981817245483	0.19656753540039062	0.9151709377765656	2.7547860145568848	0.2445511817932129	1.1730188578367233	2.6034692525863647	1.8342261910438538	2.9138249158859253	1.1660907715559006	-0.12247860431671143	0.07311683893203735	0.6355419158935547	0.6497429609298706	1.6028510928153992	-1.0604896545410156	1.6298007369041443	0.9518663287162781	2.40703809261322	-0.26252448558807373	0.22613853216171265	0.5765503644943237	1.0713324323296547	0.3887977600097656	1.1251908838748932	-1.016894817352295	1.8344334959983826	1.7319846153259277	0.7292976081371307	1.5970299243927002	-0.2115405797958374	0.7836042493581772	1.4735341370105743	2.027323007583618	1.1526395976543427	2.165009379386902	1.341800332069397	1.4293772876262665	3.610666036605835	1.201909676194191	1.6923754811286926	1.7643535733222961	2.417091965675354	1.2141300290822983	2.5226560831069946	2.2836339473724365	-1.3786728382110596	0.32109206914901733	2.15690016746521	1.9344820380210876	0.41336435079574585	-0.15160906314849854	1.2680393755435944	0.6123002767562866	1.884446382522583	1.0920644477009773	0.5885932743549347	0.030416905879974365	1.5438562035560608	2.02183997631073	2.4840058088302612	-0.6711174249649048	1.4891148507595062	1.4483150243759155	2.5352636575698853	2.11769700050354	0.29798251390457153	1.187691017985344	0.9906860878691077	1.9061223864555359	-0.9641464948654175	0.17142289876937866	1.1743404120206833	1.2273780852556229	1.3955988883972168	1.8073675632476807	0.5220324099063873	1.561193585395813	-0.7951596975326538	1.6751168370246887	0.7778857946395874	1.4938229024410248	0.2992742657661438	1.7514463067054749	-0.5284260511398315	0.7777543514966965	1.3399536609649658	1.0415857918560505	0.07818335294723511	1.5125498175621033	1.118310958147049	1.5352502465248108	1.47831329703331	1.2870163917541504	2.326643466949463	-1.5095596313476562	-0.13003432750701904	1.3090422749519348	0.5443199574947357	-0.6526079177856445	1.855179786682129	0.95998914539814	1.5522668361663818	1.393195241689682	0.24265950918197632	-0.25468194484710693	1.4725024700164795	1.8445449471473694	0.9571427255868912	1.5216028690338135	1.3198778331279755	-0.7335834503173828	1.4623703062534332	1.9703145623207092	1.850282609462738	2.010940670967102	0.03288984298706055	0.4079440236091614	0.8606862276792526	-0.30883586406707764	-0.48092544078826904	0.7880202978849411	-1.5859878063201904	2.52857506275177	0.9264646545052528	0.45264118909835815	0.7778216600418091	1.978467881679535	1.691293478012085	0.15444177389144897	-1.4306402206420898	0.8557270020246506	2.6740031242370605	-0.08450090885162354	-0.5266580581665039	-0.05078756809234619	1.0648609697818756	-1.7005927562713623	0.5454427301883698	2.510411262512207	3.5586507320404053	0.8091000467538834	1.240197405219078	3.0821871757507324	2.7219523191452026	3.5571846961975098	-1.3746073246002197	-1.313457727432251	2.5296982526779175	0.2957189679145813	2.2390002012252808	1.2753492593765259	0.6370944082736969	1.690740168094635	1.0084951212629676	2.7030224800109863	0.6513761579990387	2.3223706483840942	0.6952455043792725	2.250054717063904	1.0525687374174595	0.512284129858017	1.1704981327056885	3.151280164718628	2.0065085887908936	0.32444924116134644	0.3839266300201416	-0.0404127836227417	0.25536149740219116	4.58412766456604	2.3689991235733032	-0.6732310056686401	0.6791174411773682	0.36923539638519287	5.136301517486572	0.6929754912853241	0.7927525490522385	0.42091304063796997	-0.608268141746521	1.2218702286481857	2.3015294075012207	23.67552947998047	3.0791118144989014	0.25878721475601196	2.2979332208633423	1.4934178292751312	0.9683990143239498	2.4630719423294067	2.934271454811096	2.1376463174819946	1.869979202747345	1.3451686203479767	1.1981206089258194	3.0682928562164307	1.7204532623291016	2.667460083961487	2.0408092737197876	-0.09632587432861328	-0.6789522171020508	2.4441919326782227	1.7938499450683594	1.0012515796115622	-0.4493943452835083	2.0336018800735474	1.2266607731580734	1.0019501888891682	-0.07919621467590332	-0.06922006607055664	-1.9876716136932373	0.756685420870781	-0.28805220127105713	2.228041648864746	0.5980260670185089	0.38666433095932007	1.805917739868164	-0.40244853496551514	0.9774195235222578	2.772237777709961	-0.7295222282409668	0.18001776933670044	0.9178299903869629	0.5991867482662201	1.6266600489616394	0.4917753338813782	0.9337084516882896	-0.2802724838256836	1.2325745671987534	-1.8806374073028564	0.9405350275337696	1.5486205220222473	-0.2196030616760254	2.2433944940567017	1.6371744275093079	1.3394295275211334	0.5304510295391083	1.4656356573104858	-0.9283404350280762	0.26735323667526245	-0.26846981048583984	0.20499354600906372	1.367354840040207	-1.1181895732879639	1.4327964782714844	1.8885980248451233	1.65072101354599	0.9903829507529736	1.6462490558624268	0.7525695562362671	1.5258634090423584	-0.2701200246810913	0.8999445736408234	0.27944087982177734	0.4450632929801941	1.8139629364013672	1.505330204963684	0.4307713508605957	-0.4213665723800659	0.9054168984293938	2.0440943241119385	1.4370155036449432	0.5892657339572906	1.4607692658901215	-0.2809089422225952	0.8465422838926315	1.1093012765049934	0.6973113715648651	0.5546052157878876	2.506622314453125	-0.17822957038879395	1.8781084418296814	0.8521224111318588	13.136154174804688	1.1005767360329628	-0.06246745586395264	-0.28247153759002686	2.008482336997986	1.320149451494217	0.2941470742225647	-0.2771490812301636	1.2733038663864136	1.1015433445572853	1.1566085368394852	1.0611171014606953	1.9516190886497498	0.9415510110557079	2.096623420715332	2.037636160850525	0.3526495099067688	2.1132142543792725	-3.0038299560546875	-0.014711499214172363	2.7256507873535156	-0.7832571268081665	2.077454924583435	1.5120791792869568	1.3244571089744568	-0.680635929107666	-0.33946406841278076	1.0264599900692701	1.4575310051441193	0.0929722785949707	-0.3151010274887085	0.7315586507320404	1.9923413395881653	1.8205462098121643	-0.053163886070251465	0.7788850218057632	-0.003413558006286621	0.7009660601615906	1.2696892619132996	0.6997505724430084	-0.4038485288619995	-0.9029479026794434	1.8148798942565918	0.580665796995163	2.093278408050537	1.2733883261680603	0.8994521126151085	1.074407160282135	1.6272233724594116	2.7722668647766113	-0.8672715425491333	-0.37555229663848877	0.4557563066482544	0.8631153255701065	1.6497870683670044	1.721700131893158	0.06310462951660156	0.7213842570781708	1.5319960713386536	1.5515651106834412	1.910433828830719	1.238486409187317	1.5398626327514648	0.7923043519258499	-0.4179891347885132	0.7123981416225433	0.5234494209289551	1.04909285902977	0.27575749158859253	-1.0549836158752441	2.3540968894958496	2.13996160030365	2.293754458427429	1.7877869606018066	2.5892701148986816	0.31163692474365234	2.7901066541671753	0.40574735403060913	2.02596914768219	0.5545238256454468	3.1886141300201416	-1.3073203563690186	-0.6844406127929688	-1.986023187637329	4.639817237854004	0.8034607768058777	0.7281694412231445	1.448773354291916	2.822496771812439	0.06491255760192871	1.0634425655007362	1.4161672294139862	-0.3587965965270996	0.24268919229507446	0.4633095860481262	1.5344853401184082	3.3277435302734375	1.1009278893470764	2.5778030157089233	-0.387725830078125	-0.05525219440460205	-0.281610369682312	-0.9461857080459595	1.602592408657074	0.3336033821105957	-0.22099614143371582	0.6675063371658325	1.3529644310474396"
"bandire_1	0.10758471488952637	1.8299071788787842	0.7670683115720749	0.48919034004211426	2.599408984184265	2.0128226280212402	1.5548211336135864	-5.0192341804504395	-1.3614957332611084	2.0688419342041016	-0.41529977321624756	1.4149557650089264	2.21818208694458	2.5774582624435425	1.1141453087329865	1.7775566577911377	1.7058351039886475	-0.31982970237731934	3.337888717651367	1.5152398943901062	0.18068259954452515	2.3791037797927856	1.2788980901241302	-1.6697721481323242	1.5333536267280579	-0.5826128721237183	0.613568902015686	2.6879096031188965	0.5283273160457611	1.2543757557868958	1.5958048701286316	-0.05676007270812988	1.8503251671791077	1.5753706097602844	1.81563401222229	2.627573609352112	1.1706469506025314	1.6307315230369568	0.7948725521564484	0.8121753036975861	0.3689954876899719	1.9218672513961792	3.3760502338409424	2.024233341217041	-0.6074646711349487	-19.33903694152832	-0.14684152603149414	1.4617856442928314	-0.469484806060791	2.801278829574585	2.184718370437622	-0.3583778142929077	1.161189317703247	-0.4648098945617676	2.0665035247802734	1.018417153507471	0.8911877349019051	0.30809855461120605	0.4805624485015869	3.1094882488250732	1.8674100637435913	2.6723873615264893	1.3622273206710815	1.1866111159324646	0.9736262783408165	1.5999053120613098	2.3085625171661377	1.6804450750350952	4.2115278244018555	0.9168463423848152	1.035932246595621	-0.01237475872039795	0.8044584840536118	0.17966985702514648	2.9818755388259888	0.5869955718517303	1.023410800844431	1.413103699684143	1.0820753425359726	1.6382248997688293	1.7881537675857544	-0.968395471572876	2.1834163665771484	1.4483108520507812	2.6373894214630127	0.9079297482967377	-0.6760237216949463	-1.2580938339233398	2.4567110538482666	-0.8613461256027222	0.5664966702461243	2.1052324771881104	1.2895780801773071	1.0396742075681686	2.4541616439819336	0.7202503383159637	0.6266469657421112	-0.15414178371429443	0.4001232981681824	1.283510148525238	-0.48668718338012695	1.7484660744667053	-1.134340524673462	0.4421100616455078	1.8522797226905823	0.8906784579157829	2.692055583000183	0.7285773456096649	0.7623908519744873	1.4801188111305237	-0.1366894245147705	2.2723037004470825	3.2528302669525146	0.007084965705871582	1.6967052221298218	-0.5082669258117676	1.2921947836875916	-0.19295024871826172	1.5312397480010986	0.4949404001235962	-0.5256607532501221	1.5473890900611877	0.4625730514526367	1.7222588658332825	0.21269965171813965	2.146553158760071	1.1157187595963478	1.8389968872070312	0.9400350712239742	3.101851463317871	-0.041425466537475586	1.4466471076011658	0.5995373725891113	0.20697039365768433	0.28240853548049927	0.26268839836120605	0.5484606921672821	-0.57033371925354	3.0182812213897705	0.7484675347805023	3.308359384536743	1.917292833328247	1.9772087931632996	1.7823173999786377	-0.007136344909667969	0.2231552004814148	0.9141781628131866	2.3473799228668213	0.3073025941848755	0.16636395454406738	0.8678084164857864	1.8890416026115417	2.03172767162323	-0.09479200839996338	-0.9428473711013794	1.089782066643238	2.2664284706115723	-0.41948747634887695	2.2091825008392334	2.0793402194976807	0.29261314868927	1.9501834511756897	-0.6826409101486206	2.133521556854248	-0.5385500192642212	1.045330923050642	0.8331194967031479	3.0248022079467773	2.372763752937317	1.379783034324646	1.297716200351715	2.5203680992126465	0.6379636228084564	-0.05497121810913086	1.205106407403946	2.346569538116455	1.1297010034322739	2.2283737659454346	1.2194662541151047	2.689626455307007	0.7470739781856537	1.3105022311210632	1.392677664756775	2.5040782690048218	-0.4147235155105591	1.1095758900046349	0.7401283979415894	1.3721147179603577	3.1860368251800537	1.2687645554542542	1.2910129129886627	-0.6728603839874268	1.694591760635376	1.6771915555000305	0.5189031958580017	1.2093827426433563	1.7184834480285645	1.205220639705658	0.2897016406059265	0.8173996955156326	1.1432629525661469	0.4302513599395752	1.2320946604013443	0.701127678155899	0.9059941917657852	1.0514441803097725	-0.09984719753265381	0.9653899744153023	0.48768818378448486	0.4067893624305725	1.1639224588871002	1.1233383789658546	0.5321609079837799	-0.40930962562561035	-0.6985236406326294	2.161546230316162	1.9516440629959106	5.704703330993652	2.5967947244644165	0.9914429383352399	0.5813866853713989	0.9587915949523449	1.2282079607248306	0.6813947856426239	-0.3549628257751465	0.8096973150968552	1.3720082342624664	1.5605483055114746	-1.1058180332183838	1.4444581270217896	1.7144079208374023	0.9822674728929996	1.875360369682312	0.6571157276630402	1.494705080986023	0.5174987018108368	0.5185620486736298	1.978347361087799	0.7992561161518097	0.08522331714630127	0.03788280487060547	-0.41563403606414795	-0.21526682376861572	0.4953773021697998	1.9298292994499207	3.9832634925842285	0.8517419397830963	2.3607735633850098	-0.06764841079711914	3.4325668811798096	-1.0513334274291992	2.186042308807373	0.7376708090305328	2.1179726123809814	0.16867703199386597	1.5787876844406128	1.3299289345741272	0.14560699462890625	1.4879306256771088	-0.4988206624984741	1.3159369230270386	0.9394116811454296	-0.3930729627609253	0.20401543378829956	1.5067558288574219	1.4425623714923859	0.7421292662620544	-2.8644511699676514	0.7584309577941895	-0.990639328956604	-1.4117975234985352	-0.8108134269714355	0.8870419263839722	1.0060973698273301	1.0244180653244257	2.37451708316803	0.4176067113876343	4.032845973968506	0.5779320597648621	0.19136136770248413	0.6287943124771118	1.8689067959785461	-1.563905954360962	3.078481435775757	1.5996927618980408	-0.9455227851867676	-0.3945469856262207	2.932539224624634	1.3549503684043884	2.0191702842712402	0.06832152605056763	-0.972240686416626	-0.13098680973052979	0.692780464887619	1.3695747256278992	-0.6418477296829224	0.6666122078895569	1.9243459701538086	-0.24392473697662354	1.0410906821489334	0.07706928253173828	1.575725495815277	1.4313079118728638	0.4145377278327942	2.5059256553649902	0.0799248218536377	0.022110283374786377	-0.023540496826171875	1.2970490753650665	1.1730079352855682	-0.06073558330535889	0.5647341907024384	1.7693712711334229	0.15594100952148438	-0.2389127016067505	2.4585824012756348	1.2250624746084213	2.4695181846618652	-0.5252131223678589	0.36215007305145264	-8.422525405883789	2.7961080074310303	0.49260586500167847	0.6059523820877075	4.49463415145874	0.9163268506526947	1.208374559879303	0.7592199146747589	1.576370120048523	0.961580615490675	1.4900671541690826	0.9399219825863838	-1.5721960067749023	1.2694792747497559	0.07858467102050781	1.1598424166440964	2.0922977924346924	0.18894469738006592	1.340637445449829	1.3832917511463165	0.051014065742492676	3.8142247200012207	1.4612990021705627	1.5789839625358582	1.7921168804168701	0.19842040538787842	0.08806204795837402	1.252092033624649	0.004403352737426758	0.183255136013031	0.13245916366577148	-0.7136931419372559	0.9916832642629743	0.550793319940567	0.5587840676307678	0.4631267786026001	0.2458665370941162	1.8927224278450012	1.4262389242649078	-0.1196434497833252	0.28817737102508545	-0.33832716941833496	1.9008660912513733	0.9029570817947388	2.1630066633224487	0.7024145126342773	1.1018004268407822	2.729274272918701	1.0811376869678497	0.6596490740776062	1.709723174571991	1.527177095413208	1.4546524584293365	-0.6427009105682373	-1.0496277809143066	1.8812832236289978	1.761657953262329	1.6407312154769897	0.6294283270835876	0.3811321258544922	0.7402397692203522	0.9532749280333519	1.0467772036790848	1.1107027977705002	2.6507080793380737	1.5970392227172852	1.7632394433021545	-0.42533159255981445	0.5415787696838379	0.8001859486103058	-0.12622499465942383	1.9203410744667053	1.3956459164619446	0.2001481056213379	2.5872238874435425	1.1599150002002716	1.6033263802528381	3.115325450897217	2.588210344314575	-1.3351831436157227	-0.051035404205322266	1.2910293936729431	-0.17131495475769043	1.1199573278427124	1.4189637303352356	-0.6279054880142212	-0.7523080110549927	1.3327555656433105	-0.33001458644866943	-1.2650461196899414	0.7909567356109619	2.0224157571792603	0.2597411870956421	1.6236897110939026	0.37565577030181885	2.904459834098816	1.303692102432251	3.271759271621704	2.4432764053344727	1.4511041641235352	0.4134445786476135	2.123765468597412	-0.7002100944519043	1.7705607414245605	1.6697726845741272	0.554524838924408	-1.1522836685180664	0.7924620509147644	1.632354497909546	2.3576146364212036	0.4931972026824951	1.613615095615387	1.5114663243293762	2.5467320680618286	2.3263930082321167	0.19961607456207275	-0.33941900730133057	0.4833175539970398	1.644331932067871	1.926664113998413	0.20041531324386597	1.565184473991394	1.0577862784266472	3.8148868083953857	-0.2900979518890381	2.0021408796310425	2.3365219831466675	0.7269338965415955	2.038496255874634	2.65662157535553	-1.3689429759979248	1.9668146967887878	1.8014931678771973	2.5790706872940063	1.7413544654846191	1.3314583003520966	1.9672396779060364	-0.7655185461044312	1.2766806185245514	0.14887988567352295	1.5294257998466492	1.3221165537834167	0.08196872472763062	1.201300784945488	1.4378804862499237	1.0583732910454273	3.093900442123413	2.0703701972961426	1.4841336011886597	1.4034188091754913	1.6834514141082764	2.2735291719436646	0.8951269686222076	0.24397194385528564	1.8293015956878662	0.28696030378341675	2.1830949783325195	-0.8207888603210449	1.7091187238693237	1.7590056657791138	1.6745448112487793	0.3230077624320984	1.024974286556244	1.2297006249427795	-1.9547646045684814	1.0388173051178455	1.8490785360336304	1.1097471341490746	-0.35314106941223145	1.673414945602417	0.15618062019348145	0.5818478763103485	1.0181129798293114	-0.47024834156036377	1.6176781058311462	0.263871431350708	1.8069081902503967	-0.17875683307647705	1.0625558570027351	4.024007320404053	1.033645547926426	2.318974018096924	2.1454453468322754	1.5917404890060425	0.9838874973356724	1.3802634477615356	0.3734581470489502	0.7960780262947083	3.2149176597595215	0.018484830856323242	1.9312716722488403	2.168069005012512	1.005182378925383	1.6661186814308167	2.402241349220276	0.6368959546089172	0.04492759704589844	1.1844709515571594	-1.0791797637939453	0.6809448599815369	2.1665732860565186	0.8693087100982666	2.1592249870300293	0.6359613835811615	0.2168523073196411	0.852533832192421	1.1933870315551758	0.13314789533615112	2.9735429286956787	2.6170098781585693	0.0931742787361145	1.9381787776947021	2.7116283178329468	-0.4094510078430176	1.2756871581077576	-0.004123806953430176	-0.4387087821960449	2.659903049468994	2.081923007965088	2.020206928253174	3.060669422149658	2.848771810531616	0.6767734289169312	0.3479335904121399	1.70069819688797	1.870119333267212	-1.5524535179138184	-1.4144134521484375	1.3005172312259674	1.1244882196187973	1.2928637862205505	2.892153024673462	1.6895851492881775	-0.11074018478393555	1.0476541705429554	0.3886403441429138	0.89562077075243	0.859560415148735	1.4455166459083557	0.94370261952281	2.6419261693954468	1.175760567188263	-1.0631189346313477	0.3297145366668701	0.4122971296310425	1.4172230958938599	0.07324081659317017	1.729236125946045	1.2770279347896576	-0.763704776763916	18.903160095214844	0.518575519323349	1.0233573522418737	-0.12464380264282227	0.46897345781326294	2.5531458854675293	1.4280165433883667	1.3406796753406525	1.5359750390052795	2.497308373451233	-0.48962152004241943	2.517932176589966	1.4456126987934113	0.3808082342147827	2.5516481399536133	0.7768027782440186	-0.2779477834701538	0.9759054072201252	0.23638731241226196	3.5500478744506836	1.6305034160614014	1.1243170201778412	0.9243726134300232	0.2824905514717102	0.8073700517416	3.517927646636963	1.1430941373109818	-0.19020771980285645	1.6176120042800903	0.041156113147735596	0.7321618795394897	0.950697585940361	0.241260826587677	3.700070381164551	0.20822501182556152	0.34551215171813965	3.156104564666748	1.110758163034916	0.08443313837051392	0.3120771050453186	-0.0003123283386230469	2.2899001836776733	0.8694261759519577	0.010328948497772217	0.685745358467102	2.301992893218994	-1.3500640392303467	1.0567594356834888	0.8846595287322998	-0.24695777893066406	-0.12975847721099854	1.9265146255493164	-0.24777889251708984	0.3601189851760864	3.0667784214019775	0.988705568946898	1.0609129220247269	-0.20138287544250488	0.6380197107791901	0.8864640146493912	-0.12004566192626953	1.658577024936676	1.7386102676391602	1.581005334854126	-0.2505195140838623	2.6807687282562256	-0.007029056549072266	2.381017327308655	0.6507330536842346	-2.214986562728882	0.17291182279586792	1.187290072441101	0.6290759444236755	2.295378804206848	1.2581498324871063	3.4194765090942383	0.3547970652580261	2.021388530731201	1.3592151999473572	2.406857132911682	1.4419655799865723	1.7444233298301697	1.4035244286060333	1.3913861513137817	-0.7950731515884399	0.9453753903508186	0.962041087448597	1.8927075862884521	2.6794153451919556	0.9006840214133263	5.918625831604004	0.6568742990493774	0.9382130317389965	1.0821428745985031	1.3971045315265656	0.35063523054122925	0.33956456184387207	3.249995708465576	1.4442625641822815	2.7608460187911987	1.2954295575618744	0.3868725299835205	0.4770905375480652	0.9642941951751709	2.6558127403259277	3.867917537689209	0.5717381536960602	1.6472429633140564	1.9688144326210022	-2.6422414779663086	2.798932433128357	2.0076745748519897	2.0729342699050903	0.48483341932296753	-0.6775975227355957	-0.4294469356536865	0.539151132106781	1.4051282107830048	0.9383720830082893	2.3497220277786255	-0.3698941469192505	0.8657277822494507	1.3670244812965393	1.1181408539414406	1.8928778767585754	1.336802989244461	-0.3287290334701538	3.309353828430176	0.8987277969717979	0.4719339609146118	0.35057830810546875	-0.8816515207290649	0.2950451970100403	-1.3576006889343262	1.5325687527656555	2.3108080625534058	2.445888042449951	0.5828697979450226	0.19890552759170532	0.07702761888504028	-0.34220266342163086	3.249802589416504	0.7179929912090302	0.5885739326477051	0.36273056268692017	0.45691460371017456	1.3578431010246277	0.22374510765075684	1.1230129152536392	0.2518005967140198	1.3263330459594727	-0.024811744689941406	1.6398234963417053	2.0318222045898438	-0.4559626579284668	0.5753152966499329	0.5759011805057526	0.5641535520553589	-2.032186508178711	-0.03812599182128906	2.531548023223877	0.7165344953536987	0.9114580005407333	0.45380347967147827	0.9603003449738026	-0.011199712753295898	1.617932140827179	1.599298357963562	2.9970319271087646	-0.02951836585998535	3.432766914367676	1.4574381113052368	1.4877610206604004	0.4589077830314636	0.36277252435684204	0.6901223659515381	1.249037504196167	1.3446631133556366	1.4643924534320831	2.610485076904297	1.1008014306426048	1.2972708344459534	1.4059813022613525	3.1302573680877686	1.8845949172973633	2.257151961326599	3.20424485206604	2.786175847053528	-1.0771918296813965	1.8954090476036072	1.5972036719322205	0.9646646901965141	0.19181013107299805	2.1919522285461426	1.6777476072311401	-0.07713520526885986	2.455438017845154	1.6677688956260681"
"barricare_1	-1.5138959884643555	2.1348990201950073	-0.05012965202331543	-0.37574148178100586	1.5202442407608032	1.8332085609436035	1.3667446076869965	-5.411172866821289	-1.929295301437378	3.5965654850006104	0.6667655110359192	0.736567497253418	2.6443748474121094	1.9036420583724976	0.50999715924263	0.9960431717336178	-0.8096470832824707	2.0489187240600586	-1.1472113132476807	-0.04377758502960205	0.6959707736968994	1.871853530406952	3.1500961780548096	-0.468650221824646	1.3326571583747864	0.6592401266098022	0.36953097581863403	2.029630661010742	0.8934388011693954	3.744414806365967	0.7670764178037643	1.1448203027248383	1.9351205825805664	2.9372094869613647	2.358184576034546	1.9401587843894958	0.2862352728843689	0.7426567077636719	0.3658706545829773	0.8657068759202957	0.7293348014354706	1.0172574892640114	2.2725670337677	1.0215483903884888	0.2962464690208435	-14.90654182434082	0.2225598692893982	2.0517711639404297	3.440218210220337	0.8187080770730972	2.8393912315368652	0.061723530292510986	-1.3393001556396484	-2.951385498046875	3.554457902908325	2.231906771659851	0.8598749339580536	0.3677372932434082	1.4112690687179565	3.2409825325012207	2.1248408555984497	4.525852680206299	0.9837503917515278	1.7060718536376953	2.1367979049682617	2.1834845542907715	-0.1348639726638794	1.717928946018219	3.3203835487365723	0.746459037065506	1.3014805018901825	2.6864501237869263	0.5648442506790161	0.35164350271224976	0.835991382598877	3.642770767211914	2.4439823627471924	2.1527810096740723	2.496779203414917	1.389345645904541	2.5931954383850098	2.8806521892547607	1.0398285128176212	1.1061823293566704	0.47912663221359253	0.7964247614145279	-1.8841392993927002	-1.7677018642425537	0.1938101053237915	0.37659817934036255	1.2394161969423294	2.8349910974502563	0.03712749481201172	1.0411760807037354	3.5368990898132324	0.1059035062789917	1.716937780380249	-0.47224974632263184	-0.73823082447052	0.729918509721756	0.7885504961013794	0.32434791326522827	-2.444685697555542	0.8505421578884125	3.0191338062286377	0.19236677885055542	0.02334350347518921	2.1951241493225098	-1.9208922386169434	-1.3651621341705322	-0.5798672437667847	0.13937658071517944	2.571858525276184	-1.390239953994751	2.4624799489974976	-0.22445368766784668	0.9310547336935997	1.9378355741500854	2.2856887578964233	2.1640686988830566	1.6437355875968933	1.4383434057235718	0.5608843564987183	2.2833250761032104	1.489147812128067	1.3374907672405243	2.478086233139038	1.2251974046230316	1.4102898836135864	2.349197506904602	-0.41399919986724854	1.8664888739585876	1.7606812119483948	0.31210219860076904	0.33771008253097534	2.3580650091171265	1.2018219977617264	1.4312679767608643	-0.2966575622558594	1.4157725870609283	-0.0028306245803833008	1.6860653162002563	0.7675189077854156	-1.2515599727630615	1.8684614300727844	1.930656373500824	-0.20986735820770264	2.443333625793457	2.255393147468567	2.464042067527771	0.22960221767425537	1.6419222950935364	0.8771968632936478	1.0881544649600983	-1.0531630516052246	-0.2724553346633911	1.6396068334579468	-0.16834533214569092	-0.03870058059692383	1.100038692355156	0.9682123064994812	1.775585412979126	1.4981566369533539	0.33498603105545044	-0.8030877113342285	3.3118531703948975	1.6425213813781738	4.831244468688965	3.4516868591308594	1.9253217577934265	1.439332664012909	2.935989737510681	1.8902705311775208	0.7806771099567413	2.5158755779266357	2.2960546016693115	1.8794729709625244	2.54337215423584	2.2597192525863647	1.9163445234298706	1.9565608501434326	2.3954970836639404	0.8576453775167465	2.4106380939483643	-0.4219181537628174	1.5487763285636902	3.238402843475342	1.3305775821208954	0.5974377691745758	1.4218284785747528	1.9624584913253784	-0.9349836111068726	1.3527395129203796	1.455443650484085	0.8715571612119675	1.221304178237915	-0.07238531112670898	-0.9651339054107666	0.8463818728923798	2.414758563041687	2.053383946418762	0.5115125179290771	-0.08229362964630127	2.0106550455093384	2.6280499696731567	1.050116427242756	0.6605834364891052	2.5860787630081177	0.1727120280265808	0.9055174365639687	0.8854175433516502	1.3494563102722168	-0.9068394899368286	0.50749471783638	1.2854700684547424	0.06740999221801758	-0.2602100372314453	5.320545196533203	0.6405667066574097	0.7081180810928345	0.5187386572360992	3.1019599437713623	0.05298960208892822	1.8957102298736572	-1.6551504135131836	-0.7135993242263794	-0.4949827194213867	-0.5469149351119995	-1.7932090759277344	0.7487978637218475	1.648415207862854	3.424976348876953	2.668011784553528	1.134596049785614	0.28414279222488403	1.2270993888378143	1.1090498194098473	1.2530123591423035	-0.30130279064178467	0.47380924224853516	1.253469169139862	-0.4933357238769531	0.3377891778945923	2.7702454328536987	0.03580600023269653	3.931025981903076	1.6541541814804077	1.9001755118370056	0.4237588047981262	4.071080923080444	0.4166405200958252	0.8968663886189461	1.0954887568950653	0.7036942839622498	1.4594951570034027	1.6865974068641663	3.085259437561035	1.121149517595768	0.9571508504450321	-0.09580540657043457	-0.7635023593902588	2.680840492248535	0.7985522449016571	-0.7084070444107056	0.03642094135284424	3.8363842964172363	-0.14678573608398438	-0.5976881980895996	-0.29693055152893066	0.7930195033550262	-0.07173740863800049	1.0202978923916817	4.064074516296387	1.0918065533041954	0.4165383577346802	3.6903858184814453	2.2782918214797974	1.7135761976242065	0.03310716152191162	0.5736855566501617	2.081913113594055	0.8501897305250168	0.23214221000671387	2.4143248796463013	1.350121021270752	0.054500699043273926	0.4095798134803772	0.19860345125198364	-1.1303753852844238	2.664538860321045	1.139761820435524	-0.946946382522583	0.9623588249087334	2.4708614349365234	1.0352720655500889	0.6418691575527191	1.878874123096466	-2.2566332817077637	-1.774944543838501	1.6434884667396545	1.589347243309021	2.7491663694381714	-0.7810046672821045	-0.41660571098327637	1.821699321269989	0.5541093945503235	0.949534684419632	-0.2035069465637207	0.8347980976104736	1.7108284831047058	-0.8225030899047852	0.7343986928462982	0.7764928638935089	0.3574639558792114	0.4706264138221741	1.3656522929668427	1.3114176094532013	0.6772639155387878	0.33673685789108276	0.9308023899793625	-14.536341667175293	2.01686954498291	1.139195129275322	0.6564461886882782	1.5000165700912476	1.293118566274643	2.0637383460998535	1.751752495765686	1.363564819097519	-0.19221878051757812	1.7338504791259766	-0.7860375642776489	-4.224536895751953	3.01181697845459	0.8729233741760254	0.8198822289705276	1.6762754917144775	-1.9819834232330322	3.4343385696411133	1.2944913804531097	2.828150510787964	1.7324959635734558	3.756319999694824	0.2726290225982666	1.2063141018152237	-0.42643916606903076	1.6669116020202637	0.5777195692062378	1.788798213005066	0.9322857931256294	1.9858304858207703	-1.0145604610443115	-0.9299041032791138	2.6266621351242065	2.25373911857605	1.6552441120147705	-0.3215620517730713	1.8365400433540344	-1.4788177013397217	1.5196361541748047	0.06954509019851685	3.2627410888671875	2.404242157936096	0.9328282251954079	2.208272933959961	1.4375925362110138	1.9636703729629517	3.1800172328948975	2.1170181035995483	0.14089983701705933	1.2510480284690857	0.044949352741241455	-0.2422316074371338	-1.6113057136535645	0.67404904961586	-0.7093561887741089	1.4790249466896057	0.4110567569732666	1.4423678517341614	-0.07719910144805908	-0.0898427963256836	1.0868502408266068	1.3445644080638885	1.458491563796997	3.902935028076172	2.0608134269714355	-0.012898802757263184	-0.06414413452148438	-0.18123209476470947	2.3569875955581665	1.198026955127716	1.9674081206321716	2.7416000366210938	-1.4764986038208008	0.6734185218811035	0.8885317891836166	0.9351705089211464	3.466097593307495	1.8564767241477966	-0.6057088375091553	0.4222458004951477	1.9801655411720276	1.3749984502792358	0.10820263624191284	2.1575629711151123	2.264424204826355	0.6886849105358124	2.7371445894241333	1.4623658657073975	-0.34855055809020996	0.35103553533554077	-0.4112076759338379	1.3751115202903748	2.3933287858963013	1.5068525671958923	1.758402168750763	2.760446310043335	1.8667707443237305	1.6480678915977478	1.7639045119285583	1.095077283680439	1.132028579711914	1.5284108519554138	0.29340505599975586	-0.7118732929229736	1.1504230797290802	1.43678879737854	0.5154856145381927	1.9239219427108765	2.0459165573120117	0.9353616535663605	-0.03647792339324951	0.0219271183013916	2.6464260816574097	3.1684694290161133	0.3581487536430359	1.1701153814792633	0.9424508772790432	0.1526837944984436	-0.5635038614273071	0.5138049721717834	3.4845449924468994	0.3406584858894348	3.8562960624694824	-0.02328944206237793	1.3055599927902222	4.77463698387146	0.9959227768704295	1.9256007671356201	-0.29004955291748047	2.4296822547912598	1.8480795621871948	1.290361911058426	3.4584779739379883	1.6819530129432678	0.6528607606887817	1.342760294675827	-0.14604723453521729	1.7910102605819702	-1.4224722385406494	-0.8746299743652344	1.2717916071414948	0.7264245450496674	2.0366432666778564	2.2906278371810913	0.9575996026396751	1.873755693435669	0.419516921043396	1.799939513206482	0.024927198886871338	2.059609055519104	4.5767059326171875	4.1365015506744385	-0.45327866077423096	1.384294033050537	0.5403937995433807	2.0192530155181885	1.615995705127716	1.125146970152855	1.531588077545166	0.6624689400196075	1.8206138610839844	1.314575046300888	3.0271096229553223	-2.09261155128479	0.3960895538330078	1.1041135787963867	1.7834630608558655	-0.2000826597213745	3.3906805515289307	1.6713154315948486	-0.3838111162185669	0.5354142487049103	1.0202709157019854	-1.7179045677185059	-1.989349365234375	0.06394678354263306	-0.6781443357467651	0.5348336398601532	2.591338634490967	-0.09024548530578613	0.61725914478302	3.271475076675415	1.7091377973556519	3.6642982959747314	-0.41129136085510254	2.162107825279236	-0.25491392612457275	0.40564852952957153	0.621525913476944	2.474591612815857	1.9652302861213684	2.0744361877441406	0.8677690774202347	2.47289502620697	0.42715996503829956	-0.35696709156036377	1.7952044606208801	1.22964209318161	-2.595043659210205	1.026397731155157	0.7262529730796814	-0.03934478759765625	-0.45660901069641113	-0.21976280212402344	0.07639205455780029	1.319263219833374	0.3580554127693176	2.1789753437042236	2.7216717004776	-0.04727578163146973	1.2821864187717438	4.036644458770752	0.7297884821891785	1.4201046526432037	1.1229495704174042	-0.29935646057128906	0.7750628739595413	1.0668074637651443	0.29132145643234253	3.3501358032226562	0.09371799230575562	1.5966801643371582	-0.02254641056060791	5.586226463317871	0.0589028000831604	-0.06736910343170166	-0.7711857557296753	1.9683842658996582	-0.12004601955413818	0.3491033911705017	2.7697722911834717	2.2351146936416626	0.04503929615020752	2.3641163110733032	-0.2849690914154053	1.3397834300994873	-0.011896014213562012	2.0240907669067383	2.132201910018921	2.0906848907470703	1.5568372011184692	0.4214538335800171	1.0997540578246117	0.5423064529895782	3.2070329189300537	0.7128281593322754	0.0465657114982605	1.453888088464737	1.8789269924163818	18.88189125061035	1.2377002537250519	2.141571044921875	0.9089432656764984	1.3947103321552277	0.14492851495742798	1.4713861644268036	0.6575837433338165	0.531421959400177	2.393223524093628	-0.9965707063674927	1.4447732269763947	0.9438911229372025	1.8712769746780396	1.8392595648765564	0.8004233688116074	0.42222362756729126	1.561007022857666	1.1110227331519127	4.463848829269409	4.5137059688568115	-2.6719970703125	1.6743165254592896	1.5034935474395752	1.4123700857162476	0.2010161280632019	0.2659603953361511	1.23964424431324	1.3957135677337646	0.5253213346004486	1.255080372095108	1.2540672719478607	0.3295723795890808	0.012681424617767334	-1.1222257614135742	-0.3291980028152466	2.41947865486145	-0.8545863628387451	0.4033747911453247	-0.4459153413772583	0.8121050596237183	0.31965553760528564	-0.6519412994384766	0.6556155383586884	1.7280417680740356	0.739465743303299	-3.010176181793213	2.1026700735092163	2.3073232173919678	-0.7811185121536255	-0.04367554187774658	1.419284462928772	0.142475426197052	-0.37267041206359863	1.4255131781101227	0.8711242079734802	0.9258159548044205	1.3160139322280884	1.8553221821784973	1.997099220752716	-0.5594124794006348	1.6693282723426819	2.317036986351013	2.958909511566162	0.42271649837493896	2.282381296157837	2.4609957933425903	2.2097662687301636	1.4530844688415527	-1.1130061149597168	-0.1198272705078125	1.3784362971782684	0.8094718009233475	1.382631927728653	1.6247562766075134	0.43760061264038086	0.4985705018043518	1.2126478552818298	0.9993759709759615	1.2287245839834213	-1.1158721446990967	0.9099200963973999	-0.5334604978561401	0.5311125218868256	1.0850378200411797	2.9783248901367188	3.136918783187866	0.80218106508255	3.063213586807251	1.25956130027771	10.24814510345459	0.931424543261528	2.071249008178711	-0.38569629192352295	1.105261392891407	0.7423325479030609	0.19804531335830688	1.7641528248786926	0.5244827568531036	2.190238356590271	0.45446091890335083	1.4866960644721985	0.5936123728752136	1.0006857116823085	0.07753920555114746	0.9462413750588894	2.112070918083191	3.09228515625	0.6495053470134735	-0.8281526565551758	1.9693069458007812	-0.11052179336547852	1.0774810537695885	0.42861485481262207	2.3148066997528076	1.327612966299057	0.23655736446380615	0.6276887059211731	2.403024435043335	3.0345206260681152	-1.1348216533660889	0.9291969612240791	0.37672126293182373	-0.6464023590087891	0.7002277076244354	2.646144151687622	-0.500029444694519	1.1386442631483078	0.8823087215423584	4.47783899307251	1.3559645414352417	1.3449449241161346	0.6390601694583893	1.8202613592147827	0.9757673349231482	0.0230410099029541	1.0413195453584194	-0.7895362377166748	-0.6685962677001953	0.15291732549667358	0.6806910932064056	0.46740198135375977	1.4342341721057892	1.312089204788208	2.0317107439041138	0.783185601234436	1.2264475375413895	-0.16465651988983154	-1.2243707180023193	-1.2250378131866455	3.9476988315582275	1.2056166380643845	1.2936751544475555	0.5402917861938477	-1.9527363777160645	1.318720132112503	0.5538830757141113	0.1200556755065918	1.0860009789466858	-0.9696822166442871	2.1321483850479126	1.1709992289543152	1.6818927526474	1.3176847100257874	2.9667811393737793	-0.11057770252227783	1.6070563793182373	2.252466320991516	3.111013412475586	0.2953460216522217	1.7202743887901306	0.6893758475780487	1.8394302725791931	1.3929499089717865	1.2106581181287766	0.19268202781677246	0.6651303768157959	-0.06633377075195312	1.8091736435890198	0.6056306958198547	1.5383135080337524	0.011055588722229004	-0.33454060554504395	0.4763539433479309	0.734340488910675	0.47239911556243896	3.5595757961273193	2.1836031675338745	-0.8996351957321167	0.038252830505371094	-0.016329407691955566	-0.5641509294509888	1.3598107695579529	2.8222819566726685	1.2144825607538223	-2.0753214359283447	0.655232310295105	0.8534420728683472"
"basare_2	2.809657335281372	2.157365560531616	4.355698823928833	1.286341369152069	1.108839437365532	2.5509660243988037	1.7704342603683472	-6.088315010070801	1.8938166499137878	1.0660405531525612	-0.5561524629592896	1.5990134477615356	1.9867865443229675	1.5544177293777466	1.212662622332573	3.3287837505340576	2.0384517908096313	0.154893696308136	3.8693363666534424	-0.8208358287811279	1.265810340642929	3.1388192176818848	2.1185609102249146	-0.5769444704055786	-0.4279153347015381	-1.9173674583435059	-0.7733017206192017	1.7127841711044312	0.852767825126648	1.7365161180496216	-1.422234296798706	0.40550482273101807	4.767956495285034	0.1960929036140442	2.969003915786743	2.7561681270599365	-0.3909590244293213	1.3207491338253021	1.0234572440385818	0.5664687156677246	2.387723207473755	1.3709054291248322	2.916621446609497	0.8410327881574631	-0.4136514663696289	-19.554304122924805	0.443997859954834	2.449842691421509	0.3819378614425659	2.6295284032821655	0.36630332469940186	-0.7720851898193359	1.3993304669857025	-1.4891505241394043	6.751079559326172	2.326202154159546	1.686628520488739	0.7953402101993561	0.41288942098617554	3.317863941192627	2.3953360319137573	0.47752368450164795	0.8425765782594681	0.4192514419555664	2.6316198110580444	2.1725738048553467	-0.6310676336288452	0.7131742835044861	0.9132425338029861	1.3201302587985992	2.0103232860565186	0.28257858753204346	1.5816020965576172	1.1665367186069489	0.6274220049381256	2.3124419450759888	2.3462339639663696	1.3613962233066559	1.7743133902549744	0.8076446503400803	1.285715103149414	4.47197961807251	1.2869291007518768	0.5838106274604797	1.0614226832985878	1.1187736839056015	0.17689049243927002	-1.475545883178711	0.38787591457366943	-0.16651403903961182	0.22001469135284424	2.2249332666397095	1.7302535772323608	0.9825211055576801	2.7583134174346924	1.5716739296913147	1.0783246830105782	-0.46389782428741455	1.8921700716018677	1.9698684811592102	0.4723343253135681	1.4873214364051819	-1.5874550342559814	-0.1693497896194458	2.6980987787246704	0.3837924599647522	1.7734653949737549	1.5310711860656738	1.7937489748001099	1.6549696326255798	-1.5763115882873535	1.3777016699314117	2.4369455575942993	0.2791820764541626	-3.5508623123168945	1.4115797877311707	1.6022058129310608	-1.4655818939208984	1.3206523060798645	1.5541520714759827	-0.3492037057876587	0.19987154006958008	0.4392467737197876	1.5964738726615906	-0.9384984970092773	-2.2325947284698486	1.9352286458015442	0.734382838010788	1.4789158701896667	1.6841834783554077	0.6100170612335205	1.5029007196426392	0.6976346671581268	0.9682363271713257	-0.6791820526123047	2.228965401649475	0.4227432608604431	-0.0964134931564331	0.858356699347496	-1.892381191253662	1.2565442621707916	1.1978114396333694	-0.9489122629165649	-1.4223873615264893	-0.5522022247314453	0.405109703540802	0.491585910320282	1.642475664615631	0.1810639500617981	0.051386475563049316	0.6324424743652344	2.5402164459228516	0.5843020975589752	0.4870408773422241	-1.7075095176696777	1.616563856601715	2.160106658935547	0.42232048511505127	2.1748046875	3.780486583709717	-0.8409693241119385	2.441649079322815	1.9761655926704407	2.3157308101654053	-0.8342797756195068	1.3704082667827606	-1.2008824348449707	4.224020481109619	4.49293327331543	2.5171738862991333	0.3284178376197815	2.3141937255859375	-0.6990640163421631	-0.3898732662200928	1.1438335478305817	0.47218048572540283	1.199533849954605	3.0816116333007812	3.8512845039367676	-0.3968384265899658	1.4510101675987244	0.8709056675434113	-0.7110984325408936	2.9204797744750977	-0.5645172595977783	2.355762243270874	1.601759135723114	3.0506014823913574	1.0694001615047455	2.79685115814209	-0.30818891525268555	2.175547242164612	0.7716875970363617	1.5517970323562622	-0.47915494441986084	-0.1069638729095459	2.9714889526367188	0.8102115094661713	2.3066452741622925	2.8317781686782837	1.4197214543819427	0.5393405854701996	3.102717876434326	2.8853187561035156	2.4119741916656494	-0.41752028465270996	-0.0875856876373291	2.226973056793213	0.2721618413925171	0.8202961981296539	0.8580219447612762	0.4546564221382141	-0.6167598962783813	-4.587355613708496	1.715936303138733	2.4056254625320435	1.6290585398674011	2.517806887626648	0.5710607171058655	1.8267446756362915	0.5489449501037598	1.5123296976089478	1.210275650024414	0.5897648930549622	0.37919795513153076	-1.353858470916748	2.1486899852752686	1.7988401651382446	-2.4510257244110107	1.34100741147995	3.116767406463623	1.1395868957042694	1.4956722259521484	1.3073058426380157	0.2633085250854492	-1.0952391624450684	-0.3709578514099121	2.7497259378433228	-0.5874707698822021	0.9963283226825297	-1.2822232246398926	0.9795730598270893	1.5814245343208313	0.290863573551178	0.7529529333114624	3.2576022148132324	1.1162740737199783	0.2216539978981018	0.8789327591657639	3.203237295150757	1.4182753562927246	0.6372764706611633	-0.10341691970825195	0.24024516344070435	3.2748401165008545	-0.5111538171768188	1.989997684955597	-0.9796053171157837	-0.43615806102752686	-1.9773659706115723	-0.15152955055236816	2.1140960454940796	0.775731235742569	-0.8511269092559814	0.9251441806554794	2.2973610162734985	0.1719679832458496	0.7557598352432251	-0.34187817573547363	1.443718284368515	1.1048987954854965	1.1719531565904617	0.15423935651779175	2.1013705730438232	0.6535437107086182	1.9686274528503418	-2.4099135398864746	2.031390905380249	1.5362097024917603	0.7348405718803406	1.1734884083271027	0.9743519183248281	0.621761292219162	5.101466178894043	2.616098642349243	2.5308207273483276	2.799936056137085	-0.5035111904144287	1.5366505980491638	0.4407707452774048	0.2065962553024292	-4.664085388183594	0.4631448984146118	0.16453659534454346	2.629530906677246	1.9408509135246277	0.046551525592803955	-2.7092502117156982	0.5134187340736389	1.6475969552993774	-1.0763115882873535	2.345548629760742	1.04186100512743	2.7221521139144897	2.342585802078247	0.5143069326877594	-0.6298230886459351	1.3751227259635925	1.3640229403972626	-1.6880295276641846	-0.48233020305633545	-1.220132827758789	1.3194427192211151	-0.33830904960632324	0.8020959049463272	2.733773946762085	2.398345470428467	1.922161877155304	0.725445032119751	-0.25988340377807617	-8.388826370239258	2.563722610473633	0.5305121839046478	0.6772014796733856	2.828457236289978	1.9703787565231323	-0.2620880603790283	2.0656241178512573	-0.7053343057632446	0.5785148739814758	0.0626494288444519	-1.3954463005065918	-1.3782832622528076	3.0983364582061768	-0.40099596977233887	1.7277923226356506	0.9547613747417927	-0.6833164691925049	-0.38035035133361816	2.2593448162078857	0.7266067862510681	3.493143081665039	3.3316004276275635	0.3654676675796509	1.4961907863616943	0.2696419358253479	-0.42851316928863525	-0.24921798706054688	0.9412063285708427	1.3473261594772339	-2.6251349449157715	-0.6362533569335938	0.6164697110652924	0.6045399308204651	-1.7201800346374512	-0.2699366807937622	0.3688112497329712	1.4911627173423767	2.980553984642029	-0.03852438926696777	1.2399682104587555	2.3278573751449585	1.9103813171386719	1.3074097633361816	-0.6694495677947998	-0.24771904945373535	0.9248595386743546	3.6847972869873047	2.8145939111709595	1.976145625114441	0.5632926821708679	0.0878412127494812	0.8445242047309875	-0.5828502178192139	-2.3658759593963623	1.1155192106962204	2.064565062522888	-0.17683398723602295	-0.18162226676940918	1.0456634238362312	1.8871650695800781	0.9170589596033096	2.004549264907837	4.044824838638306	2.4726767539978027	2.2990005016326904	2.329055666923523	1.4061418175697327	1.4441907405853271	0.3885244131088257	0.8707068413496017	0.6791148483753204	1.705578863620758	-0.2809875011444092	1.9994341731071472	0.09926843643188477	1.9385695457458496	2.309404134750366	4.127582550048828	0.6880927085876465	-0.2479994297027588	-0.46911799907684326	2.2194254398345947	2.141471266746521	1.9299736022949219	-1.2624750137329102	-0.48996245861053467	3.179877281188965	0.48925864696502686	0.7930807173252106	1.3686728477478027	-0.0423356294631958	1.8581916093826294	2.903548240661621	2.8065717220306396	2.3295563459396362	2.3156578540802	1.4989356994628906	1.7705937623977661	0.25932395458221436	-2.1404311656951904	2.733656167984009	-1.0725517272949219	1.4285371899604797	0.12949752807617188	3.8946192264556885	1.0382850542664528	-0.6377801895141602	0.9963239789940417	0.599188506603241	1.692583441734314	1.023093705996871	-0.7032989263534546	1.3094574809074402	2.449756383895874	1.9078773260116577	-0.43521368503570557	-0.46763408184051514	1.4421567916870117	0.2705066204071045	1.2169440984725952	1.3358533084392548	0.4256243109703064	4.984614610671997	-1.1160106658935547	0.5601166188716888	1.7365394234657288	-0.4891669750213623	3.6364223957061768	1.0292128808796406	-0.6108262538909912	2.992521643638611	-0.050801992416381836	3.8152120113372803	1.817111611366272	0.997073647333309	1.0536957494914532	-0.9327491521835327	1.2368377894163132	-0.1886202096939087	-0.35492074489593506	-2.4087939262390137	0.7031286358833313	1.7086068391799927	2.7745383977890015	0.985998997464776	1.097463682293892	0.07863032817840576	1.117075465619564	1.54862642288208	1.5669550895690918	1.7788946628570557	4.043558597564697	-0.7032854557037354	1.1107457727193832	2.742265462875366	-0.2895941734313965	1.3670617043972015	2.368883728981018	1.1915522366762161	1.0166696459054947	1.012411767616868	0.07061481475830078	1.1837304830551147	-2.1353588104248047	1.214070275425911	1.8180675506591797	1.8028898239135742	-0.31944894790649414	0.8747290074825287	0.3570770025253296	0.009990870952606201	-0.8646074533462524	-0.9775737524032593	-3.452836036682129	1.0377428457140923	0.3584080934524536	0.9055258110165596	1.2100863754749298	-0.8492218255996704	1.3080455362796783	2.7729467153549194	-0.08842730522155762	2.16183865070343	2.401282548904419	1.6860793232917786	-0.585946798324585	-0.18616509437561035	2.3033313751220703	-0.8938798904418945	2.4071871042251587	-0.6061805486679077	1.5721595883369446	1.782845139503479	3.03122878074646	-0.3296118974685669	-1.0448582172393799	1.345077097415924	1.9532469511032104	-0.8474729061126709	1.2232433259487152	2.8607137203216553	0.36918842792510986	0.6521090567111969	1.1104135513305664	0.25607025623321533	-0.4600231647491455	3.304831027984619	1.7333028316497803	2.5144705772399902	-0.21899700164794922	2.8387844562530518	3.4666810035705566	-0.6583089828491211	1.4719587862491608	0.28863418102264404	1.7992485761642456	2.340372920036316	1.533621907234192	0.18733644485473633	2.5546348094940186	-0.6371406316757202	-1.1693449020385742	0.6955048143863678	1.7239238023757935	0.6554312407970428	1.339156299829483	1.6096888780593872	1.329502671957016	0.25046300888061523	3.0265517234802246	1.40950146317482	3.2906975746154785	0.6114881932735443	1.1421283930540085	-0.6635974645614624	1.7960010766983032	0.802842527627945	3.5921382904052734	2.007453441619873	1.6473447680473328	1.5202608704566956	2.860018491744995	4.919493913650513	-1.4315435886383057	0.9857952762395144	0.09966659545898438	1.552514910697937	1.6780833005905151	4.591622829437256	22.228572845458984	3.071254253387451	-0.06991088390350342	-0.3969283103942871	1.8577293157577515	0.20023661851882935	2.1421648263931274	2.388533353805542	0.32980042695999146	1.4255794882774353	-1.2684755325317383	-0.1977936029434204	3.6149802207946777	1.5489428043365479	1.890896499156952	0.27151840925216675	-2.5082263946533203	0.9026464074850082	0.6375015676021576	6.7147698402404785	2.003043293952942	-1.1804232597351074	1.1736430674791336	0.20884406566619873	1.8871773481369019	2.028228521347046	0.7191209197044373	0.24054324626922607	0.8331547677516937	2.698415160179138	0.3597504496574402	-1.076456069946289	0.8694291114807129	1.6542344689369202	1.7304041981697083	0.8816294819116592	4.320828676223755	0.205710768699646	-1.4967315196990967	1.16834057867527	-2.504159927368164	1.3147627711296082	1.056100346148014	1.2783541977405548	1.6308029294013977	1.9776303172111511	-2.113004207611084	0.7198596000671387	3.190392017364502	-1.2203199863433838	-0.41359269618988037	0.6095724701881409	-0.10626888275146484	1.7821846008300781	2.9165111780166626	0.3687463402748108	0.9975534945260733	4.332054615020752	1.0868546217679977	0.43090373277664185	-0.5809675455093384	0.4954213500022888	2.0781314373016357	1.7634826302528381	1.6210423111915588	3.458876371383667	2.7560421228408813	2.672532081604004	2.392694354057312	-2.9182288646698	2.4243581295013428	0.447027325630188	0.25297898054122925	2.0022428035736084	2.7183496952056885	0.9381819665431976	0.350732684135437	2.0009801387786865	1.5136547088623047	2.906734824180603	2.6686878204345703	1.5574158430099487	-0.7762788534164429	2.204881191253662	1.907030701637268	0.9253568649291992	2.564240336418152	1.0043117641471326	2.7741410732269287	0.3144822120666504	6.470432281494141	-1.0385193824768066	0.702308177947998	-0.2161715030670166	1.054206222295761	2.2300474643707275	0.8294448256492615	3.7491629123687744	2.228000283241272	-0.36498475074768066	1.417407512664795	3.5038769245147705	0.7196882367134094	0.346948504447937	2.2006744146347046	0.7982806712388992	0.08454227447509766	1.5620719194412231	4.916574001312256	0.18432027101516724	2.6904783248901367	1.0752841457724571	1.1032876521348953	0.24615848064422607	2.4165631532669067	0.13069260120391846	2.5679931640625	0.20517843961715698	2.794633626937866	0.3428382873535156	-0.33423900604248047	2.9156410694122314	0.32842791080474854	0.49494946002960205	1.4820550978183746	1.720341145992279	-0.8772799968719482	2.3224618434906006	1.8241581916809082	2.071618676185608	2.6839061975479126	0.005113959312438965	1.192838579416275	0.8798455223441124	1.805908977985382	-0.36436784267425537	2.428549647331238	0.2628938555717468	-0.24132323265075684	1.5677858591079712	1.8355768322944641	-0.1718909740447998	1.0021525495685637	0.47070807218551636	1.5823293328285217	0.938413392752409	1.114014983177185	2.1740366220474243	0.245613694190979	0.5066171586513519	2.6162132024765015	1.3773049712181091	2.547609806060791	1.9707051515579224	0.48220670223236084	-1.3040237426757812	0.054278552532196045	1.1814979016780853	0.6342750191688538	0.20913571119308472	2.225029706954956	0.9503057785332203	0.8591229468584061	3.194673538208008	2.015712022781372	1.5088785886764526	0.18808841705322266	2.392760992050171	2.1178860664367676	2.0400253534317017	0.9746658019721508	0.36936432123184204	0.04615896940231323	0.18314820528030396	3.929905414581299	-0.8104221820831299	0.8045337647199631	1.3436228334903717	3.7261714935302734	0.774031326174736	0.47473084926605225	1.004704198334366	-0.51514732837677	-0.3867764472961426	0.6768072247505188	0.44761669635772705	1.4656134247779846	0.6939024031162262	-0.9131835699081421	2.0261181592941284	2.659857988357544	2.243982434272766	1.0606963634490967	1.9492167234420776	3.3175344467163086	0.031571388244628906	2.2890528440475464	1.162045031785965"
"bastare_1	0.8886479884386063	1.4858868420124054	1.3489134907722473	0.5223346650600433	1.2784642577171326	2.4497852325439453	1.1174749061465263	-3.5986828804016113	-0.8091065883636475	1.9072221517562866	-0.7024943828582764	1.2482013255357742	2.338471293449402	1.3370701372623444	1.6470016241073608	1.4065685868263245	0.7351095378398895	1.773926317691803	1.7379698157310486	0.10018432140350342	-0.30591583251953125	2.0234493017196655	1.5674976706504822	-0.6867376565933228	0.24565964937210083	-0.29111742973327637	0.009268343448638916	0.7359309792518616	1.8811280727386475	3.13675856590271	0.3846823573112488	2.1221145391464233	1.2682102918624878	1.7031949758529663	0.9356194585561752	1.0581113174557686	0.704516738653183	0.44255781173706055	1.5302894711494446	0.5754425525665283	0.6641246378421783	-0.19615042209625244	2.139257788658142	1.1377057880163193	0.9761800672858953	-15.240880966186523	1.0551528483629227	3.4517617225646973	0.4792659878730774	3.6695570945739746	1.5259952545166016	0.6714511811733246	-0.2578006982803345	0.15094375610351562	1.4820776581764221	0.3367823362350464	0.816196009516716	0.32826411724090576	0.18319404125213623	2.10743248462677	1.1205182299017906	2.4788315296173096	1.716512680053711	0.34834569692611694	1.2043967694044113	1.8948653936386108	-0.9276859760284424	0.7394079864025116	1.069030910730362	0.25990498065948486	1.7167555689811707	-1.3011322021484375	1.1332536488771439	1.7553049325942993	1.6920302510261536	1.7667500376701355	0.4938376545906067	2.23896586894989	1.8501300811767578	1.517137348651886	0.6082597374916077	-0.5889108180999756	1.5610714554786682	1.296058028936386	0.8165094703435898	-0.3574427366256714	-1.8225553035736084	0.36924225091934204	0.3285910487174988	0.4014180898666382	1.9112791419029236	2.155928134918213	-0.11878705024719238	-0.08156466484069824	4.914183139801025	-1.1735169887542725	0.6638239026069641	0.08519184589385986	1.2979438304901123	1.5818246006965637	0.4508291482925415	2.942189931869507	0.11192625761032104	-0.5478599071502686	2.7718647718429565	-0.2559831142425537	2.7203896045684814	1.417330026626587	1.7070364356040955	-0.010618090629577637	-0.18660759925842285	-0.19643628597259521	2.7664709091186523	2.152710199356079	-1.7934434413909912	-0.487512469291687	-0.9635664224624634	-1.8260722160339355	0.6496990919113159	0.889135330915451	-0.4016077518463135	2.71661114692688	0.9335713535547256	1.0199625939130783	2.1300525665283203	0.32810264825820923	4.016299247741699	-0.9261772632598877	0.48152995109558105	1.0014874818734825	-0.6999633312225342	1.3288813531398773	1.0351493135094643	1.5687201619148254	1.6552131175994873	2.2007057666778564	0.3065233826637268	3.036968231201172	0.08172792196273804	0.23796117305755615	1.6529460549354553	1.7148961424827576	-1.2875237464904785	-0.8769305944442749	1.1532810926437378	-0.08110189437866211	1.960559904575348	1.068300500512123	2.190955638885498	1.0921377912163734	0.7216374278068542	0.2843993902206421	-0.9814329147338867	0.8448504507541656	2.2967872619628906	-0.49359607696533203	1.1745355427265167	1.687839925289154	0.9435030929744244	3.5043094158172607	-0.410098671913147	-0.21396327018737793	-0.18682634830474854	2.625866413116455	0.7873454540967941	3.286774158477783	-0.00851428508758545	3.4637136459350586	1.4341820180416107	0.9184541180729866	0.5322165787220001	2.2828742265701294	-0.30117154121398926	1.2328061014413834	1.0407119281589985	1.3796939253807068	0.06874954700469971	1.3676374852657318	2.4040982723236084	0.03010469675064087	0.15053921937942505	1.1566701978445053	0.09478437900543213	3.1137537956237793	1.089404247701168	1.1445214450359344	2.811492085456848	0.8995682299137115	0.7489690780639648	3.8492703437805176	1.4775103330612183	1.40102156996727	-0.09036397933959961	0.9136171936988831	1.2561909556388855	-0.7022867202758789	-0.011514663696289062	1.3901359140872955	1.171508327126503	3.367220640182495	0.08610928058624268	0.3288489580154419	-0.9023678302764893	1.0943733006715775	0.8670250177383423	0.7514611929655075	0.25963717699050903	3.517688512802124	0.918514259159565	0.41746169328689575	1.809629499912262	0.4511379599571228	0.11779457330703735	-1.466235876083374	-0.4530210494995117	0.8720664829015732	1.764296531677246	1.7373888492584229	1.5133537650108337	0.30282163619995117	0.5868289470672607	1.6401229500770569	1.4932984113693237	1.0963530763983727	0.9614164903759956	0.36347687244415283	-1.587435007095337	0.2246362566947937	-1.075843095779419	3.3053300380706787	2.414486527442932	0.8246937841176987	2.194013237953186	2.652394652366638	1.527743399143219	-0.13981330394744873	0.7640924006700516	1.3288955688476562	1.4125657379627228	0.7806728631258011	-0.5522531270980835	0.018176138401031494	0.42504459619522095	1.2604116797447205	0.4470333456993103	-0.2987818717956543	2.052904486656189	2.4231873750686646	0.4844234585762024	5.084031581878662	1.7124630212783813	2.2778759002685547	1.4597498774528503	1.8198532462120056	0.8854959830641747	1.0192541386932135	-0.2213524580001831	-0.015712738037109375	0.5023621022701263	0.16704177856445312	2.472044825553894	3.146937847137451	2.780856490135193	-0.19294261932373047	1.1677536219358444	0.462918221950531	-0.7593145370483398	1.001495321514085	-0.6787310838699341	0.738897979259491	1.873809278011322	1.1010682731866837	-0.7560908794403076	3.43522572517395	0.008942484855651855	1.7157045006752014	1.629266083240509	2.004382371902466	0.8459533303976059	1.9511147141456604	2.306683897972107	1.7182267308235168	0.730630487203598	2.5020591020584106	1.9744879007339478	1.9257639646530151	0.27376848459243774	1.3135307133197784	0.7386329472064972	1.3798762559890747	1.6162773966789246	-1.8818862438201904	-0.17293810844421387	-1.4561519622802734	0.8762702643871307	1.702231228351593	0.08888310194015503	0.5067875981330872	0.47331780195236206	0.8953567668795586	-0.24846208095550537	1.9604614973068237	0.5569079220294952	0.5016173720359802	-0.14838576316833496	2.3129513263702393	-0.08596956729888916	2.66179358959198	1.0404767952859402	2.3563934564590454	0.2000904083251953	-0.5726436376571655	0.5421378016471863	0.7745404541492462	0.11287617683410645	2.5263047218322754	2.2268831729888916	2.2990527153015137	-0.9412987232208252	0.5029074251651764	-14.696255683898926	0.9525188691914082	1.7863714694976807	-0.22793138027191162	3.127326726913452	1.6090891361236572	0.494792103767395	0.8697515577077866	1.132757619023323	-0.4219677448272705	2.118464231491089	-0.0787351131439209	-4.187002658843994	1.329125165939331	0.3767826557159424	2.281723380088806	1.516461968421936	0.84404356777668	1.8324459195137024	1.3581929206848145	1.401898056268692	2.628733992576599	2.1009796857833862	0.9742991607636213	0.27340763807296753	0.693610280752182	1.493220180273056	-1.0653793811798096	0.6607498526573181	-0.6849197149276733	-1.5094058513641357	-0.3311340808868408	0.454342782497406	4.896522283554077	-0.6884880065917969	0.38257312774658203	0.9958902546204627	1.2924357056617737	-0.4431800842285156	2.1827372312545776	1.2216914892196655	0.4969581365585327	0.8106660097837448	0.9548787474632263	1.299223393201828	1.669447124004364	-0.9371465444564819	1.8178947567939758	-0.1470017433166504	-0.48195910453796387	1.7468497157096863	1.5165689587593079	1.1016726046800613	3.0022528171539307	1.4686047434806824	1.373490035533905	2.241702914237976	1.770216703414917	2.715482234954834	1.539546549320221	1.6220718622207642	0.29839932918548584	0.7492735981941223	2.5070440769195557	0.22707152366638184	1.311770647764206	-0.3217400312423706	0.21579962968826294	0.829510509967804	1.8039493560791016	1.744518756866455	1.2603481113910675	2.0554122924804688	-0.3001366853713989	2.7144728899002075	2.744198203086853	2.0409716367721558	3.836341142654419	2.578102231025696	1.4250282049179077	0.554547905921936	0.3343120813369751	1.5834833979606628	0.7607456296682358	2.272270083427429	0.03743797540664673	0.9659054540097713	0.9362911581993103	2.6329057216644287	0.7462992668151855	1.6048165559768677	1.108527660369873	1.4728720784187317	1.7267476916313171	1.207663357257843	1.3264913856983185	1.3359216451644897	1.8692471385002136	2.6334145069122314	-0.21690714359283447	-0.26670384407043457	1.7630219459533691	0.5408889651298523	1.9477632641792297	-0.4332507848739624	2.7243897914886475	0.45537030696868896	0.913461722433567	0.7130838632583618	0.27336931228637695	0.8408597558736801	1.2491571605205536	-2.250225067138672	3.5932774543762207	0.416822612285614	0.9925738084129989	1.5155407190322876	1.0073136654682457	0.7853631228208542	0.7008175551891327	1.170263722538948	0.7928966283798218	2.5082099437713623	3.3518807888031006	0.5443330705165863	-0.7173360586166382	1.7035655975341797	0.4200880527496338	2.159940719604492	1.515874445438385	0.05143862962722778	1.038122434169054	2.358163833618164	2.8408825397491455	1.4613481163978577	1.1037235260009766	1.6597346663475037	-2.503420352935791	1.137866348028183	0.12138670682907104	-0.4713057279586792	-0.43192243576049805	2.3364545106887817	1.5436415672302246	2.121991276741028	0.6135087609291077	0.3396992087364197	-0.9764997959136963	1.0414517745375633	0.3869127035140991	1.3230278491973877	-0.3185231685638428	1.97499418258667	0.2681504487991333	-0.0752178430557251	3.334928035736084	0.4389048218727112	0.412617027759552	2.5303895473480225	0.44169580936431885	1.725879967212677	1.989358127117157	2.2707616090774536	0.352536678314209	-1.773029088973999	0.3616982102394104	2.4293746948242188	1.1903892159461975	-0.2910423278808594	1.5390585064888	0.7399740517139435	2.1741695404052734	1.9907675385475159	-0.16187071800231934	-2.890115261077881	-0.6932971477508545	2.559933304786682	1.809864342212677	1.6403934955596924	1.3764615952968597	0.9706193618476391	-0.5297198295593262	1.4989239275455475	1.649427592754364	1.0559027418494225	1.7304670214653015	1.635071337223053	0.41928988695144653	2.687052845954895	0.6016154587268829	1.0930310413241386	-0.7894496917724609	2.751747727394104	1.4257237911224365	1.7946438789367676	1.964305818080902	-0.13051331043243408	2.0544828176498413	0.24739491939544678	-1.379796028137207	2.3159232139587402	3.0120272636413574	1.2999861240386963	0.08234328031539917	-0.03220629692077637	2.407511591911316	-0.18684124946594238	0.44107067584991455	1.9123619198799133	2.6728605031967163	1.7386754751205444	1.602749228477478	1.39894437789917	0.6869209408760071	2.858318328857422	0.6875939965248108	0.3877919912338257	2.427317261695862	1.1736338138580322	-0.18738257884979248	2.024182438850403	2.447086215019226	1.2693353295326233	0.6544934213161469	2.384902834892273	1.7154465913772583	2.212117552757263	0.6608650386333466	0.7750677764415741	0.5754180550575256	1.6073065996170044	0.7822415679693222	1.969647765159607	1.9950699210166931	-0.17385005950927734	2.9653499126434326	0.32379549741744995	-0.09038996696472168	2.240585207939148	3.096351385116577	2.0597610473632812	1.023591922596097	0.4575364589691162	1.8560818433761597	-1.025362491607666	1.922361135482788	1.0182911567389965	1.1745980381965637	0.36452817916870117	-1.1780731678009033	21.928714752197266	0.5777997970581055	1.6362501978874207	-1.4274778366088867	2.876249313354492	1.9408912658691406	1.112335778772831	2.8370048999786377	-2.6103360652923584	1.5786650776863098	0.2518879771232605	1.0197334606200457	2.739183783531189	0.28471851348876953	2.387452006340027	2.341170310974121	-0.5614198446273804	0.6873703598976135	2.718900680541992	1.9321300387382507	0.8031593263149261	1.5364947319030762	-0.020986080169677734	0.04951578378677368	-0.05334365367889404	0.681978702545166	1.7450723052024841	-0.31069183349609375	1.5994086861610413	0.8600398600101471	1.9358364939689636	0.7258593738079071	2.8152377605438232	3.7880425453186035	0.16161030530929565	2.490281581878662	2.0705422163009644	-0.9913933277130127	1.6564821600914001	-0.023635268211364746	-2.422499656677246	2.112465262413025	-0.4363349676132202	1.2386075258255005	2.568390369415283	1.4695288240909576	-1.7312381267547607	1.8525214791297913	1.5282257795333862	0.8994791358709335	-1.2429981231689453	-0.3666015863418579	1.0822553411126137	-0.24144911766052246	2.4840087890625	2.665090560913086	0.9678233042359352	0.7882138937711716	0.10831946134567261	1.1688037067651749	0.46371960639953613	2.3769389390945435	0.22009068727493286	1.1248627379536629	1.0144483195617795	2.4733848571777344	1.5050199031829834	2.6143200397491455	0.23293417692184448	-1.7598612308502197	0.9005029797554016	1.4311167299747467	1.1269762516021729	0.9227853789925575	0.5977806150913239	-0.14495301246643066	3.1270670890808105	-0.9644008874893188	1.1912070363759995	3.64544939994812	0.725712776184082	1.2588754892349243	-0.5543835163116455	1.5788114070892334	0.7216948866844177	1.2242407649755478	2.7868001461029053	0.9026597216725349	0.8940545991063118	1.4742116034030914	12.374896049499512	0.3750377297401428	-1.690474271774292	1.4166156649589539	1.147082805633545	0.4734172821044922	0.8799122497439384	2.8908073902130127	1.0746617019176483	2.2869505882263184	2.4876409769058228	1.8983501195907593	1.26456019282341	1.2176061868667603	1.2119668126106262	1.4058024287223816	-0.8041775226593018	1.1026023775339127	2.6369842290878296	-0.6400620937347412	-0.2872864007949829	-0.45084285736083984	2.7246313095092773	0.9232330620288849	1.4918383359909058	0.44448280334472656	1.4358936548233032	0.20272260904312134	4.177870512008667	0.8621424734592438	0.12180167436599731	0.12058568000793457	0.0931863784790039	-0.34870707988739014	0.5790663957595825	0.41379255056381226	-0.2939279079437256	-0.9185861349105835	1.9462807774543762	2.3723487854003906	4.186921834945679	1.3033992946147919	1.5645930767059326	2.7064722776412964	1.0535254888236523	1.8442944884300232	1.2030538618564606	0.14647185802459717	-0.596652626991272	2.9073210954666138	0.4762927293777466	0.5609546899795532	1.1887429803609848	3.3214569091796875	1.0113884089514613	1.7110209465026855	2.1055185794830322	1.972895860671997	-0.12306594848632812	0.2053019404411316	1.1429541409015656	2.0608675479888916	2.065579891204834	0.5567761063575745	0.9242442324757576	0.14714235067367554	1.5620484352111816	0.9250943809747696	0.10093694925308228	-0.031807899475097656	1.5945517420768738	1.3740789592266083	-0.49943113327026367	2.403930902481079	3.1663944721221924	-0.8187382221221924	1.260468453168869	0.8880717381834984	2.882398247718811	0.7430751919746399	-0.0033597946166992188	-0.15302228927612305	1.3569550216197968	0.8432383686304092	3.1071248054504395	2.267449975013733	0.7840079218149185	1.221236139535904	2.2997372150421143	1.542853832244873	-0.06897056102752686	2.2804962396621704	1.0812546238303185	0.42357033491134644	1.2520180940628052	0.7616451233625412	1.2660810947418213	1.5911369323730469	0.620945155620575	2.496926784515381	0.7039466798305511	1.100606381893158	0.5407699644565582	1.678292691707611	0.8423296362161636	1.4717003107070923	3.23687744140625	2.1220543384552"
"battere_1	0.333404004573822	1.5845674276351929	1.9718106985092163	0.4584566354751587	1.5968667268753052	1.8256009817123413	2.2254828214645386	-5.546402454376221	-0.3551461696624756	3.8141589164733887	0.9617977514863014	0.5076478123664856	1.788588285446167	1.2414674907922745	1.1014369428157806	3.1652281284332275	1.5905410051345825	0.023803353309631348	1.8744301199913025	0.03378891944885254	0.8230296075344086	2.530902862548828	1.5692476034164429	-1.1267380714416504	0.8236290514469147	0.3916744589805603	0.2154073715209961	1.308686226606369	1.7468394041061401	2.6459121704101562	-0.6824396848678589	-0.7536634206771851	2.7194360494613647	1.8632748126983643	2.2495322227478027	1.9901283979415894	1.7711985111236572	0.9404021054506302	0.12681156396865845	0.8489334285259247	1.0834319069981575	1.987777590751648	2.4452240467071533	2.5700548887252808	1.3547123074531555	-17.903154373168945	1.9733035564422607	1.2497032284736633	1.4369651675224304	0.3231925368309021	2.0782521963119507	-1.4821245670318604	0.29949116706848145	-0.6771037578582764	3.903475761413574	2.3838037252426147	2.621079921722412	-1.312037467956543	0.34449470043182373	3.3614182472229004	2.436801791191101	2.899365782737732	0.6255321204662323	1.775881052017212	0.5252239406108856	1.3672960102558136	-1.2174742221832275	1.788672685623169	1.5495640635490417	0.7899025827646255	-0.8139809370040894	-0.5551832914352417	0.34250229597091675	-0.3370835781097412	1.326546460390091	2.524845600128174	1.4256081879138947	0.7508187592029572	2.5522282123565674	1.2267525047063828	3.0121047496795654	4.589926481246948	2.6120188236236572	0.7542860358953476	1.4511534869670868	-0.12082910537719727	-1.8802862167358398	-0.434218168258667	2.398518681526184	-0.0882422924041748	0.07489871978759766	3.986815929412842	1.3937265574932098	1.2185820043087006	2.8890284299850464	3.0749146938323975	0.3714185357093811	-1.5837643146514893	0.7417525947093964	1.8278899788856506	-1.2065155506134033	-1.0450952053070068	-2.9661340713500977	1.807124674320221	2.2889182567596436	-0.009432315826416016	0.3897179365158081	1.2245247215032578	0.43971407413482666	-1.529954433441162	-0.7710416316986084	0.8510095328092575	3.049947500228882	0.41452640295028687	-0.45260369777679443	0.5735389590263367	0.6244269609451294	1.0852322205901146	1.508905053138733	0.700983315706253	-0.018558740615844727	2.8332940340042114	-0.0400240421295166	0.8327335566282272	0.5313045680522919	-1.2962768077850342	4.001722812652588	0.8375673890113831	1.70358806848526	1.8808963298797607	0.5507351160049438	2.9441373348236084	-0.348577618598938	0.9366737306118011	0.3160654306411743	2.754081606864929	0.4687405824661255	0.8358364850282669	-0.3266409635543823	1.1051312386989594	0.4509935975074768	1.5039694905281067	0.6237151920795441	-0.6167424917221069	2.354627013206482	0.10306650400161743	0.5927499234676361	1.9131710529327393	1.2883481979370117	-0.03789472579956055	0.9589708968997002	1.527543306350708	1.8587902784347534	0.7183344960212708	-1.2688302993774414	0.9352341368794441	1.7142258286476135	0.3279147744178772	1.6728357076644897	2.873410701751709	1.348284363746643	1.7012548446655273	1.3256085216999054	2.0287593603134155	0.024939894676208496	1.2436311542987823	2.160337209701538	4.651347875595093	1.6604484915733337	1.3999640047550201	0.6173995733261108	1.4797595143318176	2.431053042411804	1.6397257447242737	0.7814084589481354	2.0348658561706543	-1.2064521312713623	0.3840178847312927	2.2226730585098267	2.195449709892273	2.744889736175537	0.35966843366622925	0.9748679362237453	2.2847436666488647	-0.4554818868637085	1.2400808185338974	1.9745311737060547	0.3033939599990845	0.01518702507019043	2.8283402919769287	1.4062797129154205	-0.7972698211669922	0.46591949462890625	2.515462875366211	0.6669252216815948	-0.5582940578460693	1.098815068602562	-0.1013326644897461	2.3862156867980957	2.732255697250366	2.450471043586731	0.277290940284729	2.0058175325393677	2.265012741088867	2.4165000915527344	-0.656575083732605	-0.9633440971374512	0.8550108075141907	1.2376569658517838	1.1466908156871796	0.48474442958831787	1.5181541442871094	-1.0107698440551758	1.3994362950325012	0.570449948310852	0.6143416166305542	1.5698538422584534	3.1328396797180176	2.5111063718795776	0.5213708281517029	0.9609955884516239	2.642499804496765	0.47242510318756104	2.0700079202651978	0.37431371212005615	-1.0769155025482178	0.2926599979400635	-0.3329836130142212	-1.6126630306243896	1.0270440615713596	-0.8325183391571045	1.4139677286148071	2.8488948345184326	-0.07719337940216064	1.05746990442276	0.5080279111862183	0.5632210373878479	3.547144889831543	0.5585007667541504	0.2381032109260559	1.0858377069234848	-0.7016968727111816	-0.3824578523635864	1.261163204908371	0.2332795262336731	3.7504031658172607	1.9807822108268738	0.9149872735142708	0.6271812617778778	3.976257801055908	1.5727400183677673	0.1366671919822693	0.2826188802719116	0.9542377926409245	2.38268780708313	1.2808944284915924	2.5986998081207275	-1.7325429916381836	0.7854740768671036	-1.517488718032837	-0.15685343742370605	0.8741315007209778	-0.1091008186340332	-0.09136128425598145	2.89618182182312	1.6027082800865173	-0.7178380489349365	-1.7326560020446777	0.41541916131973267	-0.9033061265945435	0.32856428623199463	-1.3399522304534912	0.30957168340682983	1.7756350636482239	1.5647760033607483	3.4752705097198486	0.5500176548957825	1.304910808801651	1.8778657913208008	0.3764232397079468	1.5352684259414673	1.15837462246418	0.6859078109264374	2.491441011428833	2.3044458627700806	2.3026152849197388	0.30841130018234253	2.107531428337097	1.3326696157455444	0.6774687170982361	1.2525842487812042	-0.7884520292282104	-0.503558874130249	0.2688435912132263	-1.3319456577301025	0.007267415523529053	0.5501962006092072	-2.521070718765259	-1.8433940410614014	1.8371131420135498	0.17315906286239624	0.9770414102822542	0.7975353598594666	2.8969528675079346	4.567859411239624	0.8798257261514664	1.9507228136062622	0.016836047172546387	1.0187506210058928	-0.06019127368927002	-0.25056707859039307	-0.20133376121520996	0.30956006050109863	0.7891136258840561	2.0417414903640747	2.362433075904846	1.405033439397812	0.9708381276577711	0.8514452278614044	0.12891048192977905	-7.14732551574707	3.4928956031799316	-0.3062560558319092	1.3164258301258087	0.7050652801990509	1.8992531299591064	0.9816955886781216	2.236318826675415	0.9376252964138985	0.2700258493423462	2.881674289703369	-1.54048752784729	-4.851771831512451	1.1770853400230408	1.2365539222955704	1.6339757442474365	-0.4800581932067871	-0.7352360486984253	2.068385362625122	3.143836736679077	1.0289612133055925	4.27742862701416	2.634737491607666	0.4857172966003418	0.3746074438095093	-0.0168992280960083	2.422593355178833	1.7963098287582397	1.9592268466949463	1.485449731349945	0.05186408758163452	-0.6786296367645264	1.1009941101074219	2.6793359518051147	0.9859798355028033	-0.7597525119781494	0.5779407918453217	0.6294137239456177	0.08963459730148315	0.8722620755434036	0.7609687596559525	3.316084384918213	0.6750761866569519	0.5356950759887695	0.2351762056350708	0.18087506294250488	-0.5697354078292847	3.773310422897339	2.019156336784363	-1.2146568298339844	1.5476568937301636	1.2432595640420914	2.9585200548171997	-0.9882380962371826	-0.11530792713165283	0.07191348075866699	0.32895731925964355	1.754697561264038	0.8889255523681641	0.8330620378255844	2.45786714553833	0.3490186333656311	1.9619019031524658	2.6085585355758667	3.112320899963379	1.5028855204582214	-2.74709415435791	1.4424733519554138	0.5882183313369751	1.9008387923240662	0.1958850622177124	2.267138361930847	3.2552688121795654	0.23488372564315796	2.348138689994812	2.7619866132736206	2.172630786895752	0.587137371301651	1.5812278985977173	-1.867171287536621	-0.0553288459777832	1.3286280035972595	1.6232961416244507	1.4879619479179382	0.19789505004882812	0.9020983278751373	0.5589258372783661	1.0584650449454784	-0.471355676651001	0.3476191759109497	1.6482961177825928	-0.45932435989379883	0.857663094997406	3.6237716674804688	1.1435500383377075	2.1295067071914673	2.028967499732971	1.2428791373968124	1.358540803194046	-0.04804658889770508	-0.16818249225616455	2.598453998565674	0.6167052686214447	0.9794096034020185	0.2801603674888611	0.6120777130126953	2.158027410507202	1.7758217453956604	1.3326743841171265	2.463137984275818	1.1814386993646622	1.7881114482879639	1.9857252836227417	3.806450128555298	2.446294069290161	-2.0235812664031982	-0.1425994634628296	0.6510390639305115	2.110189199447632	-0.10850441455841064	1.0743629559874535	1.9912214875221252	-0.4315260648727417	2.4085034132003784	0.23118960857391357	0.7006154656410217	3.8428170680999756	0.5857443511486053	2.3771302700042725	1.4398339092731476	-0.42219722270965576	2.0493569374084473	1.5497236847877502	2.2760558128356934	0.880016379058361	-0.20752060413360596	1.7154189348220825	0.3939763307571411	1.9775058031082153	-0.4020880460739136	0.08647096157073975	-0.8090420961380005	-0.629380464553833	1.535893201828003	0.29102766513824463	0.018931448459625244	0.9319469258189201	0.26587969064712524	1.0728257969021797	0.5711353123188019	1.0571334436535835	1.5598113536834717	2.115738272666931	-0.8287931680679321	0.9616029895842075	2.0983372926712036	1.199597179889679	1.5889416933059692	1.1028945967555046	0.9083526954054832	2.4665719270706177	0.7226392924785614	1.931338608264923	3.785693645477295	-1.5932180881500244	1.4556385576725006	0.5306464731693268	1.7960013151168823	-0.16767525672912598	2.330507516860962	-0.20664799213409424	0.5019954144954681	3.1387815475463867	-0.34925544261932373	1.6923145055770874	1.1979743540287018	1.5339990854263306	0.36993032693862915	-0.5888053178787231	3.3308751583099365	1.6652861833572388	3.1446244716644287	2.602486491203308	1.5948669910430908	0.49459654092788696	0.10094702243804932	-0.14778685569763184	-0.5818690061569214	-0.34923887252807617	-0.0020530223846435547	-0.15451741218566895	0.04873842000961304	1.8943764567375183	1.2136286199092865	4.086038827896118	0.46103131771087646	0.2843623757362366	2.521010637283325	-0.9442689418792725	-2.224303722381592	1.9688698053359985	1.6108285188674927	-0.2758699655532837	-0.9484162330627441	0.13164973258972168	1.8721713423728943	0.16364902257919312	2.6891586780548096	2.3105422258377075	3.320624351501465	-1.4389700889587402	1.299862802028656	1.6932426691055298	-0.7721493244171143	1.7979755401611328	-0.48899102210998535	-0.26359856128692627	0.9423895329236984	0.6608597636222839	0.19789260625839233	1.9997371435165405	0.3887004256248474	-0.3218907117843628	1.0257257707417011	1.8746634125709534	1.1481582522392273	-0.1617833375930786	-0.35358405113220215	3.5965325832366943	-0.06924855709075928	0.9640904925763607	3.154463529586792	2.7051762342453003	-0.32854580879211426	0.8639164119958878	0.12705862522125244	0.1799589991569519	0.36955535411834717	2.326275587081909	2.4971964359283447	2.8922066688537598	1.2760662138462067	1.2487521469593048	2.3042678833007812	0.36053746938705444	0.7471489608287811	0.24158960580825806	0.450032114982605	-0.42627859115600586	2.843858242034912	21.254594802856445	1.8164169788360596	0.7124803364276886	3.3374853134155273	1.7088030576705933	0.5805162787437439	1.6989403367042542	2.1672481298446655	0.8838282153010368	1.2991700768470764	-1.0005662441253662	1.830105721950531	1.7033814787864685	1.7912636995315552	1.0173032190650702	-0.10785257816314697	-1.4389219284057617	-0.7961417436599731	1.5042100548744202	4.272147178649902	3.7469258308410645	-1.6933186054229736	1.9338038563728333	-0.40770959854125977	1.5018404722213745	2.459692120552063	1.1520349085330963	-0.09391987323760986	0.7276715636253357	0.7857223898172379	1.3605075180530548	-0.41591620445251465	2.3443756103515625	0.7758021652698517	0.5848243534564972	0.9519061483442783	3.8175368309020996	-0.04552888870239258	-1.2283883094787598	2.1812740564346313	-0.0314488410949707	1.0048695411533117	-0.8670341968536377	0.10651201009750366	0.36527323722839355	0.8731327950954437	-0.6523512601852417	-0.3017239570617676	0.9310954287648201	-1.596935749053955	1.2343772798776627	1.9590272903442383	0.16592973470687866	-0.5215386152267456	0.956537239253521	0.6839861869812012	-0.217332124710083	2.129369854927063	1.6844037771224976	2.289785385131836	-1.1304996013641357	0.6487025618553162	3.1033213138580322	1.9894360899925232	-0.027855277061462402	1.544066607952118	2.390954852104187	3.063014507293701	0.15445870161056519	-0.9778158664703369	0.9001200199127197	1.834639549255371	-1.0658295154571533	1.7121257781982422	1.0013030079426244	1.4601908028125763	-0.4130253791809082	2.080720901489258	1.2953669428825378	0.522697389125824	1.0150212831795216	0.9178019315004349	-0.705474853515625	1.9688719511032104	2.9049116373062134	-0.30744850635528564	2.2972463369369507	0.8745175898075104	3.3447771072387695	1.232674017548561	10.803372383117676	1.3817667663097382	0.9035266190767288	-1.086388111114502	1.0343795381486416	-0.9481538534164429	-0.2498018741607666	3.467134952545166	1.4610591232776642	3.1746015548706055	2.044276237487793	1.341519296169281	0.7260160148143768	1.091311052441597	2.7728830575942993	1.5529098510742188	0.6137346923351288	3.1920127868652344	2.881704092025757	-0.4936612844467163	2.9236687421798706	0.42216718196868896	1.4255287051200867	1.7649148106575012	2.1643072366714478	1.8672965168952942	2.402638554573059	-0.2913874387741089	2.693543314933777	0.24037998914718628	1.960816502571106	0.6547498106956482	2.450907826423645	1.7905019521713257	0.6936466693878174	1.8079004883766174	-0.7633349895477295	1.9111897349357605	1.5271944403648376	3.946885824203491	1.9879221320152283	0.3973217010498047	0.07381433248519897	1.0969632044434547	0.509849488735199	-0.7050801515579224	0.4697522521018982	1.0610576122999191	-0.4816538095474243	1.5434354543685913	1.6012952327728271	-0.2053605318069458	0.9257281646132469	2.047179102897644	1.7546441555023193	1.285558044910431	-0.05796980857849121	1.247588962316513	0.349914014339447	0.6779008209705353	3.198814630508423	0.7676544487476349	2.3800641298294067	2.9692286252975464	0.19888931512832642	0.6245589256286621	0.2949374318122864	-0.10332846641540527	0.845840185880661	-0.667671799659729	3.418070077896118	1.2260418683290482	-0.8816072940826416	2.657280206680298	1.9433708786964417	0.26767241954803467	1.3899626731872559	2.1357682943344116	4.595871448516846	0.9827614463865757	3.57715106010437	2.121283769607544	1.6405251622200012	-0.9220074415206909	3.3124802112579346	-1.131035566329956	1.8571184873580933	0.38162803649902344	3.5148515701293945	2.132575035095215	2.3578438758850098	2.4382567405700684	0.2696450352668762	-1.260469913482666	0.9991884300252423	0.7950590252876282	2.1164395809173584	3.776577949523926	0.928428016602993	2.1912366151809692	1.1684319227933884	-0.6885710954666138	-0.08186841011047363	1.346751093864441	1.4937243163585663	1.0851633995771408	0.6342529058456421	1.190030425786972"
