label	0	1	2	3	4	5	6	7	8	9	10	11	12	13	14	15	16	17	18	19	20	21	22	23	24	25	26	27	28	29	30	31	32	33	34	35	36	37	38	39	40	41	42	43	44	45	46	47	48	49	50	51	52	53	54	55	56	57	58	59	60	61	62	63	64	65	66	67	68	69	70	71	72	73	74	75	76	77	78	79	80	81	82	83	84	85	86	87	88	89	90	91	92	93	94	95	96	97	98	99	100	101	102	103	104	105	106	107	108	109	110	111	112	113	114	115	116	117	118	119	120	121	122	123	124	125	126	127	128	129	130	131	132	133	134	135	136	137	138	139	140	141	142	143	144	145	146	147	148	149	150	151	152	153	154	155	156	157	158	159	160	161	162	163	164	165	166	167	168	169	170	171	172	173	174	175	176	177	178	179	180	181	182	183	184	185	186	187	188	189	190	191	192	193	194	195	196	197	198	199	200	201	202	203	204	205	206	207	208	209	210	211	212	213	214	215	216	217	218	219	220	221	222	223	224	225	226	227	228	229	230	231	232	233	234	235	236	237	238	239	240	241	242	243	244	245	246	247	248	249	250	251	252	253	254	255	256	257	258	259	260	261	262	263	264	265	266	267	268	269	270	271	272	273	274	275	276	277	278	279	280	281	282	283	284	285	286	287	288	289	290	291	292	293	294	295	296	297	298	299	300	301	302	303	304	305	306	307	308	309	310	311	312	313	314	315	316	317	318	319	320	321	322	323	324	325	326	327	328	329	330	331	332	333	334	335	336	337	338	339	340	341	342	343	344	345	346	347	348	349	350	351	352	353	354	355	356	357	358	359	360	361	362	363	364	365	366	367	368	369	370	371	372	373	374	375	376	377	378	379	380	381	382	383	384	385	386	387	388	389	390	391	392	393	394	395	396	397	398	399	400	401	402	403	404	405	406	407	408	409	410	411	412	413	414	415	416	417	418	419	420	421	422	423	424	425	426	427	428	429	430	431	432	433	434	435	436	437	438	439	440	441	442	443	444	445	446	447	448	449	450	451	452	453	454	455	456	457	458	459	460	461	462	463	464	465	466	467	468	469	470	471	472	473	474	475	476	477	478	479	480	481	482	483	484	485	486	487	488	489	490	491	492	493	494	495	496	497	498	499	500	501	502	503	504	505	506	507	508	509	510	511	512	513	514	515	516	517	518	519	520	521	522	523	524	525	526	527	528	529	530	531	532	533	534	535	536	537	538	539	540	541	542	543	544	545	546	547	548	549	550	551	552	553	554	555	556	557	558	559	560	561	562	563	564	565	566	567	568	569	570	571	572	573	574	575	576	577	578	579	580	581	582	583	584	585	586	587	588	589	590	591	592	593	594	595	596	597	598	599	600	601	602	603	604	605	606	607	608	609	610	611	612	613	614	615	616	617	618	619	620	621	622	623	624	625	626	627	628	629	630	631	632	633	634	635	636	637	638	639	640	641	642	643	644	645	646	647	648	649	650	651	652	653	654	655	656	657	658	659	660	661	662	663	664	665	666	667	668	669	670	671	672	673	674	675	676	677	678	679	680	681	682	683	684	685	686	687	688	689	690	691	692	693	694	695	696	697	698	699	700	701	702	703	704	705	706	707	708	709	710	711	712	713	714	715	716	717	718	719	720	721	722	723	724	725	726	727	728	729	730	731	732	733	734	735	736	737	738	739	740	741	742	743	744	745	746	747	748	749	750	751	752	753	754	755	756	757	758	759	760	761	762	763	764	765	766	767	768
affiancare_9	2.027132987976074	0.9981392857152969	2.1552222967147827	0.05344343185424805	1.7128239870071411	2.3183796405792236	0.0012128949165344238	-6.8214802742004395	0.6892550587654114	4.029629707336426	0.20738589763641357	2.782471537590027	2.6516371965408325	2.2593811750411987	0.1933538317680359	2.9308016300201416	0.017147839069366455	0.9257009625434875	1.8859416842460632	-0.2259359359741211	-1.4249143600463867	1.0665416046977043	2.1330748796463013	-2.256349563598633	0.18668222427368164	-1.0197420120239258	0.5822177529335022	2.4152029752731323	1.1496098935604095	3.849555015563965	-0.03305649757385254	2.2345590591430664	1.9095687866210938	0.014379799365997314	2.7203850746154785	2.7421447038650513	0.5637586414813995	0.2811785340309143	2.796888828277588	-0.5371761322021484	1.7223135232925415	2.870721459388733	1.8869038820266724	0.04572957754135132	0.5956356823444366	-17.696908950805664	0.02974337339401245	2.1843472719192505	0.078319251537323	5.251589298248291	0.0855402946472168	0.21418911218643188	-0.1201927661895752	0.5462144613265991	5.000151634216309	1.5638826489448547	2.2363418340682983	0.496121883392334	-0.3321347236633301	4.035588026046753	2.5439956188201904	2.855111598968506	0.9138423874974251	1.9206783175468445	0.9899893337860703	2.0446313619613647	-1.2694377899169922	1.5198441743850708	4.149146795272827	1.7320658564567566	2.2160558700561523	1.4333437979221344	1.515581488609314	1.9706810116767883	1.5914443731307983	0.5284362733364105	3.2408196926116943	0.24738305807113647	1.6003258228302002	1.5644313097000122	1.4371497929096222	-0.040262579917907715	1.612114429473877	0.7245934009552002	0.39739173650741577	1.6149997115135193	0.6177248060703278	-1.689765453338623	1.4811826050281525	0.9071381986141205	-0.3608694076538086	1.6971895098686218	2.005940794944763	1.4390037059783936	5.683292388916016	0.9110741838812828	1.051579587161541	-1.3255999088287354	0.3727186322212219	0.7962125241756439	0.3540775775909424	-0.4925656318664551	0.08253508806228638	-1.0454425811767578	2.8300472497940063	0.8369247317314148	0.6725387573242188	1.6311680674552917	0.3271806240081787	2.460776925086975	-0.9667015075683594	2.4241281747817993	1.8044049143791199	-0.10195982456207275	-1.0179626941680908	0.9577373564243317	0.22916561365127563	0.26723647117614746	0.13879281282424927	0.8384488821029663	0.19828873872756958	2.7471604347229004	1.4151571094989777	1.1086605489253998	-0.12242114543914795	2.174792766571045	3.088125228881836	1.093765377998352	-0.6242116689682007	2.802273154258728	0.5445749461650848	1.724036991596222	0.7024279236793518	0.20828038454055786	1.8343329429626465	1.3075552582740784	-0.24218332767486572	-0.6968480348587036	-0.2964749336242676	1.5702214241027832	1.296213984489441	3.6688523292541504	0.26122570037841797	0.23376697301864624	-1.109222650527954	0.24185246229171753	-0.5256255865097046	1.6724278926849365	2.3606103658676147	1.7805383205413818	1.4275205433368683	0.45167481899261475	2.222600817680359	0.177837073802948	0.5190184116363525	0.8303740471601486	2.2747089862823486	-0.9871761798858643	2.7220473289489746	2.821859836578369	-2.758638381958008	1.8480645418167114	-1.5949633121490479	2.3691115379333496	-0.33432912826538086	2.9089865684509277	1.683448851108551	4.582655191421509	1.7881262302398682	0.4344739317893982	0.25532472133636475	2.8432157039642334	-0.04813539981842041	4.155537843704224	2.001017212867737	0.102630615234375	0.9970614991616458	1.3292116224765778	2.3006787300109863	1.0418765619397163	0.014364063739776611	1.831020474433899	3.0109570026397705	2.007888436317444	1.3047891855239868	2.1715167760849	1.926867961883545	-0.24395215511322021	0.48817121982574463	0.47100555896759033	1.916634738445282	0.40015435218811035	0.511341392993927	1.1547433733940125	-0.1623992919921875	1.0882379412651062	0.9876662576571107	1.5297208428382874	0.17203563451766968	1.4113580286502838	1.7559320330619812	-0.42817842960357666	1.4994350373744965	2.9170992374420166	0.17347657680511475	0.2631910443305969	-0.5971367359161377	0.5669736266136169	2.6144262552261353	1.0015369622269645	2.05203115940094	2.8664454221725464	-1.0141797065734863	-0.21262109279632568	0.5403827428817749	-0.12328338623046875	1.7333903312683105	4.283161163330078	1.4270473718643188	0.7469654977321625	0.3999353051185608	2.5014835596084595	-1.0678131580352783	1.915704607963562	0.6087728142738342	0.651775449514389	1.5391144752502441	0.5008721649646759	-1.3622853755950928	0.017499804496765137	1.7971692085266113	1.6992237567901611	4.9380714893341064	0.9195455759763718	0.9222097173333168	-0.03705322742462158	0.8511896878480911	2.2885063886642456	0.9985999983036891	2.1378263235092163	0.7871435284614563	-1.1304142475128174	1.0410517677664757	0.44220423698425293	-0.7633024454116821	1.7734274864196777	1.5283204913139343	0.6464795470237732	-0.5971988439559937	3.850769281387329	0.1640884280204773	1.6062673926353455	0.7929497063159943	1.5170092582702637	-0.1140526533126831	-0.14617764949798584	0.4766078591346741	0.37128692865371704	-0.4104905128479004	-1.0039703845977783	1.7980030179023743	3.069108724594116	1.6396746635437012	-0.7226612567901611	1.011672687716782	2.4480626583099365	0.006745576858520508	-2.082648515701294	1.6826665997505188	1.0318835712969303	1.0728829503059387	1.2142763584852219	1.8543479442596436	1.8274984955787659	3.169419527053833	1.4429600238800049	-1.498314380645752	1.9599788188934326	1.9032734036445618	2.062758207321167	-0.22430455684661865	2.3270177841186523	0.6187579035758972	3.6773769855499268	1.234147623181343	1.5739299654960632	0.8567831367254257	1.4744400680065155	-0.30430150032043457	3.373377561569214	-0.11703073978424072	-3.711247444152832	-1.3413372039794922	1.503312587738037	1.9801321625709534	-0.04156363010406494	1.1122517809271812	-1.5595285892486572	-0.21859681606292725	-0.7869688272476196	0.5142283737659454	1.8336682319641113	0.8940787315368652	-0.5260196924209595	1.4231061041355133	1.0204719807952642	-0.04106450080871582	2.0465269088745117	2.2001662254333496	-0.26885557174682617	-1.3533222675323486	2.542313575744629	1.9438743591308594	1.667443871498108	0.39650899171829224	3.0755417346954346	0.8958968967199326	1.4975988566875458	0.7706821113824844	2.025843024253845	-5.890593528747559	1.4486826956272125	0.4699694514274597	-0.4255930185317993	0.7416905760765076	2.1564866304397583	2.609623908996582	-0.36207258701324463	2.248784065246582	0.3830338716506958	0.924211174249649	-0.29906558990478516	-3.1403188705444336	2.931646466255188	1.0928075835108757	1.243698850274086	0.5456742644309998	2.044245719909668	-0.22842693328857422	1.7383880019187927	2.1367063522338867	1.714443862438202	3.5023880004882812	1.9953830242156982	0.4361124038696289	-1.0347931385040283	1.712450623512268	-0.2586578130722046	2.0889697074890137	0.6586904227733612	-0.5565252304077148	-2.029162883758545	0.7185622751712799	5.1884379386901855	1.288600206375122	-1.342691421508789	0.45621466636657715	0.526127815246582	0.5023957788944244	1.8246568441390991	0.8589800149202347	-0.12955760955810547	2.43408739566803	2.626897931098938	1.2798649668693542	-0.09595942497253418	0.638070672750473	1.7687093615531921	1.0355909392237663	-0.5507467985153198	2.168392539024353	1.8763413429260254	1.840451717376709	0.6217366456985474	-0.07113850116729736	2.211961507797241	1.8796966075897217	1.0274967830628157	-0.39709174633026123	2.1650922298431396	1.9156137704849243	0.67202427983284	1.8997144103050232	1.8035117983818054	2.311013102531433	0.5159180760383606	0.6276831328868866	-0.6966873407363892	1.2831151187419891	-0.0808786153793335	1.6387365460395813	1.6435264945030212	-0.2131662368774414	0.45749396085739136	1.37453293800354	0.9888831721618772	1.572557508945465	1.6260289549827576	2.467810869216919	0.8105886876583099	1.0918931812047958	-0.4920886754989624	2.658209800720215	1.3517414927482605	0.5594765543937683	-0.6434592008590698	0.24817734956741333	2.2115514278411865	0.35534900426864624	0.9634497202932835	2.5715044736862183	0.2115839123725891	1.2243390530347824	1.634044349193573	1.1903416365385056	1.0374565348029137	2.2719162702560425	0.30601614713668823	1.8980905413627625	0.156294047832489	-0.353839635848999	1.9289754629135132	1.4011715650558472	1.8880714774131775	0.03205472230911255	0.5105084478855133	2.804138422012329	1.4676278829574585	0.41919225454330444	1.9644170999526978	1.0356295108795166	2.640578269958496	0.17295867204666138	4.347673416137695	0.8773492649197578	1.5946261286735535	-0.4706653356552124	1.0485129654407501	0.25836580991744995	-1.427863359451294	0.9616710059344769	1.0343501940369606	0.2812066078186035	2.517544746398926	-1.8913202285766602	2.648754358291626	4.243372917175293	-0.09083151817321777	2.2387006282806396	1.6319015622138977	-1.2166681289672852	1.4414269924163818	2.378729462623596	1.9888414144515991	1.340016931295395	0.3805720806121826	1.2933695912361145	-4.0689849853515625	0.3473716974258423	-0.3087383508682251	0.9853132050484419	-1.3255901336669922	-0.019849061965942383	0.32740360498428345	2.498506188392639	1.777506172657013	-1.4611806869506836	0.2680623531341553	0.5425806641578674	1.9435094594955444	1.6209664344787598	-0.10913026332855225	1.9294744729995728	0.8730542361736298	-0.06132960319519043	1.8166607022285461	0.9287002310156822	1.4713813960552216	1.2690186500549316	1.9931530356407166	2.3464566469192505	0.5786168873310089	0.10614854097366333	0.8262431174516678	-1.8499860763549805	-0.049393653869628906	1.6060588955879211	1.3183270692825317	-1.3706490993499756	3.4169695377349854	1.4746197760105133	2.239832043647766	0.6368374824523926	-0.8242241144180298	-4.58726167678833	-0.5377193689346313	3.566204071044922	0.6387220323085785	1.2556087672710419	2.920158624649048	1.145270749926567	2.7714993953704834	1.8143352270126343	1.4203849732875824	1.9671941995620728	0.23115980625152588	0.7017977237701416	-0.7891781330108643	1.8423053622245789	1.926723301410675	2.127609133720398	2.2514021396636963	-0.33756792545318604	1.0807331874966621	2.468946933746338	0.38565003871917725	-0.08850514888763428	2.6587873697280884	1.376737117767334	-0.5889244079589844	1.3862011432647705	3.1955204010009766	0.7070148587226868	1.0189458448439837	1.4245271682739258	3.1937201023101807	-1.6757707595825195	0.08179360628128052	3.144798755645752	3.431622266769409	-0.05847513675689697	2.013728976249695	3.613168478012085	-1.1811671257019043	0.8091238886117935	0.00917595624923706	-0.4098470211029053	1.6297252774238586	2.451570153236389	0.8212039768695831	3.0102224349975586	0.7735848128795624	0.40517330169677734	-0.8755577802658081	2.3156371116638184	-0.38852834701538086	-0.12833809852600098	-3.2632884979248047	0.24535441398620605	2.2159793376922607	0.7147105634212494	2.254030704498291	2.189606189727783	-0.8483299016952515	1.9204290509223938	-1.058370590209961	0.7925316840410233	1.1160775646567345	1.780064046382904	0.2792503237724304	2.605412483215332	0.5799437463283539	0.8709618598222733	1.593163788318634	0.94209298864007	1.4298045635223389	1.095672607421875	1.8414670825004578	1.3171717822551727	1.3473372757434845	20.550487518310547	0.22641611099243164	3.9193179607391357	-0.9377151727676392	3.0463013648986816	0.9259095788002014	1.4662046432495117	2.305235505104065	0.5222801864147186	2.6409722566604614	1.151690661907196	0.652621328830719	2.42011296749115	0.5389605164527893	1.1456408649682999	0.2763103246688843	-0.3931695222854614	1.2381201535463333	1.1803010702133179	5.2138671875	2.3820141553878784	-1.1117229461669922	1.177318423986435	-0.5482686758041382	2.7316137552261353	1.5485644936561584	2.9941136837005615	1.3062386214733124	1.5376335978507996	1.8243982195854187	1.5489416122436523	2.1275848150253296	1.273465484380722	0.9578860625624657	0.1614970564842224	1.6970282196998596	2.4524165391921997	-0.8171027898788452	-1.7126727104187012	1.6755455136299133	0.11587291955947876	1.1408748775720596	-0.36958765983581543	-0.08264029026031494	1.783376932144165	-0.7244552373886108	-0.39219820499420166	2.0732191801071167	2.109854817390442	1.8889101147651672	-0.8957912921905518	-0.02440023422241211	1.407626450061798	-0.6977412700653076	2.993862748146057	0.9145253449678421	0.41336190700531006	2.4059492349624634	2.408879041671753	2.0384856462478638	-1.6470158100128174	2.18146288394928	1.2300363779067993	1.9558180570602417	1.4711501896381378	3.3529999256134033	0.43364793062210083	2.93544864654541	1.672097384929657	-1.1882188320159912	0.9149290099740028	2.0699055194854736	0.4429134726524353	2.468840479850769	1.0097463289275765	1.8810833096504211	-0.33644962310791016	0.16860121488571167	1.956434726715088	1.9990241527557373	1.4929808974266052	-1.723315954208374	0.7820425033569336	1.09551040828228	0.9519485346972942	1.4457192122936249	0.7164289653301239	0.8101304769515991	2.5606677532196045	1.1000949442386627	7.785438060760498	-1.655768871307373	0.11551183462142944	0.08199048042297363	2.8365176916122437	0.6102820634841919	0.7911728620529175	5.120729923248291	-0.09679210186004639	1.4358137547969818	0.41591906547546387	1.4506347179412842	0.7692680656909943	0.607024759054184	1.782269299030304	1.9120469093322754	1.4992623627185822	1.5353999733924866	2.3322609663009644	0.6345482170581818	4.185694456100464	0.9421117305755615	1.6943130493164062	0.9417120404541492	1.902546226978302	-0.573699951171875	0.13173192739486694	-0.14643514156341553	2.161710262298584	0.6234005689620972	-0.660702109336853	0.03534668684005737	-0.2734733819961548	0.828554704785347	3.828171491622925	-0.6669098138809204	0.6070291996002197	-0.7326842546463013	0.6373714506626129	2.77990984916687	3.647481918334961	0.8586764186620712	1.0808928608894348	1.8872934579849243	-1.3170428276062012	0.41423749923706055	1.6700170636177063	-0.5194840431213379	-1.0894560813903809	0.41616523265838623	1.6125787496566772	-2.746262311935425	3.200016498565674	0.3053264617919922	-0.04108142852783203	2.542254090309143	1.4068616926670074	1.4871791899204254	1.0853322967886925	1.1269619017839432	2.9009240865707397	1.056588813662529	2.4076344966888428	2.338578224182129	-2.7200522422790527	1.5036572813987732	-0.7516318559646606	-0.9614560604095459	-0.7735763788223267	1.6685875058174133	0.356015145778656	-0.5000802278518677	0.3157322406768799	0.013907790184020996	0.6616551578044891	-1.331514596939087	-0.23059940338134766	2.62703800201416	3.9442501068115234	-1.4690711498260498	1.6346878409385681	2.011352300643921	0.30310744047164917	2.480738043785095	2.4791605472564697	1.1678917557001114	2.901119828224182	-0.1356722116470337	1.9992817044258118	0.8560959100723267	1.491243600845337	1.6191484332084656	3.513936758041382	1.17298424243927	1.3466566503047943	1.6957630515098572	-0.10632991790771484	-0.06541097164154053	-0.4255411624908447	2.0466606616973877	2.5866793394088745	1.7015287280082703	0.8956716060638428	2.613420009613037	1.1483901292085648	-1.040004014968872	1.756640374660492	3.4805703163146973
affidare_1	1.1928274631500244	1.1988073289394379	1.4251962900161743	0.5662042796611786	1.6438924074172974	1.4527462124824524	1.524102509021759	-6.529263973236084	-0.1586369276046753	2.76885187625885	0.07642877101898193	1.4930212795734406	2.8241902589797974	1.457537978887558	0.9218702986836433	0.70038041472435	0.10293960571289062	1.2396959364414215	2.771367311477661	0.6607264578342438	-0.1836872100830078	2.2014567852020264	2.4364973306655884	-0.32220959663391113	1.3213408291339874	0.6124360859394073	1.9208921194076538	2.6423362493515015	1.2726513147354126	2.8164050579071045	1.5482851266860962	0.038642704486846924	3.1614127159118652	0.5118373036384583	1.2194591760635376	3.1528353691101074	-0.2795361280441284	2.5045799016952515	1.9262945055961609	-0.09660840034484863	2.0260438919067383	1.371715247631073	1.6260390877723694	0.5575822293758392	-1.158306360244751	-17.53876495361328	0.5535387098789215	2.4674144983291626	0.2605348825454712	2.392753481864929	0.46065568923950195	-0.7105520963668823	1.2603373527526855	-0.07851815223693848	2.6586337089538574	1.7003377676010132	2.5506783723831177	1.6135510206222534	0.2909649610519409	4.175349712371826	1.5862932205200195	1.9970242381095886	1.4286913871765137	0.261377215385437	1.1492327153682709	0.9170581623911858	0.22716540098190308	1.6876782178878784	2.9280697107315063	1.8326935172080994	1.6977251172065735	-0.46159231662750244	1.031654816120863	1.6354416012763977	2.096565008163452	1.161132737994194	2.6045132875442505	1.8218244314193726	2.428244113922119	1.7781175374984741	1.9205985069274902	1.988555371761322	1.7700548768043518	0.6616309285163879	1.478979468345642	0.9964940999634564	-0.6006436347961426	0.7690514177083969	2.49654483795166	1.0650363489985466	0.6243981420993805	2.9250361919403076	2.522151827812195	1.9879167079925537	3.497545003890991	0.9040947705507278	0.9564896933734417	0.6547022461891174	0.23939913511276245	1.9850913286209106	-0.6619741916656494	2.3660162687301636	-1.803603172302246	-0.39087939262390137	1.8925107717514038	2.3980515003204346	1.7243528962135315	1.0308986902236938	-1.8307719230651855	1.6808527708053589	-0.09696614742279053	1.766526460647583	3.3825361728668213	-1.4821691513061523	0.31545811891555786	0.12061154842376709	0.09191453456878662	-0.11745572090148926	1.407297521829605	1.5996518731117249	-1.2747399806976318	2.2810224294662476	0.713717520236969	-0.504091739654541	-0.49039196968078613	1.5017183423042297	0.584115743637085	1.521846354007721	1.6101443767547607	3.288410186767578	1.102718509733677	1.5772302746772766	-0.1672966480255127	1.90123850107193	0.7859137505292892	1.1785991191864014	1.2330917716026306	0.4801982045173645	1.05639274045825	0.9279780462384224	1.0376044809818268	0.3187863826751709	0.7463827431201935	-1.030151128768921	-0.14593517780303955	1.1180120930075645	0.356764554977417	1.0148875517770648	2.488897919654846	0.9179750755429268	2.629197359085083	2.5890095233917236	0.20139402151107788	1.6617180705070496	-0.5789119005203247	0.961634911596775	3.0251712799072266	0.2654229998588562	0.7118640840053558	2.947068691253662	1.2552771270275116	2.727818727493286	-0.3826996088027954	1.6719868183135986	-0.39133596420288086	1.3722499310970306	0.010648369789123535	3.801602602005005	2.67804753780365	1.2231018990278244	-0.276139497756958	3.074979543685913	0.9768471140414476	1.6063238382339478	1.9197027683258057	1.5481023788452148	-1.062072992324829	1.0671514943242073	2.357508063316345	0.1985691785812378	1.5158944129943848	1.1883946806192398	0.41307276487350464	2.3460819721221924	0.17437589168548584	0.15445059537887573	1.3140963912010193	2.052667260169983	1.3962947726249695	2.112645983695984	1.7933294177055359	0.3219791054725647	1.0801490247249603	0.9753319472074509	1.3434555232524872	0.6072834432125092	2.4447516202926636	0.9582249224185944	0.9156877622008324	1.0773850902915	0.9946530209854245	0.19324064254760742	1.015332831069827	1.373545080423355	1.1249937266111374	0.6000209450721741	-0.5726773738861084	1.0396654717624187	1.2887207865715027	-0.05294489860534668	1.2230903506278992	1.1955321580171585	-0.28229713439941406	-1.6320199966430664	0.9629280976951122	1.1718743592500687	0.4102765917778015	3.403654098510742	1.9027782082557678	0.1512625813484192	1.3686913847923279	1.919193983078003	-0.3407169580459595	-1.3819658756256104	-0.5341081619262695	1.603872299194336	1.1828034967184067	1.2797622978687286	0.6703688502311707	0.28943681716918945	2.985345959663391	1.8133317828178406	1.753352165222168	2.8008806705474854	1.5047933459281921	-0.9706418514251709	0.6014501750469208	1.6130642890930176	1.883278727531433	-0.17235064506530762	-0.38961052894592285	-0.7691783905029297	0.09414899349212646	-0.14702486991882324	1.1730727851390839	3.4070181846618652	1.4291660487651825	1.3664041459560394	0.5020157992839813	4.356177568435669	1.3765446543693542	2.19010066986084	0.3451719880104065	0.752824991941452	0.5365176200866699	-0.5974311828613281	0.7836373746395111	0.5560908913612366	0.9383256882429123	-0.33094167709350586	0.3564251661300659	1.9403803944587708	0.18280774354934692	0.8675699234008789	0.09290653467178345	1.4897962510585785	0.8094389736652374	-2.421534538269043	1.3947210609912872	2.0603432655334473	0.010563910007476807	1.2349431812763214	1.4514093101024628	1.4756856262683868	0.1464340090751648	1.2414055168628693	0.7492543756961823	3.4775474071502686	0.8356456309556961	1.9115880131721497	-0.7908533811569214	0.5583013594150543	-0.02053391933441162	3.482874631881714	0.9920161785557866	1.3332711160182953	0.042443275451660156	2.5785967111587524	1.6885989308357239	1.7676971554756165	-0.05946922302246094	-2.4154350757598877	0.16114908456802368	0.19341909885406494	1.054436981678009	-0.8850992918014526	0.187940776348114	-0.4877018928527832	0.04223531484603882	-0.2946774959564209	-0.12700152397155762	0.8356386423110962	0.9488454647362232	-0.7242718935012817	1.7287192940711975	-0.8247522115707397	0.23144912719726562	0.7489784061908722	2.4181602001190186	-0.8132926225662231	-0.12795782089233398	0.8418438136577606	-0.15017759799957275	-0.8803828954696655	1.2791033387184143	2.900111436843872	1.2637673318386078	2.8806779384613037	-0.43199706077575684	0.14597606658935547	-15.269868850708008	0.7888886034488678	0.8085429072380066	0.48981940746307373	4.487301826477051	1.4217090606689453	1.126652866601944	1.2398572862148285	0.8300645649433136	0.43559712171554565	0.7863704115152359	0.3984779715538025	-1.9004583358764648	0.14798259735107422	-0.1481630802154541	1.0973973497748375	1.0237748567014933	0.31821489334106445	1.1050184294581413	0.43540096282958984	0.26154428720474243	1.1276333034038544	3.9401822090148926	1.2184999883174896	0.7682391703128815	-0.16739726066589355	1.3905062079429626	0.12450903654098511	1.3818501234054565	-0.654472827911377	0.1688317060470581	0.2716027498245239	1.0643091201782227	1.5948137640953064	0.4937431812286377	0.7378572523593903	0.9790382646024227	1.0356219708919525	1.2998957335948944	0.346906840801239	-0.05697894096374512	0.5911870002746582	1.4859362542629242	1.8761699795722961	2.3039982318878174	0.8461153507232666	2.0087692737579346	1.6467517614364624	1.773048996925354	0.8759140074253082	2.2375868558883667	0.9825677033513784	0.41729438304901123	2.6842145919799805	-0.14290356636047363	1.4223142564296722	2.7188708782196045	2.945639133453369	-0.5397440195083618	1.4942687153816223	0.9237260669469833	0.6878792941570282	0.8589584082365036	1.367483228445053	0.7658375203609467	1.5488469004631042	2.448101043701172	1.250004380941391	-0.061715126037597656	0.5358312427997589	0.3120860457420349	1.249529629945755	0.14842629432678223	0.7941042184829712	1.4868029057979584	0.6351359188556671	1.5259218215942383	3.1676812171936035	2.86535906791687	-1.9458558559417725	0.5415399968624115	0.5881537795066833	2.29736328125	0.027254998683929443	0.43361204862594604	0.29883939027786255	0.036205828189849854	1.1140186712145805	1.3139754831790924	1.007688332349062	1.8187929391860962	1.6783818006515503	1.7387039065361023	0.09643608331680298	0.10323888063430786	1.6611945033073425	1.2845965325832367	1.140065997838974	1.7381367087364197	2.656202793121338	-0.7411441802978516	2.8480950593948364	0.8946032300591469	2.7171581983566284	1.2917801141738892	1.8239302039146423	0.27170151472091675	1.8382951617240906	-0.35002970695495605	2.1752694845199585	0.8194968700408936	2.166739344596863	0.14066940546035767	2.0543421506881714	0.7687647491693497	-0.21562790870666504	-0.8485177755355835	3.038691520690918	0.9587370790541172	1.0750014334917068	-0.0960167646408081	2.668415904045105	1.0503492429852486	2.4836138486862183	-0.8788226842880249	1.8304591178894043	2.706057548522949	0.39038944244384766	2.119645595550537	2.1747125387191772	-0.9608402252197266	1.6045957207679749	0.5780419111251831	4.2175209522247314	0.9863665970042348	0.7900127917528152	1.9777878522872925	-0.3404214382171631	0.9630273468792439	-0.012020230293273926	2.246559977531433	0.5953494012355804	1.4142889082431793	0.467560350894928	2.740994691848755	1.801590085029602	1.3587191104888916	2.5980011224746704	1.8218068480491638	0.9422192759811878	1.1979595720767975	1.1842353343963623	2.39721941947937	-0.518240213394165	1.118936076760292	2.4383715391159058	0.10782033205032349	-0.042359113693237305	1.835307776927948	0.5211236774921417	1.8508522510528564	1.264235258102417	-0.03779637813568115	-0.08391523361206055	-0.9878407716751099	0.20067739486694336	2.6604886054992676	1.4768950939178467	1.128762811422348	1.1969238817691803	0.8620129972696304	1.0278901793062687	0.37444770336151123	0.760331928730011	-3.068427085876465	1.505005419254303	0.43225914239883423	-0.5463306903839111	0.8140395432710648	3.067800760269165	0.4797772765159607	1.178992584347725	1.2466033697128296	1.2840216159820557	0.9188804849982262	1.0712075531482697	-0.4320732355117798	0.7934778481721878	3.130633592605591	0.758149579167366	2.1968919038772583	0.6396656930446625	0.7174486517906189	1.3085764944553375	0.3052392601966858	0.7418631017208099	-0.10727131366729736	2.5886290073394775	-0.939090371131897	0.3071632981300354	1.7937475442886353	0.9389883764088154	1.4013655483722687	0.36034905910491943	1.2646704614162445	2.102542757987976	1.528753936290741	0.21740126609802246	1.6936570405960083	1.9571004509925842	-0.4407839775085449	-0.12639474868774414	2.9381312131881714	-0.01956641674041748	0.5865581631660461	1.0187646187841892	-1.0026144981384277	1.7855548858642578	1.3465298414230347	0.2747723460197449	1.8439005017280579	1.5023435354232788	-0.3247486352920532	0.2480890154838562	1.0897650197148323	0.8734758645296097	0.35863322019577026	-1.6793136596679688	1.0112412460148335	1.414385348558426	0.810232937335968	1.3446398675441742	3.033663749694824	1.1263052821159363	1.3671033382415771	-0.4994063377380371	-0.003552079200744629	0.9378415234386921	1.6488832235336304	1.9218337535858154	1.8471679091453552	1.1535369157791138	-0.19081425666809082	1.1689215749502182	0.10921603441238403	1.7849634885787964	-0.4120398759841919	1.5310316681861877	-0.001467585563659668	0.7829478681087494	22.55204200744629	1.3742375671863556	0.16868805885314941	-1.4610261917114258	-0.06904387474060059	1.6913712620735168	2.113859176635742	2.798449993133545	2.2805179357528687	1.414496123790741	1.0426318123936653	1.411719650030136	0.48003751039505005	0.5648641288280487	2.010532259941101	1.0207547266036272	0.24163419008255005	0.5379290580749512	2.1386431455612183	4.174257755279541	1.1037866324186325	2.06078839302063	1.8208966851234436	0.944514662027359	1.7605738639831543	2.311932682991028	0.49338895082473755	0.17334753274917603	0.8889071866869926	-0.0642848014831543	2.390855073928833	1.571234405040741	-0.03955674171447754	2.8434598445892334	-0.06929957866668701	-0.471116304397583	1.904765546321869	1.1946523189544678	0.6793601810932159	0.4613267183303833	-1.1824979782104492	1.050617653876543	1.8775373697280884	1.8392977714538574	2.395530939102173	1.3766522109508514	-0.6088192462921143	1.5391610264778137	-0.19496333599090576	-1.0894598960876465	0.4215124249458313	1.56521475315094	0.2761048674583435	0.611113578081131	3.575908899307251	1.5698972940444946	1.9581917524337769	1.294108122587204	0.9985087047098204	0.7584307342767715	-1.0013539791107178	1.8526745438575745	2.014027237892151	2.1039124727249146	0.7853870838880539	1.770631194114685	0.9005773663520813	1.5506853461265564	0.52745121717453	-1.6772561073303223	0.7730521708726883	1.2346529364585876	1.5673986673355103	1.3300136029720306	1.1879988461732864	1.1216350346803665	0.9287535399198532	2.44363009929657	1.6523851156234741	2.6407867670059204	1.6421610116958618	2.0843632221221924	1.3524598181247711	1.031302958726883	0.3285280466079712	0.47438257932662964	1.5313111543655396	0.8788567781448364	1.2960388958454132	1.3248087167739868	7.467228412628174	0.48856180906295776	2.816183090209961	1.321227252483368	1.033263098448515	1.5002725720405579	0.4277370572090149	3.459951877593994	1.289033979177475	1.8565899729728699	1.9506415128707886	0.4674445390701294	0.8632249534130096	1.4214058220386505	2.945923924446106	1.9925387501716614	1.7776286602020264	2.2445662021636963	1.7349914908409119	-1.23455810546875	1.653369128704071	0.19866299629211426	2.9322617053985596	0.08471876382827759	1.6615472435951233	0.05296170711517334	1.497018814086914	-0.3390904664993286	1.193450227379799	1.8484816551208496	-0.2715747356414795	2.2499254941940308	1.0254837945103645	0.5559242367744446	2.263146162033081	1.9919611811637878	0.7354437708854675	1.0975701734423637	2.0565185546875	1.4851243793964386	1.4268004298210144	-1.1143150329589844	0.597358226776123	-0.9366564750671387	-0.3368973731994629	1.0844503194093704	0.7856490015983582	2.125695824623108	-1.335526466369629	3.1426613330841064	1.3669007420539856	1.5065736174583435	0.7858863174915314	0.6222285032272339	0.39903366565704346	1.097545549273491	2.3046555519104004	-0.35568666458129883	0.9930037967860699	0.6279529929161072	2.5709372758865356	0.5540509521961212	0.854081392288208	0.9209802076220512	-1.808722734451294	-0.30723893642425537	-0.4980086088180542	1.0831619799137115	-0.4564453363418579	1.0066643683239818	0.2321169376373291	0.9804882183670998	1.0229207202792168	2.4180054664611816	2.0985742807388306	0.08111703395843506	0.0635480284690857	2.8946993350982666	2.5612162351608276	0.8862111791968346	0.9881803561002016	-0.4879664182662964	0.3721315264701843	3.437061309814453	2.451516270637512	2.3895962238311768	1.6753546595573425	1.692642092704773	1.2832999229431152	1.226000428199768	0.14169269800186157	1.5144528150558472	2.4721972942352295	2.2394607067108154	1.3109086453914642	1.331000030040741	0.714055746793747	0.7149749100208282	0.7620869129896164	1.4361512064933777	1.4115380346775055	1.4758363664150238	1.4719751179218292	1.6787980198860168	1.85397469997406	-0.03748786449432373	2.3677347898483276	1.3284903168678284
affliggere_2	1.8611315488815308	2.06296443939209	0.5984016954898834	1.7787283062934875	1.3937435150146484	3.8716068267822266	2.25935959815979	-8.725981712341309	1.7282665967941284	3.8207714557647705	-0.2478489875793457	0.8936697840690613	1.2412549257278442	1.3308317959308624	1.4497626721858978	2.7330116033554077	4.350172519683838	0.4332975745201111	1.5265898704528809	2.4022992849349976	0.8701006919145584	1.3690052926540375	1.497907966375351	-1.3571760654449463	0.6250453889369965	1.1154887229204178	0.32803070545196533	1.589390218257904	2.5000444650650024	2.482714891433716	1.7034762501716614	-1.171093225479126	2.9453262090682983	1.335701584815979	-0.49485301971435547	3.75813889503479	-0.1652156114578247	1.3769227266311646	1.2228567898273468	1.7181276679039001	-0.02506124973297119	1.2105701863765717	3.416534662246704	2.4986358880996704	-0.7612082958221436	-19.008222579956055	0.7972098886966705	2.011238217353821	0.17681366205215454	0.531594455242157	0.8827992826700211	2.0824224948883057	-0.1151585578918457	1.1982566267251968	5.252740859985352	2.28860080242157	-0.2852691411972046	-0.995988130569458	0.13844823837280273	3.072068214416504	3.007004737854004	1.5414953231811523	0.11969864368438721	2.6159799098968506	1.0264712646603584	1.2103295773267746	0.6862194538116455	1.478196769952774	2.2459163665771484	-0.6290875673294067	1.1813476383686066	-0.8693920373916626	0.7431941628456116	-0.7674578428268433	2.8051527738571167	2.4462207555770874	-0.7440099716186523	1.415988028049469	2.04054594039917	0.43341654539108276	2.505861282348633	1.336611658334732	1.9448594450950623	-0.06481623649597168	1.8229554891586304	2.6499544382095337	2.0328861474990845	-2.9194836616516113	0.7605360597372055	0.9179176315665245	-0.08990788459777832	2.256223440170288	1.2033559083938599	1.4498053193092346	2.056569457054138	0.009913623332977295	2.73639452457428	0.4941512942314148	3.2775802612304688	1.9467782974243164	-1.5304749011993408	1.0330578610301018	0.9132283329963684	-1.6000940799713135	0.698978453874588	0.9224786683917046	0.9080842211842537	0.9163229614496231	1.2222916334867477	-1.3422000408172607	0.5140050947666168	-0.5327408313751221	2.136474132537842	0.8683100491762161	-1.2860064506530762	0.5551241934299469	2.1898744106292725	1.7183626294136047	3.174102544784546	1.8049079775810242	-1.363105297088623	3.394460916519165	1.173022985458374	3.1051619052886963	0.445281445980072	1.0920999348163605	4.371958017349243	1.4760787785053253	0.5236572921276093	3.470726251602173	1.4383122026920319	3.2709014415740967	3.48785138130188	0.9604885466396809	1.1129854395985603	-0.28792762756347656	2.3013898134231567	2.7296451330184937	0.11995911598205566	-0.06820869445800781	1.4028875827789307	1.9629880785942078	-0.5240371227264404	2.850898027420044	3.206298589706421	3.364259719848633	2.0128211975097656	2.0639288425445557	0.6589593291282654	2.220083475112915	4.5532262325286865	1.5212205052375793	1.1829010099172592	1.3900892734527588	-0.5480252504348755	0.9304354712367058	1.1787837743759155	-1.1625194549560547	1.8431671261787415	1.5759945511817932	0.4359115958213806	2.2964818477630615	0.2427201271057129	2.733489990234375	-0.7059600353240967	1.2733916342258453	0.9294421970844269	2.853334903717041	2.3221657276153564	0.4955514669418335	2.1486021280288696	1.0817722082138062	1.394606202840805	2.047753691673279	0.9419800080358982	1.1394859701395035	0.8863339647650719	-0.4593222141265869	1.5221455097198486	3.1631085872650146	-1.242504596710205	0.988175954669714	0.9922628402709961	1.9895118474960327	-0.16172659397125244	2.1724432706832886	3.5539445877075195	-0.9439854621887207	0.9249105527997017	-0.3247121572494507	0.3354565501213074	-2.000605821609497	0.28097009658813477	2.234155058860779	0.1977471113204956	2.9591569900512695	2.395131468772888	0.8440626412630081	1.9868454337120056	1.2250703126192093	0.4042568802833557	0.30533367395401	3.7390527725219727	4.103906869888306	3.072157144546509	0.4813377857208252	-0.288396954536438	1.6937552094459534	0.1099889874458313	-0.5523973703384399	0.5661534667015076	0.7845997512340546	-0.9536179304122925	-0.8407802581787109	1.9896433353424072	0.03974264860153198	2.4051036834716797	6.324947357177734	2.318536400794983	1.8034318685531616	2.7408952713012695	0.9553751014173031	-0.368959903717041	-0.6599124670028687	-1.1079092025756836	-0.42889702320098877	0.6030534505844116	-0.12107598781585693	-1.258774995803833	0.7821459919214249	1.3562169671058655	1.6003080606460571	3.8207852840423584	2.6856420040130615	0.7344731390476227	0.5083204209804535	1.730121672153473	0.44579994678497314	-0.24156856536865234	2.0955086946487427	0.03349506855010986	-1.1547057628631592	-0.689443826675415	-1.2400991916656494	-0.4303548336029053	2.618834376335144	0.47007644176483154	1.4896983802318573	0.8459637016057968	4.295299768447876	1.0639678612351418	-0.13593542575836182	1.222741186618805	-1.2674744129180908	-0.14787638187408447	0.3116934299468994	0.23454368114471436	1.4657001197338104	0.14561790227890015	-0.8371438980102539	1.271176129579544	3.6525630950927734	0.9134315773844719	0.8007821887731552	1.2996315360069275	2.746787667274475	1.632000207901001	-3.310859203338623	-1.9105315208435059	0.7551230937242508	-1.8676631450653076	-0.29854631423950195	2.3742746114730835	1.9234779477119446	1.4123311042785645	0.9587001278996468	1.1784952133893967	2.5386139154434204	2.38651180267334	0.4414597749710083	0.10503095388412476	2.2180017232894897	0.900154173374176	3.891991376876831	0.43290746212005615	2.563593864440918	1.2955110669136047	1.8908464312553406	0.710961639881134	2.1578071117401123	1.279514104127884	-1.155531406402588	0.9493420980870724	1.5720343589782715	-2.162226676940918	0.9174482598900795	1.8401856422424316	-4.292902946472168	-1.8769111633300781	0.44978058338165283	-0.6550416946411133	1.678578794002533	-0.33660709857940674	1.9221802353858948	1.6700637936592102	1.4837455749511719	0.7056685388088226	-0.7875813245773315	1.0855030342936516	-1.0818347930908203	0.4455873370170593	-1.1375367641448975	2.724753260612488	-1.5157227516174316	1.1488152742385864	4.3210015296936035	0.7753269523382187	0.047962725162506104	-0.7286401987075806	-1.6250975131988525	-10.041230201721191	1.954190731048584	1.37392458319664	0.5236275494098663	3.134460210800171	2.108477473258972	-0.6135387420654297	-0.4027831554412842	1.109877623617649	-0.03439128398895264	1.9749948978424072	0.4965348243713379	0.6305579841136932	0.5964374244213104	1.9771674871444702	0.19272810220718384	-0.9633842706680298	1.9892842173576355	0.8865019306540489	1.3222195208072662	0.829324409365654	1.9297570586204529	2.157741665840149	1.7759791612625122	1.1096071526408195	1.3093669414520264	0.6229378879070282	1.125951960682869	0.9876148253679276	2.1538723707199097	1.016719439998269	-0.14420580863952637	1.1114683374762535	-0.6079837083816528	-1.4147975444793701	-0.001448512077331543	1.3162403404712677	0.5047022104263306	1.5068784356117249	1.2778772711753845	0.38357168436050415	2.295088768005371	2.61038076877594	1.596061646938324	2.752532482147217	1.1856561750173569	-0.05672740936279297	2.733560800552368	1.7207061648368835	1.7404646277427673	0.5138568580150604	4.245656251907349	3.0944573879241943	1.1887820214033127	-0.7382568120956421	2.3645118474960327	0.9779715146869421	-0.24776196479797363	2.1108343601226807	-0.35703086853027344	1.3145337104797363	0.33861082792282104	1.1146821156144142	0.7166549265384674	2.904820442199707	-1.2456471920013428	0.6037407219409943	-2.2574939727783203	-1.7462158203125	-1.3466978073120117	1.4639166295528412	3.2239530086517334	-0.044423460960388184	-0.13720309734344482	1.100206308066845	3.4677629470825195	1.7618008255958557	0.6354928910732269	2.757875919342041	0.13163554668426514	1.0485314950346947	1.941267967224121	0.6157427430152893	2.097695231437683	0.4202089309692383	-3.510924816131592	-1.5282511711120605	-0.7624094486236572	2.8555984497070312	2.9512832164764404	1.0346359685063362	3.084939956665039	-0.23612940311431885	1.5072102546691895	2.9250991344451904	4.168457269668579	1.5049532055854797	-0.0790247917175293	1.730468511581421	2.4362605810165405	0.7079145610332489	3.119330644607544	0.18045276403427124	0.19222748279571533	-0.7221112251281738	-2.0439393520355225	0.31958144903182983	1.0975189954042435	0.22915172576904297	2.196195363998413	1.9003580808639526	0.4721454381942749	0.4711759090423584	3.1226916313171387	1.575825035572052	1.5146834254264832	-0.3780968189239502	1.4770322442054749	-0.6062060594558716	-0.9841562509536743	1.0914371460676193	-0.5899257659912109	0.006255209445953369	3.2292301654815674	-1.537686824798584	-0.39207327365875244	4.149475812911987	2.5156408548355103	3.7101616859436035	2.287508487701416	-0.9260622262954712	2.7371026277542114	1.8121691942214966	1.7520387768745422	1.7106599807739258	-0.9175890684127808	-0.8975478410720825	-2.2200212478637695	1.5245551466941833	-0.8809421062469482	0.9791307542473078	0.46762263774871826	-0.4366530179977417	1.8263756036758423	0.6561959981918335	2.674680471420288	1.4524960219860077	-0.9071918725967407	-0.8631609678268433	0.6820728480815887	-0.2888529300689697	1.0899460911750793	1.2350885421037674	1.646240234375	1.1866947263479233	3.0475971698760986	0.17854654788970947	-0.650294303894043	0.2916942834854126	3.776721954345703	0.292599081993103	2.0103368759155273	0.9758475255221128	2.063131093978882	-2.2383034229278564	1.9104925990104675	2.7568942308425903	-0.14682221412658691	0.8237584829330444	1.8534557223320007	1.3409465849399567	2.1528269052505493	0.8152024298906326	-0.9086704254150391	0.9022707119584084	0.5807094573974609	0.5566473603248596	-0.12282633781433105	0.23334848880767822	2.2817351818084717	2.3502209186553955	3.939668893814087	3.460178852081299	0.08407449722290039	2.4358484745025635	-1.1172335147857666	0.8933055326342583	1.6353492736816406	0.6780104041099548	1.3823903501033783	-0.7933125495910645	2.1047661304473877	0.5537226498126984	3.182788133621216	-0.4289209842681885	1.116196408867836	-1.8453893661499023	1.945287823677063	1.6806130409240723	1.3681384325027466	3.4257307052612305	1.622377097606659	1.4655424654483795	-0.7413407564163208	0.08872652053833008	1.8170763850212097	-0.022077202796936035	-1.2855608463287354	0.5868739783763885	3.947545051574707	-0.4487721920013428	3.0912539958953857	2.5259482860565186	-0.30397486686706543	1.0513126142323017	-0.04784238338470459	-0.7321600914001465	2.378694772720337	0.659318745136261	0.39458101987838745	1.328561395406723	1.6031468510627747	2.44204044342041	0.6768885254859924	1.1928407847881317	1.1646455824375153	-0.2300572395324707	-0.46806323528289795	1.2104407995939255	0.9608219526708126	2.8417645692825317	3.6000285148620605	0.27105534076690674	-0.5691086053848267	1.1641267389059067	-0.5657777786254883	-0.8570065498352051	1.7580111622810364	0.29916906356811523	3.2199275493621826	0.18866193294525146	1.0727252513170242	1.1811942607164383	1.516032338142395	1.2371956706047058	1.6298713088035583	0.14773762226104736	2.306880235671997	-0.6018887758255005	1.3835116028785706	20.21520233154297	0.8608279824256897	-0.047360897064208984	-0.10698330402374268	2.1596730947494507	1.5058560371398926	2.5715630054473877	0.878311961889267	3.95558500289917	0.7532575577497482	1.1923642456531525	0.6226330101490021	0.6098766028881073	-0.11139404773712158	3.1207730770111084	1.2887253761291504	0.7115163505077362	1.479571282863617	0.6790996491909027	3.825045347213745	1.4836892783641815	-0.28864574432373047	1.9840402603149414	-0.12243986129760742	1.8235166668891907	2.4901750087738037	2.6742711067199707	0.1837848424911499	3.641031265258789	0.5330070853233337	2.196077585220337	1.0642564669251442	1.8459863066673279	2.9170974493026733	0.03397798538208008	1.0202677194029093	2.7467851638793945	-0.14736807346343994	-1.1265838146209717	-1.1291840076446533	-0.967076301574707	1.8983149528503418	1.668502151966095	0.5779100954532623	-0.47569286823272705	0.44262367486953735	-3.0668435096740723	1.0364311449229717	0.8139131963253021	0.8656719624996185	-0.20005643367767334	0.9837451037019491	0.8707269430160522	2.0882755517959595	5.207207202911377	0.7644834518432617	1.5516065955162048	1.4390076994895935	0.37731438875198364	1.1947811096906662	0.03977566957473755	2.6124653816223145	3.4588398933410645	2.1810420751571655	-1.5144031047821045	3.3125362396240234	-0.125543475151062	2.1137441396713257	-1.608699083328247	-3.1969246864318848	1.7709615230560303	1.5293682217597961	-0.34046387672424316	2.0142914056777954	3.4098284244537354	0.5019223093986511	-0.18170690536499023	3.105766534805298	1.0501268468797207	-0.965705156326294	0.15379661321640015	2.1506537199020386	-0.00015974044799804688	1.691595196723938	2.3807965517044067	-0.5524674654006958	1.1986837536096573	0.3644021153450012	-0.44295668601989746	1.3759311735630035	9.138754844665527	-0.49679017066955566	0.06194448471069336	0.058466970920562744	2.754890561103821	-0.07119178771972656	0.8284582048654556	4.281819105148315	1.0162994284182787	2.230937361717224	2.201841950416565	1.3399319052696228	0.8594250977039337	0.38623613119125366	1.4560667276382446	3.8978466987609863	0.18299055099487305	2.481743812561035	4.432069301605225	0.671413004398346	0.7156004011631012	1.8390774726867676	1.7715566158294678	1.3910625576972961	-1.3486201763153076	1.9376513361930847	-0.2794528007507324	-1.278573989868164	1.5044205784797668	2.6707547903060913	0.7497960925102234	1.4769950807094574	-1.217423677444458	-0.9428949356079102	2.5440531969070435	2.007444977760315	-1.1581549644470215	0.7401089370250702	1.6479448676109314	2.696123957633972	1.3767855167388916	-0.6694964170455933	1.2981023490428925	0.11646616458892822	2.009127616882324	0.5481819808483124	3.7854206562042236	0.7497385442256927	0.8008431643247604	3.593125820159912	1.561068832874298	1.2682507932186127	0.5271830856800079	2.2202048301696777	0.3973156809806824	1.3901560306549072	1.9584622979164124	-1.220346450805664	-0.5838329792022705	-0.5116790533065796	2.858416199684143	1.4385538697242737	1.073867805302143	1.3953402042388916	0.06334167718887329	0.9803733490407467	1.114967703819275	-1.25551176071167	-0.7304967641830444	0.6573410928249359	3.3909130096435547	2.481421947479248	0.5485437512397766	-0.20177805423736572	0.050144731998443604	-2.9925708770751953	3.0447072982788086	0.9339978843927383	2.8599648475646973	0.9554579667747021	5.719128608703613	0.9407895356416702	-0.18721842765808105	3.3515758514404297	2.105061650276184	-1.5974359512329102	2.2354077100753784	1.3908183574676514	2.6398985385894775	0.23928385972976685	-0.7447327375411987	1.6977912783622742	0.8200184851884842	0.4554617404937744	1.6697733998298645	2.186227560043335	2.086782455444336	1.321251779794693	0.8498997837305069	1.9702004194259644	1.1959331184625626	0.8663019686937332	0.6798068284988403	3.2247231006622314	1.139816626906395	0.24084556102752686	1.1105469167232513	0.16460126638412476
affogare_3	1.301323413848877	1.41385880112648	0.26595622301101685	0.42463743686676025	0.12118887901306152	2.3652617931365967	0.22177159786224365	-7.0564775466918945	-0.7936317920684814	3.874844551086426	0.22394806146621704	2.4963659048080444	5.160593032836914	2.0424816608428955	0.8714990466833115	3.4771721363067627	-0.46580755710601807	1.0848799496889114	0.5530315935611725	-0.9116668701171875	0.896160289645195	2.27190101146698	2.064427137374878	-1.8237419128417969	1.7174133658409119	1.0501999072730541	0.6336074769496918	1.5203591585159302	2.560264825820923	1.4472896754741669	0.6410404741764069	0.5883567333221436	2.336008667945862	2.1408196687698364	1.6197909712791443	3.017787218093872	1.5587984919548035	1.7471524477005005	0.6804214715957642	0.193181574344635	0.4604816436767578	1.288514494895935	1.3595817983150482	-0.0037517547607421875	2.1955395936965942	-17.109983444213867	0.7120454907417297	1.1975882649421692	1.3736258745193481	2.430648446083069	1.3985294103622437	-0.6945518255233765	-0.8211065530776978	0.4984768033027649	5.3921685218811035	1.7694291472434998	1.666559875011444	-1.2632718086242676	0.290519654750824	2.279067635536194	0.4956088662147522	2.3005837202072144	1.27872896194458	2.1188756227493286	1.6333276629447937	0.43502873182296753	0.2772780656814575	2.018404245376587	3.460669994354248	3.0477170944213867	1.454210877418518	1.950467824935913	2.546583652496338	-0.0863194465637207	2.027794122695923	2.0054001808166504	2.3128823041915894	1.555788815021515	1.7761892080307007	1.4618289470672607	0.8408758789300919	1.6286445260047913	1.5113826990127563	0.9120723530650139	1.1296868324279785	-0.4645881652832031	1.388544648885727	-1.9958906173706055	-1.0893621444702148	0.7404316961765289	3.2836740016937256	3.009047508239746	1.354024887084961	0.3039857745170593	3.849290609359741	1.8017250895500183	1.7988197803497314	-3.0267233848571777	2.935586452484131	1.0864438489079475	-0.4569582939147949	1.6215449571609497	-1.0987017154693604	0.2625817060470581	2.307035803794861	1.514034628868103	0.21184778213500977	2.6098248958587646	0.9660693742334843	1.221359133720398	0.27998340129852295	0.43986862897872925	3.892731189727783	0.8433682173490524	-0.8632688522338867	0.6758095920085907	2.420547366142273	1.3562512397766113	3.2029976844787598	0.5253508687019348	0.08336687088012695	2.1446226835250854	0.4668341279029846	2.9712172746658325	0.7344875931739807	-0.6103405952453613	2.4852383136749268	2.7257823944091797	-0.9755209684371948	2.2079883813858032	0.29275059700012207	1.7989482879638672	0.21623486280441284	-0.02363109588623047	1.2791543304920197	0.7811077237129211	2.0496453046798706	3.2507593631744385	-0.5594090223312378	-0.18455445766448975	2.1077077388763428	0.617988109588623	-0.4826308488845825	1.299493819475174	0.5064907073974609	2.0723843574523926	1.2329541742801666	0.41221851110458374	0.9154032468795776	0.1803581714630127	1.8445735573768616	0.9307044893503189	-0.06571602821350098	0.777405858039856	0.9190833047032356	0.08735954761505127	2.988862991333008	1.0756251066923141	0.844109445810318	2.7456122636795044	0.7590131908655167	5.049927711486816	1.1732597649097443	1.6824865341186523	-0.6125030517578125	2.339859366416931	1.0451271682977676	4.198529243469238	2.756298542022705	0.8533826023340225	0.19196319580078125	1.4992891252040863	3.4848861694335938	2.0269469022750854	1.9802269339561462	0.4188203811645508	2.3301960229873657	3.4408323764801025	1.12979556620121	1.9327135682106018	2.2857885360717773	1.6567954421043396	-1.2038700580596924	1.3739190101623535	-0.994005560874939	0.5526894629001617	0.8841517046093941	0.7704262137413025	3.771491289138794	0.9218878298997879	1.4429506063461304	-0.9257869720458984	0.7206806242465973	1.6735498905181885	2.48089861869812	-0.10649192333221436	0.8078656643629074	1.2024817317724228	0.5399006009101868	3.838809013366699	2.3289304971694946	0.12713861465454102	1.2102923542261124	3.3000130653381348	1.86016446352005	0.1902552843093872	-0.14813148975372314	1.3824540376663208	-0.012270927429199219	0.005933105945587158	1.566371738910675	3.1801295280456543	0.5653555393218994	-1.181929588317871	1.3958038091659546	1.2159700095653534	-0.06131088733673096	4.54123854637146	2.0327917337417603	0.7310484051704407	0.7684799432754517	0.4264702796936035	1.3847524225711823	1.0490468479692936	0.7882929742336273	1.8766868710517883	1.2245230972766876	-0.3165876865386963	0.7169008553028107	1.2320515364408493	3.6606552600860596	2.311810612678528	2.6533591747283936	0.9346871301531792	2.01566219329834	0.052392005920410156	0.3421695828437805	0.7915602177381516	-0.001050114631652832	-0.47051286697387695	-0.21008753776550293	-1.1087989807128906	0.6909846067428589	2.3181004524230957	-1.104382038116455	2.3997976779937744	1.6381584405899048	0.08766192197799683	1.5939013361930847	3.2044429779052734	2.64707350730896	2.871483325958252	1.2114369869232178	1.1975504606962204	1.5830077528953552	0.49283212423324585	1.0972224324941635	0.38455909490585327	2.7113088369369507	-2.323012351989746	0.15170663595199585	2.7932006120681763	0.6117475032806396	2.115019679069519	0.4734489321708679	3.5302000045776367	-0.33100759983062744	0.08573263883590698	0.6625342071056366	-1.3415181636810303	0.37956076860427856	0.853074848651886	3.489142417907715	1.3127518892288208	2.4194161891937256	0.7433986365795135	1.2217572331428528	3.2973592281341553	1.3616064190864563	0.8968086391687393	1.639656126499176	1.915492296218872	0.22050392627716064	2.6370922327041626	2.033053755760193	-0.2555818557739258	0.42147016525268555	1.0698544904589653	0.7992140799760818	1.3485469818115234	1.8727313876152039	-0.44903695583343506	-0.37510883808135986	0.13952863216400146	1.6883984804153442	0.2566627860069275	0.07166820764541626	-1.372443675994873	-0.6783725023269653	0.7682396322488785	-0.02195274829864502	0.5501917600631714	1.6117374300956726	0.3525770306587219	1.4192538261413574	1.6392897367477417	1.0658950209617615	1.0911107659339905	1.2163705825805664	0.978694062680006	-1.7709581851959229	0.6300138533115387	0.5663290023803711	0.4273076057434082	0.4116867184638977	3.196329116821289	2.1798349618911743	1.0374113358557224	1.1514235138893127	-2.9074909687042236	-12.541346549987793	1.2825882732868195	-0.3377201557159424	-0.48398566246032715	1.3220340013504028	0.07067620754241943	2.504839301109314	1.22834312915802	1.414567083120346	0.3577553629875183	0.9808041118085384	-1.0117900371551514	-2.7995851039886475	0.8220773190259933	1.686775803565979	-0.145088791847229	1.7456237077713013	-1.1276423931121826	1.4156806468963623	-0.8283599615097046	-0.30988359451293945	1.6522256731987	2.277777671813965	1.1348372250795364	1.2031457722187042	-0.5317254066467285	1.5861074328422546	-1.065483570098877	1.7310899496078491	1.3386318385601044	-0.03213691711425781	-0.50473952293396	-0.6478102207183838	3.3321824073791504	1.004974750801921	0.8316529244184494	0.4689050316810608	-0.35281240940093994	2.365407943725586	2.003092646598816	0.19536030292510986	-1.1050453186035156	1.4295852482318878	1.2293500751256943	1.1083406955003738	0.03967559337615967	2.839096426963806	1.0567790009081364	2.800397038459778	0.4890691041946411	0.019942283630371094	-0.28663313388824463	1.0355287156999111	2.0615196228027344	-0.6530059576034546	1.489667147397995	0.8169038146734238	2.255628824234009	1.1486731320619583	0.2507026195526123	1.815418004989624	0.6683035790920258	2.176350474357605	0.7056690454483032	1.7087203860282898	-1.298328161239624	2.761492133140564	0.8485731929540634	-3.0915536880493164	1.9600911140441895	-0.09022402763366699	4.18609881401062	1.5349438190460205	0.03960227966308594	-0.47607743740081787	2.697990298271179	1.4405646622180939	0.8193762451410294	3.166566848754883	-0.625855565071106	2.2745609283447266	0.2713903784751892	1.103876993060112	0.24637192487716675	0.9277648329734802	0.4025754928588867	2.1659518480300903	1.3119475543498993	0.34517812728881836	1.1267262548208237	0.9262091740965843	1.8588959574699402	1.6984224915504456	2.3112449645996094	1.6862831115722656	2.1494786739349365	1.119311347603798	1.1193086728453636	1.4567886590957642	1.8595337271690369	1.1595837324857712	3.2027578353881836	-0.036265015602111816	0.22440844774246216	0.5984178185462952	-0.8770380020141602	1.2873333096504211	2.6780292987823486	1.343044400215149	0.6756592094898224	0.7858891934156418	0.7832880169153214	-0.4842660427093506	1.7284935116767883	0.5111759006977081	-0.4390435218811035	0.04743039608001709	1.6270684599876404	-0.8700774908065796	1.1651521921157837	0.7725269794464111	2.4794180393218994	0.14090633392333984	1.5450251698493958	0.010246038436889648	0.5070818066596985	1.7649239301681519	1.1110337749123573	1.4730475544929504	3.4343910217285156	0.8867492973804474	0.17933392524719238	1.9493261575698853	2.912113904953003	-0.6262524127960205	1.0642450749874115	1.3402242064476013	-2.3603732585906982	-0.3338775634765625	-1.7230660915374756	-0.3137218952178955	0.3593279719352722	1.067173108458519	1.3083897531032562	2.0474292039871216	1.4184987545013428	3.2588765621185303	1.4106054306030273	-0.3158644437789917	-0.0685279369354248	2.315288782119751	-0.2178424596786499	4.613309383392334	-0.03713881969451904	1.4303549528121948	2.1505743265151978	2.1529793739318848	0.8931760862469673	2.320731282234192	1.1543717980384827	1.2606331408023834	-0.7051546573638916	1.1027291119098663	2.4957377910614014	-1.5954365730285645	0.5804735422134399	3.050100088119507	2.454366683959961	0.7555505335330963	3.9726645946502686	1.976532220840454	1.2624790668487549	0.9462401792407036	0.9737785048782825	-1.513549566268921	0.8320271372795105	1.3845568001270294	-0.44779396057128906	1.7679648399353027	1.3046709895133972	1.4729706943035126	1.3000721335411072	2.425887703895569	-0.39094769954681396	3.482783555984497	2.389168381690979	2.2162662744522095	0.8812584802508354	0.32528769969940186	1.6698006391525269	2.610840320587158	-0.25268614292144775	0.4539529085159302	0.025333046913146973	-8.392333984375e-05	0.923247829079628	1.5992594361305237	2.199181914329529	0.7587013244628906	-2.0354843139648438	2.1813069581985474	0.21081554889678955	1.193353682756424	-0.046697258949279785	1.1250135004520416	0.27206867933273315	0.8257033079862595	-1.430762767791748	1.675243318080902	1.973896861076355	1.4675355851650238	2.798189878463745	2.2253856658935547	0.2724751830101013	2.7173609733581543	0.4141350984573364	1.2961969673633575	0.5486249923706055	1.332601636648178	0.8956653922796249	1.5643065571784973	-0.1357102394104004	2.5624918937683105	1.1049354672431946	2.259734869003296	1.011057156138122	-0.2844655513763428	-3.0308752059936523	2.6169103384017944	2.7797495126724243	0.37973177433013916	2.3083972930908203	2.897017240524292	-0.34033334255218506	1.0021899468265474	-1.2809152603149414	-0.48186588287353516	0.3419586420059204	1.9231561422348022	1.4528939723968506	1.0121845407411456	1.730702817440033	-0.2997692823410034	1.4042429327964783	-1.0362074375152588	2.37729012966156	1.4198015630245209	-0.5424057245254517	1.7104737758636475	1.2930828332901	20.29289436340332	2.521531581878662	-0.35312438011169434	1.774457335472107	1.4627564549446106	0.8912781924009323	1.7581276297569275	2.2035415172576904	1.2072014659643173	2.2737232446670532	1.6302370429039001	1.8991944789886475	2.419477343559265	-1.8882133960723877	2.0169979333877563	1.7544806003570557	1.1125650256872177	1.40153169631958	0.27770131826400757	2.8573185205459595	1.776490330696106	-0.30716657638549805	1.2845198214054108	2.4967031478881836	1.5835334658622742	2.02266526222229	1.0980287790298462	0.2554289698600769	1.789245069026947	-1.1558969020843506	0.8851550072431564	1.316060721874237	-0.6129583120346069	0.8385903835296631	1.4608695209026337	3.253286361694336	2.0201679468154907	0.8801626414060593	-0.06434774398803711	-0.7010071277618408	1.1977340430021286	2.0978527069091797	0.3791787028312683	-0.06866717338562012	2.8337870836257935	1.2159931659698486	-0.630355954170227	1.8422555923461914	1.3666357696056366	-0.003543257713317871	0.25342994928359985	1.8008776307106018	-0.9020442962646484	1.7322331070899963	1.671248435974121	-0.6790735721588135	0.26559340953826904	1.323466718196869	-0.24010920524597168	0.7886620610952377	-0.642204999923706	4.080556154251099	1.496951699256897	2.580139994621277	1.09620950371027	1.5567215085029602	1.3902983963489532	2.2712372541427612	2.20291268825531	-2.197345018386841	0.5257599353790283	1.2880768775939941	1.3188817501068115	1.504421055316925	1.3763721585273743	0.08402454853057861	-1.0539166927337646	1.923521637916565	0.01210319995880127	1.6777371764183044	0.9226337820291519	1.9819208979606628	-0.7702773809432983	1.0014798929914832	1.114629939198494	0.804917499423027	0.4625893831253052	1.0077205868437886	1.2344969809055328	1.0729574635624886	9.76784610748291	-0.18806934356689453	-0.28079819679260254	0.6811325550079346	1.406312108039856	0.6252587139606476	0.7306017577648163	1.2642425000667572	0.7267865836620331	2.027305841445923	1.6218335032463074	1.3226953744888306	0.37464314699172974	2.6014539003372192	0.649331122636795	1.0342772379517555	0.8890077546238899	2.408658981323242	0.3493817448616028	-0.05283546447753906	0.7585330754518509	0.4208751916885376	2.230565905570984	0.8840383663773537	1.2161785513162613	1.2665435373783112	1.8294939398765564	-0.7896517515182495	3.2110507488250732	2.491292357444763	0.7445807754993439	0.5561100244522095	1.084909364581108	-1.1053016185760498	1.1049156337976456	1.063813179731369	0.3187633752822876	0.38856661319732666	4.687918186187744	1.3361657559871674	2.696943521499634	-2.2397310733795166	0.06255215406417847	1.491947054862976	0.5267487466335297	0.013576745986938477	2.4527477025985718	0.3708496689796448	-0.055367469787597656	3.7429471015930176	0.6880782842636108	1.8418973088264465	1.3563458621501923	2.647063136100769	0.8878891319036484	2.9991663694381714	3.313965320587158	0.4443213939666748	1.5258046388626099	0.669424831867218	2.981371283531189	0.39042502641677856	0.542791873216629	0.4775143265724182	-1.8674726486206055	0.4559122920036316	1.1917562186717987	0.30994147062301636	0.10031354427337646	0.7685000896453857	1.0647736862301826	0.44350504875183105	1.2127668857574463	3.6035842895507812	1.4073128700256348	-0.8960628509521484	2.979854464530945	1.0235991049557924	0.8052800595760345	0.6139800846576691	0.08733487129211426	-0.5721316337585449	-0.5369540452957153	0.5935395956039429	0.8609551787376404	0.08695602416992188	2.6980143785476685	0.40058761835098267	3.7449188232421875	0.06348377466201782	0.17675739526748657	1.5210725665092468	0.14089757204055786	-0.3740200996398926	-0.94488525390625	0.1962563395500183	2.833068609237671	0.8255283981561661	0.3388645052909851	0.8530979454517365	1.4712125658988953	-0.5816211700439453	1.0355233401060104	2.356675386428833	0.8667441755533218	-1.1641130447387695	1.6395525932312012	1.1978083550930023
affollare_1	0.8298698663711548	1.6561753749847412	-0.01864302158355713	-0.37456727027893066	0.8269221484661102	1.7027673721313477	2.028729200363159	-8.655420303344727	0.08096158504486084	5.058461666107178	0.5872909128665924	0.8276752084493637	1.2676158547401428	-0.18462741374969482	2.902464747428894	-0.8173470497131348	2.019230365753174	2.3763262033462524	-1.4598667621612549	1.0571823865175247	-0.9495106935501099	2.8188064098358154	2.665565848350525	-0.7507152557373047	-0.19286465644836426	0.14233678579330444	0.06743001937866211	1.383557289838791	1.7582030296325684	2.2958933115005493	2.2998229265213013	0.5951920449733734	0.49058806896209717	2.568322777748108	0.7232804596424103	2.0176048278808594	0.5429957509040833	1.9774370789527893	0.4781718850135803	0.8107763975858688	1.217706486582756	0.5611111521720886	4.750283718109131	3.1091043949127197	-2.506056785583496	-17.701274871826172	0.21696871519088745	3.396711826324463	-0.3782522678375244	2.6963003873825073	0.7303967177867889	-1.7289998531341553	0.3738030791282654	0.0654553771018982	5.219664096832275	1.801963984966278	3.709022045135498	-2.165167808532715	0.2772626280784607	2.9834089279174805	1.5356435775756836	1.888074517250061	0.834641844034195	2.9576772451400757	1.488042414188385	1.709983229637146	0.646983414888382	2.830476999282837	4.094558477401733	-0.42907190322875977	1.7195181846618652	1.1667000353336334	2.0637773275375366	2.0022932291030884	1.195258378982544	2.8499956130981445	2.633433699607849	2.2386714220046997	2.140751361846924	0.2972707748413086	3.603991985321045	3.6133408546447754	2.6968307495117188	1.2696377635002136	1.3680006563663483	-0.8118891716003418	0.7617765218019485	-2.191582679748535	1.6695667505264282	-1.095550298690796	1.8832245469093323	2.7995545864105225	0.6534347236156464	-0.09762918949127197	2.756309151649475	0.016415297985076904	2.1095151901245117	-0.6448186635971069	0.33376163244247437	1.264205276966095	-0.9791347980499268	0.646356850862503	-2.74285626411438	1.5338833332061768	3.0234453678131104	1.0592507980763912	1.4674115478992462	1.64381605386734	0.16402661800384521	-1.042996883392334	1.557263433933258	1.696086347103119	1.3574659526348114	-0.12344896793365479	0.14070898294448853	-1.2993206977844238	3.2105276584625244	2.01284396648407	3.0102806091308594	1.395798921585083	-0.4031018018722534	1.2046372294425964	0.7628154903650284	-0.014085173606872559	2.229621648788452	0.6040292084217072	3.0980868339538574	1.3445436358451843	-0.4026777744293213	2.6472991704940796	1.6095260381698608	2.1812692880630493	1.526397943496704	0.3173271417617798	1.8115666508674622	1.928236722946167	0.9443392120301723	3.2910478115081787	1.9503628015518188	0.4652087092399597	2.0825494527816772	2.2028990983963013	-0.6105953454971313	0.45382630825042725	1.2680675387382507	3.1601665019989014	0.7500424683094025	1.0017623741878197	1.1080419421195984	1.2935220897197723	1.3193745613098145	0.9709071163088083	1.8076464533805847	1.0419347323477268	-0.35667884349823	1.526969075202942	0.9821250941604376	-0.5503524541854858	0.45040977001190186	2.2070378065109253	0.43686962127685547	2.27056348323822	-0.26457369327545166	2.819637894630432	1.0569008067250252	3.8072807788848877	0.9134146198630333	4.665556907653809	1.6136488318443298	-0.3109325170516968	1.5548574924468994	2.4945963621139526	1.257360190153122	1.828684389591217	-0.6250606775283813	2.1751922369003296	1.3412272930145264	3.1916120052337646	0.8806423172354698	4.02887225151062	1.58693128824234	1.0702467039227486	0.46474891901016235	1.0158058106899261	0.03747016191482544	2.5383260250091553	2.089202404022217	-0.1422426700592041	0.6239853203296661	-0.11832928657531738	1.9403445720672607	-0.7116631269454956	0.9359855502843857	0.1035873293876648	1.3128878772258759	2.208114266395569	-0.09388720989227295	1.925500512123108	1.214111715555191	1.4279298186302185	0.20771950483322144	-0.810836672782898	2.085547924041748	3.798917293548584	1.2886396050453186	-0.1102452278137207	1.73112553358078	0.6621289253234863	0.8338485062122345	-0.4666779041290283	1.8387702703475952	2.615048885345459	-0.8510066270828247	2.0958638191223145	0.8355623185634613	0.9346952959895134	0.8460699617862701	4.688244581222534	2.608287215232849	0.6295555830001831	1.1358233392238617	2.174486994743347	-0.16664505004882812	-0.34742581844329834	0.20589792728424072	0.24370092153549194	1.453341007232666	0.41107475757598877	-1.589045763015747	-0.08775854110717773	-1.008859395980835	3.2437472343444824	2.9469552040100098	0.8940673545002937	0.994234336540103	2.128916025161743	2.668708324432373	1.9300524592399597	1.5584644675254822	2.1176403760910034	0.6143820881843567	0.27242857217788696	-0.33509695529937744	0.41148531436920166	0.6835992634296417	2.3257991075515747	1.0486538000404835	2.5268667936325073	0.831487849354744	4.783616542816162	0.7670213431119919	1.269809067249298	0.08202224969863892	-1.3566181659698486	3.1145503520965576	0.6279681026935577	1.6988847255706787	1.3555139005184174	-0.19570612907409668	0.6920071244239807	0.5128746032714844	2.0029600858688354	0.31612563133239746	1.257154494524002	1.2895026206970215	1.1333548724651337	1.5198339223861694	-0.4735652208328247	-1.096271276473999	-0.3241584300994873	-0.2612330913543701	-2.06758451461792	2.186335802078247	2.337343692779541	3.447669267654419	1.406809151172638	1.9170525670051575	2.261165738105774	1.3926984667778015	-0.47584855556488037	-1.952847957611084	1.0453752055764198	1.5139564275741577	2.1135090589523315	1.1612631529569626	1.1835274547338486	-0.43156468868255615	3.0587594509124756	-0.9637254476547241	2.044352889060974	0.21025383472442627	-0.14534306526184082	0.13174039125442505	0.9584163874387741	-0.9587366580963135	-1.432771921157837	1.2168055027723312	0.7910684645175934	-2.5405287742614746	1.3569690585136414	0.9633779004216194	2.042685031890869	0.8282686918973923	0.7471264600753784	0.04991650581359863	1.1449731886386871	1.0624111369252205	-0.6249450445175171	1.9126867651939392	-1.2411363124847412	-0.8971884250640869	-2.6555230617523193	1.6175641417503357	-1.57057785987854	0.32407355308532715	1.4343093037605286	-0.3465029001235962	0.3243338465690613	-1.5711541175842285	-1.1195545196533203	-9.702277183532715	0.8661951869726181	0.3044077754020691	-0.42259180545806885	3.71738862991333	2.1539461612701416	0.7394397854804993	1.666043221950531	0.46826839447021484	-0.017327308654785156	1.1754782497882843	-0.8579628467559814	-2.1132893562316895	0.36722254753112793	0.7766633331775665	2.4336639642715454	0.8489439785480499	1.4715128540992737	0.23135697841644287	0.782337874174118	0.559904009103775	2.7067980766296387	3.2658307552337646	0.6227944791316986	1.348313957452774	0.6371175646781921	0.39500999450683594	2.3249597549438477	1.8427694439888	-0.2602999210357666	0.9776993598788977	-0.37731754779815674	-0.13752412796020508	1.7912786602973938	-1.107236623764038	0.08269745111465454	2.5432804822921753	-0.37487876415252686	2.3926894664764404	2.079884171485901	-1.2224700450897217	3.893362522125244	1.9954053163528442	1.355217158794403	2.7117055654525757	-0.5821640491485596	0.9248483330011368	2.959872245788574	0.9417598508298397	1.8258650302886963	1.0275827255100012	2.351455807685852	0.802564263343811	1.806696891784668	0.7917742431163788	2.358883023262024	1.8707696795463562	0.9581347890198231	1.198379024863243	0.20052337646484375	2.2891929149627686	1.155798852443695	1.2945866584777832	0.8963101208209991	3.497328281402588	-0.2272881269454956	1.509799301624298	-1.0490829944610596	0.8081193715333939	0.6878049671649933	2.148029327392578	3.2403817176818848	0.9691347200423479	0.31309258937835693	0.6076473295688629	2.477029800415039	2.4984179735183716	1.5656769275665283	2.6445168256759644	1.0493292398750782	0.795635387301445	2.027110457420349	1.3552012145519257	1.960803210735321	1.0094308545812964	0.29497748613357544	-0.5070663690567017	1.2714635133743286	0.9543377980589867	-0.0671384334564209	0.5774828195571899	0.4217689037322998	1.6649469137191772	2.9139320850372314	2.546396493911743	3.015317678451538	1.6856339573860168	-0.19884538650512695	1.1264022439718246	0.7146271169185638	-0.5925215482711792	2.2578173875808716	2.1756975650787354	-0.43894410133361816	0.2401210069656372	0.2705879807472229	1.414479374885559	3.496110200881958	0.4993346929550171	1.4201419055461884	2.8601837158203125	1.0189550295472145	-0.45987093448638916	0.6271065175533295	1.5294774174690247	0.5924913287162781	0.7242608666419983	2.593291759490967	-0.4643133878707886	-1.0579001903533936	0.824974849820137	0.8103645890951157	0.618841290473938	1.461264967918396	0.9563300758600235	1.8887345790863037	4.343032121658325	2.3036047220230103	0.6448582112789154	1.2677461504936218	1.5854806900024414	4.24434232711792	1.7719782590866089	1.050053808838129	0.5688366293907166	0.11129236221313477	0.988501419313252	-1.2220423221588135	2.334280252456665	-2.668384075164795	-0.09908580780029297	-0.2980278730392456	0.9344770833849907	1.2102351784706116	0.7021536827087402	0.8010915964841843	1.6859146356582642	-0.40005314350128174	-0.4246194362640381	0.4943314790725708	2.0410704612731934	2.319429874420166	0.8990545198321342	1.902768611907959	2.1660633087158203	2.394879102706909	1.6933585405349731	-0.852046012878418	1.650115728378296	3.2103984355926514	1.8498364090919495	-0.5420149564743042	2.226500391960144	1.8554887771606445	-1.9188728332519531	1.3004181683063507	1.1937480866909027	1.3001927137374878	-2.2054553031921387	1.65152907371521	3.105557680130005	1.3207922279834747	3.0871310234069824	-0.05795300006866455	-2.286501169204712	1.5563785433769226	0.10500192642211914	1.1766791194677353	0.8925920054316521	4.247483253479004	0.3528284430503845	0.09036099910736084	1.7840456366539001	-0.9141296148300171	1.8740028142929077	1.8482854962348938	1.4201999306678772	0.8872045129537582	0.7339346706867218	2.982736349105835	3.3450839519500732	1.4745136201381683	-0.03780674934387207	0.09493517875671387	-0.4898865222930908	1.5972164273262024	-0.05244147777557373	2.1815686225891113	1.2953296303749084	-0.05454099178314209	1.2250217646360397	1.6849148273468018	0.5041027963161469	0.3513742685317993	-0.623542308807373	2.2240277528762817	-1.4969451427459717	-1.0244865417480469	0.8296828716993332	3.533302068710327	0.5743266344070435	2.1285645961761475	2.855314016342163	-0.29277312755584717	0.3618667721748352	0.5298017263412476	0.7933223992586136	1.872867226600647	3.173041820526123	2.246808648109436	2.005594849586487	1.7780974507331848	0.15643996000289917	1.7438002824783325	2.3944191932678223	1.4194868803024292	-2.438783884048462	0.2550342082977295	0.46244293451309204	0.5836405456066132	-0.2766169309616089	2.7557783126831055	1.7334554195404053	0.08929437398910522	1.2878975868225098	2.4953696727752686	-1.716172456741333	-0.29484879970550537	1.4593512117862701	2.1984773874282837	0.21279805898666382	1.2558903694152832	0.20223289728164673	1.7743149399757385	0.8836121633648872	3.0812108516693115	-0.5310519933700562	1.4892204701900482	1.8677808046340942	0.9872130220755935	20.493927001953125	2.024173378944397	1.112768441438675	1.0145790735259652	0.605819970369339	1.4975373446941376	2.52883780002594	2.706059455871582	2.4351449012756348	2.809967517852783	2.464540123939514	-0.36925697326660156	0.49788743257522583	1.1170248910784721	-0.016565561294555664	-0.6007920503616333	-0.30288684368133545	-0.32728099822998047	0.6787250638008118	1.229647621512413	1.6896641254425049	-1.2576932907104492	-0.6537624597549438	0.03599810600280762	-1.1061604022979736	3.2984611988067627	0.6284139752388	1.1188014894723892	0.5147120654582977	0.03618687391281128	2.8557164669036865	1.3792510628700256	0.6980603039264679	0.014104902744293213	0.1185452938079834	1.7011879086494446	1.042714599519968	0.4363035559654236	0.7537451386451721	1.3380938470363617	-0.8529928922653198	2.3475213050842285	4.113784551620483	1.0501866824924946	-0.6583044528961182	0.4852294325828552	-2.6079647541046143	1.382419377565384	1.0827867165207863	0.9557499475777149	-0.6928232908248901	2.1454761028289795	0.4203224778175354	0.11807674169540405	3.1949708461761475	-1.528531789779663	1.2355886399745941	0.9185469597578049	2.844938039779663	2.208249568939209	-0.10069155693054199	3.3865413665771484	1.357866883277893	2.10502028465271	1.0146597996354103	4.038671493530273	1.6777953505516052	1.3857753276824951	1.0012871265644208	-0.3044675588607788	0.32511234283447266	1.7988967895507812	1.3850976824760437	2.4086525440216064	1.6133509874343872	-0.4010213613510132	-0.08408248424530029	2.854730725288391	0.7542853057384491	1.1162199154496193	-1.457181692123413	0.6036398708820343	2.170671224594116	1.757281243801117	1.2453180104494095	1.105633944272995	1.9238054752349854	0.13369858264923096	2.5745158195495605	1.4253032207489014	8.738585948944092	-0.07095909118652344	-0.6358479261398315	-0.21410799026489258	0.7945844084024429	0.6223397552967072	0.28472059965133667	1.5147730708122253	0.8028078526258469	2.6707699298858643	1.4223895967006683	0.596221387386322	0.7387829124927521	2.394318103790283	0.7026923596858978	3.444507360458374	0.8359240889549255	5.136748790740967	1.7216046452522278	-1.4338874816894531	2.5172492265701294	0.6859114468097687	2.895167350769043	1.168372020125389	-0.030204176902770996	0.2862290143966675	0.1849316954612732	-0.5318211317062378	1.1457961052656174	2.4213062524795532	1.580476999282837	-0.04628705978393555	0.7270874977111816	1.744397222995758	1.2389865219593048	0.9870630474761128	0.09589612483978271	0.8431583046913147	5.027914524078369	3.25508189201355	0.9649638831615448	0.0031514763832092285	0.8135059624910355	0.20600223541259766	0.46267634630203247	0.6083509624004364	2.949513077735901	-0.48000502586364746	1.261086344718933	3.195964813232422	1.0170044209808111	0.13566070795059204	0.861839234828949	2.713297724723816	0.803344339132309	1.7939218282699585	1.6358511447906494	-0.22862017154693604	-2.3682861328125	-0.46497464179992676	1.8082953691482544	0.623171478509903	1.4595597088336945	0.43603038787841797	-0.16020214557647705	-0.9360551834106445	-0.305553674697876	0.0812872052192688	-1.309142827987671	-0.9876444339752197	3.042348623275757	3.3070945739746094	0.07969903945922852	0.7817420065402985	0.7444919645786285	-0.5362685918807983	1.9281992316246033	2.769964575767517	2.0792007446289062	1.4323385059833527	4.154860734939575	-0.6734763383865356	2.7289212942123413	0.10583078861236572	3.3895175457000732	-2.0300133228302	1.9291474223136902	1.4274188876152039	4.4626264572143555	-0.33532965183258057	-0.519119381904602	0.8650938421487808	0.157623291015625	1.992977797985077	1.3630463182926178	2.0781774520874023	1.765506088733673	1.527607798576355	-0.8060926198959351	1.117425799369812	0.001193225383758545	-1.3242747783660889	2.365489363670349	1.0377482771873474	0.3170827031135559	-1.5349247455596924	1.10716313123703	0.6836689114570618
affondare_5	4.0714850425720215	1.3505708277225494	1.4791992902755737	0.4363332986831665	1.5034080743789673	2.397920846939087	-0.5566940307617188	-7.938916206359863	1.1138707622885704	0.5084207952022552	1.1204847171902657	1.7814761400222778	2.3703190088272095	3.0715749263763428	0.7512138038873672	3.4525201320648193	3.123969316482544	1.7658787369728088	0.6004937887191772	1.4490059316158295	0.4609980583190918	1.5218812823295593	1.7763363122940063	-1.2335271835327148	-0.8119757175445557	-0.560458779335022	-0.9547444581985474	2.1433807611465454	1.200779139995575	1.32179194688797	-0.24478590488433838	0.04271155595779419	1.8593409657478333	3.300172805786133	3.2901554107666016	1.3314128518104553	0.5566621422767639	2.696921944618225	2.4243606328964233	1.1525271534919739	1.557210087776184	1.8265531659126282	2.1429855823516846	0.20478200912475586	1.4370788633823395	-16.8990421295166	-0.8513110876083374	3.5320427417755127	2.1446458101272583	2.9263614416122437	0.6396300196647644	0.007796227931976318	-1.9414207935333252	1.244604915380478	4.839902877807617	0.8917938396334648	1.0156061556190252	0.49413561820983887	0.7916562855243683	3.035794496536255	2.2287105321884155	0.9452357105910778	-0.6485834121704102	0.8348775804042816	0.3726224899291992	0.5467570424079895	0.12374961376190186	1.6180827617645264	1.5068886876106262	2.350987195968628	-0.08329808712005615	0.3039568066596985	3.45573091506958	0.686345249414444	2.0693936347961426	2.615309238433838	-0.5403463840484619	1.7437109351158142	3.097243309020996	0.6972156465053558	1.6620616912841797	0.5797319412231445	1.9694071412086487	1.1231710463762283	0.309955358505249	1.7798059582710266	1.6774725317955017	-1.7032861709594727	-2.011702299118042	2.0752424001693726	-1.7143208980560303	1.4014971852302551	1.8232362270355225	-0.16428029537200928	3.2894272804260254	2.0872288942337036	0.6149348020553589	-3.153867721557617	3.797640323638916	1.1234841048717499	-0.9868981838226318	-0.21494615077972412	-2.2974307537078857	0.23821181058883667	2.2893906831741333	1.2609773576259613	0.8258397877216339	2.2312756776809692	1.2461526691913605	1.1152531653642654	0.5393537282943726	0.7170283198356628	3.3185312747955322	0.24629539251327515	-2.0577666759490967	1.7058029174804688	3.4993486404418945	-0.4488297700881958	2.651313900947571	0.2973138689994812	0.25844937562942505	2.4535943269729614	0.754548504948616	4.467941999435425	-0.7157407999038696	0.24386602640151978	3.2521839141845703	2.387264847755432	1.0526025407016277	2.945899486541748	0.6122235059738159	1.1826977282762527	-0.23162901401519775	1.5627782940864563	0.45515626668930054	0.6217279434204102	0.2976415753364563	2.197890877723694	-1.0795083045959473	-1.7208356857299805	2.6400903463363647	0.7683916985988617	0.6896075010299683	-0.12563550472259521	1.6991598010063171	0.03349936008453369	1.339638203382492	1.2275989651679993	-0.18365001678466797	0.8178480267524719	1.0921521410346031	0.5161508917808533	0.19517022371292114	0.3505799174308777	-1.0817108154296875	0.4867269992828369	2.6487635374069214	0.5784370303153992	0.8299169987440109	2.7035861015319824	-0.04479110240936279	3.0632143020629883	-0.6957131624221802	3.307511329650879	-1.24643874168396	2.1170824766159058	-1.0078301429748535	3.7958240509033203	2.5535666942596436	1.6975974440574646	1.0230088345706463	1.3639894127845764	1.2968926131725311	0.35358548164367676	1.0362472645938396	0.9621709957718849	-0.6561344861984253	3.780987501144409	2.595120906829834	1.0264581553637981	1.7246333956718445	1.3588286638259888	-1.1052684783935547	3.4966938495635986	0.16338860988616943	3.822298288345337	0.6307035088539124	1.5441979765892029	2.1227269172668457	1.5297189950942993	0.8339268863201141	-0.5680258274078369	1.1275137662887573	1.2214989513158798	0.4850243926048279	0.3259057402610779	1.63888818025589	0.8392622321844101	1.2019969522953033	2.8026355504989624	1.3527894616127014	0.5108615458011627	0.9413463957607746	3.566657304763794	1.079320713877678	0.7224092185497284	0.4529165029525757	2.306728720664978	-0.18317937850952148	2.4032793045043945	1.4689471423625946	1.4435913860797882	1.2282754927873611	-1.3021376132965088	0.5136590898036957	0.6752059459686279	-0.7312315702438354	5.270330905914307	1.3192152082920074	1.0298462342470884	1.234718143939972	3.439087390899658	0.9944867193698883	0.1996217966079712	1.8565701246261597	0.3066943883895874	2.772426128387451	-0.5547878742218018	-1.579179048538208	0.08371704816818237	1.3216984570026398	1.9731531739234924	2.6591460704803467	-0.5602645874023438	1.2636712789535522	-0.5692124366760254	1.2713834047317505	0.3487687110900879	0.0327153205871582	1.797844111919403	0.01786506175994873	0.5834133625030518	1.9141976833343506	-0.20302844047546387	1.1864497065544128	2.662020206451416	1.0759539008140564	2.7536728382110596	0.8017358928918839	2.9543408155441284	1.9206531643867493	1.4728283286094666	0.43147724866867065	0.33444124460220337	1.3679763078689575	1.0134981833398342	0.2679979205131531	-0.0172959566116333	-0.03431582450866699	-1.879361867904663	1.3488758504390717	2.545024275779724	0.9063495621085167	0.7447634935379028	1.5570290088653564	1.6572830080986023	0.3003835082054138	-1.3186752796173096	-0.035808444023132324	1.697339415550232	2.4536415338516235	3.3576600551605225	-0.035108089447021484	0.693069726228714	2.465977668762207	0.727175384759903	-0.06975018978118896	3.4366981983184814	-0.258561372756958	0.6757973432540894	2.376120924949646	2.8590997457504272	0.6901778876781464	3.4591023921966553	1.6658283472061157	1.515550971031189	2.628018021583557	0.4604482054710388	2.3129162788391113	1.8174797892570496	1.5520433187484741	-2.823892831802368	-0.436002254486084	1.9973565936088562	1.3306816816329956	1.3035124242305756	-0.08831429481506348	-2.940753698348999	2.2316863536834717	0.7375439405441284	0.36364102363586426	1.3655651807785034	1.468486249446869	2.003759264945984	3.5553793907165527	1.4860622882843018	1.1815655678510666	0.48976266384124756	0.5257575511932373	0.6851300299167633	0.26506507396698	-0.19359076023101807	2.686291217803955	0.23947298526763916	0.20966559648513794	0.7134621143341064	2.328359365463257	1.1740430891513824	-0.1258324384689331	-0.3049403429031372	-9.203304290771484	1.3996586203575134	1.978993833065033	0.12360405921936035	1.96827894449234	1.2872718572616577	0.6271263360977173	1.485238492488861	1.3118698596954346	2.463481307029724	0.2916581630706787	-1.1383371353149414	-2.428293466567993	1.7703037858009338	2.5541073083877563	1.8652374744415283	-0.575201153755188	0.2583862543106079	-1.2755835056304932	0.8113169819116592	0.8048179000616074	1.0422359332442284	1.8883384466171265	2.3416727781295776	1.8326684832572937	2.12663471698761	0.8563103675842285	-0.08296525478363037	1.7265719771385193	2.251830577850342	-2.3707494735717773	-1.5343475341796875	1.7871348857879639	4.528161525726318	1.2962690591812134	0.6596254110336304	0.9769775290042162	-0.23362934589385986	-0.2306230068206787	1.934359610080719	0.798726350069046	0.86678247153759	1.8910434246063232	2.213154911994934	-0.37599360942840576	-0.7044450044631958	0.7595543414354324	2.4913288354873657	3.5425047874450684	1.9509544968605042	0.29365670680999756	2.1216020584106445	2.782607913017273	-0.6757775545120239	-1.5430805683135986	-0.17328834533691406	0.09893995523452759	1.0249883476644754	2.283146619796753	1.7787505388259888	2.816117286682129	0.6921062469482422	2.1579142808914185	0.9693013802170753	2.0713714361190796	-1.1329412460327148	0.7388233840465546	0.5433536469936371	0.9074233919382095	1.6281901001930237	0.40357035398483276	2.3746273517608643	1.9020535945892334	-0.7343810796737671	1.6520071625709534	2.124110221862793	3.489030361175537	0.8563503324985504	3.386467218399048	1.5856546759605408	1.0355143062770367	1.0930777490139008	-1.5230090618133545	1.1236954852938652	-0.06680583953857422	-0.9554001092910767	-0.9324363470077515	1.5172951221466064	1.9284749627113342	3.1518688201904297	0.617152750492096	2.682170867919922	0.8217121362686157	1.6523306369781494	3.4561126232147217	0.33578091859817505	1.9741060733795166	1.0303790625184774	1.464568942785263	1.3534624874591827	0.0679207444190979	3.833524227142334	0.08533310890197754	-0.12983250617980957	-1.2348902225494385	-0.13436651229858398	2.158617854118347	1.064082756638527	1.620581865310669	0.9126038104295731	1.6837816834449768	0.5689750015735626	-1.5643856525421143	1.6868937611579895	2.211879253387451	2.404300570487976	-0.17571353912353516	-0.013997554779052734	0.20401358604431152	-2.7406113147735596	0.33461374044418335	1.5001742243766785	1.7006385326385498	2.7695635557174683	-0.9883383512496948	2.0214871168136597	3.4505198001861572	1.1738047152757645	1.810585618019104	1.668483018875122	-0.0649406909942627	1.0294413547962904	1.5786749720573425	3.1744441986083984	0.8203700035810471	-0.4116755723953247	1.9112873673439026	0.3277360796928406	0.9969611191190779	-0.5360286235809326	1.2825638055801392	-0.5361295938491821	-0.09644758701324463	0.24624896049499512	2.3974472284317017	0.4490808844566345	2.1484702825546265	1.827484667301178	0.10067808628082275	0.9134277552366257	1.6594644784927368	0.40051794052124023	4.065446376800537	-0.8205749988555908	1.1496533900499344	0.9013736248016357	0.7689097970724106	1.8789110779762268	2.371991753578186	1.9220425486564636	1.2286777943372726	-0.9466899633407593	0.5106497704982758	2.9249380826950073	-1.4526586532592773	-0.9106814861297607	2.741400718688965	2.2996426820755005	-1.0616273880004883	3.0678019523620605	1.7193692922592163	2.042577862739563	0.012031733989715576	0.17232590913772583	-3.215147018432617	-0.45943570137023926	0.01480412483215332	0.5962494015693665	1.4155808687210083	3.486056327819824	3.0543603897094727	2.6230037212371826	1.2057709842920303	-0.6131292581558228	4.614487648010254	1.3965347707271576	1.5813197493553162	0.26705896854400635	2.2987051010131836	1.0770542845129967	4.868651390075684	-1.4581007957458496	1.2656128406524658	1.9084166884422302	1.7504433393478394	-0.6586871147155762	0.3027917742729187	2.573350667953491	1.854490578174591	-0.6457191705703735	1.114310309290886	1.3501894772052765	1.2416811436414719	-0.5169044733047485	1.5142355561256409	2.0499624013900757	2.047347903251648	-1.1274571418762207	1.1589349806308746	1.6153751611709595	-2.168996810913086	1.4232730567455292	2.859763503074646	-0.5695059299468994	2.63167405128479	-1.6311872005462646	-0.6185812950134277	2.882001757621765	2.287553071975708	0.22374868392944336	3.169956922531128	0.5025784969329834	1.7397186756134033	1.461346983909607	1.8588007092475891	2.555470108985901	-0.49984073638916016	-0.6548092365264893	2.0019606351852417	1.3580509424209595	2.4782776832580566	2.5379233360290527	1.3640083372592926	-1.140625	2.579091787338257	0.16799932718276978	0.9558268934488297	0.7556650936603546	0.5925694704055786	1.1190281137824059	-0.12503981590270996	0.9670964777469635	-0.4756612777709961	3.367401361465454	-0.11197662353515625	1.3534487187862396	0.8426404595375061	1.1633573919534683	1.0026256879791617	2.084362745285034	20.89153289794922	1.7618783712387085	1.1276537477970123	1.0729539766907692	1.0676181018352509	0.8012585043907166	0.08558410406112671	1.1062872186303139	0.17153966426849365	2.364792585372925	0.3525291681289673	-0.4007214307785034	2.539835214614868	-2.3947298526763916	1.8366162180900574	0.9937717164866626	0.23956632614135742	1.531530499458313	0.7959779798984528	4.533289432525635	1.4416708648204803	1.3680477142333984	2.128210663795471	-0.14441990852355957	2.523224949836731	2.401762843132019	2.0246646404266357	1.313561350107193	1.2339977025985718	0.6477284133434296	0.8721314519643784	0.2705383896827698	-0.3191993236541748	-1.354741096496582	-0.2583872079849243	2.1046783924102783	2.5532515048980713	-1.1071131229400635	-2.0121777057647705	1.1287710666656494	-0.18960034847259521	2.503158926963806	-0.7607569694519043	-1.0330328941345215	2.5769317150115967	0.6062673926353455	-1.8892426490783691	1.3472146689891815	-0.24759292602539062	-2.1564459800720215	-1.0221381187438965	1.1496251374483109	-0.758115291595459	1.9615102410316467	3.369824171066284	0.4971001148223877	0.885387159883976	3.530292272567749	0.5651869475841522	0.9914870234206319	-1.1528382301330566	2.5868141651153564	3.577383041381836	2.7488884925842285	1.1902325600385666	2.769125461578369	1.3800226151943207	2.1420940160751343	2.39885938167572	-3.353773593902588	1.3164842426776886	1.6760022640228271	0.004431545734405518	0.7651331573724747	2.039925694465637	0.7679754793643951	1.6407369375228882	2.835596799850464	2.2515259981155396	3.7426576614379883	1.378747671842575	0.8018502593040466	0.27276939153671265	1.0930273085832596	0.6995559632778168	-2.0370874404907227	1.6406310200691223	1.2916946709156036	1.7088115811347961	0.3008919358253479	9.357239723205566	-1.8500216007232666	1.8269991874694824	-0.6170774698257446	2.133645534515381	1.388549655675888	-0.21045947074890137	3.638706922531128	0.19068336486816406	0.21630525588989258	2.2005598545074463	2.8916314840316772	0.08964455127716064	0.08468437194824219	1.5865461826324463	2.8897531032562256	0.2245023250579834	3.0668399333953857	2.8058029413223267	-1.7511816024780273	2.5497021675109863	-0.10413479804992676	1.762803554534912	0.870385929942131	1.8929232954978943	0.5032516717910767	1.7235627174377441	1.591781735420227	2.48101806640625	1.5191279649734497	0.8811309263110161	0.06250244379043579	0.20001298189163208	-0.5368266105651855	1.454191118478775	1.2874699532985687	-0.5511740446090698	-1.5943214893341064	2.1855467557907104	2.2141754627227783	3.6887545585632324	-1.5695254802703857	-0.21906602382659912	3.660477638244629	-0.706670880317688	-0.36765456199645996	2.8891977071762085	-0.928890585899353	1.1066637113690376	1.9366599321365356	1.2001229673624039	0.7914377003908157	1.9223156571388245	1.5819685459136963	0.1757969856262207	3.151559591293335	1.983167827129364	1.1758061796426773	0.11078506708145142	2.5081270933151245	4.4054787158966064	1.683584988117218	1.3187407553195953	-0.05808436870574951	-3.2779030799865723	-0.8157413005828857	1.205951601266861	2.5189632177352905	-0.338171124458313	0.5921907722949982	1.6778890490531921	0.34190863370895386	0.29694634675979614	2.6991244554519653	0.27975112199783325	0.3854055404663086	1.338620364665985	2.6362709999084473	2.652224540710449	2.099400043487549	0.30928319692611694	0.2081538438796997	-1.1713123321533203	0.043636858463287354	3.576617956161499	-0.527612566947937	0.6691876351833344	1.0138232167810202	1.830268919467926	0.7617788314819336	0.14611607789993286	0.8977737128734589	0.2693122625350952	-0.3575923442840576	0.22696512937545776	0.7941155433654785	1.892782211303711	0.8938263580203056	-1.230323076248169	1.0021283102687448	1.2798383235931396	0.2333194613456726	1.1732116341590881	1.381586879491806	1.9721304178237915	0.058528125286102295	0.9866947494447231	2.1278432607650757
