label	0	1	2	3	4	5	6	7	8	9	10	11	12	13	14	15	16	17	18	19	20	21	22	23	24	25	26	27	28	29	30	31	32	33	34	35	36	37	38	39	40	41	42	43	44	45	46	47	48	49	50	51	52	53	54	55	56	57	58	59	60	61	62	63	64	65	66	67	68	69	70	71	72	73	74	75	76	77	78	79	80	81	82	83	84	85	86	87	88	89	90	91	92	93	94	95	96	97	98	99	100	101	102	103	104	105	106	107	108	109	110	111	112	113	114	115	116	117	118	119	120	121	122	123	124	125	126	127	128	129	130	131	132	133	134	135	136	137	138	139	140	141	142	143	144	145	146	147	148	149	150	151	152	153	154	155	156	157	158	159	160	161	162	163	164	165	166	167	168	169	170	171	172	173	174	175	176	177	178	179	180	181	182	183	184	185	186	187	188	189	190	191	192	193	194	195	196	197	198	199	200	201	202	203	204	205	206	207	208	209	210	211	212	213	214	215	216	217	218	219	220	221	222	223	224	225	226	227	228	229	230	231	232	233	234	235	236	237	238	239	240	241	242	243	244	245	246	247	248	249	250	251	252	253	254	255	256	257	258	259	260	261	262	263	264	265	266	267	268	269	270	271	272	273	274	275	276	277	278	279	280	281	282	283	284	285	286	287	288	289	290	291	292	293	294	295	296	297	298	299	300	301	302	303	304	305	306	307	308	309	310	311	312	313	314	315	316	317	318	319	320	321	322	323	324	325	326	327	328	329	330	331	332	333	334	335	336	337	338	339	340	341	342	343	344	345	346	347	348	349	350	351	352	353	354	355	356	357	358	359	360	361	362	363	364	365	366	367	368	369	370	371	372	373	374	375	376	377	378	379	380	381	382	383	384	385	386	387	388	389	390	391	392	393	394	395	396	397	398	399	400	401	402	403	404	405	406	407	408	409	410	411	412	413	414	415	416	417	418	419	420	421	422	423	424	425	426	427	428	429	430	431	432	433	434	435	436	437	438	439	440	441	442	443	444	445	446	447	448	449	450	451	452	453	454	455	456	457	458	459	460	461	462	463	464	465	466	467	468	469	470	471	472	473	474	475	476	477	478	479	480	481	482	483	484	485	486	487	488	489	490	491	492	493	494	495	496	497	498	499	500	501	502	503	504	505	506	507	508	509	510	511	512	513	514	515	516	517	518	519	520	521	522	523	524	525	526	527	528	529	530	531	532	533	534	535	536	537	538	539	540	541	542	543	544	545	546	547	548	549	550	551	552	553	554	555	556	557	558	559	560	561	562	563	564	565	566	567	568	569	570	571	572	573	574	575	576	577	578	579	580	581	582	583	584	585	586	587	588	589	590	591	592	593	594	595	596	597	598	599	600	601	602	603	604	605	606	607	608	609	610	611	612	613	614	615	616	617	618	619	620	621	622	623	624	625	626	627	628	629	630	631	632	633	634	635	636	637	638	639	640	641	642	643	644	645	646	647	648	649	650	651	652	653	654	655	656	657	658	659	660	661	662	663	664	665	666	667	668	669	670	671	672	673	674	675	676	677	678	679	680	681	682	683	684	685	686	687	688	689	690	691	692	693	694	695	696	697	698	699	700	701	702	703	704	705	706	707	708	709	710	711	712	713	714	715	716	717	718	719	720	721	722	723	724	725	726	727	728	729	730	731	732	733	734	735	736	737	738	739	740	741	742	743	744	745	746	747	748	749	750	751	752	753	754	755	756	757	758	759	760	761	762	763	764	765	766	767	768
nascere_1	0.8117169439792633	1.3261510729789734	0.2667943835258484	1.131168246269226	1.5246073007583618	1.0103422217071056	1.880739688873291	-2.456343650817871	-0.6083348989486694	2.076769232749939	-0.12821197509765625	0.11175554990768433	2.2225430011749268	2.1289401054382324	2.0740084648132324	2.95173978805542	-0.4929262399673462	2.626464009284973	0.9684219099581242	-0.23105061054229736	1.0792858749628067	-0.812314510345459	4.549576044082642	-0.29338645935058594	0.9625008143484592	1.3363532721996307	2.039644479751587	0.9373496547341347	0.6673452258110046	1.7549870610237122	2.6852827072143555	-0.41069555282592773	0.07649993896484375	1.3496974408626556	0.8426017165184021	1.0636647939682007	2.4087153673171997	1.7531065940856934	-0.3308441638946533	0.6367936432361603	0.30530112981796265	0.8370087295770645	2.613602876663208	-0.16152310371398926	-1.8575234413146973	-14.170281410217285	2.1955326795578003	2.977567672729492	-0.3979501724243164	3.391352653503418	2.1847094297409058	-0.3993312120437622	-2.1803743839263916	1.1457913219928741	0.8842077329754829	1.2213469743728638	3.226553440093994	2.6045435667037964	0.850754126906395	3.331204652786255	1.602517008781433	2.500524640083313	-0.8341623544692993	0.1818845272064209	-0.19844293594360352	2.5252151489257812	1.093848630785942	0.6977411806583405	2.879216194152832	1.6686577200889587	-0.5945072174072266	-1.6159844398498535	2.784536600112915	2.972869396209717	0.6105235517024994	2.3409361839294434	1.555849015712738	2.5063637495040894	1.8992239236831665	1.2418298721313477	3.8797810077667236	2.3250588178634644	2.096408724784851	2.33288836479187	0.719424843788147	1.3717306554317474	1.3306487798690796	0.8041742295026779	1.9060159921646118	1.4510259330272675	1.9730331301689148	2.4297361373901367	0.2321087121963501	-1.4396862983703613	2.0508341789245605	0.7568812668323517	-0.5376918315887451	0.8300713002681732	0.723191112279892	0.5556686818599701	0.7015746235847473	2.7266591787338257	0.41551679372787476	1.1783700734376907	2.434535026550293	1.2477779984474182	1.2510735988616943	2.8838378190994263	0.5496562719345093	-0.2247704267501831	2.519411325454712	1.3778721690177917	1.9846479892730713	-0.15433979034423828	-0.9947079420089722	1.6077167987823486	0.8662496656179428	0.7636154294013977	1.5671740174293518	1.2671235799789429	1.2074328064918518	2.4321188926696777	0.8774286955595016	2.9895745515823364	-0.6053924560546875	-0.6236475706100464	0.01022273302078247	0.5787274539470673	2.2147828340530396	0.6700835824012756	1.6361892819404602	2.29013991355896	1.5326215624809265	1.396007239818573	2.13974392414093	0.9206885173916817	2.3803765773773193	2.3587836027145386	1.2508251070976257	2.235315442085266	-1.0622413158416748	0.17963898181915283	-0.6470577716827393	1.1434191018342972	-0.45825111865997314	0.464306116104126	1.4205320477485657	2.1334643363952637	1.3380494713783264	2.276825428009033	2.222514033317566	1.4389231204986572	-1.0057222843170166	-0.08663761615753174	-0.6960881948471069	1.284397929906845	3.2727601528167725	-0.9007601737976074	-0.4941596984863281	1.830014705657959	0.01117408275604248	2.714940905570984	-0.34607958793640137	0.8543365597724915	0.4749715328216553	-0.2941100597381592	1.2830960154533386	2.517022132873535	1.0240930430591106	1.3126930892467499	2.3116341829299927	0.9242078438401222	1.2194295674562454	0.4849214553833008	0.6298438310623169	2.4424103498458862	1.7479877471923828	0.6220901608467102	2.642248272895813	-0.69016432762146	3.5091326236724854	-0.4333256483078003	1.081409677863121	1.9384616613388062	1.666281282901764	1.9822663068771362	0.9969582632184029	1.1210083663463593	-0.29217278957366943	3.7313833236694336	0.4851081371307373	1.345158576965332	1.5536488890647888	-0.04679465293884277	-0.9585261344909668	0.5004594326019287	1.2452469021081924	1.5989903211593628	2.0554338693618774	1.4271551370620728	-0.15422701835632324	0.3481656312942505	-1.7406795024871826	2.324897885322571	2.083897829055786	2.9617730379104614	-0.73952317237854	2.3677241802215576	-1.6320250034332275	1.3390052914619446	1.4342387020587921	1.758315622806549	0.8080203831195831	0.8164831101894379	3.2078142166137695	2.6501567363739014	1.2208847850561142	4.900236368179321	2.1569985151290894	0.40449059009552	2.8922582864761353	1.9836013913154602	3.7854583263397217	-0.28107500076293945	-0.005624055862426758	-0.7816528081893921	2.183713674545288	0.15817898511886597	-0.35804831981658936	-0.4791998863220215	0.21109163761138916	3.2766518592834473	1.0226699113845825	0.6850436627864838	-1.1517243385314941	0.2526572346687317	-2.400451898574829	1.3172368109226227	1.5114141702651978	-1.2597122192382812	-0.9846423864364624	3.186180830001831	1.322901964187622	1.0825613886117935	3.006279230117798	2.3292534351348877	0.7173469066619873	1.7054460644721985	1.201244756579399	5.70443868637085	1.5841510891914368	3.447392225265503	0.28523653745651245	1.3512843549251556	-0.07963407039642334	1.6772427558898926	-0.44709885120391846	0.5364192426204681	2.7088998556137085	1.8030002117156982	2.7364249229431152	1.7201078534126282	-0.09909546375274658	0.8889086693525314	0.6818186044692993	2.3662426471710205	0.5974985957145691	0.6219814121723175	1.821841537952423	1.3253240287303925	3.0262327194213867	2.648446798324585	0.20688825845718384	1.0603425204753876	1.7083883881568909	1.8882277011871338	0.41138148307800293	3.215679168701172	1.5218523144721985	1.373409926891327	1.2889786660671234	0.5715103447437286	0.024600207805633545	2.843773365020752	-0.36580348014831543	1.070532664656639	0.8449651747941971	2.132231593132019	1.1399673968553543	1.4288319647312164	2.2162619829177856	-2.340214729309082	-0.7962875366210938	-0.628972053527832	0.12206000089645386	1.1056053191423416	1.6493169069290161	-1.253166675567627	0.18201303482055664	3.6282007694244385	0.9920512735843658	1.3362581133842468	0.8188447505235672	0.44049227237701416	2.91370952129364	1.9997905492782593	-0.009438514709472656	0.8148773014545441	-0.05446219444274902	-0.3559368848800659	0.6500945091247559	-2.235358476638794	1.7143590450286865	2.85609769821167	0.6520611345767975	3.7697525024414062	0.8346388339996338	0.04683190584182739	-1.20408034324646	-0.5823991298675537	-10.063138961791992	0.3845439553260803	0.513166069984436	0.5168775618076324	0.9177566319704056	0.9099258333444595	1.1103404760360718	1.557116448879242	1.2666901350021362	-0.922012448310852	1.6027113795280457	0.30892491340637207	-3.6442174911499023	2.3764489889144897	-0.0904541015625	0.9914310164749622	1.0188529901206493	0.30079013109207153	3.214953660964966	1.2926973700523376	3.081533908843994	1.1397659927606583	2.331316590309143	2.026451826095581	-0.19317054748535156	2.5045583248138428	-0.3240327835083008	-1.019186019897461	0.8315365761518478	2.9283366203308105	-1.4233253002166748	0.03436917066574097	1.4486094117164612	0.10524642467498779	2.1272382736206055	0.9076425135135651	1.7786135077476501	0.5020730793476105	0.18728196620941162	1.1160944402217865	0.9532065019011497	0.9539738446474075	1.468183547258377	0.2586578130722046	0.6148563623428345	0.958803866058588	0.195068359375	1.3624922037124634	3.76521635055542	-0.1522883176803589	0.7470105588436127	1.9770889282226562	2.811684012413025	2.278581142425537	-0.24278712272644043	0.4803626537322998	-0.5456289052963257	0.016203582286834717	1.9833037853240967	0.8598901480436325	0.4438936114311218	2.0041444301605225	1.0982578247785568	1.4758612215518951	2.8110960721969604	2.0529367923736572	1.9817575812339783	-0.6666113138198853	0.151159405708313	2.1906447410583496	0.7090901136398315	0.25231701135635376	0.5002398192882538	-0.1657710075378418	3.1113412380218506	0.2246437668800354	1.1592956632375717	-0.1983482837677002	1.1336268335580826	0.08738875389099121	0.38955652713775635	1.988294780254364	0.47079288959503174	2.862444758415222	-1.446500301361084	4.041004419326782	-0.42003822326660156	1.144523411989212	0.8733004331588745	3.811673641204834	2.0974619388580322	1.80746990442276	-1.4576585292816162	0.2511681914329529	2.207055926322937	0.8918585553765297	0.8038612902164459	2.175259590148926	2.9968568086624146	-2.3689541816711426	-0.7788102626800537	0.9856834262609482	0.587911993265152	3.094046115875244	1.3369166553020477	0.778537705540657	-1.9000701904296875	1.6016836166381836	0.8073099106550217	1.1449991017580032	0.530894935131073	1.7520415782928467	0.6318661570549011	2.631709575653076	3.2087202072143555	-1.6223483085632324	-0.5937538146972656	0.3621487021446228	3.879870653152466	0.06423300504684448	-1.0356545448303223	2.3214610815048218	2.4067243337631226	2.1708927154541016	0.08723074197769165	-0.2572932243347168	-0.9514247179031372	1.0915719419717789	0.9166390895843506	2.4489428997039795	1.3707760870456696	2.3194286823272705	-1.282670021057129	1.4867504239082336	2.400433897972107	0.43268120288848877	0.6589134633541107	-1.7829492092132568	2.349355697631836	-1.3262739181518555	0.800527811050415	0.08149111270904541	0.024282217025756836	0.7639921009540558	1.9710246920585632	1.9156982898712158	2.9357635974884033	-1.4584975242614746	1.8962209224700928	1.1792779564857483	1.6338809132575989	0.5824529826641083	1.5165011882781982	-0.11964762210845947	1.793517291545868	1.9842555522918701	1.0882714539766312	1.883830189704895	1.3582209646701813	0.4741910696029663	1.7207144498825073	-0.6493736505508423	0.938184455037117	1.948636531829834	-1.8888137340545654	-1.907705307006836	1.3753195405006409	0.8490747958421707	0.49505144357681274	2.540463447570801	1.6609275341033936	1.3610037863254547	1.3863751590251923	0.5360060036182404	-3.3950109481811523	-1.1041285991668701	2.7156673669815063	1.919258952140808	2.254832625389099	2.223360300064087	1.0363838411867619	1.3130904734134674	1.641160249710083	-1.421036720275879	2.433560609817505	1.8350750207901	2.762429118156433	-0.8506076335906982	0.6495726406574249	1.7510393857955933	1.4731694757938385	-0.9068353176116943	0.8807753995060921	2.582479238510132	4.16566276550293	0.8129930645227432	1.9298489689826965	0.689316600561142	1.6618880033493042	-0.5069031715393066	0.8995888456702232	2.4436742067337036	-0.6658278703689575	-2.3562135696411133	0.16970676183700562	1.819734275341034	3.5238943099975586	-0.056676626205444336	1.6024273037910461	2.6120686531066895	-0.1277674436569214	1.2318860590457916	2.854588508605957	0.7026029527187347	2.16713547706604	-2.1580004692077637	-0.7266016006469727	3.493800163269043	-0.627232551574707	1.7617655992507935	2.931910276412964	0.5632711946964264	0.05226510763168335	0.7733434736728668	2.7196954488754272	1.574334979057312	0.5288574695587158	0.08550363779067993	0.18870699405670166	-0.43532752990722656	-0.03893387317657471	1.1602028161287308	3.9871366024017334	0.6684337556362152	1.5944324135780334	3.2212259769439697	0.116455078125	0.3350234627723694	-0.7057465314865112	-0.1002192497253418	0.39239412546157837	0.6509895920753479	0.4967479109764099	3.2144508361816406	-0.19333100318908691	0.3516206741333008	-0.689680814743042	0.2686414122581482	-0.11373984813690186	2.9192861318588257	22.07795524597168	3.440119981765747	-1.9555919170379639	-0.6574722528457642	-0.11193633079528809	0.4159066081047058	2.9540297985076904	1.127735510468483	1.9345948696136475	2.178195834159851	0.007192730903625488	-1.5972838401794434	0.38529372215270996	0.9031470790505409	3.0726208686828613	2.3431074619293213	0.9117060303688049	0.25245606899261475	-2.0445713996887207	4.45003867149353	2.275355339050293	-1.742189884185791	-0.768958330154419	-1.049318790435791	-0.7464022636413574	0.8555695712566376	0.8947977051138878	-0.2890968322753906	2.499076008796692	-1.2697358131408691	1.1705818474292755	0.8940238878130913	-0.4371119737625122	4.508407831192017	-0.29660236835479736	-0.6129937171936035	3.477323055267334	1.700221300125122	1.5233196020126343	-2.5560052394866943	1.8837488889694214	1.2263939827680588	2.091194748878479	1.8711158633232117	3.8448569774627686	1.4855450987815857	-4.412521839141846	1.527180552482605	0.6448312699794769	-1.7531530857086182	0.28135377168655396	0.8121664822101593	-1.5487301349639893	1.0405035614967346	4.32765007019043	0.525298684835434	1.0008298913016915	2.0749765634536743	-1.406747579574585	0.966790035367012	1.2213240414857864	1.0684419572353363	0.7944320291280746	1.438632071018219	2.8141422271728516	0.9111810922622681	0.38126689195632935	2.559252977371216	2.368574380874634	-1.540135383605957	1.9089271426200867	1.4558217823505402	2.462128758430481	-0.9274286031723022	1.350185513496399	2.252128839492798	0.6166922748088837	2.689642906188965	2.044206142425537	3.2780566215515137	0.738557904958725	0.8342009782791138	-0.03127133846282959	-0.28108346462249756	0.9816515445709229	-0.6776425838470459	3.374552011489868	1.676657259464264	1.104726918041706	0.864999532699585	11.94359302520752	2.5729020833969116	-0.21209192276000977	-0.4242357015609741	-0.016733169555664062	0.6972976326942444	0.43335026502609253	2.4803197383880615	0.5881757140159607	2.2943567037582397	0.16619908809661865	0.20686954259872437	0.9417499005794525	-1.0120518207550049	-0.31233465671539307	1.3178322911262512	3.931516408920288	1.2470950186252594	1.9955753684043884	0.09916973114013672	0.7386311292648315	0.3851105570793152	1.5902960896492004	0.42219334840774536	2.2782561779022217	2.868987560272217	1.7240599393844604	1.6940770149230957	2.485412120819092	1.317896544933319	-0.8369162082672119	0.6077777147293091	2.0647284984588623	-0.138452410697937	-0.20316684246063232	1.1792266815900803	-1.6287047863006592	3.047069787979126	-0.6083344221115112	3.3392884731292725	1.5584287643432617	-0.7055021524429321	-0.7470866441726685	1.2683960795402527	1.6884307861328125	0.2894279956817627	1.3446170389652252	0.44764894247055054	0.7246015965938568	1.2575518190860748	-0.5566496849060059	-1.7018301486968994	1.1015114709734917	1.3232972621917725	1.2731829285621643	2.758003830909729	0.5067870616912842	0.2853204011917114	2.5910747051239014	1.6321189403533936	3.6295039653778076	1.0499993860721588	0.5204050540924072	1.5810583233833313	-0.33165478706359863	0.11892092227935791	2.2047181129455566	1.125209242105484	2.129739284515381	0.9535231441259384	1.8993473052978516	0.6435007154941559	-0.2793203592300415	0.7160853743553162	2.1623088121414185	1.0499604307115078	2.225069284439087	1.7515368461608887	1.1618651896715164	0.8653976619243622	1.9384351968765259	0.5078330039978027	0.675286591053009	0.5292030274868011	1.2262801229953766	2.0836477279663086	-0.30684971809387207	0.9390201345086098	3.099646806716919	3.0758016109466553	2.1813629865646362	0.06097894906997681	0.7792807817459106	2.810513138771057	-1.645606517791748	3.111732006072998	3.840158224105835	1.5347207188606262	-0.3584427833557129	0.5148202776908875	1.2758018374443054	2.3526642322540283	0.9882889203727245	0.46138447523117065	1.3534853756427765	-1.0594794750213623	0.881272628903389	-0.4752993583679199
nascere_2	1.4224585592746735	2.6924431324005127	1.8760834336280823	0.8248707056045532	1.5407402515411377	1.848513126373291	1.3305200040340424	-4.606090545654297	0.9904628787189722	2.5539273023605347	-0.6392431259155273	0.44413650035858154	2.8037408590316772	1.167537808418274	1.356853872537613	2.8984967470169067	0.4204596281051636	2.0594234466552734	1.5338595509529114	0.06058841943740845	1.1842864453792572	-0.5418564081192017	3.086224317550659	-0.6340758800506592	0.9323165267705917	1.996449053287506	0.9610417485237122	1.4326042234897614	1.2951718866825104	1.8080444931983948	0.31925535202026367	1.528278112411499	0.24268722534179688	2.0478039979934692	1.8882226347923279	2.2147574424743652	1.0251162592321634	0.7961764931678772	-0.02759873867034912	1.2106644213199615	1.0447949171066284	0.09594506025314331	2.5630358457565308	1.7676606178283691	0.5886677205562592	-16.975744247436523	0.6874652206897736	2.194890260696411	0.8149798214435577	4.259014844894409	1.1710946708917618	-0.192008376121521	0.20178335905075073	2.1312100887298584	4.971043586730957	1.8451184034347534	2.803098678588867	-0.3797069787979126	1.236354723572731	3.2274372577667236	1.353527843952179	1.0012083462206647	-1.2897512912750244	-0.5667604207992554	1.5082786679267883	2.0937236547470093	1.6962454915046692	0.8920124396681786	3.1086337566375732	1.2062542587518692	1.6894841194152832	-1.6000726222991943	1.3317927420139313	2.057460308074951	0.7883889824151993	1.6926427483558655	0.23622918128967285	1.5555328726768494	1.9320939183235168	2.324074387550354	3.163478374481201	2.5207360982894897	2.3801746368408203	1.2868186831474304	0.9212041348218918	0.7347489595413208	1.7170474529266357	1.4486860036849976	0.426649808883667	0.7892952263355255	-0.6329988241195679	1.5440573692321777	0.5016355216503143	0.25901758670806885	3.598827362060547	-0.306715726852417	0.706932008266449	-0.9163831472396851	2.1325247287750244	0.7542721033096313	0.3637542128562927	1.807737946510315	-3.2748308181762695	0.08737796545028687	2.7062026262283325	2.162491202354431	1.3269129991531372	1.5806837677955627	1.5429537892341614	-0.9025486707687378	0.5172756612300873	-0.8033173084259033	1.6007003784179688	0.48162609338760376	-3.8758773803710938	1.370704710483551	1.6428887844085693	-0.8589298725128174	0.26682376861572266	0.0014127492904663086	-0.8934171199798584	3.9923012256622314	0.997022002004087	3.2564632892608643	-0.5627413988113403	-0.017827510833740234	1.8308745622634888	2.270170211791992	2.239271640777588	0.30895835161209106	0.14487510919570923	1.475799024105072	0.017631232738494873	0.8693510442972183	2.0684814453125	0.23063212633132935	2.3079257011413574	2.4786795377731323	1.1749856919050217	0.3056837320327759	1.5340301990509033	1.1261398643255234	0.2974991798400879	1.414823979139328	1.688207745552063	0.3830571174621582	0.8035980314016342	1.1598471850156784	0.3840445280075073	0.4414978623390198	1.2306982576847076	-0.2722691297531128	-2.323849678039551	-0.7409613132476807	0.3996095657348633	0.7048157453536987	2.144672393798828	0.8912082090973854	0.29291480779647827	2.585417151451111	1.0574286468327045	2.771991014480591	0.19188189506530762	2.961203932762146	-1.514390468597412	0.8534357994794846	1.4785018861293793	3.053102970123291	1.2957647740840912	1.6742084622383118	1.29592826962471	2.190189838409424	0.844051867723465	0.6591185927391052	0.9686499610543251	1.495324969291687	1.7204766869544983	1.9320091009140015	3.1975550651550293	-0.0646674633026123	2.0055248737335205	-1.490229845046997	0.29498153924942017	0.9542358182370663	0.3772258162498474	1.9542916417121887	1.5700209736824036	1.77536278963089	-0.01844775676727295	4.149231195449829	1.1532128900289536	0.6378326416015625	1.255067765712738	0.7055489718914032	-0.7915070056915283	1.2899664342403412	2.0156625509262085	1.3342947959899902	1.963485598564148	3.198627471923828	1.584140121936798	0.31972283124923706	0.978036580607295	1.6929292678833008	1.5726510882377625	1.7638920545578003	1.3706794083118439	0.919295571744442	0.33080387115478516	0.3226567506790161	0.3981570601463318	1.325988620519638	-0.5177021026611328	-0.8567020893096924	1.953416883945465	2.3220022916793823	0.46782487630844116	1.650364100933075	2.027652859687805	0.4233096241950989	2.8373783826828003	1.6794099807739258	0.979267243295908	0.5520730912685394	2.010440707206726	-0.09812593460083008	0.5201079249382019	-0.052326321601867676	-1.0230419635772705	2.2454957962036133	1.0825267359614372	1.755552589893341	1.769277036190033	-0.05684506893157959	-0.38728272914886475	-0.013064146041870117	-0.8851257562637329	0.38032668828964233	0.7592416703701019	-0.8136584758758545	1.0175918471068144	1.180803120136261	0.3785299062728882	-1.417191743850708	1.6825665831565857	1.4465908408164978	0.7443940341472626	1.1095101535320282	0.44195085763931274	3.9169559478759766	3.3483190536499023	1.0192951671779156	1.2111616134643555	1.7641222476959229	-0.12779033184051514	1.6099990010261536	-0.09542381763458252	0.015064775943756104	1.2451808601617813	-1.382164716720581	2.3616517782211304	2.458977699279785	0.2779325842857361	-0.44412004947662354	0.46651291847229004	3.45674204826355	-0.33030426502227783	-0.4209108352661133	0.742977648973465	1.351761817932129	3.4320197105407715	0.9938822612166405	-0.4326364994049072	2.3208307027816772	1.5892005562782288	1.4825133681297302	0.6931200623512268	2.2992491722106934	1.4504809379577637	1.143909528851509	2.3446238040924072	1.181815281510353	0.9464867226779461	4.308112382888794	-1.34855055809021	2.700324058532715	2.986898183822632	0.5562415421009064	1.4029488265514374	1.5621183514595032	1.344838172197342	-1.1828958988189697	0.0807453989982605	0.14284855127334595	0.3497506380081177	2.705771803855896	-0.20501399040222168	-2.8955025672912598	0.6636126041412354	0.681731790304184	0.3111254572868347	1.7976323366165161	1.1551915556192398	1.816218912601471	1.978016972541809	3.4407362937927246	-0.028414011001586914	2.619387149810791	0.2800014019012451	-0.9846757650375366	0.09458965063095093	-2.3712313175201416	0.897043026983738	0.6760165989398956	0.7463498115539551	2.1864569187164307	2.427117943763733	-0.4877275228500366	-0.3439149856567383	0.37653690576553345	-17.300621032714844	1.3144639432430267	1.0502777621150017	0.0879090428352356	1.2808755338191986	0.568580150604248	0.6362619400024414	0.16228121519088745	-0.4509744644165039	-0.002129673957824707	2.5258020162582397	0.07102465629577637	-4.9220757484436035	1.8957975506782532	1.3826243877410889	0.8489321172237396	1.2763378620147705	0.528989315032959	2.70472514629364	2.3659169673919678	2.14269483089447	1.959914743900299	2.216983675956726	2.1564351320266724	-0.6064399480819702	-0.16151881217956543	0.6054339706897736	0.9306801557540894	-0.814193844795227	3.5039660930633545	-0.7610557079315186	-1.2410666942596436	1.5043162107467651	2.243870496749878	0.4048614501953125	0.6426127552986145	0.734313040971756	1.4501600563526154	0.9823044221848249	2.1040515899658203	1.3326211869716644	2.169701337814331	1.0409216731786728	1.4275265634059906	0.5560847222805023	0.3141384720802307	1.167992725968361	1.975146472454071	2.6394366025924683	0.2521250247955322	-0.46074485778808594	0.6790103018283844	2.1376028060913086	3.084632396697998	-2.1412899494171143	0.33297908306121826	0.4766988158226013	-1.3451242446899414	0.35802239179611206	0.7514974921941757	1.3725462555885315	1.5167028903961182	1.4869172275066376	2.0596483945846558	2.9135916233062744	0.5894935429096222	1.60361248254776	0.28711605072021484	-0.6157118082046509	2.296856999397278	1.0338904596865177	2.309611439704895	1.5785295367240906	0.30360764265060425	1.6457143425941467	-1.100982904434204	1.2822811007499695	1.0584583431482315	4.4659435749053955	1.0966005474328995	0.17098349332809448	0.7263524830341339	2.0677874088287354	2.125904679298401	0.7740286439657211	1.1884636133909225	-0.35293352603912354	1.5702356696128845	1.5327926874160767	2.3963985443115234	1.8444061875343323	2.0467745065689087	1.0267953369766474	0.26863765716552734	2.230863094329834	1.536774456501007	1.3723677098751068	2.1273770332336426	1.6408917307853699	-1.2717900276184082	-0.34130311012268066	1.2491637021303177	0.5455268919467926	2.77841317653656	-0.43104588985443115	2.616233229637146	0.4780479073524475	1.5934443473815918	0.5885109901428223	2.3633923530578613	1.8653791546821594	1.1530790328979492	0.6781249940395355	3.59486722946167	1.8676651120185852	-1.4234530925750732	0.38830721378326416	0.23002952337265015	3.194772243499756	1.0529050938785076	-0.7339082956314087	1.425091713666916	0.456429660320282	1.508705735206604	0.1795806884765625	-0.4223804473876953	1.0170156471431255	1.4736149907112122	3.3274085521698	2.207587480545044	0.3143113851547241	1.8073583245277405	0.6961123049259186	2.4640543460845947	2.167501449584961	0.11269903182983398	0.9928776537999511	-0.7193734645843506	1.7937973737716675	0.18869322538375854	0.1211579442024231	-0.5222049951553345	0.19127875566482544	0.877254456281662	2.7161989212036133	1.8958309292793274	-0.1979377269744873	-0.23240530490875244	1.0390099920332432	2.1174250841140747	-0.06096541881561279	-0.5213669538497925	3.8654706478118896	-0.2229529619216919	0.8565492480993271	2.343847632408142	0.7643076479434967	0.6473595798015594	0.6894454956054688	1.7616723775863647	-0.36820948123931885	-0.8642981052398682	-0.22532498836517334	1.0608200877904892	-1.8495447635650635	-1.5622437000274658	1.60628342628479	1.4625119268894196	-0.11750328540802002	1.7156484127044678	1.1320899426937103	1.0182540696114302	0.5246880650520325	-0.10910570621490479	-2.702486753463745	0.9134529009461403	2.535634994506836	1.0633329972624779	0.7504462897777557	0.7426459789276123	2.9824870824813843	1.4072699546813965	2.657594680786133	-0.43893611431121826	2.9584450721740723	0.45824921131134033	1.0125862257555127	0.8889611959457397	0.9154389798641205	0.17374688386917114	1.7916069626808167	-1.7812654972076416	1.1857446879148483	1.1615077555179596	2.738775849342346	0.035174787044525146	0.2723022699356079	2.089193344116211	1.89226496219635	-0.6683058738708496	1.3578134775161743	1.3304219543933868	0.7005213499069214	-1.6743214130401611	2.228455424308777	-0.13005340099334717	2.8277552127838135	-0.48928046226501465	1.9960412979125977	3.2193140983581543	0.1076856255531311	2.1380441188812256	1.5223208665847778	1.517207682132721	1.4903821051120758	-1.7566211223602295	-0.8216558694839478	2.5275931358337402	1.8769833445549011	2.323762893676758	2.1175724267959595	0.9561553932726383	-0.9127810001373291	2.135450839996338	2.315030813217163	1.1162556782364845	1.3786522448062897	0.05791407823562622	0.37927091121673584	0.10381495952606201	2.569942831993103	0.361425518989563	3.7477834224700928	1.8455411195755005	1.6467539072036743	2.9548603296279907	0.9287563413381577	0.683742344379425	1.9020116925239563	2.6441452503204346	1.5294912457466125	2.2950891256332397	1.9350637197494507	4.51076602935791	0.1505313515663147	-0.058640360832214355	0.4390075206756592	2.7497174739837646	1.7468894124031067	2.7059736251831055	23.306493759155273	3.60921311378479	-0.6262242794036865	-0.5742931365966797	0.9323512837290764	1.2458797991275787	1.242517113685608	2.709708571434021	1.5760688781738281	2.2748931646347046	0.8630688786506653	-0.02508389949798584	0.3956261873245239	-0.14771008491516113	2.6346755027770996	2.7045557498931885	1.69505113363266	0.6505014002323151	-1.7683687210083008	3.3464603424072266	0.34469467401504517	-0.8918180465698242	0.26483434438705444	0.2168126106262207	-0.1045536994934082	2.0583674907684326	1.415806919336319	-0.13141000270843506	2.777931571006775	-0.4774332046508789	0.5183992683887482	-0.7538219690322876	-0.04905879497528076	2.8121222257614136	-1.2199010848999023	1.8394896984100342	5.087924480438232	0.45220261812210083	0.9178769513964653	-0.322456955909729	2.416333794593811	2.269155502319336	-1.9793593883514404	1.4349808990955353	3.700894832611084	0.5819076597690582	-2.1034698486328125	3.038511276245117	2.2540286779403687	-2.346750259399414	0.7420676648616791	-0.20835959911346436	-0.4907134771347046	3.128779888153076	4.182162046432495	-0.5244429111480713	0.8622265607118607	1.591753602027893	0.36041152477264404	1.5990211367607117	-1.0398776531219482	1.0456664375960827	2.2343682050704956	1.4970324337482452	0.9348631203174591	1.2774643003940582	2.1240986585617065	1.909402847290039	0.6909945905208588	-2.7623534202575684	0.2752230763435364	-0.20880961418151855	1.9448924660682678	1.1888572126626968	2.470612406730652	0.2339111566543579	0.5857004523277283	2.3356664180755615	1.5639770030975342	4.760607004165649	1.15346260368824	1.0674697011709213	-0.12514996528625488	2.3232656717300415	1.3272925913333893	-1.1413443088531494	1.6383028030395508	2.2052066326141357	-0.6647487878799438	0.5912827849388123	10.361743927001953	1.5245630145072937	0.2155972719192505	0.35906505584716797	2.3099182844161987	1.3306248784065247	0.2929062843322754	2.870574116706848	0.9571068361401558	1.3711764812469482	2.3739821910858154	2.0763484239578247	0.11986660957336426	0.057482361793518066	2.3664112091064453	1.9105427861213684	1.131229281425476	1.630272626876831	1.8956656455993652	0.4631207585334778	1.0135943749919534	1.3881942927837372	2.1701087951660156	-0.37320709228515625	0.0705837607383728	0.908772423863411	0.6503887176513672	1.0687803775072098	0.5231893956661224	0.9897771431133151	1.8492473363876343	1.603209674358368	0.47453439235687256	-2.2112505435943604	0.983647720888257	1.46748548746109	-1.5980896949768066	0.22511130571365356	1.4230749011039734	2.970616579055786	2.0201269388198853	-0.4150216579437256	-0.9918981790542603	0.5250228941440582	0.7646614015102386	-0.2973592281341553	2.262199878692627	-1.137594223022461	2.4552453756332397	2.2693971395492554	-0.8354039192199707	0.8567255586385727	1.3890778422355652	1.755288541316986	1.0753057226538658	2.5834211111068726	1.0369521453976631	1.519737720489502	0.1879597306251526	1.8751091361045837	4.335994720458984	2.108721375465393	3.3843648433685303	0.07749533653259277	-0.25060319900512695	0.3141515851020813	0.4851856231689453	1.6194391250610352	0.849567174911499	0.9598132520914078	0.41408056020736694	-0.22649574279785156	0.620468944311142	1.1496118307113647	1.790730059146881	-0.6828161478042603	2.482153058052063	0.5538149476051331	2.3559666872024536	0.31852179765701294	-0.34446847438812256	0.8580587655305862	-0.006070375442504883	0.8138549327850342	1.3841236233711243	1.8140639662742615	0.30746984481811523	0.7501761317253113	0.5025744438171387	3.328934907913208	-0.39871227741241455	1.8947361707687378	0.49863994121551514	0.6502998769283295	0.4163948893547058	2.7155696153640747	1.7202874422073364	1.0046620541252196	0.7278220653533936	1.4041424691677094	1.1666834354400635	1.5676665902137756	1.4523456990718842	1.31449294090271	3.473325252532959	0.8157142251729965	3.124952793121338	0.09496265649795532
nascere_3	-0.17671728134155273	1.9906209111213684	1.626246154308319	1.505906581878662	2.0931427478790283	1.8165848851203918	1.512086033821106	-4.033445358276367	0.5756891071796417	2.617647171020508	-0.32750511169433594	0.11436659097671509	1.9961622953414917	1.762291133403778	1.7239640355110168	2.0097075700759888	0.3802497386932373	2.4289830923080444	1.998758316040039	0.2565598487854004	0.7173805236816406	-0.2710719108581543	3.9151947498321533	-0.09263181686401367	1.1624227464199066	1.3252065479755402	1.4828938841819763	1.8007373213768005	1.7732207775115967	2.743584156036377	0.033888161182403564	0.7604352384805679	0.5063706040382385	1.8081984519958496	1.727489709854126	1.367700457572937	1.3241520524024963	0.7557509690523148	0.29391658306121826	0.5772983729839325	1.881061613559723	0.3028818964958191	1.7952662706375122	1.2166862040758133	-0.27380645275115967	-15.901077270507812	1.0007105006370693	1.7264045476913452	-0.197645902633667	3.2264926433563232	0.8550266027450562	0.6022206246852875	0.09607642889022827	1.5704373121261597	3.552359104156494	1.379322588443756	3.0863358974456787	0.8057074546813965	0.7620103657245636	3.546452522277832	2.1523925065994263	0.992632654029876	-0.9173130989074707	-0.5823012590408325	0.6352736949920654	1.6606330275535583	1.7361335754394531	0.7752737998962402	2.470113158226013	1.5930306911468506	0.5649592876434326	-1.5562870502471924	0.8358227908611298	2.614053964614868	1.261327862739563	1.609968364238739	2.0709166526794434	0.5842479765415192	1.645910620689392	2.067535400390625	3.213987112045288	3.038465976715088	1.8129841089248657	1.3607134222984314	1.2092051357030869	0.5424052476882935	0.9655803181231022	1.9069489240646362	1.3537203669548035	0.7222991287708282	0.13340550661087036	1.1332172602415085	-0.2674018144607544	-0.5059573650360107	4.009316921234131	0.10246795415878296	-0.6465631723403931	0.6298759877681732	1.7529662251472473	0.8474319875240326	-0.1434565782546997	1.212675765156746	-2.8267009258270264	1.1421646624803543	3.00557541847229	2.3685883283615112	1.1652737706899643	1.6821969747543335	1.6875426173210144	1.0191758535802364	0.81508868932724	1.0895469188690186	1.1130844876170158	-0.47418057918548584	-2.1092782020568848	0.8741794228553772	0.6502735316753387	-1.0515711307525635	0.3838459253311157	0.04446876049041748	-0.6383031606674194	2.7386282682418823	1.6104563474655151	3.257472038269043	-0.7351289987564087	-0.09911084175109863	0.7250545024871826	1.399697095155716	2.4784884452819824	0.42746615409851074	0.7020143866539001	1.826885461807251	1.2155075818300247	0.8130397498607635	1.9815409779548645	0.7157970666885376	1.4039649665355682	2.5318055152893066	1.4759738743305206	0.6965635716915131	0.4637792110443115	2.5446999073028564	-0.022715330123901367	0.6419264376163483	0.7534098327159882	0.5798477828502655	1.201323688030243	1.396118015050888	0.9753372836858034	0.5804033875465393	1.8330132961273193	-0.1323469877243042	-1.1867656707763672	-0.1784127950668335	-0.20527160167694092	0.8589397370815277	3.375755786895752	0.6818104982376099	1.2837470769882202	2.6178783178329468	0.14567780494689941	2.1087052822113037	-1.249495029449463	1.6255040168762207	-0.7954480648040771	0.8350767493247986	0.7706442922353745	3.494131565093994	1.5454123616218567	1.0145525531843305	1.562975823879242	1.8132922053337097	-0.3093075752258301	0.9764730725437403	0.9970384826883674	1.0752302780747414	0.7064882814884186	1.9553061723709106	2.9143861532211304	0.1879667043685913	3.1885151863098145	0.056270062923431396	1.2839160561561584	1.3562819361686707	1.7279921174049377	1.8707218170166016	1.4092203080654144	1.7767727971076965	0.2522766590118408	4.316329002380371	0.1499565839767456	0.4285470247268677	1.0294676758348942	0.5322736203670502	-1.7354650497436523	0.21463006734848022	1.1329819560050964	0.6974982619285583	1.5805148482322693	0.9384354539215565	1.0834773778915405	0.7038151919841766	-0.3093724250793457	2.576722264289856	0.8167773336172104	2.1918253898620605	0.5762845277786255	0.9897012813016772	0.48512470722198486	0.80579873919487	0.8968298137187958	0.8106887340545654	-0.7993041276931763	-1.3736515045166016	1.8239670991897583	2.365768313407898	0.8801105841994286	3.4559736251831055	2.8568047285079956	0.6136327385902405	2.8848166465759277	2.039228916168213	2.1151427030563354	0.4009249806404114	1.4745256006717682	-1.230262279510498	0.3727342486381531	0.9597101137042046	-0.45649969577789307	1.594518005847931	1.892372965812683	1.7135366797447205	1.4299618303775787	-0.27522778511047363	-0.7003408670425415	0.3743016719818115	-0.3129541873931885	0.9006346240639687	1.1673316210508347	-0.5581355094909668	0.665237307548523	0.4316561222076416	1.0020952092017978	-0.9348104000091553	1.4218323528766632	1.8921650648117065	0.937585286796093	1.3236887454986572	-0.1785198450088501	5.222898960113525	1.9162321090698242	1.9028905034065247	0.8791776522994041	1.8448104858398438	0.38075703382492065	1.751218318939209	0.6569172441959381	0.3113263249397278	2.0715867280960083	-0.47688090801239014	2.2744522094726562	2.3473610877990723	-0.38671040534973145	-0.9331275224685669	1.7230016589164734	2.2246042490005493	0.0046173930168151855	-0.40360867977142334	1.3060278296470642	1.304635614156723	2.4481894969940186	1.4331014454364777	-0.7806601524353027	1.9323219656944275	1.3063453435897827	2.0837823152542114	0.4388802647590637	3.3612263202667236	1.4524455070495605	1.0278011299669743	1.5195924043655396	1.0717917755246162	1.3263298273086548	4.393835544586182	-1.7496297359466553	2.238932251930237	2.7658534049987793	1.1626170128583908	1.8363362550735474	0.4516361355781555	0.9359524250030518	-2.137606143951416	0.8495829254388809	1.6114962100982666	0.8012828230857849	2.305900454521179	0.190349280834198	-1.0378484725952148	1.1620204448699951	2.4110695123672485	0.09445697069168091	2.588689684867859	0.9214530661702156	1.3365096747875214	2.141247868537903	2.52547287940979	1.011776341125369	2.4030951261520386	0.42329299449920654	0.39139729738235474	-0.701233983039856	-1.4588890075683594	1.005117667838931	1.7415997982025146	1.1638237535953522	1.7867655754089355	1.7518321871757507	0.4697258472442627	-0.44576454162597656	0.3586994409561157	-14.158906936645508	1.2015555948019028	1.3359684646129608	0.25147509574890137	2.03283429145813	0.8259333819150925	0.4532945156097412	-0.15339040756225586	0.31125688552856445	0.4935198426246643	1.5486996173858643	-0.5766018629074097	-2.606550931930542	1.400664895772934	0.348801851272583	1.2586729228496552	1.0867567881941795	0.4407963752746582	2.1929001808166504	3.964320182800293	2.020471453666687	2.401132345199585	1.504870355129242	2.756198763847351	-1.368734359741211	0.22735971212387085	-0.5442579984664917	0.2643636465072632	0.038799405097961426	3.846447467803955	-1.4843478202819824	-0.33672165870666504	1.593049168586731	1.9863017201423645	0.4988778829574585	-0.06430959701538086	0.8462273478507996	1.587765634059906	1.5216572880744934	1.1114605814218521	1.2654982805252075	2.4539384841918945	1.6929804682731628	1.3051983416080475	0.7627179026603699	0.6636821925640106	0.2157679796218872	2.3054226636886597	1.985519528388977	1.0840866565704346	0.8505105376243591	-0.5998520851135254	2.225187659263611	1.6932108998298645	-1.7743158340454102	0.7429829835891724	0.528734415769577	-0.6719318628311157	0.8764693215489388	0.5941707789897919	1.5928919315338135	1.5766879320144653	1.9544868469238281	2.244615077972412	3.1789984703063965	1.079861730337143	1.300206482410431	-0.9504818916320801	-0.34207963943481445	1.5264379382133484	1.4937928020954132	1.491819977760315	0.617239236831665	0.06772410869598389	1.9528926014900208	-0.11256420612335205	1.5078340768814087	0.9516700096428394	2.924691319465637	1.946747362613678	0.172723650932312	0.8771709054708481	1.3433336019515991	2.075753688812256	0.9808030724525452	0.5001093447208405	-1.5315837860107422	1.9935038089752197	-0.4558969736099243	1.8856698274612427	1.7583378553390503	1.5820797085762024	0.41430115699768066	0.4227488040924072	1.296496570110321	0.854017898440361	1.4500482380390167	2.1641879081726074	1.604558527469635	-2.1775925159454346	-0.4299039840698242	0.9701719209551811	0.9149524122476578	3.667079210281372	0.28837788105010986	1.7409358620643616	0.19150477647781372	0.6239273250102997	0.4890906810760498	1.1792349815368652	1.3397725820541382	1.7049206495285034	0.8549773395061493	4.149535655975342	1.5460177659988403	-0.1046684980392456	-0.051542043685913086	-0.7741134166717529	3.7303545475006104	1.2577496767044067	0.15352487564086914	1.0208724960684776	0.8143069595098495	2.1430495977401733	0.11640369892120361	0.2046104073524475	-0.12389218807220459	0.06417453289031982	2.7086042165756226	2.1097553968429565	0.3332093358039856	1.5339425206184387	1.3538044393062592	2.6081528663635254	1.055421121418476	0.3456152677536011	0.8717332482337952	-0.3780409097671509	1.6942192912101746	-0.3309680223464966	0.12385392189025879	-0.14268457889556885	-0.16727566719055176	1.386926531791687	2.138507127761841	1.9565550684928894	0.35835397243499756	0.18444734811782837	1.452420711517334	1.7708049416542053	0.9902329361066222	0.3499285578727722	2.8341721296310425	0.3369128704071045	1.6368972063064575	2.7752723693847656	1.7569358944892883	0.044366300106048584	0.9251309484243393	2.2043843269348145	0.2320554256439209	-1.1077699661254883	-0.04223155975341797	1.1279123574495316	-1.719719648361206	-1.8891570568084717	1.6035205125808716	1.3841009736061096	-0.7466208934783936	1.75404691696167	1.4260125160217285	1.1559860110282898	0.4316655397415161	-0.1434229612350464	-3.4268651008605957	-1.1534299850463867	2.4513672590255737	0.8103352189064026	1.70358008146286	1.7084800601005554	2.2572734355926514	0.6744656562805176	1.8532391786575317	0.16560280323028564	2.7526503801345825	0.007107853889465332	1.8239118456840515	-0.3740367889404297	1.7558486461639404	-0.285245418548584	2.0474162101745605	-0.5633536577224731	0.5576853156089783	1.2930548787117004	3.669602394104004	0.43257707357406616	0.5624682605266571	1.3177388906478882	0.9904421232640743	0.4183722138404846	0.8528705090284348	2.017428994178772	0.7515418231487274	-0.8497644662857056	1.0174875315278769	0.6789250373840332	2.3577224016189575	-0.09881711006164551	2.6667929887771606	2.7540920972824097	0.3547447919845581	2.0006251335144043	2.449280023574829	0.12915527820587158	0.7962614893913269	-1.330749273300171	-1.1672475337982178	2.623031258583069	1.9720232486724854	1.7912665009498596	2.350332498550415	1.2868156731128693	-0.601151704788208	0.45394158363342285	1.7465265989303589	0.8602355420589447	1.0282657947391272	-0.5540921688079834	0.3659064769744873	1.6042540669441223	1.7369210124015808	0.4769127368927002	3.528160810470581	0.025699615478515625	2.335809350013733	1.932341456413269	1.0618522688746452	1.1787587255239487	1.6730065941810608	1.603049099445343	1.6666330099105835	1.8474551439285278	1.4611903727054596	3.884570837020874	0.5423493981361389	0.38729357719421387	-0.20720350742340088	2.208133101463318	0.583966851234436	2.9150365591049194	23.86737632751465	3.64095139503479	-0.6596864461898804	-0.8449978828430176	0.6893903613090515	1.7986668944358826	1.099018156528473	1.436236947774887	1.3688265681266785	2.357943892478943	0.19383025169372559	0.49815428256988525	1.1055646389722824	1.378959447145462	2.4090428352355957	2.099718689918518	0.9107559025287628	0.435147225856781	-3.067628860473633	3.8523054122924805	1.4213972389698029	-1.4106698036193848	-0.041970252990722656	0.23322051763534546	-0.5891661643981934	2.0696288347244263	-0.18869447708129883	-0.7457641363143921	2.110189914703369	-1.3251891136169434	0.796171709895134	-0.5748170614242554	0.3105314373970032	3.111027956008911	-1.1507115364074707	1.5944780111312866	4.584690093994141	1.2860000431537628	0.6080051362514496	-0.022768378257751465	0.6122874021530151	2.8575507402420044	-0.6539455652236938	1.107132539153099	3.3010852336883545	0.4958212971687317	-1.8056857585906982	1.909928023815155	1.952834963798523	-3.574030876159668	-0.08316433429718018	0.6645296514034271	-0.8027005195617676	1.7842062711715698	3.9135806560516357	0.8801205679774284	0.6121077835559845	1.133155345916748	-0.46395742893218994	1.5443036556243896	-0.8064825534820557	0.7219384610652924	1.8517183661460876	0.9658005833625793	1.620066225528717	2.4643759727478027	1.179039090871811	2.025922179222107	1.9274367094039917	-2.649463176727295	0.6187646090984344	0.372977077960968	1.7109420895576477	1.2210436463356018	3.162391424179077	1.2012055069208145	0.38821542263031006	2.4642887115478516	1.8296924829483032	4.149123191833496	1.0314050875604153	0.5080292522907257	0.24551606178283691	1.9459813237190247	0.5081826746463776	-1.370530128479004	2.5666699409484863	1.4167131781578064	0.3814752697944641	0.9732365682721138	9.897963523864746	0.9470934197306633	0.8909246474504471	0.31492501497268677	1.1358234286308289	1.3639093339443207	-0.3075857162475586	2.4835256338119507	0.9656308740377426	0.6600530445575714	0.8119388669729233	1.03830998390913	-0.09377717971801758	-0.8085583448410034	1.9861441850662231	2.5499881505966187	2.1896402835845947	2.4901251792907715	2.3259036540985107	0.7294599115848541	2.2633355855941772	1.1851047575473785	2.328407049179077	0.08871906995773315	0.23236507177352905	1.3183089792728424	0.5429512560367584	2.525914192199707	0.8005053400993347	1.0278694294393063	1.3459829092025757	1.2599654793739319	0.790749728679657	-0.5726602077484131	1.2765385508537292	1.667523205280304	-0.48217248916625977	0.8994169607758522	0.8648785203695297	3.945984125137329	1.7553651928901672	0.3677976727485657	-1.9540491104125977	1.6492935419082642	1.216029092669487	0.21624207496643066	2.2344073057174683	0.3562621474266052	1.092176929116249	1.2917983829975128	-0.37816107273101807	-0.24240732192993164	1.2069821208715439	1.0562237054109573	1.0303413942456245	2.816336750984192	0.876780167222023	0.5498995184898376	1.1473917365074158	1.7068456411361694	3.925130844116211	1.4440345466136932	2.3443074226379395	0.7636207193136215	-0.1685175895690918	0.42956751585006714	0.058505356311798096	0.9065615832805634	0.37712353467941284	0.8563903570175171	1.7052416801452637	0.4444798231124878	0.2839096188545227	1.242682620882988	1.9750162959098816	-0.06756472587585449	1.4417224824428558	1.2404052168130875	2.236236333847046	0.9079101979732513	0.9279340878129005	0.1361294388771057	0.217290461063385	1.0193326938897371	1.2762293219566345	1.9035688042640686	-0.044114112854003906	1.3617859184741974	1.3238158822059631	4.378047227859497	0.5323260724544525	1.7482985258102417	0.7333273589611053	1.6771343350410461	-0.4279825687408447	2.2761340141296387	0.8531118482351303	1.2874294519424438	0.7450383305549622	2.276434302330017	1.8201774954795837	3.0960452556610107	1.0835421308875084	1.5844628810882568	2.8318326473236084	-0.4185614585876465	2.4854724407196045	0.6007879078388214
negare_1	1.7557612657546997	1.7089284658432007	1.6915149092674255	0.5212819278240204	1.7869611978530884	2.447412133216858	0.18998736143112183	-7.464204788208008	2.0050023794174194	1.8315971493721008	0.8750897198915482	1.4365613162517548	2.0633128881454468	2.9940088987350464	1.5864625573158264	3.182781457901001	1.1417192667722702	2.10064435005188	3.2668747901916504	0.9852025415748358	-0.45331382751464844	2.7540394067764282	1.528358280658722	-1.1989216804504395	0.28852176666259766	1.5947405695915222	-0.22187566757202148	-0.43516433238983154	1.5920940041542053	2.0849374532699585	0.479628324508667	-0.8763182163238525	1.3782400786876678	1.0314072370529175	0.5264942049980164	1.0295052528381348	0.35762614011764526	0.47536617517471313	-0.46411001682281494	1.7495667338371277	1.747252643108368	2.3032848834991455	2.2857824563980103	2.121691107749939	1.6569839119911194	-15.426111221313477	-0.8628088235855103	3.2309210300445557	1.6256523728370667	2.9312164783477783	1.3298264145851135	-0.9294072389602661	0.05993032455444336	1.15219384431839	1.8693636059761047	2.27845299243927	1.2826146185398102	1.1367255747318268	1.3425347208976746	3.3262388706207275	2.517708659172058	2.9317736625671387	1.8531608581542969	0.740707665681839	0.18302607536315918	2.660146117210388	0.30458158254623413	2.5169607400894165	3.4622886180877686	1.8155097365379333	-0.7039355039596558	-1.3985939025878906	2.679187059402466	1.8932392001152039	0.5267143249511719	0.3719702959060669	0.5872487127780914	0.18876934051513672	2.9831645488739014	1.4611071646213531	0.6954805850982666	3.5413613319396973	1.7334303855895996	1.161044254899025	2.524705648422241	0.13049852848052979	-1.023397445678711	-0.08804666996002197	0.7566011250019073	0.7032996118068695	2.0030895471572876	4.349912405014038	1.3389973044395447	1.782396912574768	4.132781028747559	1.9206859469413757	3.4162557125091553	-0.04480385780334473	1.6100167632102966	1.9781570434570312	1.8479613661766052	0.8832973539829254	-0.9407113790512085	0.34171831607818604	3.0181593894958496	0.05657327175140381	2.3244707584381104	0.926981657743454	-0.38083183765411377	1.3443327844142914	1.3202228844165802	-0.7957874536514282	2.31234073638916	0.852586954832077	-0.5991997718811035	-1.1657750606536865	0.12477409839630127	-0.4822429418563843	2.9321773052215576	0.7145813703536987	0.24472862482070923	4.636806488037109	0.6155165731906891	1.6727206110954285	1.1501495689153671	0.1350935697555542	2.3367055654525757	1.0882075801491737	0.8313931077718735	1.2093636840581894	0.1521657109260559	2.534683585166931	0.002573251724243164	1.3033156096935272	0.8030533343553543	1.8974785804748535	1.6836254000663757	1.910071611404419	1.6343462467193604	2.8194425106048584	2.8153849840164185	0.026862144470214844	0.7796218395233154	-0.743709921836853	-0.21976733207702637	1.5830627083778381	2.234007954597473	-0.06928479671478271	0.608784407377243	1.4917172193527222	-0.08115565776824951	-0.6893810033798218	0.8818010240793228	-0.4317295551300049	0.6032914221286774	1.723315417766571	1.1535342633724213	0.45526671409606934	-0.045096516609191895	3.3795361518859863	-0.05534005165100098	1.5717754364013672	2.701870083808899	2.881662130355835	-0.8022984266281128	0.7677636593580246	0.324074387550354	2.897123336791992	4.074049472808838	0.23616844415664673	1.1422670632600784	1.892285406589508	0.6242579519748688	0.5595634579658508	2.9749866724014282	1.2430807054042816	-1.6701557636260986	1.977980613708496	3.371516466140747	0.16014200448989868	0.37976300716400146	1.0781010016798973	1.9465073347091675	1.9150663018226624	-1.0655460357666016	0.9917113780975342	1.4373772144317627	1.3937712609767914	2.6966358423233032	0.39461612701416016	0.258283793926239	-4.424101829528809	0.5332031846046448	3.3789467811584473	1.3672160804271698	1.3059487044811249	0.7425497174263	0.3708534240722656	-0.09184610843658447	2.176053524017334	1.2491281628608704	-0.34556400775909424	2.939779281616211	2.14241886138916	0.2818395495414734	2.4424333572387695	-1.3490283489227295	1.8044794201850891	0.8044141381978989	-0.7267055511474609	1.3881176710128784	3.304590940475464	-0.5444803237915039	-4.535925388336182	1.245519608259201	0.9971451824530959	-0.6431857347488403	0.9610523283481598	2.0189708471298218	1.38966566324234	0.6872857511043549	0.8703092932701111	0.8668389171361923	-0.024641752243041992	2.1199225187301636	1.1217092275619507	0.14909493923187256	-0.12409591674804688	-0.21630287170410156	2.1154505014419556	2.1726303100585938	-0.281466007232666	2.6948195695877075	0.36252450942993164	1.7970197200775146	0.7126250267028809	-0.16511082649230957	2.0124738216400146	1.135126069188118	1.042134415358305	-0.14168894290924072	-0.5718058347702026	-0.0433734655380249	0.7757860124111176	0.007778286933898926	-1.1409671306610107	1.360758751630783	1.7346288561820984	-0.05610179901123047	4.116918087005615	2.028013229370117	0.2593815326690674	0.7712202370166779	1.1496009081602097	0.5098193287849426	0.4940154552459717	0.6204066276550293	-0.09734809398651123	0.8224978297948837	-1.7146472930908203	1.0772255286574364	-0.42389416694641113	0.43090230226516724	0.7816137075424194	1.1515637785196304	3.76967453956604	-0.9740431308746338	1.0324097014963627	0.8505032956600189	-0.43437373638153076	0.9366530328989029	0.4193800091743469	-0.7030173540115356	2.3556108474731445	1.8347197771072388	1.5148130059242249	-1.0848987102508545	1.423154354095459	1.8712617754936218	0.954831201583147	0.6074902713298798	-0.10942256450653076	0.44418179988861084	1.5689770579338074	2.2996219396591187	1.2158618867397308	0.7070817053318024	3.34865140914917	1.3697784841060638	0.5378347337245941	1.484596163034439	-0.4458897113800049	-1.106320858001709	-0.09728443622589111	1.309359848499298	0.7490794062614441	-1.6666312217712402	-0.7052500247955322	-0.34962689876556396	1.0584289208054543	1.250514805316925	-0.24206721782684326	1.7967934608459473	0.7961851954460144	2.956869959831238	-0.07183849811553955	-0.09935033321380615	2.1223337650299072	1.1137380823493004	0.6857539415359497	-0.7074489593505859	1.221519574522972	0.8574177324771881	0.3996868133544922	1.8438659310340881	2.794825553894043	-0.0999823808670044	2.966888189315796	-0.865418553352356	0.690822035074234	-17.0007266998291	0.09773153066635132	0.9508486166596413	0.034752726554870605	3.4230780601501465	0.1888139843940735	0.7650820314884186	1.6435045003890991	1.4955098330974579	0.8433350920677185	3.455425500869751	0.23946839570999146	-7.056124687194824	2.1772830486297607	0.4536747932434082	1.6913109421730042	0.8103178143501282	0.7477171719074249	1.6842320561408997	-1.657045602798462	0.5459017753601074	1.2406238317489624	2.4299232959747314	1.1721670478582382	1.841275155544281	-0.04767799377441406	2.343101143836975	1.87095046043396	-0.7279813289642334	-0.5661683082580566	1.1908721178770065	0.2773053050041199	0.5459577143192291	2.063588261604309	2.3550474643707275	0.4469519257545471	0.8826657980680466	1.9643749594688416	-0.7619577646255493	0.13112276792526245	-0.8689824342727661	-0.5708318948745728	2.8739620447158813	1.705032467842102	1.5842147469520569	1.2839752733707428	0.28818070888519287	2.585414409637451	1.6508975625038147	1.8177999258041382	3.1800332069396973	-1.341632604598999	2.0196731090545654	1.5384710431098938	-1.4896278381347656	1.8787289261817932	1.0443317294120789	1.8058379292488098	1.9890379905700684	0.38336116075515747	1.4230951964855194	-0.35190582275390625	2.3460906744003296	1.661934494972229	1.073321484029293	0.22288739681243896	0.6483708322048187	0.4503033757209778	0.22141033411026	2.616089105606079	-0.284732460975647	3.507578134536743	2.438857913017273	0.6970927715301514	0.7572741061449051	1.5339847803115845	2.0149967670440674	1.369796872138977	2.400951862335205	-0.33545351028442383	1.6070414781570435	0.01960611343383789	1.884720802307129	0.0708971619606018	1.1992327868938446	-0.5455076694488525	-0.7799038887023926	1.9715542197227478	0.7601929008960724	0.9308910742402077	2.786350965499878	1.543886423110962	3.2006514072418213	0.7572656571865082	2.6005595922470093	1.672855257987976	1.1903787553310394	0.9904975695535541	1.2063754051923752	-0.11240041255950928	1.086500383913517	2.5756163597106934	-0.13987195491790771	1.7753342390060425	1.4480101466178894	0.30066627264022827	2.4186604022979736	0.05041670799255371	0.4209824204444885	1.240433230996132	1.1960726082324982	3.1679046154022217	1.3972830474376678	1.0191763024777174	0.3107534646987915	-0.5499882698059082	0.9229035824537277	3.9379982948303223	1.8997726440429688	-1.6320900917053223	1.298269808292389	2.6835907697677612	1.8757917881011963	2.053156852722168	0.3311033248901367	1.596288800239563	1.9396400451660156	0.9575203359127045	2.419456720352173	1.1834435313940048	0.3047831058502197	1.0419946797192097	0.9915696028620005	3.7905495166778564	0.7036982774734497	0.18789511919021606	1.8655115962028503	0.765867754817009	1.6453824639320374	-0.21748805046081543	0.19901931285858154	-0.05387008190155029	1.8523203134536743	0.7884583324193954	-0.07720315456390381	-0.02961719036102295	2.503870964050293	-1.2067537307739258	1.0689528211951256	0.6120310127735138	1.266880065202713	-1.2969233989715576	1.8964883685112	0.35161924362182617	1.889788269996643	1.3993083536624908	-1.3068523406982422	0.8258564323186874	1.055621586740017	1.2363992184400558	0.5096952617168427	2.2678279876708984	1.4784376919269562	0.4827825427055359	-1.7775936126708984	1.3709926009178162	1.9259594082832336	1.5142436027526855	-0.47125935554504395	1.0962477996945381	-0.28841519355773926	1.6018282175064087	1.6580321192741394	-0.34335076808929443	-1.9223911762237549	1.8265513181686401	0.37756890058517456	-0.10821974277496338	1.3779897391796112	3.482546091079712	1.1275403797626495	2.209872841835022	2.3728535175323486	-1.3301994800567627	0.9249593988060951	1.5246353149414062	0.7395230233669281	-0.09565556049346924	0.4170006513595581	-0.17061281204223633	1.0551214925944805	-0.6509391069412231	0.9107740148901939	1.799012303352356	-0.023997187614440918	1.1392159909009933	-0.03166806697845459	0.8906423598527908	1.8401434421539307	-1.9305939674377441	2.0408202409744263	0.4798968434333801	1.57498037815094	-0.4955148696899414	-0.03980207443237305	3.1405537128448486	-1.2067396640777588	0.6629914045333862	1.8437861800193787	0.36740362644195557	-0.21437692642211914	2.360984683036804	2.5977044105529785	0.8261323422193527	2.0734843015670776	-0.8555071353912354	0.619667649269104	2.3904227018356323	1.2146766185760498	-1.0086414813995361	2.005301833152771	1.402727633714676	-0.9137072563171387	1.4648004472255707	2.279464840888977	1.6233423352241516	-0.6907550096511841	0.3531497120857239	2.1610586643218994	0.2950807809829712	1.6127210855484009	1.5367657542228699	2.715609550476074	-0.4654155969619751	0.6462186872959137	0.20470774173736572	0.9587949365377426	-0.8907625675201416	3.2258994579315186	1.934958815574646	2.06769061088562	0.44669491052627563	0.42404425144195557	2.62243390083313	-0.15932655334472656	1.3475890159606934	0.30601561069488525	0.4929545521736145	0.6641163527965546	0.15287667512893677	20.722576141357422	1.9997907876968384	-0.9108049869537354	-0.9620668888092041	2.7188446521759033	2.0730236768722534	1.2784374952316284	4.1453986167907715	-1.1209816932678223	1.605904757976532	1.3185307383537292	1.6116915345191956	0.7163254022598267	1.417042762041092	2.99973726272583	0.5185242295265198	-0.7354938983917236	0.75351881980896	1.4149621725082397	3.195084810256958	1.8430473804473877	-0.45649659633636475	1.3790248930454254	1.0628176927566528	-0.458996057510376	-0.14992332458496094	4.299852132797241	0.05510002374649048	1.8412213325500488	1.6423026323318481	-0.42636871337890625	1.4377653300762177	1.6478998064994812	4.083637237548828	-0.9467804431915283	2.524983763694763	2.199503779411316	1.1333433836698532	1.5196855068206787	-1.6013100147247314	1.6635527610778809	1.8520101308822632	2.740159273147583	-0.6532942056655884	4.29897928237915	0.4735866189002991	-0.768311619758606	1.543543815612793	1.7622151970863342	0.8093653917312622	-0.3942744731903076	1.7087085843086243	-0.22144615650177002	0.19930177927017212	2.918699264526367	-0.9657242298126221	-0.8027869462966919	3.89311146736145	-0.017397046089172363	1.7070353627204895	-0.014262795448303223	3.3161885738372803	0.505993515253067	1.0799659490585327	0.3976482152938843	0.31788957118988037	1.8851820230484009	1.9623312950134277	1.900068759918213	-0.7357717752456665	0.894386775791645	2.096750497817993	0.5237900018692017	0.5669988691806793	0.9821926411241293	2.04393208026886	0.26379621028900146	-0.6797628402709961	1.6330987811088562	4.199135065078735	3.1536805629730225	2.34980046749115	0.7963669002056122	1.0033792578615248	2.739484190940857	0.45255351066589355	1.1173544079065323	0.7865371853113174	2.495131254196167	1.9929018020629883	10.353134155273438	-0.5234693288803101	-0.273032546043396	1.443547546863556	2.591460108757019	0.08672046661376953	-0.304823637008667	4.866609811782837	0.8649249523878098	1.7300593852996826	2.3320239782333374	1.601798176765442	1.0277109928429127	2.221299171447754	2.299939751625061	2.280910849571228	1.6849684715270996	3.288037061691284	1.3976389467716217	1.1930876225233078	0.2702605724334717	-0.23867595195770264	2.1569714546203613	0.8688701093196869	1.3912570774555206	-1.1941826343536377	1.7442627549171448	-1.011885404586792	3.7051937580108643	-0.14054811000823975	-0.9359707832336426	1.5206710696220398	1.4681789875030518	-0.18993163108825684	1.0716843828558922	0.44289302825927734	-0.21692216396331787	4.311190128326416	2.3845325708389282	1.3681398928165436	1.5138878226280212	-2.0260324478149414	1.1769251972436905	1.3392333388328552	0.6104770302772522	1.6773635745048523	0.7516598105430603	-0.46276915073394775	1.5286221504211426	2.639310359954834	0.9890585206449032	0.7840370237827301	0.8347599059343338	1.9145005941390991	1.6780051589012146	2.682105302810669	1.9708664417266846	-0.5649824142456055	2.6032947301864624	-0.02697920799255371	1.661917805671692	0.2133588194847107	1.6639581322669983	0.6689850687980652	-2.4533426761627197	1.2489691525697708	0.8326039761304855	2.046744227409363	-1.4565093517303467	1.5626092553138733	0.5511652827262878	0.16646665334701538	1.0610324367880821	2.410737633705139	1.160791054368019	0.8056771010160446	0.3050001263618469	1.9566555619239807	2.148403763771057	0.8600852638483047	0.7051379084587097	-0.20514965057373047	0.8659226447343826	2.5593960285186768	2.5516579151153564	-0.20169591903686523	2.173790693283081	0.6133449673652649	2.946258783340454	0.9994367264444008	2.938332438468933	1.2109103798866272	-0.9562668800354004	3.1903724670410156	-0.08790826797485352	4.6583030223846436	2.785431981086731	0.8960256725549698	-0.18166065216064453	3.0984628200531006	0.6017527282238007	0.8041430562734604	-0.5886142253875732	2.010007619857788	1.4738066792488098	1.4588199257850647	0.800695464015007	3.2362468242645264
negare_2	-0.14106929302215576	0.7366864085197449	1.1939151883125305	0.2897423505783081	1.6499180793762207	1.598697006702423	1.2782028019428253	-7.722367286682129	-0.09005510807037354	1.9748575091362	0.33684903383255005	0.20143669843673706	3.112828493118286	3.68707275390625	0.3905980587005615	2.5531994104385376	-1.0730385780334473	1.0142853641882539	2.2027480602264404	0.6894305646419525	-0.17010962963104248	1.5229657292366028	1.5194794535636902	-1.0432097911834717	-0.1505051851272583	2.1276203393936157	1.1039911583065987	2.264801502227783	1.7641124725341797	2.3399511575698853	0.21329408884048462	-0.6536744832992554	2.1106464862823486	1.6076842546463013	1.3267379999160767	2.238519310951233	1.165873721241951	1.403799295425415	1.629738986492157	1.0240157954394817	1.974218726158142	2.095152735710144	2.519744873046875	1.9009292721748352	0.020830512046813965	-14.838902473449707	-0.3693653345108032	2.7196041345596313	0.3605905771255493	2.997715711593628	1.3906131386756897	-1.2123918533325195	0.5907252132892609	-0.056072115898132324	1.8307252526283264	2.070812940597534	1.4501044154167175	1.9107096195220947	-0.5126675367355347	3.935298442840576	1.6904685497283936	2.6190143823623657	2.460240364074707	1.9016456604003906	0.43913739919662476	2.541133403778076	-0.2342296838760376	2.5589288473129272	2.379112124443054	1.8703730702400208	-0.18449676036834717	-0.9683717489242554	1.8889201283454895	2.264978766441345	1.480806440114975	0.35779839754104614	1.7554428577423096	1.2299375534057617	2.2564303874969482	1.3508521914482117	0.9552805908024311	2.4986833333969116	2.172141671180725	1.4842620491981506	2.1487101316452026	0.23678535223007202	-0.18684804439544678	-1.1629767417907715	1.3910000622272491	1.319432556629181	2.0211169719696045	3.3798463344573975	1.3674457669258118	2.3361016511917114	3.4520070552825928	1.6702848672866821	3.4862024784088135	1.4838591814041138	0.9135722890496254	0.3815349340438843	-0.217492938041687	1.1409210413694382	-1.514491081237793	1.2359456568956375	1.5881015062332153	0.8622322678565979	2.639138698577881	0.9097076952457428	-0.5444270372390747	2.684290647506714	1.2936553061008453	0.46074891090393066	2.467879295349121	0.27015191316604614	0.8862539827823639	0.11689996719360352	0.9181041270494461	0.856559693813324	1.6001828908920288	0.7005154192447662	0.07673013210296631	2.8292360305786133	0.5560750961303711	0.10409033298492432	0.6636950373649597	0.859749510884285	1.4689366221427917	1.3059974610805511	0.3994903564453125	1.7733723521232605	0.9136998727917671	0.7473124861717224	0.1320917010307312	0.974470105022192	0.8873534426093102	1.2867306768894196	1.3711481094360352	1.9812074303627014	1.3943587839603424	2.1091854572296143	2.7847695350646973	-0.5989285707473755	1.3812851011753082	-0.863229513168335	0.1850946545600891	1.940589964389801	1.6144807934761047	0.7104145288467407	3.5927255153656006	1.1692635416984558	1.4546881020069122	0.43032950162887573	1.7575334906578064	0.7037434875965118	-0.3765084743499756	1.4863985776901245	2.7240004539489746	-0.16258680820465088	0.4215139150619507	2.0125839710235596	1.2027756869792938	1.8383342027664185	1.314449667930603	1.3003647923469543	-0.5847736597061157	-0.4411228895187378	0.8880856707692146	3.137147903442383	2.5782796144485474	0.061959683895111084	1.3534618616104126	2.5293127298355103	1.5653390884399414	1.193247139453888	2.4501954317092896	0.6471556127071381	-0.9027717113494873	2.804316520690918	1.6436453461647034	-0.12802743911743164	2.4125698804855347	1.2055454701185226	2.462032437324524	1.8118923902511597	0.7337545156478882	1.0578922778367996	1.2882917523384094	1.5359418988227844	1.7981607913970947	0.643040657043457	0.33376526832580566	-2.2942490577697754	0.920077733695507	4.108879804611206	2.0931811332702637	1.3244920670986176	1.4178816080093384	2.024695038795471	0.28425806760787964	1.5877731442451477	1.021151289343834	-0.24427592754364014	1.4390568137168884	2.163790225982666	1.3790574967861176	1.5127443075180054	-2.031925916671753	0.778194785118103	0.9792701490223408	-1.7651402950286865	1.9318491220474243	0.9278876036405563	-0.10789060592651367	-3.0592851638793945	1.2301493138074875	1.3896368443965912	-0.5695979595184326	2.3007822036743164	2.3730599880218506	0.21976149082183838	0.7324954867362976	0.645222544670105	0.3982650637626648	-0.17490935325622559	1.4822117686271667	1.200226828455925	0.381197452545166	0.80868960916996	-0.1646639108657837	2.224255323410034	2.3904409408569336	1.7433761358261108	2.237740993499756	1.866690754890442	1.3133269250392914	-0.14779889583587646	-0.2584110498428345	2.3716940879821777	1.6807523369789124	-0.06891465187072754	0.054675281047821045	-0.8361755609512329	-0.615388035774231	1.1017100140452385	-0.20809483528137207	0.6564183831214905	1.478153109550476	2.0730745792388916	0.3805006146430969	3.061464786529541	2.0398402214050293	2.296800374984741	0.37159591913223267	2.0471328496932983	0.655421257019043	-0.5333285331726074	0.6205728650093079	-0.18953776359558105	1.1197862029075623	-0.22235727310180664	1.4767615795135498	0.36927151679992676	0.997598891146481	0.09801620244979858	1.4693891108036041	3.2222702503204346	-0.020261168479919434	0.0053972601890563965	0.5041264295578003	-0.259716272354126	0.41952264308929443	-0.5335890054702759	-0.0027930736541748047	2.0136351585388184	1.7295884490013123	1.548026442527771	-0.16982817649841309	2.3539609909057617	0.5295715630054474	0.1944342851638794	-0.2213195562362671	-0.13648760318756104	0.5053938329219818	2.4889930486679077	1.3747616708278656	0.25732606649398804	-0.3784921169281006	2.90267014503479	1.9903022050857544	1.1328794956207275	0.5385429263114929	-0.22183263301849365	-0.2046722173690796	2.0961060523986816	0.6782482266426086	-0.19950628280639648	0.27861130237579346	-0.2600383758544922	-1.3021540641784668	0.4683687090873718	1.0764360874891281	0.10995948314666748	0.10355913639068604	-0.34391283988952637	1.2764659821987152	-1.1028199195861816	0.9633358754217625	1.753919780254364	2.6718028783798218	0.6560479402542114	-0.6650391817092896	1.7405143976211548	0.34918534755706787	-0.7044296264648438	1.9732447266578674	3.694035291671753	0.19995635747909546	3.2256479263305664	-1.4303276538848877	0.8643122911453247	-20.002185821533203	1.2011361718177795	0.9682449549436569	0.263957679271698	3.3483657836914062	1.1446512639522552	0.7773681581020355	2.3834277391433716	1.6693226099014282	0.6757602989673615	2.401685357093811	1.0787669345736504	-4.817424297332764	0.5360904335975647	0.9756871983408928	0.7645513862371445	0.7408869862556458	2.7527060508728027	2.1065698862075806	-2.0411009788513184	0.7720708400011063	0.40411829948425293	2.347339153289795	0.5388235747814178	1.304395169019699	0.5693570077419281	1.5008522868156433	0.45876163244247437	-0.354719877243042	-1.4035053253173828	0.8259451240301132	-0.5710012912750244	0.1606234908103943	1.9241397380828857	1.5154987573623657	0.2397403120994568	0.8225335478782654	0.9659852422773838	-0.9774844646453857	0.5571575164794922	0.7424024045467377	0.7041325867176056	2.502493739128113	0.9927379037253559	2.22893750667572	0.7303825318813324	1.41096031665802	1.2762698531150818	1.2931949198246002	0.48551619052886963	3.3274991512298584	-1.1102259159088135	1.9719696640968323	2.2485153675079346	-1.4874022006988525	1.5461183190345764	1.416762501001358	0.7847989052534103	0.1447516679763794	-0.5315117835998535	1.690854549407959	-0.15173876285552979	1.3660955131053925	1.1270856708288193	1.0617416203022003	1.5756216049194336	2.5823163986206055	-0.5164275169372559	-0.4228973388671875	2.41262423992157	-0.6283082962036133	1.5384109020233154	1.4396397471427917	0.23732459545135498	0.9960798169486225	1.8640351295471191	1.790578305721283	3.386420965194702	1.3610819280147552	-0.745963454246521	1.3551657795906067	-0.40551114082336426	2.4417617321014404	-0.26380419731140137	0.5345546007156372	0.5936017334461212	-0.4801933765411377	0.3059422969818115	0.6221854388713837	-0.19005262851715088	2.1869415044784546	1.6594794392585754	2.9443893432617188	0.13935011625289917	0.5846124887466431	2.3013213872909546	0.6915810406208038	-0.02857649326324463	0.9889969946816564	1.120951198041439	1.6428236365318298	3.0485427379608154	0.1892673373222351	3.0499234199523926	1.0419040881097317	0.7419242560863495	2.802911400794983	1.2714224457740784	0.6932691633701324	0.8824997320771217	0.9532873518764973	2.374294638633728	1.9139959812164307	2.039888858795166	0.9146276861429214	-0.7429832220077515	0.6677849590778351	2.9270849227905273	1.2587841749191284	-0.5759642124176025	0.24476462602615356	2.6962218284606934	0.9766142722219229	1.7998281121253967	0.4776489734649658	1.4832402765750885	1.9199644327163696	0.3546978235244751	2.0811046361923218	2.0590661764144897	0.040242791175842285	1.7284159660339355	2.0960566997528076	2.8418885469436646	0.8148767501115799	1.1277653276920319	1.7999186515808105	0.3683890700340271	1.6140395998954773	0.04991549253463745	0.8746551275253296	0.6375931799411774	1.5050406455993652	1.5723016262054443	2.207858920097351	1.251399040222168	2.2753772735595703	0.061820387840270996	1.8077258467674255	0.026624083518981934	2.623020887374878	0.43882715702056885	1.5443152785301208	0.3217929005622864	1.5835601091384888	2.481534004211426	-0.5062652826309204	0.8052899986505508	1.4583247900009155	0.44417238235473633	2.1044358015060425	1.2383414506912231	0.035940349102020264	0.4839736223220825	-1.0951595306396484	0.8365497589111328	2.133002996444702	0.5976957976818085	1.2793155312538147	1.470199853181839	-0.36927294731140137	0.33247238397598267	1.5673392415046692	0.5437659025192261	0.20201879739761353	0.8458233028650284	1.7976065874099731	0.7372943758964539	0.9587716571986675	2.7523646354675293	1.099730297923088	1.857250690460205	2.205413818359375	0.11871218681335449	1.2321315258741379	2.0270028114318848	0.6270904839038849	0.3398258090019226	2.5155115127563477	0.5341389775276184	1.8571946620941162	0.2316458821296692	0.6938884556293488	0.8404380679130554	1.4998249113559723	1.0944313034415245	-0.025021910667419434	1.388214349746704	0.18788957595825195	0.2801892161369324	1.4206517934799194	1.382186084985733	0.9689385127276182	0.013709187507629395	0.07168841361999512	0.4173396825790405	0.1929783821105957	1.1658201217651367	1.3133690655231476	2.3336691856384277	-0.9546428918838501	1.3375597298145294	1.644499957561493	-0.05837678909301758	1.0508108623325825	1.222937911748886	0.40404820442199707	1.794439673423767	1.5997233986854553	0.08783692121505737	2.0310986042022705	1.9129213094711304	-0.59954833984375	0.9011697471141815	1.7430278062820435	2.113473415374756	0.1864323616027832	-0.6722897291183472	2.74843692779541	-0.21281397342681885	0.39105546474456787	0.6008233726024628	1.5357191562652588	1.642048716545105	1.1954870373010635	0.4006120562553406	-0.10514295101165771	0.0702749490737915	2.3728880882263184	1.8384978771209717	2.1978458166122437	0.1989843249320984	0.4563865065574646	2.1960986852645874	-0.6395182609558105	2.4003883600234985	0.7914118766784668	2.6172906160354614	1.677537202835083	0.022120118141174316	21.835918426513672	1.0064341761171818	-0.1576308012008667	-1.4415240287780762	0.12628060579299927	3.0387604236602783	2.339702606201172	2.474158763885498	0.41762876510620117	1.8453060388565063	0.9635354578495026	1.1463122814893723	1.5440961718559265	0.7010648250579834	2.1077874898910522	0.07073861360549927	-0.6665283441543579	0.10499083995819092	1.920855164527893	3.6167709827423096	1.9633228778839111	1.5336307883262634	0.2387145757675171	0.9408050067722797	0.3502926826477051	1.1250517815351486	1.9480444192886353	0.4164252281188965	2.2278553247451782	1.1998868584632874	-0.10884034633636475	2.5513824224472046	1.8717063665390015	3.128020763397217	-0.40264058113098145	0.20611757040023804	2.914577007293701	1.101945899426937	1.2227489054203033	-0.20837461948394775	1.013464598916471	2.617698550224304	0.7353527545928955	0.5978952348232269	1.5830585360527039	1.634779155254364	-1.6612930297851562	1.5713355541229248	0.8491876721382141	0.7920234799385071	0.6118888556957245	1.7506215572357178	1.335973173379898	0.4350891709327698	4.49345588684082	0.23123687505722046	-0.3169022798538208	2.2499200105667114	1.246781125664711	1.2816753089427948	0.05464822053909302	2.5651702880859375	1.3827390372753143	1.0048723565414548	0.7817336618900299	2.2277634143829346	1.8332067728042603	1.9364129900932312	1.0194046683609486	-1.671750545501709	-0.2042785882949829	1.2567777335643768	1.1772415488958359	1.9508439898490906	0.28370314836502075	0.4540266990661621	-0.788669228553772	0.48795658349990845	1.539739191532135	3.6817843914031982	2.023476004600525	1.61237370967865	0.9888969473540783	1.3434099853038788	0.1717013716697693	0.5601772964000702	0.7815553545951843	1.2547517120838165	1.1596611440181732	3.075000047683716	9.839588165283203	-0.3512444496154785	0.873685896396637	-0.05965375900268555	1.4934779405593872	-0.09180772304534912	0.2902742028236389	3.515254497528076	0.9335925355553627	2.073125720024109	2.8810501098632812	0.5479380488395691	1.9352816939353943	2.016074538230896	2.273626446723938	2.539778232574463	1.748088777065277	2.1740535497665405	1.47616708278656	-1.0344841480255127	1.1732208579778671	-0.07413113117218018	1.641122817993164	0.46631312370300293	0.9907457111403346	-0.28673315048217773	2.2762715816497803	-0.22529494762420654	3.5139195919036865	2.034891724586487	-0.1296311616897583	2.0068730115890503	0.7144446969032288	-0.5890322923660278	0.7107425034046173	2.2207096815109253	1.3376343548297882	3.879410743713379	1.1769980192184448	0.9455383308231831	2.5408215522766113	-2.3393797874450684	1.225774109363556	0.8802120760083199	1.1535281836986542	1.1714703738689423	1.1212265565991402	-0.0372929573059082	0.4058939218521118	2.5450550317764282	1.2910070419311523	1.9350395798683167	-0.20366108417510986	1.1856560111045837	0.2763012647628784	2.1793835163116455	2.2026368379592896	-0.5937850475311279	1.3743434846401215	0.3036021590232849	1.7979446649551392	-0.1695021390914917	1.0799167230725288	0.22855788469314575	-1.1574501991271973	-0.23660290241241455	-0.31017839908599854	1.3207275867462158	0.1864248514175415	1.5088794231414795	0.17290514707565308	0.4317047595977783	1.8788068890571594	1.5561994910240173	1.3750881850719452	0.8711687326431274	-0.11232149600982666	1.4006721079349518	2.1034836769104004	1.2249174565076828	0.8716122210025787	-0.2749871015548706	1.0126844979822636	2.5288445949554443	1.2960306107997894	0.9318881928920746	1.3960768580436707	1.3315918743610382	1.6703822612762451	-0.31232285499572754	1.955823302268982	0.7406982183456421	0.27007073163986206	3.208803415298462	0.23422324657440186	2.450767159461975	0.8550655692815781	1.3506033718585968	-0.011349678039550781	2.63308048248291	0.9199163466691971	0.5550952851772308	2.149196743965149	1.953517735004425	0.9351288676261902	0.8101488351821899	1.2249934077262878	1.4081684052944183
negoziare_1	0.4661691188812256	1.1704976707696915	2.053912043571472	0.3328685760498047	1.1693674474954605	1.4103411734104156	1.482418268918991	-6.093388557434082	0.2725261449813843	2.952914834022522	0.9315992668271065	2.109025001525879	1.733450710773468	1.916961133480072	0.01720559597015381	0.8259479850530624	-0.8265796899795532	1.8552600741386414	2.0055893659591675	1.1980268359184265	0.39780133962631226	3.1869733333587646	2.434561014175415	-0.9960861206054688	1.2016262859106064	1.3687277734279633	0.4255683422088623	2.0720406770706177	0.9208131283521652	1.3256359994411469	1.318689227104187	1.0992809236049652	1.7172356247901917	1.5003333687782288	1.238989308476448	2.2359715700149536	2.22712504863739	1.5077035427093506	1.8515207767486572	0.37778425216674805	1.1338592618703842	0.8340908885002136	2.4051413536071777	1.6386735439300537	-0.26530933380126953	-15.634180068969727	1.4172514975070953	1.4532653987407684	0.08780825138092041	1.903319776058197	0.849789559841156	-1.1679751873016357	1.5735213160514832	-0.5783340930938721	3.8028788566589355	1.260998010635376	1.033059734851122	-1.3161396980285645	0.78956538438797	3.395852565765381	0.8421920090913773	2.0950989723205566	2.351460576057434	1.2028226405382156	1.0518738888204098	2.6350573301315308	0.07664334774017334	1.8460336327552795	2.471650719642639	0.5234988033771515	2.276544213294983	-0.49321985244750977	1.257043480873108	0.5642434358596802	1.9552338123321533	1.554275929927826	2.1259371042251587	1.3553065061569214	2.16796338558197	2.105109930038452	2.1288037300109863	0.9423090443015099	2.2146191596984863	0.8979039713740349	1.9659792184829712	0.309988796710968	-0.24544095993041992	0.026760637760162354	1.9253179430961609	-0.7615214586257935	1.648421049118042	4.00772500038147	0.6695588827133179	1.8835666179656982	3.5523741245269775	1.6068407893180847	-0.004005551338195801	-0.0006023645401000977	-0.1794581413269043	0.8955487459897995	-0.17257320880889893	-0.762162446975708	-1.0768404006958008	0.7625919431447983	2.2721128463745117	0.43480461835861206	2.3277528285980225	0.806854248046875	-1.5961065292358398	1.031178379431367	0.5699836611747742	-0.23620271682739258	2.290205240249634	-1.2611126899719238	1.1007185205817223	-0.7624626159667969	0.2228848934173584	0.7043583393096924	2.28169047832489	0.883400447666645	0.826496347784996	2.914865016937256	0.722467690706253	0.7778333127498627	0.018389344215393066	0.1278364658355713	0.8547942936420441	2.215368390083313	0.8553439825773239	2.5669132471084595	0.15825730562210083	1.8065206408500671	1.6747589707374573	0.7470948994159698	1.9019429683685303	1.399979591369629	1.4997774362564087	1.946409285068512	0.9061160832643509	1.6668333411216736	2.57500958442688	0.04263150691986084	0.9704441111534834	-0.9623703956604004	0.9604219645261765	0.8373721688985825	-0.08082091808319092	0.8585781455039978	2.069980502128601	0.12712949514389038	1.0642326325178146	0.5937040150165558	1.2389894872903824	0.2032945156097412	0.56932732462883	1.24738310277462	2.2222414016723633	0.7054706513881683	0.3024969696998596	3.708972692489624	1.0836818218231201	1.637037217617035	0.3075580596923828	1.6921001076698303	-0.05469834804534912	0.8233136385679245	0.03799015283584595	3.135370969772339	2.959617257118225	1.3122801780700684	0.5946374833583832	1.0851003304123878	1.599305272102356	1.2076699882745743	2.060256004333496	1.9426155090332031	0.8662223666906357	2.079736590385437	1.2273224741220474	2.339415669441223	1.3148961067199707	1.3318473100662231	2.162955164909363	1.6797534823417664	0.3847542405128479	0.3913646340370178	1.5006062388420105	1.8060343265533447	1.9556556940078735	0.7038891613483429	1.2193426191806793	-0.3088111877441406	0.45122426748275757	2.1933188438415527	1.2437329441308975	0.5335571467876434	2.251611590385437	-0.20835483074188232	0.39997923374176025	3.0663938522338867	1.1349999010562897	1.1977878659963608	0.5932247340679169	2.001120686531067	2.4491387605667114	0.95371088758111	0.8609231114387512	0.034446775913238525	0.2713842988014221	-0.453702449798584	1.1816192269325256	1.0220189709216356	0.915474146604538	-2.3719794750213623	0.40475600957870483	1.6614798307418823	1.1146296337246895	2.774673342704773	2.9343873262405396	1.5233201384544373	0.862620934844017	1.1047798618674278	0.4485333561897278	0.12828713655471802	2.077093482017517	1.68123060464859	-1.138657569885254	1.309522420167923	0.22512727975845337	1.0660434290766716	1.8528915047645569	0.8252573907375336	0.7159608602523804	1.3039188086986542	1.319364756345749	-0.8954043388366699	0.9233998507261276	2.0724624395370483	0.41406530141830444	-0.2615327835083008	1.2303337156772614	0.7107383012771606	-0.75702965259552	1.0806418880820274	-0.33681392669677734	2.613379955291748	2.4600144624710083	1.649010956287384	0.016221046447753906	3.1921441555023193	1.6245949268341064	2.839577078819275	1.186198577284813	0.931489609181881	0.1573147177696228	0.4952170252799988	1.0863370150327682	-0.25743210315704346	1.0240364596247673	1.0633597075939178	1.0282431952655315	2.113723397254944	1.0967906042933464	1.5017502307891846	0.5437261760234833	2.557499051094055	-0.3405407667160034	0.48176056146621704	-0.2421804666519165	0.8360748738050461	-0.47391748428344727	-0.5918002128601074	0.3700318932533264	2.4067015647888184	-0.3554636240005493	1.6202313899993896	0.3928043246269226	1.902117371559143	-0.35707294940948486	1.6071293354034424	1.0996266901493073	0.7564024925231934	0.23676180839538574	2.560667872428894	0.878716804087162	0.38037246465682983	0.6372649073600769	2.4990097284317017	2.3214820623397827	0.9502454623579979	0.3422055244445801	-0.8213680982589722	-0.3468766212463379	1.9834080338478088	0.961936429142952	1.8766050934791565	0.68728306889534	0.07623153924942017	0.025352835655212402	2.9878745079040527	0.565853625535965	0.01661020517349243	1.7748516201972961	0.38325124979019165	1.1585204750299454	-0.3659449815750122	1.6345824003219604	1.1093348562717438	2.2110549211502075	0.04401564598083496	-0.010858416557312012	1.0383532904088497	-0.45020782947540283	-0.24323534965515137	1.3333857655525208	1.7464807033538818	1.0203807912766933	2.726112723350525	-0.977705717086792	-0.7881568670272827	-26.148679733276367	1.9489609003067017	-0.07506120204925537	0.36160963773727417	3.2383270263671875	1.9076593518257141	0.026554346084594727	1.8693954348564148	2.9692822694778442	-0.4019908905029297	1.4406260550022125	-0.9267405271530151	-2.1828362941741943	-0.42614948749542236	1.0662031397223473	2.9201260805130005	1.4235298335552216	0.01545637845993042	1.0538357384502888	0.7491973638534546	0.8227341771125793	1.5139212012290955	2.4636483192443848	-0.01966238021850586	-0.5559890270233154	-0.44716501235961914	0.14311003684997559	1.3092764019966125	1.0545725710690022	1.3901694416999817	-0.7199063301086426	-0.04469168186187744	-0.1602245569229126	1.6124125123023987	0.6165980398654938	-0.6138267517089844	1.5418649315834045	0.7244909703731537	0.13765394687652588	1.9167465567588806	0.9873744249343872	-1.1461634635925293	2.034951329231262	1.1962225586175919	1.0937535464763641	1.3124187290668488	1.864240288734436	1.9535693526268005	1.8472410440444946	0.01311415433883667	2.9695606231689453	0.656562328338623	2.0809104442596436	1.2693207561969757	-1.2133264541625977	2.4869561195373535	1.96365886926651	1.8404452800750732	-0.13495874404907227	1.0968614891171455	2.2201550006866455	0.4780505895614624	1.942527174949646	2.4173238277435303	0.12958163022994995	0.6552773118019104	1.6161564588546753	-0.05491209030151367	0.8251587450504303	2.6449990272521973	-0.5198245048522949	2.3875129222869873	3.1641998291015625	0.15618836879730225	1.672567367553711	0.7236773073673248	0.7616483271121979	2.0394054651260376	1.574824869632721	1.5476822257041931	0.7864715158939362	1.232292115688324	3.345640182495117	0.9440576918423176	0.3856402039527893	1.2132561802864075	-0.1984570026397705	1.1248566880822182	0.03211688995361328	0.15671992301940918	1.6241391897201538	0.4699491262435913	2.015800356864929	1.3053912222385406	1.957004189491272	1.8456339240074158	0.8042860627174377	2.0111359357833862	2.0237940549850464	1.7824901938438416	0.4882904291152954	1.9522919058799744	0.25951653718948364	2.881182909011841	1.9766273498535156	-0.29869604110717773	1.7096595168113708	1.1607570499181747	1.1360656470060349	0.7254484593868256	1.1115435436367989	2.2608509063720703	1.2214024066925049	1.8508446216583252	0.8164260536432266	0.22157788276672363	0.6137083768844604	2.436172366142273	1.225022792816162	0.09997886419296265	0.3109634518623352	1.718130886554718	1.050883688032627	2.2086397409439087	0.7207976579666138	2.776662826538086	1.4456534385681152	1.148637369275093	1.9262340068817139	2.4451457262039185	0.891070194542408	1.4351853430271149	2.0783631801605225	2.1787177324295044	1.64052814245224	-0.22047865390777588	1.8126955032348633	0.21231931447982788	0.16750812530517578	-0.5085285902023315	0.46267467737197876	0.9646405056118965	1.398487001657486	0.9778236076235771	0.1657165288925171	0.5883806347846985	2.1717723608016968	1.3015954196453094	1.0997324883937836	0.5177779495716095	0.32465630769729614	1.1574226319789886	3.176164150238037	-0.8567721843719482	1.161932036280632	3.760331392288208	-0.4869351387023926	0.32564276456832886	2.4953290224075317	0.1369396448135376	1.8738369345664978	0.2316632866859436	0.27653366327285767	0.8124129623174667	-0.7233463525772095	-0.03256237506866455	1.380617916584015	1.254685789346695	0.4612031579017639	1.7279137969017029	0.300803542137146	1.6850633025169373	1.0978092923760414	0.44833099842071533	0.6757776439189911	0.5897983610630035	1.1058998331427574	-0.2285914421081543	1.5411973595619202	1.3402386009693146	0.8885667249560356	1.620327651500702	1.4884133338928223	1.2874468564987183	1.1717025190591812	1.3178386092185974	1.6422696113586426	1.4112136960029602	0.9106101393699646	-0.6517719030380249	1.826188087463379	-0.45300722122192383	1.5937712788581848	0.9908938789740205	-0.07718002796173096	1.3967686891555786	0.4334121346473694	1.7205700278282166	0.10473692417144775	0.7019258737564087	1.729527473449707	3.1249468326568604	1.070938877761364	0.2735901474952698	0.3458680510520935	1.9256808757781982	0.1366686224937439	0.11025393009185791	1.9645094275474548	0.5151594877243042	0.022887229919433594	1.5150212049484253	2.8496841192245483	0.6656245291233063	1.2812182307243347	0.5176722407341003	0.14658373594284058	0.9905991051346064	1.0952280014753342	0.8514901250600815	1.9086231589317322	2.614345073699951	1.3414623439311981	1.0824083611369133	1.2128914892673492	1.724937081336975	0.06736564636230469	0.002606332302093506	2.325058937072754	0.6461129486560822	1.163317695260048	2.1856905221939087	3.1127047538757324	1.4147960841655731	0.9751702733337879	-0.31229865550994873	0.3737887740135193	-0.3472994565963745	3.1791138648986816	2.03462815284729	0.31363511085510254	1.1679255366325378	0.055522143840789795	2.5849205255508423	0.6083035469055176	1.8625349402427673	-0.6156903505325317	1.0434668771922588	0.6769544780254364	1.9309066534042358	22.811429977416992	1.3155585527420044	1.0179120730608702	0.8703189641237259	1.3787324726581573	1.3523257970809937	1.5581815838813782	2.7507312297821045	1.4073238372802734	2.061380386352539	0.9931633216328919	2.6227978467941284	2.2497968673706055	0.47230809926986694	1.0824043452739716	1.6535372138023376	0.605617344379425	0.9307676255702972	2.2720853090286255	2.123865008354187	0.4665101170539856	1.1897121518850327	0.8937373384833336	1.1804599612951279	0.5109982490539551	1.448685646057129	1.0775998085737228	-0.7252122163772583	1.076026789844036	0.8983226269483566	0.7773683071136475	0.9472027271986008	1.2999325692653656	1.9154056906700134	0.06990015506744385	0.7111672461032867	2.167794108390808	1.9545609951019287	-0.35360562801361084	0.1318603754043579	1.9506869912147522	2.2563058137893677	-0.25969648361206055	0.7640767097473145	0.7501142472028732	1.5962028503417969	-1.045020341873169	1.6536602973937988	0.8001250326633453	-0.467238187789917	-0.21311843395233154	2.875056743621826	1.3834911584854126	0.45363849401474	2.152363657951355	0.13011527061462402	0.42609167098999023	0.5553027391433716	0.09679609537124634	1.2397509962320328	1.1548589169979095	0.9760907050222158	1.4617556631565094	2.0044071674346924	0.22357887029647827	1.3158274590969086	1.3793399930000305	1.2032443434000015	1.6500975489616394	-1.0296838283538818	0.34245389699935913	1.0318529643118382	0.4885614514350891	2.3656286001205444	0.6943645477294922	0.9405294321477413	0.9001133218407631	0.7362493574619293	0.9618896283209324	3.281613349914551	2.6592713594436646	0.8743550330400467	1.1677846312522888	0.6457892060279846	1.6127780675888062	0.5172119438648224	2.4419718980789185	1.5419681072235107	3.005028247833252	2.2706878185272217	6.545835971832275	-0.06399118900299072	0.5141129791736603	-0.051973938941955566	1.0278072413057089	1.6927318572998047	0.5807771682739258	2.5649322271347046	0.9124245420098305	0.6447698771953583	1.6450944542884827	0.4361097812652588	1.5946570038795471	1.8750786185264587	1.836975872516632	1.5342386364936829	0.004437267780303955	2.510018229484558	0.40450823307037354	-0.36400115489959717	1.212389960885048	0.06519126892089844	2.582406997680664	0.9629470594227314	2.78014600276947	-1.6618077754974365	1.1667501032352448	0.9695209693163633	3.0115575790405273	2.0898072719573975	0.34929561614990234	1.4911774396896362	1.2693102657794952	0.37555134296417236	0.8194395005702972	1.7954845428466797	-0.23844444751739502	1.044507309794426	2.1083450317382812	1.1933488696813583	1.653272807598114	-1.8989100456237793	-0.18555152416229248	1.5236638188362122	2.591399312019348	1.1589615792036057	1.0412062965333462	2.0637474060058594	1.3382289707660675	2.753107786178589	-0.2047795057296753	2.283849596977234	-0.30144989490509033	1.518964946269989	1.1429196447134018	0.5543539822101593	1.8205692768096924	0.2356676459312439	1.1388739943504333	2.5339773893356323	2.1473411321640015	0.3642563819885254	0.28567421436309814	0.8441097438335419	-0.8760284185409546	0.13640600442886353	-0.15795493125915527	0.5341819524765015	-0.2133108377456665	-0.11577653884887695	1.752051591873169	1.229199841618538	3.4519782066345215	2.2543751001358032	2.3855420351028442	-1.162266731262207	1.2136806845664978	1.4262036979198456	0.2373637557029724	1.0067923609167337	1.0542235597968102	-0.7053177356719971	0.73131462931633	-0.1648494005203247	2.3138980865478516	0.8968238607048988	0.5437830984592438	2.0065948963165283	0.11728501319885254	-0.34329116344451904	0.6295498907566071	0.9384464472532272	0.13201123476028442	1.801636517047882	-0.27795088291168213	2.0207371711730957	1.1089606210589409	1.2793319523334503	1.1714045405387878	2.046418309211731	1.9599717855453491	-0.5553971529006958	0.7014235258102417	1.6533727049827576	1.3217544257640839	-0.362939715385437	0.4007689356803894	2.0551382303237915
