label	0	1	2	3	4	5	6	7	8	9	10	11	12	13	14	15	16	17	18	19	20	21	22	23	24	25	26	27	28	29	30	31	32	33	34	35	36	37	38	39	40	41	42	43	44	45	46	47	48	49	50	51	52	53	54	55	56	57	58	59	60	61	62	63	64	65	66	67	68	69	70	71	72	73	74	75	76	77	78	79	80	81	82	83	84	85	86	87	88	89	90	91	92	93	94	95	96	97	98	99	100	101	102	103	104	105	106	107	108	109	110	111	112	113	114	115	116	117	118	119	120	121	122	123	124	125	126	127	128	129	130	131	132	133	134	135	136	137	138	139	140	141	142	143	144	145	146	147	148	149	150	151	152	153	154	155	156	157	158	159	160	161	162	163	164	165	166	167	168	169	170	171	172	173	174	175	176	177	178	179	180	181	182	183	184	185	186	187	188	189	190	191	192	193	194	195	196	197	198	199	200	201	202	203	204	205	206	207	208	209	210	211	212	213	214	215	216	217	218	219	220	221	222	223	224	225	226	227	228	229	230	231	232	233	234	235	236	237	238	239	240	241	242	243	244	245	246	247	248	249	250	251	252	253	254	255	256	257	258	259	260	261	262	263	264	265	266	267	268	269	270	271	272	273	274	275	276	277	278	279	280	281	282	283	284	285	286	287	288	289	290	291	292	293	294	295	296	297	298	299	300	301	302	303	304	305	306	307	308	309	310	311	312	313	314	315	316	317	318	319	320	321	322	323	324	325	326	327	328	329	330	331	332	333	334	335	336	337	338	339	340	341	342	343	344	345	346	347	348	349	350	351	352	353	354	355	356	357	358	359	360	361	362	363	364	365	366	367	368	369	370	371	372	373	374	375	376	377	378	379	380	381	382	383	384	385	386	387	388	389	390	391	392	393	394	395	396	397	398	399	400	401	402	403	404	405	406	407	408	409	410	411	412	413	414	415	416	417	418	419	420	421	422	423	424	425	426	427	428	429	430	431	432	433	434	435	436	437	438	439	440	441	442	443	444	445	446	447	448	449	450	451	452	453	454	455	456	457	458	459	460	461	462	463	464	465	466	467	468	469	470	471	472	473	474	475	476	477	478	479	480	481	482	483	484	485	486	487	488	489	490	491	492	493	494	495	496	497	498	499	500	501	502	503	504	505	506	507	508	509	510	511	512	513	514	515	516	517	518	519	520	521	522	523	524	525	526	527	528	529	530	531	532	533	534	535	536	537	538	539	540	541	542	543	544	545	546	547	548	549	550	551	552	553	554	555	556	557	558	559	560	561	562	563	564	565	566	567	568	569	570	571	572	573	574	575	576	577	578	579	580	581	582	583	584	585	586	587	588	589	590	591	592	593	594	595	596	597	598	599	600	601	602	603	604	605	606	607	608	609	610	611	612	613	614	615	616	617	618	619	620	621	622	623	624	625	626	627	628	629	630	631	632	633	634	635	636	637	638	639	640	641	642	643	644	645	646	647	648	649	650	651	652	653	654	655	656	657	658	659	660	661	662	663	664	665	666	667	668	669	670	671	672	673	674	675	676	677	678	679	680	681	682	683	684	685	686	687	688	689	690	691	692	693	694	695	696	697	698	699	700	701	702	703	704	705	706	707	708	709	710	711	712	713	714	715	716	717	718	719	720	721	722	723	724	725	726	727	728	729	730	731	732	733	734	735	736	737	738	739	740	741	742	743	744	745	746	747	748	749	750	751	752	753	754	755	756	757	758	759	760	761	762	763	764	765	766	767	768
lodare_2	4.877067565917969	4.403318166732788	0.4563921093940735	0.9456268548965454	1.1504461765289307	3.8689346313476562	1.2597700357437134	-7.284059524536133	2.6016359329223633	1.1748140305280685	0.4453481435775757	0.09377795457839966	2.925774574279785	2.163025736808777	2.8507513999938965	0.35269689559936523	2.5310148000717163	-0.8698033094406128	0.9183985814452171	0.7645778805017471	1.4265824258327484	2.4030145406723022	-0.8158468008041382	-1.7487480640411377	0.4757879376411438	0.6019567251205444	0.9539257697761059	3.039975881576538	-1.1101758480072021	-0.0987558364868164	-1.141798973083496	0.41880887746810913	1.1580156087875366	2.1043366193771362	2.918487071990967	3.3389079570770264	1.3909583389759064	1.9554035067558289	4.115638971328735	-1.1346323490142822	1.423431009054184	1.0486716218292713	3.1547372341156006	1.414424568414688	1.487924575805664	-14.976208686828613	1.0610174350440502	0.5577960014343262	1.1523756384849548	3.187217950820923	0.9604203402996063	0.8013371378183365	2.566831946372986	3.85726261138916	1.5986347794532776	0.0894508957862854	2.4564061164855957	0.2470223307609558	-1.252354383468628	2.5486388206481934	-0.4755054712295532	0.8124024868011475	0.17908746004104614	3.526334524154663	0.8973076567053795	-1.138000249862671	-2.942866086959839	1.7181127667427063	2.46868097782135	-0.37562644481658936	0.4849836230278015	-0.8800500631332397	-3.0073647499084473	-1.9262008666992188	0.972035164013505	2.607547879219055	2.383955478668213	4.6311585903167725	3.154989242553711	2.9276851415634155	2.951635241508484	4.433041334152222	2.679139494895935	1.58882474899292	0.5987980663776398	0.5143958628177643	-0.16665756702423096	-2.6104259490966797	0.2949380874633789	-0.417746901512146	1.440986007452011	5.72880220413208	0.040344297885894775	2.576592803001404	1.3807189762592316	0.7749664038419724	2.843476176261902	0.09415668249130249	2.1341651678085327	1.598374366760254	-0.3349190950393677	1.7954891324043274	-4.644124507904053	0.2831721305847168	4.010190010070801	2.001928448677063	-3.926604747772217	1.5348413586616516	-1.9742059707641602	-1.7980918884277344	1.4308748245239258	1.7872314453125	3.8241207599639893	1.0633598566055298	1.0758798494935036	2.0628299713134766	1.5057359337806702	2.1883060932159424	2.9315468072891235	1.950134038925171	2.305024027824402	0.9741148147732019	0.6799447536468506	3.269862651824951	1.2374411076307297	-4.2425994873046875	3.469440221786499	-0.9326332807540894	-3.674622058868408	1.0787750855088234	-1.1180088520050049	4.669275999069214	-0.6346944570541382	-0.433346152305603	-2.518008232116699	-0.2500408887863159	0.5814705789089203	0.3533053994178772	1.1227830275893211	1.1825410574674606	2.3205877542495728	0.15072345733642578	-1.3921945095062256	-1.4479715824127197	3.8896148204803467	1.9923617839813232	0.48698967695236206	0.442657470703125	-0.3371896743774414	0.4614725708961487	-1.3423373699188232	3.3837010860443115	2.6967209577560425	2.2994073629379272	1.8230388760566711	1.0919097289443016	1.6666077375411987	2.869264006614685	1.1068898811936378	3.5717456340789795	-0.08327245712280273	3.4308676719665527	1.778547465801239	2.6781972646713257	-1.3428080081939697	0.913704551756382	0.18764203786849976	4.297825813293457	3.2599728107452393	-0.050493597984313965	0.7670117169618607	1.3511981070041656	5.202096939086914	2.718802809715271	0.7502800077199936	0.12844020128250122	0.5312129557132721	2.815083384513855	3.783418893814087	0.05684393644332886	2.080178141593933	0.8470517694950104	-2.6425180435180664	1.571537733078003	-3.4107789993286133	2.00597608089447	0.9162141904234886	-1.4386036396026611	1.459705501794815	-2.251781702041626	4.170666456222534	-3.337404727935791	-0.06113564968109131	3.057199239730835	1.9469051957130432	2.959208607673645	0.8523321151733398	-0.3865095376968384	2.6358543634414673	3.8073816299438477	1.9876923561096191	-0.1433507204055786	3.4838597774505615	2.883987545967102	-1.3589835166931152	1.911567509174347	-3.410646915435791	6.292794704437256	1.9143722653388977	2.9191904067993164	4.644421815872192	2.7970651388168335	-1.8211631774902344	1.4800121486186981	0.4649694561958313	-0.45011937618255615	-0.9365392923355103	4.6086509227752686	1.9338851571083069	2.6503719091415405	-0.935481071472168	2.1663341522216797	0.5811231136322021	-0.3523918390274048	-1.277533769607544	4.333126068115234	-1.1255123615264893	0.9723262190818787	-2.459505081176758	3.7474632263183594	0.9464993886649609	2.3058570623397827	3.0960941314697266	-1.2957391738891602	0.8026329725980759	3.8437607288360596	-1.0850636959075928	1.7117359042167664	1.4515011608600616	1.1558106690645218	2.5155690908432007	1.4566384851932526	0.24273920059204102	0.6242789328098297	0.15537124872207642	1.4687659740447998	1.5190322995185852	1.8759281635284424	4.5373992919921875	5.2889628410339355	1.8683602213859558	4.200502634048462	-1.257140874862671	0.4764719605445862	2.3995370864868164	-3.09898042678833	2.5922956466674805	-3.2256999015808105	0.26178526878356934	-1.8426802158355713	1.5143133997917175	-0.07016909122467041	1.0444189719855785	1.5637220740318298	0.4773731827735901	1.4953688383102417	-1.9459121227264404	0.6886217594146729	-1.7309210300445557	1.250963807106018	-0.2123349905014038	-1.8281211853027344	0.8714104890823364	2.5268279314041138	4.5022547245025635	2.3991823196411133	3.362623691558838	1.6105040907859802	1.8231797218322754	1.735215187072754	1.1030712127685547	1.1323223561048508	2.2482391595840454	0.3455634117126465	-0.16830050945281982	3.89546275138855	1.3644790351390839	0.10330027341842651	-0.3196905851364136	2.5289173126220703	5.426361083984375	-1.0665466785430908	-0.7168914079666138	0.13917255401611328	1.7180129885673523	0.13373523950576782	-0.32038938999176025	-3.438694953918457	-1.893427848815918	-0.2861403226852417	1.5235291719436646	-0.916765570640564	0.8511674553155899	0.06662148237228394	3.641888380050659	0.8176345825195312	-1.0992062091827393	1.0733867064118385	3.2891480922698975	1.113219678401947	-1.6779851913452148	-0.2551623582839966	-0.3369159698486328	2.686775803565979	2.5339328050613403	2.3729939460754395	5.040013790130615	-0.08207571506500244	-2.6669797897338867	0.14695507287979126	-16.16010284423828	2.387210965156555	-1.8676059246063232	3.4801132678985596	2.539437770843506	0.9798381719738245	1.0534500293433666	2.0921053886413574	-0.8049882650375366	0.5686626732349396	1.6222779750823975	-0.3191782236099243	-6.658365249633789	1.86666339635849	-1.5862388610839844	1.3785726130008698	-1.0933599472045898	-0.9495300054550171	2.0978198051452637	0.5832491815090179	2.5735450983047485	2.2571312189102173	5.251173973083496	1.877265453338623	2.976216197013855	-2.3164894580841064	3.5348331928253174	-1.1193530559539795	2.363608241081238	2.1972800493240356	3.3984923362731934	-0.7422770261764526	0.7529778927564621	4.643567323684692	0.42380136251449585	-0.31716346740722656	-0.22723805904388428	-1.782466173171997	-0.32449495792388916	1.187933325767517	4.278118133544922	1.5375730395317078	2.3201009035110474	1.3785524368286133	0.7771139144897461	-1.4933216571807861	0.975436994805932	1.4028163850307465	1.1804537177085876	-1.2855148315429688	1.8971347212791443	0.29006272554397583	5.205201625823975	1.8361510634422302	1.366282343864441	0.4383133053779602	-0.6129893064498901	2.658319115638733	0.9912726879119873	-1.5543148517608643	1.0423480086028576	-0.028304100036621094	1.3167771100997925	1.1070767268538475	3.3924319744110107	3.5770246982574463	-0.9766044616699219	3.3400397300720215	0.760679617524147	-0.11777186393737793	2.1147156953811646	-1.0271127223968506	1.6761672496795654	2.0832810401916504	-1.4095582962036133	1.8094868659973145	2.0429372787475586	1.663421869277954	3.856605291366577	-1.4405100345611572	0.6991744339466095	0.41293585300445557	0.17176789045333862	0.7226013839244843	1.7531364560127258	-2.16500186920166	0.3566461205482483	0.28932905197143555	-1.4214701652526855	-1.2724945545196533	0.5035834312438965	0.9513736180961132	2.661132335662842	1.7227432131767273	-2.148226737976074	-0.029256224632263184	2.124215245246887	-0.2867778539657593	-0.8744674921035767	1.2078307121992111	4.26998233795166	3.3606464862823486	0.5820266306400299	2.856801390647888	1.1301753968000412	0.4430426359176636	1.751537799835205	3.940239906311035	2.730672240257263	0.12976932525634766	0.08075827360153198	1.1772095710039139	3.6249325275421143	1.352274626493454	2.4044198989868164	-2.637099266052246	0.9585210271179676	0.4814140796661377	2.3194081783294678	-2.5266964435577393	0.12751537561416626	-0.2873086929321289	1.8417561650276184	3.965238571166992	-1.5408120155334473	2.205903172492981	2.3752599954605103	0.8847589865326881	1.7037031650543213	4.652131795883179	0.214191734790802	-1.8629388809204102	1.2376585751771927	1.341754287481308	3.1789798736572266	0.9161441922187805	1.2312145978212357	0.5506210327148438	3.053316354751587	-2.612520217895508	-1.0060322284698486	4.07387900352478	-0.25454211235046387	2.661924362182617	1.3850565254688263	-0.046753764152526855	0.0021254420280456543	2.6645907163619995	-1.0627484321594238	1.131009355187416	2.111495614051819	-0.23776483535766602	1.9213394522666931	0.4478238821029663	1.9825613498687744	0.9267674908041954	1.2632876336574554	3.4532830715179443	-1.7388794422149658	0.059236228466033936	0.972098907455802	0.44804543256759644	1.7165380120277405	2.8568660020828247	-1.1096770763397217	3.008504867553711	0.21322107315063477	3.0910630226135254	1.0174107551574707	-1.6791737079620361	1.5763958096504211	2.301493763923645	5.023376941680908	-1.036055326461792	-4.825603485107422	-0.9513136148452759	-1.6226348876953125	-1.387967824935913	2.0038026571273804	3.048328399658203	1.306904524564743	3.308847188949585	0.46745800971984863	0.84563148021698	4.271984100341797	2.2467070817947388	2.2872281074523926	0.4206579327583313	0.46747201681137085	0.2531903386116028	5.701240539550781	0.7997065633535385	1.5421753525733948	2.20319402217865	0.6550935506820679	-0.37132883071899414	-1.3774981498718262	0.23392122983932495	1.0739928111433983	-5.138601779937744	4.636307954788208	0.4055092930793762	1.374632865190506	-0.1781914234161377	-1.353104591369629	0.6434006989002228	-1.1236205101013184	2.0332483053207397	2.1812630891799927	1.6335840225219727	0.04555016756057739	2.1908830404281616	1.6696159839630127	2.520448327064514	1.510591447353363	-1.4249866008758545	-1.8479392528533936	0.7576907724142075	1.9161086678504944	-0.6938637495040894	-1.5954103469848633	3.4564292430877686	2.5459309816360474	0.9547543413937092	3.475735902786255	2.2245744466781616	0.6543510258197784	-6.494363784790039	1.587743878364563	-0.003966212272644043	-0.1197580099105835	1.6765182614326477	2.6060270071029663	2.7403076887130737	0.8276180028915405	1.591352105140686	0.9223727360367775	1.3012630939483643	1.104659080505371	3.1500136852264404	0.5233554840087891	0.053877830505371094	2.9197206497192383	-0.029462695121765137	-0.5329443216323853	1.229917898774147	-3.1445765495300293	-3.0585670471191406	1.534853458404541	3.4952423572540283	18.948471069335938	1.0579179525375366	1.5491852164268494	-2.1180622577667236	1.981626808643341	-0.03231370449066162	4.182562589645386	3.7261970043182373	-0.27032434940338135	1.7889863848686218	2.1940382719039917	-0.4083646535873413	-1.1112337112426758	1.2268376350402832	1.019156476482749	3.6604459285736084	-2.634638547897339	0.11553829908370972	2.3299877643585205	1.5206131339073181	2.354268431663513	-0.22514116764068604	4.349841356277466	2.4657927751541138	1.6122757196426392	1.7541229128837585	1.9333552718162537	3.230036497116089	1.5339296460151672	3.138284921646118	-0.06914901733398438	3.127875328063965	-0.10119783878326416	-1.4531893730163574	-1.4347364902496338	0.8402354270219803	0.5136492550373077	3.74487566947937	0.06286698579788208	1.6764514446258545	-3.2266087532043457	0.8510460406541824	-0.35592496395111084	-1.200883150100708	-0.8488296270370483	1.5719754695892334	-4.986063480377197	1.5714026093482971	4.72301983833313	0.8514153510332108	2.532220482826233	1.6687142848968506	2.3261375427246094	3.401402711868286	2.9841365814208984	0.6844793856143951	0.3611595034599304	1.3663769662380219	1.1561309844255447	0.441578209400177	-1.0103733539581299	3.6716487407684326	3.0044002532958984	0.4120839238166809	0.5935671031475067	-0.990602970123291	1.557470679283142	2.1212244033813477	1.4146097004413605	0.7921227067708969	-2.8982791900634766	1.7630395889282227	1.324653297662735	0.41157346963882446	2.2487430572509766	1.6907740235328674	1.12592251598835	3.204352378845215	1.8951753973960876	1.1584662348031998	0.5803784132003784	0.189472496509552	-2.3702995777130127	0.7631487846374512	1.3934592306613922	-0.5202146768569946	2.024312138557434	-1.3754127025604248	1.6732738614082336	0.07544809579849243	13.419644355773926	1.1226952895522118	-0.6901906728744507	-1.1432206630706787	3.629492998123169	0.26140666007995605	2.103347659111023	2.3416624069213867	-0.7295322418212891	3.7730798721313477	2.2768889665603638	1.3114345967769623	1.5533472895622253	3.326448440551758	1.3875904977321625	2.212220072746277	1.3874048292636871	3.2171990871429443	0.6246791183948517	0.15630632638931274	3.969744920730591	2.25725519657135	2.4106879234313965	1.239550068974495	3.243964195251465	-1.6008219718933105	1.6280705332756042	-1.5000014305114746	5.618013381958008	0.6689408123493195	3.588094711303711	3.823528528213501	6.388678073883057	1.0066555342637002	-1.553720235824585	-2.068171739578247	2.3112818002700806	3.364506483078003	1.1171526685357094	0.8179965764284134	3.2649829387664795	-4.176232814788818	0.11188489198684692	2.3987642526626587	-0.3470832109451294	0.9399205856025219	1.8776710629463196	-1.1262259483337402	2.70335590839386	1.6467202305793762	0.9325449839234352	4.308620452880859	-2.0495710372924805	2.687838077545166	0.8563008308410645	1.4748412072658539	1.6853272318840027	0.6654659807682037	1.372556447982788	0.9455633349716663	1.8964192867279053	1.9673568606376648	2.6599663496017456	-1.8480331897735596	-3.0040555000305176	0.16048258543014526	-0.27850639820098877	0.35561054944992065	3.1840198040008545	0.8706166744232178	-0.5981454849243164	1.3346818387508392	-0.03016364574432373	2.0815151929855347	2.6623111963272095	-2.3649098873138428	1.3395724296569824	1.3102465569972992	1.0808983072638512	-1.9112892150878906	2.0250083208084106	3.5358994007110596	1.9371223449707031	3.0457475185394287	2.995954394340515	-2.646334409713745	1.480523556470871	-1.3197295665740967	3.0042126178741455	2.7700031995773315	1.9601373672485352	0.9855931596830487	2.538447380065918	-0.7118839025497437	0.4581882953643799	3.2856366634368896	3.09598708152771	3.6341381072998047	-1.051900863647461	1.7085407376289368	1.0115299625322223	-0.07184922695159912	1.706469476222992	2.4926905632019043	-0.3116403818130493	-0.19340455532073975	1.3931662142276764	0.8957142010331154
macinare_1	1.8439729809761047	1.6025463342666626	1.4371682703495026	0.24218428134918213	0.6889500021934509	1.3711064457893372	1.2915529906749725	-6.71174955368042	-2.4729201793670654	1.8217715620994568	0.21683502197265625	2.4794501066207886	2.10531485080719	1.331248939037323	0.32169264554977417	1.615362823009491	0.41366058588027954	0.871540367603302	1.744889497756958	0.3316924571990967	0.07628530263900757	3.3272135257720947	1.554402232170105	-0.8640761375427246	0.8574650287628174	-0.4660167694091797	0.7377508282661438	2.5209624767303467	1.9157848358154297	1.9791815876960754	1.8559455275535583	1.36465385556221	3.6154894828796387	3.3900535106658936	0.9355148896574974	2.7354912757873535	1.2651602029800415	0.546982616186142	0.11112940311431885	0.7062571346759796	1.0691125839948654	0.10766232013702393	2.0466039180755615	1.338348537683487	1.0074762981384993	-16.388668060302734	1.1844169050455093	2.322450876235962	-0.6625047922134399	0.9156976863741875	1.0577968135476112	-0.07495379447937012	-0.5781161785125732	-0.31229209899902344	4.556297063827515	1.4642840027809143	1.2838705778121948	0.37039482593536377	0.7453408539295197	3.609133005142212	1.4204132854938507	2.1150851249694824	0.5502230226993561	1.5460489392280579	0.3673969507217407	2.00077748298645	0.6926948726177216	0.3657571077346802	2.8187297582626343	1.6828760504722595	0.76207335293293	-0.2701359987258911	0.142197847366333	0.9250727444887161	2.183895230293274	0.9721647016704082	1.0665121376514435	1.1005217283964157	1.10847969353199	2.200209856033325	1.2791803479194641	1.4946651756763458	2.6395740509033203	1.5743919610977173	1.3407540917396545	1.0236155427992344	-0.92694091796875	-0.7210003137588501	1.464268684387207	0.8284325301647186	2.230138897895813	2.224762797355652	0.4459112882614136	-0.1945716142654419	1.753019094467163	1.3882021605968475	1.706272304058075	1.035010863095522	1.1198881343007088	2.135178327560425	0.21491187810897827	1.6463808417320251	-0.24186253547668457	-0.20807397365570068	2.117994546890259	1.483962506055832	1.154199331998825	2.2675282955169678	-0.062256455421447754	-0.5543003082275391	0.4379264712333679	0.887900747358799	3.8775837421417236	0.7549357861280441	0.42408937215805054	1.0984469652175903	1.4739006757736206	0.15134012699127197	2.1453540325164795	1.3330924212932587	0.8149077594280243	0.5028814375400543	0.8346022516489029	1.4762543141841888	0.8698141276836395	0.5456337630748749	1.7142110466957092	1.6214105486869812	0.31364262104034424	1.6286285519599915	-0.7318191528320312	1.813552737236023	0.5020755529403687	1.297848254442215	-0.05775105953216553	1.0917219892144203	0.12318092584609985	0.41198986768722534	1.6492799520492554	0.8431815207004547	0.7072615325450897	2.80186927318573	1.0965680852532387	-0.5094246864318848	1.2658778727054596	0.7241925299167633	0.356616735458374	0.3928515911102295	2.2329063415527344	0.9688710086047649	0.7462486028671265	2.1652244329452515	1.4570645689964294	0.7623584121465683	0.15158230066299438	0.8538300544023514	1.384095460176468	0.14555031061172485	1.734557867050171	2.004590630531311	0.47056418657302856	2.9297088384628296	0.6627689898014069	0.9971959192771465	-0.4071866273880005	2.147359013557434	1.1186715438961983	3.6623332500457764	0.9781444910913706	1.4091200232505798	0.10380303859710693	1.802852213382721	1.585375189781189	0.30439066886901855	1.5251266956329346	0.7838706225156784	0.2837848663330078	1.9275339245796204	1.686181664466858	2.3931307792663574	2.5294069051742554	1.6796888709068298	0.8001160174608231	0.4659230709075928	0.060760557651519775	1.2894471883773804	2.106249213218689	0.9687119275331497	1.6108316779136658	0.9177600517868996	3.090553045272827	0.21145761013031006	0.6089679896831512	0.9946662704460323	1.1062320843338966	1.0516427047550678	1.5823814272880554	2.1516435146331787	0.7463541924953461	-0.009670615196228027	1.1764293164014816	-0.028348803520202637	1.144019678235054	1.3864745199680328	0.7624064087867737	0.23650509119033813	1.8197758793830872	1.7117937803268433	0.2735328674316406	0.023819148540496826	0.993966615293175	0.9300928488373756	0.13512444496154785	2.3632246255874634	1.2094998806715012	1.1817630380392075	-0.013393759727478027	4.285771369934082	0.689676821231842	0.06024658679962158	1.8364553451538086	1.2651973962783813	1.5057945847511292	2.2984063625335693	-0.22352325916290283	-0.14925658702850342	1.1989405155181885	0.4503628611564636	-1.2429134845733643	1.232179194688797	1.2616509795188904	1.3366556465625763	1.2456579357385635	1.8909151554107666	0.576265275478363	1.0067251026630402	1.6419222354888916	1.3575259745121002	-0.33658134937286377	0.7908718585968018	-0.13996481895446777	0.278830349445343	-0.2846198081970215	1.109870083630085	1.5631847977638245	3.7802894115448	1.130699247121811	1.1854288280010223	1.4019817411899567	4.000069856643677	1.911277949810028	2.3618439435958862	0.8506407141685486	1.5136099457740784	1.894271969795227	0.7326724231243134	-0.05692338943481445	-0.14021062850952148	1.582029104232788	-0.1263638734817505	0.7084958255290985	2.1947072744369507	0.32272690534591675	0.8914325535297394	0.9593419171869755	1.6229286789894104	-0.218697190284729	-0.2864985466003418	0.07291430234909058	0.0462878942489624	0.030885636806488037	0.9594220966100693	2.1763418912887573	0.9723660629242659	2.604890465736389	2.065182328224182	1.0956241264939308	1.2784548699855804	-0.4181675910949707	0.7266215085983276	1.5773308873176575	2.378049850463867	0.44552552700042725	2.462976098060608	0.9699261281639338	1.5051590204238892	0.2208106517791748	2.4319182634353638	0.030040442943572998	1.5531471371650696	1.6423988938331604	-0.11421692371368408	-0.09317636489868164	0.11864346265792847	1.4475958943367004	1.0925282537937164	-0.38583672046661377	-0.648052453994751	-1.0059235095977783	2.5439964532852173	0.036949098110198975	2.605957865715027	2.5659983158111572	0.6227945387363434	-0.020876526832580566	0.399164080619812	0.5999126434326172	0.8592125475406647	1.6505247354507446	1.5003299713134766	1.1516237705945969	0.511522114276886	0.02546536922454834	0.6824619472026825	0.20459449291229248	2.466480851173401	1.0271370578557253	0.268729567527771	-0.8629930019378662	0.5152658522129059	-15.211097717285156	0.8333481252193451	0.08031463623046875	0.9555534869432449	2.8657686710357666	1.0108896112069488	0.2950420379638672	1.0621334873139858	1.696038007736206	-0.17231476306915283	1.2923524081707	-0.8950523138046265	-2.545365333557129	1.2925017774105072	1.1244124472141266	1.6504333019256592	1.0118039352819324	0.6459586322307587	1.373725026845932	1.1108693405985832	-0.22077131271362305	2.5786616802215576	1.369424283504486	0.04201507568359375	2.996025562286377	0.6095393896102905	1.3723507821559906	1.8172494769096375	2.2529643774032593	2.603344440460205	-0.30083930492401123	0.32837677001953125	0.5319727063179016	1.3264835178852081	0.3318774104118347	0.09069037437438965	1.8133162260055542	0.7434046566486359	0.1990179419517517	-0.06464815139770508	0.4083000421524048	1.045772973448038	1.9708969593048096	1.2997195422649384	0.4829362630844116	0.9738988485187292	0.9862461490556598	2.0077850818634033	1.6469878554344177	1.6116347908973694	0.031831979751586914	2.1528871059417725	1.096913918852806	2.5590717792510986	0.4752407670021057	0.6740032434463501	2.484942078590393	3.3005969524383545	2.3724191188812256	2.0726250410079956	0.9489638209342957	0.49829477071762085	1.0538345910608768	0.9196127206087112	1.3819486498832703	1.5113064646720886	-0.6897776126861572	-0.5077075958251953	-1.6550562381744385	1.1974177807569504	0.1360412836074829	1.1452522575855255	1.9238993525505066	-0.2335754632949829	0.8761824741959572	1.5813063383102417	1.5830498933792114	0.6897691488265991	1.096666805446148	-0.19215428829193115	-0.5068697929382324	1.0189331769943237	0.216447651386261	1.0695330575108528	1.0780979171395302	0.9037187397480011	-0.05493950843811035	1.256942331790924	0.6867019236087799	-1.0727076530456543	0.24726992845535278	1.3021836876869202	2.1723533868789673	3.0201408863067627	0.6213648915290833	1.1644206643104553	1.6497997045516968	1.628523588180542	1.0072267432697117	0.7999336272478104	-0.3716977834701538	2.64469575881958	1.510999619960785	1.1064916923642159	2.4588268995285034	0.967511497437954	0.9826671276241541	2.6694490909576416	0.9167697802186012	-0.12936437129974365	1.112471841275692	1.590930700302124	0.3484742045402527	2.808030843734741	0.9998258074192563	-0.07738721370697021	-0.7791095972061157	1.4723405838012695	0.5284064710140228	0.4779752492904663	-0.8539320230484009	1.118988275527954	1.4784888327121735	2.7053229808807373	-0.37747013568878174	1.4853756725788116	0.8932265043258667	3.041050910949707	1.8387094140052795	2.7541383504867554	-0.6352492570877075	2.878203272819519	1.9047712683677673	3.4563803672790527	1.9929484128952026	-0.7375398874282837	1.9357318878173828	0.0732375979423523	0.43485671281814575	-2.389834403991699	1.0723016262054443	-0.0035043954849243164	2.088307738304138	1.3547364473342896	1.118150383234024	-0.18192827701568604	1.9925687313079834	0.496567964553833	2.188198447227478	2.06938099861145	1.8986876606941223	1.3144226670265198	1.9228687286376953	-0.10161888599395752	1.4716380536556244	2.0678133964538574	1.2432624250650406	-0.010174989700317383	1.6974043250083923	1.3208869099617004	1.5698845982551575	0.6815293729305267	1.1900965571403503	2.1681302785873413	-1.7022197246551514	2.4040935039520264	1.336895912885666	0.44939351081848145	0.12762141227722168	1.2700507938861847	0.48788923025131226	1.6190484762191772	0.7175069451332092	0.16279488801956177	-2.556103229522705	-0.2755260467529297	0.5350469946861267	-0.3495672941207886	1.369040608406067	3.5680549144744873	0.8493898659944534	0.5658867657184601	2.4183465242385864	0.4340895414352417	1.7301677465438843	-0.30614161491394043	1.3025820851325989	1.1543036848306656	0.8321783244609833	-0.1166454553604126	3.942958354949951	0.7866662591695786	3.1814587116241455	1.5785319209098816	1.4497182071208954	0.6026932001113892	1.3740512430667877	1.3764968812465668	0.6876646280288696	-1.7800230979919434	0.44777411222457886	3.3669393062591553	1.102506309747696	-0.826863169670105	-0.8139891624450684	1.5939475297927856	0.7655766159296036	-0.22653019428253174	2.0234514474868774	2.347072124481201	0.2427881956100464	1.3856291770935059	2.8965744972229004	2.252990961074829	1.911529004573822	0.8955654427409172	-1.1360790729522705	0.32843440771102905	-0.10408663749694824	1.4712500870227814	1.778064489364624	1.714932382106781	2.1065502166748047	1.2620657086372375	2.8669482469558716	1.129761666059494	0.916756883263588	-0.8024083375930786	1.6865886449813843	1.8074756860733032	1.4651218354701996	2.4141907691955566	0.7849723994731903	0.0455704927444458	0.3101733922958374	0.4190340042114258	0.643195629119873	0.9926569857634604	1.8338858485221863	2.916355848312378	0.8604084998369217	0.9550646506249905	-0.4990626573562622	1.6501821279525757	0.30517250299453735	1.4147078394889832	0.5827587842941284	0.7547071427106857	0.9614522121846676	0.7200233638286591	22.033178329467773	0.5820499360561371	-0.18291783332824707	3.039029359817505	0.7232939600944519	0.922446146607399	1.4658684730529785	1.5597811341285706	-0.12164819240570068	2.2950857877731323	0.341774582862854	0.6087182462215424	1.269725888967514	0.5174550414085388	1.5976495742797852	1.2022096514701843	0.6934362947940826	1.591451108455658	1.4653868079185486	1.3969835937023163	1.2408676743507385	1.8794939517974854	0.990149068646133	1.8970653414726257	-0.17254018783569336	0.3043794631958008	1.0801891088485718	-0.004083395004272461	0.3155229687690735	0.7191748023033142	0.18670904636383057	1.1870749741792679	0.5937238335609436	0.2846750020980835	-1.0506432056427002	-0.37773680686950684	1.2500182092189789	0.3658520579338074	-0.09661519527435303	-0.152779221534729	0.010932624340057373	1.7309848070144653	1.3454311192035675	0.7967552244663239	1.0531078949570656	1.633181393146515	-0.3461214303970337	1.5437323451042175	2.679342031478882	0.8695773184299469	0.4659499526023865	1.869952917098999	-0.19908642768859863	1.1238447427749634	2.219628691673279	0.5068292617797852	0.2425152063369751	1.3556946516036987	-0.3967496156692505	1.2996362745761871	0.264182984828949	0.6657830774784088	1.3901200592517853	0.7283402979373932	1.5304444432258606	2.318771243095398	0.7832499891519547	2.188120484352112	1.7182133197784424	-0.161224365234375	0.014580309391021729	0.5060070157051086	0.5134537816047668	1.7007716298103333	1.7186336517333984	1.6027755737304688	1.1995350867509842	1.3042206764221191	1.2803101539611816	2.5129077434539795	-0.5054343938827515	1.3769733011722565	0.3146648406982422	0.635444313287735	0.20807713270187378	0.879080168902874	1.5275701880455017	0.8741253912448883	1.1477426439523697	0.8023365885019302	9.669740676879883	-0.0186690092086792	0.716919481754303	0.039881885051727295	1.7055215239524841	0.8100370317697525	0.21842294931411743	2.203010320663452	0.3749735355377197	1.6214815378189087	1.8159447312355042	0.7394878268241882	0.49672865867614746	2.7744396924972534	2.233744263648987	2.1429823637008667	2.4425532817840576	2.965843915939331	-0.32854413986206055	-0.24215269088745117	1.9652701616287231	0.37809687852859497	1.4062538146972656	0.49811941385269165	1.3044990599155426	0.7362050712108612	0.9619286134839058	0.6702631413936615	1.0190818142145872	0.9664913602173328	1.053415972739458	0.8605634570121765	1.5500569939613342	0.31600940227508545	1.208907663822174	-0.7768248319625854	1.1941094994544983	0.6965128481388092	2.9855780601501465	2.267863631248474	3.273513078689575	0.5019075572490692	0.3697165250778198	0.8712505549192429	1.7479311227798462	1.5457178354263306	1.5878698825836182	1.8546261191368103	-0.8579612970352173	3.6360044479370117	-0.2380298376083374	1.5952841639518738	1.3742067217826843	2.2045093774795532	1.8578912615776062	0.7703755348920822	0.8620568662881851	-0.03542888164520264	2.938459038734436	0.5292719602584839	0.7175188958644867	0.9823805056512356	1.051555760204792	1.5050669312477112	-0.12286245822906494	-0.7723602056503296	1.3234605491161346	-0.42080235481262207	-0.5281963348388672	0.9716646000742912	1.0251439735293388	2.026494860649109	2.4489461183547974	3.516528367996216	2.7718008756637573	2.0357983112335205	1.6418920159339905	1.2201456427574158	1.7820093631744385	1.3814835846424103	4.248220920562744	0.6182511448860168	0.6524796783924103	1.5992003679275513	3.1464433670043945	0.5237415730953217	0.2230539321899414	0.6012248992919922	2.927676796913147	1.570772409439087	-0.22160208225250244	1.7751715183258057	-0.49240028858184814	0.2298591136932373	1.0948937237262726	1.8327387571334839	3.4006004333496094	1.9594250321388245	-0.4013855457305908	1.61641526222229	1.3262462615966797	0.18218445777893066	1.0497145131230354	2.216736674308777	0.5912266075611115	0.058841586112976074	1.5370591878890991	1.2780843377113342
macinare_2	0.5852569043636322	1.2487183213233948	0.22524559497833252	-0.11052882671356201	0.5654717087745667	2.6094396114349365	1.8867408633232117	-6.420398235321045	-0.9083242416381836	3.049375295639038	0.5712798237800598	2.3437373638153076	2.145774006843567	0.5667038857936859	1.8915523290634155	1.8001264333724976	0.35484176874160767	1.0964597836136818	1.9027982950210571	0.8774145990610123	0.7493829429149628	3.311256170272827	1.3883602619171143	-0.030347585678100586	-0.08081042766571045	0.3642745018005371	0.2710157632827759	2.1143791675567627	1.1652420163154602	2.4287729263305664	1.4187465906143188	0.5599966943264008	1.8485478162765503	3.3312699794769287	0.5832846462726593	1.6797726154327393	1.2871679961681366	1.0801086947321892	-0.3207157850265503	0.8830043002963066	0.7382029891014099	0.5380484461784363	1.9976128339767456	0.6392954885959625	-0.31061625480651855	-14.486284255981445	0.7111485600471497	1.8653855919837952	0.11920595169067383	1.9466508626937866	2.412094473838806	-1.0779311656951904	0.042231619358062744	0.5698464512825012	2.879315972328186	1.5333393812179565	1.4953987300395966	-0.21622836589813232	0.2802268862724304	2.5246037244796753	0.2601943016052246	2.1813278198242188	0.5097964406013489	2.0332335233688354	0.21721529960632324	1.070175789296627	-0.16571974754333496	2.0367558002471924	3.441288471221924	2.577453851699829	1.3576503694057465	-0.057724952697753906	1.6190035343170166	2.291421055793762	2.0786436796188354	2.217272996902466	0.09111875295639038	3.281186103820801	0.5059541165828705	1.652829110622406	0.8204314410686493	3.1855032444000244	2.7005268335342407	1.6410403847694397	1.9613752961158752	0.4389852285385132	-0.6480157375335693	-0.30867159366607666	1.4606851041316986	0.5784091651439667	1.9991945624351501	1.8938490152359009	0.4347795248031616	-1.6652624607086182	3.1615793704986572	-1.287679672241211	1.2632657885551453	-0.4910620450973511	1.913650631904602	1.017870368435979	-0.8028055429458618	0.25957924127578735	-0.4800996780395508	0.9167992174625397	2.1577433347702026	0.8848282694816589	1.55488520860672	2.210667610168457	-0.5925259590148926	-0.4396517276763916	1.266798347234726	-0.04351699352264404	3.5784432888031006	1.3185152411460876	-0.6399379968643188	0.2963150143623352	1.5813357830047607	1.222140446305275	2.658048391342163	1.8364155292510986	1.4181765913963318	0.37991398572921753	0.06781631708145142	1.4950912296772003	1.7350784540176392	1.366811215877533	2.9739675521850586	1.1869947016239166	-0.4443727731704712	1.3396022021770477	-0.4698829650878906	1.6414028406143188	0.9746740702539682	1.0853350907564163	-0.593132734298706	2.0377787351608276	0.5970308482646942	2.5727139711380005	0.7957683503627777	0.5138938128948212	2.7680774927139282	2.50881290435791	0.8889069780707359	0.8488062620162964	1.4765749275684357	1.3944404125213623	0.2086089849472046	1.6494997143745422	1.7571112513542175	1.4238508939743042	0.3099226951599121	0.0338900089263916	0.4835638403892517	2.0768929719924927	1.1555985063314438	0.9403063803911209	1.2434388548135757	1.3241211771965027	0.8972625434398651	2.124699592590332	0.6356045305728912	2.128109335899353	0.6512110531330109	0.7191470265388489	0.4913070797920227	1.551531195640564	2.669433116912842	2.7916160821914673	1.7729896306991577	0.8842276781797409	-0.010726094245910645	2.693755626678467	2.584836721420288	1.4035159945487976	0.12017238140106201	1.4209918677806854	0.8063917756080627	1.949025273323059	1.8615590929985046	3.083502769470215	2.0100120306015015	1.7252393960952759	0.4416508674621582	0.8998289927840233	0.25607210397720337	1.7348530888557434	2.5424548387527466	0.3811569809913635	1.5158721804618835	1.04026672616601	2.066636562347412	-0.3149677515029907	0.775412529706955	1.1492135673761368	2.180618405342102	1.5968766808509827	0.5154837667942047	1.6928861737251282	0.7326504290103912	1.4565879702568054	1.009871712885797	1.1799625307321548	1.8227382898330688	2.458265542984009	-0.5455203056335449	0.7981472462415695	0.42594343423843384	1.8143331408500671	-0.007381796836853027	0.4271792769432068	1.101266734302044	1.0901889950037003	0.8725887537002563	2.04470694065094	0.9639258831739426	1.029704961925745	0.5485337376594543	4.025962829589844	1.3723872005939484	-0.14778149127960205	1.8063335418701172	1.6553028225898743	1.7419222593307495	0.7478668689727783	0.6416519284248352	0.227522075176239	-0.5386050939559937	0.6051135957241058	-0.7579689025878906	0.7731680572032928	1.043302971869707	0.18812787532806396	1.6822611093521118	2.2250373363494873	2.4194846153259277	0.8780935034155846	1.4520649015903473	0.7375724911689758	-0.4120514392852783	1.4000880122184753	0.004952847957611084	-0.44521093368530273	1.051328394562006	-0.3053241968154907	-0.12434208393096924	1.6434909105300903	1.900295615196228	1.6734833121299744	0.2829856872558594	4.235618591308594	1.8100857138633728	2.800024151802063	1.4325364530086517	1.1141410544514656	1.1263109594583511	1.255383461713791	-1.1165778636932373	0.5414173901081085	0.883314959704876	0.08724361658096313	-0.08811295032501221	1.895778477191925	1.0730629861354828	0.9355727732181549	0.9083539396524429	2.2588666677474976	-0.725461483001709	0.7996700257062912	0.021720826625823975	0.4143642783164978	1.3878819048404694	1.0136497914791107	2.8612653017044067	2.078230857849121	2.3372730016708374	2.1505579948425293	-0.3019092082977295	1.1533904522657394	0.437829852104187	1.6344268321990967	1.191428005695343	1.382297933101654	0.09697854518890381	1.8662927746772766	0.8075047880411148	0.07993167638778687	0.5643215775489807	1.4369901418685913	1.320016086101532	0.8244801163673401	1.3949171602725983	0.41031646728515625	0.26979899406433105	-1.9310803413391113	0.5349715054035187	0.5399517118930817	-0.9426976442337036	-0.5085750818252563	-0.6841670274734497	2.395032525062561	0.8235607147216797	2.8244612216949463	1.3611094057559967	0.037155985832214355	0.5165134072303772	2.349976897239685	0.40540826320648193	-0.09543681144714355	0.8051632046699524	1.6860412955284119	0.04598283767700195	-0.9441920518875122	0.4085763096809387	0.819321021437645	0.17405831813812256	2.3336092233657837	1.4303971529006958	-0.7191959619522095	-0.24735605716705322	-1.0513808727264404	-17.341697692871094	1.079077884554863	0.04839068651199341	0.2764338254928589	1.0344205014407635	1.3171511590480804	0.11469507217407227	-0.3941841125488281	2.1837068796157837	0.7486933469772339	0.9196674227714539	0.3546364903450012	-2.178217649459839	1.7040324807167053	0.7716918885707855	3.0254464149475098	0.7502841055393219	1.0208581946790218	1.6947534680366516	2.5990676879882812	1.0724322199821472	1.5256332755088806	2.1152331829071045	-0.4804091453552246	3.31577467918396	-0.34185898303985596	0.9138829633593559	2.255683422088623	3.0497515201568604	2.5872130393981934	0.5355018079280853	0.3962146043777466	0.8105010688304901	1.469447672367096	-0.4544534683227539	-0.10309755802154541	0.6743580400943756	0.5279576480388641	-0.4227854013442993	0.8840824440121651	-0.7187258005142212	0.9355609342455864	1.4518519341945648	0.8981164246797562	1.0093860626220703	0.7651879489421844	1.334985226392746	2.0607829093933105	1.3475466966629028	0.27659159898757935	1.2087751030921936	1.57144433259964	1.3013605177402496	0.9696540422737598	-0.25591182708740234	1.005847976077348	2.068740725517273	2.9662026166915894	0.687179684638977	2.011217474937439	1.3344931304454803	0.4721377491950989	1.257289469242096	0.17703616619110107	0.42401260137557983	0.9627090767025948	0.17620569467544556	0.34949010610580444	-1.279796838760376	2.0028892755508423	1.7874130010604858	2.0692811012268066	2.8869879245758057	0.254089891910553	1.1867652833461761	2.0418572425842285	1.553486704826355	2.013310670852661	1.0267694238573313	0.45043253898620605	-0.3243567943572998	0.882957711815834	0.5946337878704071	0.3983638882637024	0.9425157532095909	0.833863154053688	0.3618301749229431	2.132309675216675	0.6081853210926056	1.4403229653835297	0.9042344614863396	0.9149749577045441	1.072099544107914	1.564286708831787	0.846911758184433	1.8003830313682556	1.1154330223798752	0.6667226552963257	1.4050223529338837	0.3000977039337158	0.3090292811393738	2.135808825492859	1.9124285578727722	0.549920529127121	2.3182919025421143	0.5694859623908997	1.4709449410438538	2.3245797157287598	-0.10882329940795898	0.6235919296741486	1.82627671957016	2.057969093322754	-0.4071314334869385	2.4176154136657715	1.176431119441986	0.09216153621673584	0.6321388483047485	1.2890737652778625	0.6895829141139984	0.2817871570587158	0.9145291149616241	0.6502201855182648	1.5466138124465942	2.290954828262329	0.3707343339920044	1.1150571405887604	1.0186515972018242	2.1706775426864624	1.5136109590530396	3.7218377590179443	0.06514614820480347	2.80801784992218	-1.0241501331329346	1.2651262283325195	1.635842502117157	-0.33521783351898193	1.2221027463674545	0.09526628255844116	0.8280946910381317	-1.0552077293395996	1.7021562457084656	-0.8418092727661133	2.2144856452941895	1.050652638077736	0.9891312783583999	-0.34336864948272705	1.110272191464901	-0.15552866458892822	1.149915337562561	0.3357813358306885	0.8047180771827698	0.42965012788772583	-0.07941031455993652	-0.5353765487670898	1.6436445713043213	2.072142481803894	2.9609179496765137	-0.2445434331893921	3.0040204524993896	-0.24283361434936523	1.1156399101018906	1.1712820380926132	1.6366761326789856	2.088888645172119	-0.9238748550415039	2.807043194770813	1.4074260592460632	0.35402971506118774	-0.4809812307357788	2.6856216192245483	0.5670250058174133	1.4147120416164398	1.4338930249214172	1.1336760222911835	0.24383890628814697	0.6283426880836487	0.48463690280914307	0.172238290309906	1.3529552221298218	3.0529236793518066	1.3538883328437805	1.4632953703403473	1.7998236417770386	0.37134450674057007	1.6560235023498535	0.14638012647628784	0.3911479711532593	0.05763566493988037	1.2908014953136444	0.6930257678031921	2.7292258739471436	0.12161213159561157	1.802398681640625	1.3066317439079285	0.2968401312828064	-0.5617337226867676	2.310047149658203	1.6820124387741089	0.43146616220474243	-0.6329548358917236	1.4759556651115417	2.0515071153640747	1.1387348771095276	0.9801024403423071	-0.009492039680480957	2.6949230432510376	-0.3255878686904907	-0.7612396478652954	2.2152416706085205	3.0487060546875	2.2102495431900024	2.6711188554763794	3.188793420791626	1.7019636034965515	3.218238115310669	-0.12056803703308105	-1.3056931495666504	1.3338345289230347	0.7638912498950958	1.7006676197052002	1.8329975605010986	1.0398650579154491	2.7000954151153564	-0.08185720443725586	2.2022536993026733	1.1427806913852692	0.5158674418926239	-0.8844802379608154	1.348636507987976	2.208032011985779	0.31871533393859863	1.8609713912010193	1.1815316826105118	0.5465225875377655	-0.45805490016937256	0.9993709109839983	-0.5550898313522339	-0.1233818531036377	2.952355980873108	2.955865263938904	1.6415985822677612	0.43302685022354126	0.16302728652954102	2.313406229019165	0.6537041962146759	1.910551130771637	0.8961678370833397	1.6661462187767029	0.2126958966255188	0.18320077657699585	22.3819522857666	0.9472754448652267	-1.3964924812316895	2.4509575366973877	0.6041815280914307	1.3913843035697937	0.3089902997016907	2.0769500732421875	-0.20441925525665283	1.4322803616523743	0.8437148481607437	0.2259843349456787	1.8851935863494873	2.4426203966140747	2.714062452316284	1.9906553030014038	0.24522697925567627	0.1941370964050293	2.2002265453338623	1.4012334048748016	2.4052023887634277	0.13620686531066895	1.4838526844978333	0.6550120413303375	-0.5152928829193115	1.9867185950279236	0.9052703455090523	-1.689342975616455	0.5275495052337646	1.2114286720752716	0.4372512102127075	1.6953559517860413	1.0557215884327888	0.1552087664604187	-0.3414651155471802	2.04649817943573	1.6259405016899109	0.3038163185119629	-0.07357299327850342	0.6403825283050537	-0.08754456043243408	1.7701363563537598	-0.10396480560302734	0.6021361947059631	-0.9153306484222412	1.7026997208595276	-0.4279106855392456	1.4145668148994446	1.9685043096542358	0.8431044816970825	0.6691559553146362	0.9696585182100534	0.7355818152427673	0.7323013842105865	3.2652649879455566	1.2151909917593002	-0.6228841543197632	2.0145338773727417	-0.13012361526489258	1.301445096731186	-0.8678840398788452	1.5019683241844177	1.8922327160835266	1.3631483614444733	1.3919567465782166	1.2933236360549927	0.6560975015163422	1.3779529333114624	-0.027707338333129883	-0.6565496921539307	-0.2146967649459839	0.8068096786737442	0.585015207529068	2.179486393928528	1.1467774361371994	0.5445616543292999	1.0608147159218788	1.0666027292609215	1.3852022290229797	1.6167157888412476	0.8392474949359894	2.8784772157669067	-0.6694213151931763	-0.06935274600982666	0.6739893853664398	1.3938235342502594	1.348623812198639	1.3516040444374084	1.6514350175857544	0.08033806085586548	12.386452674865723	0.3700486421585083	-0.3378305435180664	0.8738874644041061	1.3456675708293915	1.906762421131134	0.5562411248683929	0.8526621460914612	1.2328268140554428	1.433471441268921	2.524818539619446	1.6201127171516418	1.3662424683570862	2.877536654472351	2.7248603105545044	1.3172374963760376	0.7915164977312088	2.6165993213653564	0.7816538661718369	-0.23212146759033203	1.0301677640527487	-0.44202733039855957	1.3179994523525238	0.6689587831497192	1.5604666471481323	-1.0756840705871582	2.1910325288772583	1.7536016702651978	1.7286176085472107	0.9435907565057278	0.9480408579111099	0.5818995535373688	1.2924609780311584	-0.35585951805114746	0.9202213883399963	1.2400434762239456	0.05654716491699219	-1.0996501445770264	2.732859253883362	1.854544758796692	1.9344263672828674	-0.2683218717575073	1.2336896508932114	2.2728182077407837	1.4008378386497498	0.9637421816587448	0.9048023223876953	1.0559910759329796	1.376056730747223	3.373413324356079	-0.2906914949417114	1.3386247158050537	0.19624173641204834	1.9121633172035217	0.41897469758987427	0.7155448794364929	1.3251502513885498	1.6836578249931335	1.2292793691158295	1.1137181967496872	1.0526049546897411	1.833949863910675	1.0367191135883331	1.568157970905304	-0.3974740505218506	-0.8282577991485596	0.8203361481428146	0.751924455165863	0.021923482418060303	-0.29141056537628174	1.8677592873573303	2.1722086668014526	1.3436384201049805	3.397648572921753	3.184889316558838	1.9240729808807373	2.051868200302124	1.386824369430542	1.3897596597671509	2.454276204109192	0.735059380531311	1.1426512897014618	0.1799396276473999	-0.1490858793258667	2.357304334640503	0.8376391977071762	1.5344882011413574	0.9788771830499172	2.9640926122665405	0.8279807716608047	-0.43356871604919434	2.441269040107727	-0.27221858501434326	0.12699270248413086	1.0999896824359894	1.5530677437782288	3.0988669395446777	1.9862797260284424	1.922231674194336	1.4203402698040009	1.7826244235038757	0.15065020322799683	0.9520924873650074	2.5956549644470215	0.14159667491912842	-0.2792844772338867	0.9662328101694584	0.27592504024505615
mancare_1	1.1285334527492523	2.056801676750183	0.4916992783546448	-0.014595389366149902	2.024748921394348	1.8634105324745178	0.6616034209728241	-7.032120704650879	-1.1160955429077148	3.138232946395874	0.11635243892669678	0.9127938151359558	2.102139949798584	2.9881457090377808	1.1834907978773117	2.1415520906448364	0.24970436096191406	2.69914448261261	1.8652570247650146	0.5691483318805695	0.08469969034194946	1.9386950135231018	1.470956414937973	0.005526304244995117	-0.4462989568710327	0.30069833993911743	1.4044749438762665	1.2830596268177032	1.188591718673706	3.4775326251983643	1.3483248054981232	1.1036745086312294	-0.06759727001190186	1.6315955519676208	0.6131686270236969	0.24031776189804077	0.8903263285756111	0.6812264621257782	2.280462145805359	1.0873749107122421	1.4556492865085602	0.7434616386890411	1.4613631963729858	2.294073700904846	1.1342565566301346	-15.153091430664062	1.080013431608677	3.5408174991607666	0.20813918113708496	4.47206974029541	2.178292155265808	0.22365128993988037	-0.3406383991241455	-0.30060064792633057	2.448029637336731	0.958161011338234	2.151891589164734	0.9981871843338013	0.21187949180603027	2.8248932361602783	2.192839741706848	1.2628237009048462	0.6393512189388275	1.585277497768402	0.2676267623901367	2.518194317817688	-0.9097399711608887	1.1468489170074463	2.6817708015441895	1.1121402457356453	0.6707964837551117	1.1895214021205902	2.492870330810547	1.0794984996318817	1.7242653369903564	0.46225571632385254	1.3043351471424103	0.9626917578279972	1.3887500762939453	0.9680107980966568	1.9870912432670593	-0.11323022842407227	2.573531985282898	1.1911330670118332	1.0506773851811886	0.4584820866584778	0.45879101753234863	-0.8736239671707153	0.5274583101272583	1.8414720296859741	-0.011742711067199707	1.7863802313804626	-0.10960841178894043	1.5540311336517334	3.7890939712524414	0.21254408359527588	1.984251081943512	-0.5981183052062988	2.2090301513671875	0.639936089515686	1.0020412856247276	1.738258957862854	-1.225705623626709	0.012408316135406494	2.16785204410553	2.3562347888946533	1.3962073624134064	1.0143806161358953	1.4062318801879883	2.296620488166809	1.0962734743952751	-0.0872647762298584	2.24959135055542	1.9691791534423828	-0.1281266212463379	0.7782339006662369	1.2145894169807434	-1.5230467319488525	1.7149765491485596	0.38793832063674927	0.46862924098968506	2.398637533187866	1.9096578359603882	2.106918215751648	1.9430034160614014	0.1726873517036438	3.125849962234497	1.1163769736886024	-0.132865309715271	2.5882080793380737	3.086068868637085	1.5656753778457642	1.5670574307441711	0.3481307625770569	2.195785641670227	1.6665753722190857	0.26563966274261475	2.8539363145828247	0.43288522958755493	1.466905564069748	2.5423728227615356	1.5401191115379333	1.8793737292289734	0.5359291732311249	0.5419393479824066	2.721728563308716	1.5167877674102783	1.2195036858320236	2.121478319168091	1.6996560096740723	1.8181183338165283	-1.897791862487793	1.5800181031227112	0.8940360099077225	0.7814947664737701	0.4797804355621338	2.6779297590255737	-0.21491003036499023	0.727552056312561	1.7686208486557007	-0.8083045482635498	0.8829166889190674	0.6872215270996094	2.148200511932373	0.23067563772201538	2.1419793367385864	1.4285660684108734	2.76724636554718	0.49024927616119385	0.41536998748779297	0.7527785897254944	3.0415239334106445	0.9505191929638386	0.9368852525949478	2.0935860872268677	0.5847780406475067	-0.1898813247680664	2.8829879760742188	1.540615439414978	0.36304426193237305	0.7883727550506592	1.2959480583667755	2.175352931022644	2.307597041130066	1.822324812412262	1.79276043176651	1.8585968017578125	0.4596526622772217	1.754774034023285	1.132049098610878	1.3159261047840118	-0.2288738489151001	0.47973954677581787	3.135625123977661	1.1564535796642303	0.1716281771659851	-0.7710182666778564	1.6682403087615967	0.7596609443426132	1.2496557086706161	1.070464700460434	0.20710760354995728	2.146583318710327	-0.4971587657928467	0.40592360496520996	1.0026787586975843	0.5127565562725067	2.083716630935669	1.3170849978923798	-0.41678285598754883	1.0320720672607422	1.2339735180139542	-0.5728516578674316	-0.3092266321182251	-0.8781707286834717	1.9706348776817322	0.469318151473999	4.020713806152344	1.281429260969162	0.6812467873096466	0.9965941777918488	0.8108225017786026	-0.9906094074249268	1.387339860200882	1.1103142574429512	3.3006935119628906	-1.276270866394043	-0.08108687400817871	-0.3142430782318115	2.349018692970276	1.9884065985679626	0.6696861386299133	2.1526602506637573	1.8656328320503235	0.07465630769729614	0.02878880500793457	0.516532301902771	1.7757980823516846	0.4027419686317444	0.6575669944286346	0.9365837350487709	-0.3238339424133301	-0.11993134021759033	0.598351776599884	1.4494166374206543	0.023259401321411133	1.7142584323883057	2.6170462369918823	0.18370091915130615	5.048951625823975	0.7708336710929871	2.0871278047561646	1.4163998663425446	2.213011860847473	1.5752662420272827	1.0079734027385712	0.420749306678772	1.4040389955043793	0.7318064868450165	1.839524507522583	0.7094750702381134	2.6125408411026	2.2952698469161987	-1.2703602313995361	0.21651846170425415	2.056097149848938	-0.5466628074645996	0.664259284734726	1.073529675602913	1.0793000981211662	-0.0730128288269043	1.030297564342618	0.5461516082286835	2.1445231437683105	2.2112663984298706	0.9985901557374746	-0.7527594566345215	2.739192843437195	1.9879667162895203	1.287691980600357	-0.33157479763031006	1.0004755434638355	0.15916085243225098	2.279111862182617	1.7822992205619812	0.7667006999254227	1.2066298127174377	2.321867823600769	1.5788697600364685	1.7439191341400146	1.2306351214647293	-0.20267117023468018	-1.0330049991607666	-1.1334705352783203	1.372266173362732	1.4198562502861023	-0.36873865127563477	-0.48217344284057617	-0.4594486951828003	0.7933547496795654	0.6990971565246582	1.450412929058075	0.41871553659439087	0.3592877984046936	1.5021405816078186	-0.20168793201446533	-0.2323523759841919	2.2429819107055664	0.6187448799610138	1.1266610771417618	-0.06023585796356201	-0.5598800182342529	1.7207399010658264	1.1200084015727043	1.302140086889267	2.949744701385498	0.28189265727996826	2.171215295791626	-1.3915388584136963	0.9665948115289211	-13.927803993225098	1.6926062107086182	2.2451082468032837	-0.4639720916748047	2.495574116706848	1.1256873160600662	0.8744515031576157	-0.6610686779022217	0.8987557888031006	1.1860325932502747	2.236820697784424	1.0559732429683208	-2.9333086013793945	1.2638855576515198	1.5780986547470093	1.2368535846471786	0.7381598055362701	2.2098881006240845	1.4217251539230347	0.16516739130020142	0.8851265981793404	2.6450915336608887	2.509501338005066	0.6895363330841064	0.3450050950050354	1.4237101674079895	1.8216087818145752	0.09038835763931274	1.8877364993095398	-0.46838104724884033	-0.793633222579956	-0.5266604423522949	1.470220685005188	2.035225033760071	0.8857091963291168	0.10628104209899902	1.9702205061912537	1.22227081656456	-0.36684656143188477	0.103909432888031	0.09671670198440552	0.2922167181968689	0.7681371569633484	1.457400530576706	1.1800155341625214	0.9088889360427856	0.7125531435012817	0.8770857602357864	2.251536726951599	0.6187237799167633	2.562696933746338	1.9462268948554993	2.0910346508026123	1.893199384212494	-0.39727067947387695	2.9669300317764282	1.3633858561515808	-0.5841629505157471	0.6480751633644104	1.013840228319168	2.4684174060821533	0.028978288173675537	1.3286376595497131	1.0565868727862835	1.6384830474853516	-1.5008952617645264	1.6199228167533875	-0.27524828910827637	0.7805582582950592	2.168816566467285	0.9544742852449417	3.809213876724243	1.2887450456619263	0.8112551718950272	1.823620855808258	1.3724875748157501	1.3875615000724792	2.9304851293563843	1.8628056049346924	0.09652429819107056	0.20922774076461792	0.41152817010879517	0.9648560062050819	1.0353247039020061	-0.1176828145980835	0.5272515118122101	0.4446924924850464	1.1943072229623795	0.4468889832496643	0.22979432344436646	1.9705896377563477	2.064931631088257	2.4252054691314697	0.9459100924432278	1.0316879786550999	1.2405729740858078	1.5808249115943909	0.046197474002838135	1.3017552196979523	0.2900660037994385	0.5738663971424103	4.196797132492065	0.15601181983947754	1.5854604244232178	-0.3787956237792969	0.5328514277935028	2.2879750728607178	0.06536823511123657	0.419578492641449	-0.08349430561065674	0.9944829563610256	1.4707209467887878	-0.017683982849121094	3.0700063705444336	0.17694681882858276	-0.40196847915649414	0.04997962713241577	2.01927387714386	-0.11132895946502686	-0.7986831665039062	0.7878880649805069	1.53852117061615	1.2832226157188416	2.3201640844345093	0.8245160132646561	0.7893439680337906	1.9906968474388123	0.7563087046146393	1.9018816351890564	0.008444547653198242	0.44281190633773804	1.3619036674499512	1.599998950958252	2.3081328868865967	0.6028429269790649	0.2277112603187561	2.242989420890808	-0.7401065826416016	0.8019701093435287	0.5580040812492371	0.2518596053123474	0.9381421804428101	1.9509416222572327	0.9315955862402916	2.5543872117996216	1.173291265964508	1.2823399305343628	-0.2007584571838379	0.9022352620959282	1.159345269203186	1.8219856023788452	-0.85693359375	-0.2598249912261963	0.9331869333982468	1.3886013329029083	1.3754183053970337	0.16903454065322876	-0.3180009126663208	2.290665864944458	0.7005336880683899	0.6947495639324188	1.3988421559333801	1.0225825421512127	0.9520211778581142	-1.2931311130523682	0.04353940486907959	0.9813014585524797	1.295251727104187	-0.0009906291961669922	2.205073356628418	0.21058940887451172	1.697143018245697	1.3086476922035217	0.0549541711807251	-1.854567050933838	-0.0894097089767456	3.1061041355133057	1.500582218170166	0.9503573291003704	2.6055203676223755	1.694826364517212	1.0567494742572308	1.0623177997767925	-1.8299684524536133	0.5265034437179565	1.3413677513599396	-1.0425546169281006	0.6452904641628265	2.2863534688949585	0.5272229015827179	1.905198097229004	0.013222754001617432	-0.7231212854385376	-0.24129676818847656	0.6656546294689178	2.6626490354537964	1.7664874792099	1.766978681087494	-0.17049074172973633	0.1770172119140625	0.763189896941185	2.292808413505554	0.7038807570934296	-0.9943634271621704	0.5008954107761383	1.7660756707191467	-0.22875261306762695	0.014180004596710205	2.180581569671631	2.3528746366500854	1.192167028784752	1.0540709495544434	2.3313015699386597	0.42726629972457886	1.418718695640564	-1.158466100692749	-0.17892086505889893	0.8567672371864319	0.5961971282958984	-0.11226785182952881	2.101350784301758	1.7237432599067688	-0.38287782669067383	0.0858045220375061	2.2866368293762207	0.976840453222394	1.2356368154287338	-1.1116044521331787	2.136344313621521	0.2900940775871277	1.8467950224876404	2.04261314868927	4.511785984039307	0.07468074560165405	1.1897411942481995	0.696492463350296	0.23071134090423584	0.5521409213542938	2.788875460624695	1.6839712858200073	0.8133576810359955	0.8206029832363129	0.18043726682662964	0.32029038667678833	0.40702080726623535	0.5650125741958618	1.6866903901100159	1.6602927446365356	1.276648610830307	-0.14486777782440186	22.317142486572266	0.001809835433959961	-0.17214572429656982	2.1453906297683716	2.777042031288147	1.330593466758728	1.8322629928588867	2.4302927255630493	-0.11463749408721924	1.4634343087673187	0.9429799094796181	1.2029603868722916	1.1453853696584702	1.2472198158502579	3.1417603492736816	1.2968468368053436	0.7312960922718048	1.1206835806369781	2.1467525959014893	3.0144426822662354	1.5408143997192383	-0.5127910375595093	1.2103573828935623	-0.08203995227813721	-0.346805214881897	1.7826862931251526	2.71629536151886	0.7029511034488678	1.6387833952903748	1.0146231381222606	0.301985502243042	0.5812326371669769	1.0916365385055542	0.23611730337142944	-1.1767783164978027	2.0064291954040527	2.4311397075653076	0.2867741584777832	-0.09769940376281738	-0.38878417015075684	0.5695564150810242	1.72551691532135	1.2668607831001282	0.9862209288403392	2.136334776878357	0.5857471227645874	-0.07022464275360107	1.6227595806121826	3.095761299133301	0.9231200516223907	-0.26671063899993896	1.7580143213272095	1.1996485143899918	1.0260028131306171	3.0966744422912598	0.978134160861373	-0.09170544147491455	2.4008949995040894	0.5908999145030975	1.9173107743263245	-0.13714492321014404	2.5757954120635986	0.2633591294288635	0.13230204582214355	0.756389394402504	1.8650848269462585	1.487727552652359	2.5555992126464844	0.5100047886371613	-0.448899507522583	-0.06649994850158691	1.6540464162826538	2.0014952421188354	2.491599917411804	0.5074845552444458	1.110971376299858	1.3952415585517883	0.17724591493606567	2.0112141370773315	3.8129336833953857	0.49852532148361206	1.5272480845451355	0.4390864372253418	0.2768617868423462	0.8134141117334366	0.42248326539993286	0.8353555798530579	1.0389190800487995	2.5688934326171875	3.353367805480957	11.267233848571777	-0.8680050373077393	1.0712248533964157	0.5126703083515167	1.9782308340072632	1.8012931942939758	0.48496830463409424	2.743247866630554	1.3202320039272308	0.9873457243666053	2.2244958877563477	0.9241287335753441	1.5002346634864807	2.3495134115219116	1.5131895542144775	1.9440131783485413	2.7905426025390625	1.957629919052124	2.3266499042510986	-0.25912368297576904	1.395898848772049	-0.3470878601074219	3.150012731552124	0.7096999287605286	-0.7089049816131592	0.7850525379180908	0.7147171199321747	-0.506360650062561	1.5746657848358154	1.8531838059425354	-0.6153954267501831	0.8881164565682411	0.15825152397155762	-0.32100534439086914	1.4464063942432404	1.119771309196949	0.9397013410925865	0.5648426711559296	1.2989729642868042	3.0023725032806396	3.245701789855957	0.7018634080886841	1.8926889896392822	1.5529043674468994	-0.7588614225387573	1.161008059978485	0.6690771877765656	-0.34869396686553955	1.022167967632413	3.130950689315796	-0.6780697107315063	0.8086035251617432	1.0780374333262444	1.7810742855072021	0.9314120709896088	0.9599154219031334	1.27373006939888	0.7047130465507507	-0.2044205665588379	1.373668223619461	2.1787444353103638	1.168668881058693	0.5767463445663452	0.6900554001331329	-0.7325387001037598	0.5645590126514435	0.7526975572109222	0.45118021965026855	-1.6497039794921875	1.671779215335846	0.9764506742358208	-0.154258131980896	0.9989673928357661	1.7696430087089539	1.1194156110286713	0.4185110926628113	-0.6639987230300903	1.275110274553299	1.0806234031915665	0.4113693833351135	0.7584827989339828	-0.9344903230667114	1.3104078769683838	1.7437677383422852	2.2356603145599365	1.6842222809791565	0.4981415867805481	-0.30200743675231934	1.0246668457984924	0.5339853465557098	1.7257373332977295	1.1075294688344002	0.548047661781311	2.4191733598709106	0.7070756256580353	2.7881988286972046	1.4713532626628876	0.7965516149997711	1.3183482885360718	1.6749628186225891	1.3361224830150604	0.807365357875824	-0.24284029006958008	2.7598319053649902	0.4606783390045166	0.6838067173957825	1.6672243475914001	1.0916310101747513
mandare_1	1.8490700125694275	2.0364019870758057	0.9374840632081032	0.10080450773239136	1.3935754895210266	2.6711177825927734	0.8065535128116608	-4.376926898956299	-0.47814440727233887	2.62286114692688	0.09325635433197021	1.517371654510498	2.2556569576263428	3.2743377685546875	0.33109050989151	2.0516072511672974	-0.15893220901489258	1.2746812105178833	1.4571883976459503	-0.30099356174468994	0.39982205629348755	2.9733262062072754	3.2552950382232666	-0.3063185214996338	2.7396366596221924	-1.0826425552368164	1.3772644698619843	2.662559151649475	1.7283300757408142	2.320512294769287	1.0997707396745682	0.5278855264186859	1.3684646487236023	2.165361523628235	1.8083942532539368	2.0702037811279297	0.9775425307452679	1.288578987121582	1.1867509931325912	-0.09543406963348389	1.3962604701519012	-0.010755062103271484	0.8569152802228928	-0.11854827404022217	-0.5371571779251099	-15.22007942199707	1.3078537583351135	2.7350252866744995	1.2888113856315613	1.6623397469520569	0.3819369673728943	-1.119532585144043	0.44765305519104004	0.15868490934371948	1.530026376247406	1.740468978881836	1.4982820451259613	0.6499513387680054	-0.16815245151519775	3.6059882640838623	0.5141626298427582	3.0409743785858154	2.2750654220581055	1.1662189066410065	1.5457842350006104	0.8897304981946945	1.0766216814517975	2.615005850791931	1.793781340122223	1.2524218261241913	0.34302765130996704	0.2605528235435486	2.758813500404358	1.236712321639061	1.1669105887413025	2.084061026573181	2.388722538948059	1.9244373440742493	2.8689682483673096	0.888818547129631	3.535104990005493	1.4518185555934906	2.85209858417511	1.999344825744629	1.0202537402510643	0.8946469575166702	-0.17402279376983643	0.17949968576431274	0.6028523445129395	-0.8130550384521484	2.292477607727051	3.8500304222106934	1.637943983078003	0.30706334114074707	0.9427874833345413	0.6205225884914398	2.6594645977020264	1.107788734138012	1.159024402499199	0.5166729092597961	-0.49544191360473633	2.9489883184432983	-1.8701870441436768	0.37380146980285645	1.3356356024742126	1.9908923506736755	1.2924462854862213	1.37240332365036	-0.7554999589920044	-0.010001301765441895	0.18209242820739746	1.579649031162262	3.1230857372283936	-0.16570532321929932	0.057241618633270264	0.23632276058197021	2.0182740688323975	-0.6687663793563843	1.5711758136749268	-0.5500655174255371	0.8849269673228264	0.8547774702310562	1.7328858971595764	0.8955018445849419	0.3435879945755005	1.6624575853347778	1.574484944343567	0.9169581681489944	1.7280057668685913	2.266170382499695	1.0138495648279786	1.0498314537107944	0.24313348531723022	2.777073383331299	-1.9906067848205566	1.5087766647338867	-0.5176639556884766	1.5108392238616943	1.0685749351978302	2.257803201675415	0.1152181625366211	1.0389916896820068	0.19239598512649536	0.0942038893699646	1.1756084859371185	1.4782352149486542	0.5794510841369629	1.327363908290863	2.8002209663391113	1.7726280689239502	0.5647706687450409	1.8797756433486938	0.4426630139350891	2.3353039026260376	0.5866933763027191	0.1826907992362976	2.679020047187805	-0.079001784324646	2.1211471557617188	2.6154175996780396	1.0665045753121376	0.7629315406084061	1.1042004078626633	-0.4663982391357422	0.2722644805908203	0.13997727632522583	0.5781833827495575	3.8245561122894287	1.9196958541870117	-0.20924460887908936	-0.289880633354187	2.444008708000183	2.0519744157791138	2.4127174615859985	2.335146188735962	2.4864513874053955	0.4194456934928894	1.98916095495224	2.0002886056900024	2.9706438779830933	1.6990851163864136	1.5384609699249268	1.3607691526412964	2.3536447286605835	1.1625195443630219	1.5073761343955994	0.6567539274692535	1.671091616153717	0.47157806158065796	2.8476805686950684	2.267199397087097	-0.3572450876235962	0.9875554302707314	2.461988091468811	1.2054921090602875	0.8678569197654724	1.7062259912490845	1.5533978939056396	0.716012179851532	-0.23539495468139648	1.3345939815044403	-0.0205308198928833	1.3855144679546356	1.3499854803085327	-0.2921396493911743	1.4440623223781586	-0.8405472040176392	2.061956524848938	0.5853321850299835	-0.7305470705032349	1.6153778433799744	-0.08035290241241455	0.21176153421401978	0.23774713277816772	2.609647274017334	1.4349836111068726	0.4157317876815796	4.06383490562439	0.8871556520462036	-0.05850100517272949	1.2379519492387772	2.2494404315948486	0.16221940517425537	-1.4142796993255615	0.8934356197714806	1.6701179146766663	2.1065348386764526	0.0888482928276062	0.15400195121765137	1.2285790294408798	1.6159733533859253	1.6943572759628296	0.9090350568294525	2.217577815055847	1.0549925193190575	1.2678896188735962	-0.9757553339004517	2.0429224967956543	0.43371260166168213	0.004558205604553223	0.9320540949702263	0.26972997188568115	-1.227998971939087	0.7492618262767792	1.0630987882614136	2.1428165435791016	2.1821895837783813	2.1087820529937744	0.6534055471420288	3.960019588470459	1.6733072996139526	3.0723764896392822	0.14373260736465454	1.1547068804502487	0.7974912226200104	0.5738613903522491	0.08129459619522095	0.9573520869016647	1.6252931356430054	0.6696043312549591	-0.44638073444366455	2.179808497428894	0.4267839193344116	-1.2847697734832764	1.2625655829906464	2.234269857406616	0.10952496528625488	2.118780732154846	1.6982163190841675	1.7634287476539612	-0.7935272455215454	0.6425556540489197	2.0528483390808105	2.1513869762420654	0.4342360496520996	2.4870129823684692	0.7714095264673233	3.793365001678467	0.8407234698534012	1.0646196976304054	1.968124806880951	2.6519439220428467	0.04431629180908203	2.2755860090255737	1.9403324127197266	1.2188009768724442	0.6253485679626465	1.38506019115448	-1.112328052520752	2.4666064977645874	0.7012164890766144	-1.7472882270812988	-1.1805107593536377	-1.5066742897033691	0.6500456631183624	0.470192551612854	0.5654691457748413	-0.34509921073913574	-1.387000560760498	1.8975723385810852	1.9073880910873413	2.371974229812622	-1.3128225803375244	-0.757087230682373	1.3053000569343567	1.27651646733284	1.6827929019927979	1.0739321261644363	1.2893933951854706	0.6790633499622345	-0.3873990774154663	0.9116933792829514	-0.33498620986938477	0.3737149238586426	1.3336974084377289	2.3954442739486694	1.5244591236114502	2.4491372108459473	-1.6140625476837158	1.544215440750122	-18.717357635498047	1.1460526883602142	1.496182531118393	0.3541836142539978	2.307695508003235	1.5942966938018799	0.870475634932518	1.7099936604499817	2.1793822050094604	-0.4676550626754761	2.060800790786743	1.5055528283119202	-4.154723644256592	1.3254982233047485	1.0830129086971283	-0.30101191997528076	0.9249674379825592	-0.19228553771972656	2.720892310142517	1.4147838354110718	2.1180968284606934	1.9272424578666687	1.349333792924881	1.8243750929832458	0.2112451195716858	0.5407775938510895	2.286358952522278	-0.6148040294647217	0.7568189203739166	-0.001658797264099121	0.5053320825099945	0.35834038257598877	1.8729771971702576	2.5898553133010864	1.852760672569275	0.30170780420303345	0.6454969644546509	0.14886242151260376	-0.8451625108718872	0.9654920771718025	0.5455112159252167	2.1239110231399536	1.1429403871297836	0.735384076833725	2.1026771068573	0.955334696918726	0.5115319192409515	1.4569108188152313	2.116203546524048	-0.32228732109069824	1.8820215463638306	1.1264838427305222	-0.866424560546875	3.4630415439605713	0.12454754114151001	0.269509494304657	1.0669976398348808	1.4001394510269165	-0.5602349042892456	0.28035491704940796	0.5387077331542969	0.24978619813919067	1.1625222116708755	1.6951886415481567	2.7065504789352417	1.3363128900527954	0.5479857325553894	0.289625883102417	0.36056870222091675	0.026933729648590088	1.2321231365203857	0.7108185589313507	0.8003961890935898	-0.015276193618774414	1.1848506033420563	1.3534784317016602	0.3709082007408142	2.383635997772217	2.2197681665420532	-0.39708125591278076	0.8591112196445465	1.0240625627338886	1.0465505495667458	0.28363603353500366	1.6860341429710388	-0.16778218746185303	0.4536181092262268	3.0153164863586426	0.2436513900756836	-0.4913802146911621	0.708389550447464	0.6333287358283997	1.6239913702011108	0.6106884777545929	-0.4038715362548828	0.6641077101230621	1.6027066111564636	1.6090992093086243	2.668110966682434	1.0084850350394845	0.027498245239257812	3.177194595336914	2.016035795211792	0.9787487927824259	0.8298264592885971	1.1231782734394073	0.11440998315811157	2.724457621574402	2.023663640022278	1.183177649974823	0.535875529050827	0.6954920291900635	0.40734386444091797	3.2084712982177734	1.138079583644867	-0.22942650318145752	0.46471238136291504	1.997449517250061	0.8391618132591248	0.9369546249508858	0.2864968180656433	1.8421860337257385	1.4849300384521484	1.7161438465118408	-0.7515643835067749	-0.9963496923446655	1.2127827107906342	0.9974396119359881	0.824202299118042	2.403394103050232	-0.13886213302612305	0.17523789405822754	0.16740727424621582	1.5350291728973389	2.7229193449020386	1.6680529117584229	1.0197448898106813	-1.2462079524993896	1.1081130504608154	-1.3347294330596924	-0.17956030368804932	2.0226006507873535	1.0863889157772064	1.32675039768219	1.7821717858314514	-0.12292146682739258	2.4692044258117676	2.527425765991211	1.4602756202220917	1.3157455027103424	1.4716129302978516	1.658538579940796	1.9330163598060608	0.46490854024887085	1.982802391052246	2.64165461063385	1.579660415649414	1.3012526333332062	0.6857075393199921	0.7398658990859985	1.1667572408914566	2.557321548461914	1.1726823151111603	2.359524369239807	-1.4520978927612305	-0.28772079944610596	1.8336630463600159	1.71017986536026	2.2913016080856323	0.639999270439148	0.8699100613594055	1.3130221664905548	1.3406870067119598	0.6983613967895508	-2.811878204345703	1.0549304373562336	0.1353406310081482	0.46870094537734985	1.8030710220336914	3.1564924716949463	0.333717405796051	1.4744060635566711	1.6069629192352295	0.7877046018838882	1.5569424033164978	1.492166519165039	0.6980551779270172	0.03987210988998413	1.6367176175117493	0.683188796043396	2.4379197359085083	0.6932119429111481	0.47075414657592773	1.311202734708786	1.002279449487105	0.9385146647691727	1.7968804836273193	1.71036696434021	-0.8232563734054565	-1.434758186340332	2.211175799369812	1.0015381899429485	0.502720057964325	0.5581069886684418	-0.3316003084182739	2.355863928794861	2.564471483230591	-1.1339654922485352	1.4895077645778656	2.07210111618042	0.6012577712535858	-0.01682424545288086	1.6023552417755127	0.029461801052093506	0.7086098790168762	0.5103470087051392	0.08803808689117432	0.8731666654348373	-0.25258612632751465	0.7715207934379578	2.0326062440872192	2.0695284605026245	2.331735134124756	1.1261644959449768	2.159237861633301	1.4965470433235168	0.06312412023544312	-1.9559721946716309	1.2711252272129059	0.7149922549724579	1.3872849643230438	1.377906709909439	2.4442567825317383	1.737923264503479	2.1888266801834106	3.056635856628418	-0.07937586307525635	1.031399928033352	1.2182156443595886	1.3224157094955444	2.93366277217865	1.2072296738624573	-1.111823558807373	1.8517448902130127	0.23830801248550415	1.5954221487045288	-0.6999499797821045	1.834411382675171	-0.009812235832214355	0.37115705013275146	22.11196517944336	0.3642938733100891	0.9573680683970451	1.3672808706760406	1.0410141721367836	1.7766902446746826	1.730588674545288	1.846488356590271	0.6923246383666992	2.93389630317688	1.1597574800252914	0.8656619489192963	0.1338115930557251	1.5807690024375916	0.6557669937610626	1.257224202156067	-0.15611565113067627	0.4007542133331299	-0.7847813367843628	2.008561611175537	1.0109078623354435	-0.5912728309631348	1.1393844187259674	0.2990245819091797	1.0462392680346966	2.1463147401809692	-0.32482075691223145	1.1890493780374527	1.4964460134506226	0.7279481291770935	0.5516544580459595	0.27896976470947266	0.32637786865234375	1.2119272351264954	-0.600754976272583	-0.6033114194869995	2.0396512746810913	-0.6591312885284424	1.6009334921836853	0.26508212089538574	-0.12097656726837158	2.2227593660354614	-0.03972756862640381	2.242288112640381	1.1459594517946243	2.001052141189575	-2.6135358810424805	0.7696486413478851	3.0819036960601807	-0.2687845230102539	0.6470629274845123	1.1846379339694977	0.6897132098674774	0.8987028822302818	0.6591925919055939	1.0779743492603302	-0.30956125259399414	1.3590535819530487	-1.1016874313354492	0.2517244815826416	-0.6914970874786377	1.2014569789171219	1.1679552048444748	1.7863319516181946	-0.3246728181838989	2.366025924682617	1.3466587662696838	1.057713557034731	2.2570297718048096	-0.557600736618042	0.2229989767074585	0.5625154376029968	2.092832088470459	1.088570274412632	0.5011081993579865	0.6206938922405243	1.2906121909618378	1.1650358736515045	1.3114975690841675	3.02535080909729	-0.2099595069885254	0.7475165128707886	-0.6529650688171387	0.6123392283916473	-0.6346511840820312	1.2088322043418884	1.8341802954673767	0.30798494815826416	1.2180923819541931	1.533175528049469	11.068366050720215	1.2259745746850967	1.7369161248207092	0.7768918573856354	0.809820219874382	1.3622795641422272	0.36503881216049194	2.61790668964386	0.4313979744911194	1.8197720050811768	2.060279130935669	-1.236217975616455	-0.14657390117645264	1.5657532811164856	-0.04209709167480469	1.9049805998802185	2.010813593864441	1.3787733912467957	0.9462109170854092	0.10489392280578613	2.0182522535324097	1.1435607075691223	2.653589963912964	1.2345440238714218	1.9268465638160706	0.6909120380878448	2.6844371557235718	-0.7424095869064331	2.9878811836242676	2.7746968269348145	0.731317788362503	1.2946250438690186	1.4695186913013458	-1.6239752769470215	0.3425532579421997	1.530309796333313	0.2213699221611023	1.4124825596809387	2.2326194047927856	1.8956395983695984	1.9511890411376953	-1.6763877868652344	0.6707259714603424	2.485835552215576	2.4960042238235474	1.4032061696052551	0.710349440574646	-0.23053216934204102	1.2174464166164398	2.856612801551819	-0.22081363201141357	1.7014588117599487	0.6823365986347198	1.9986510872840881	1.1810588985681534	2.105654239654541	2.732904553413391	0.521699994802475	2.787399649620056	1.0213305782526731	2.1153746843338013	0.16253221035003662	0.389515221118927	0.612482100725174	0.8828765898942947	0.48999327421188354	-0.13686144351959229	-0.2855861186981201	0.44909894466400146	0.6247817277908325	0.6618321239948273	1.3160337507724762	0.04114246368408203	2.034209370613098	2.0491585731506348	1.0429919101297855	2.5054736137390137	1.6091066002845764	2.703548789024353	0.9850202472880483	1.4030109345912933	-0.02691638469696045	0.7454552948474884	1.4675150215625763	3.712385416030884	2.5831198692321777	0.619727611541748	0.4871094226837158	2.6107650995254517	1.0288767646998167	0.20439738035202026	0.5964674651622772	1.508987545967102	0.5452732741832733	2.000345468521118	0.410344660282135	2.360857844352722	1.8522314429283142	0.11167925596237183	1.248076394200325	1.0446052961051464	0.0353848934173584	0.7502695918083191	2.9787663221359253	1.0856769308447838	0.4783552885055542	1.4704685509204865	1.3527369499206543
mandare_2	0.8846017420291901	1.2986273765563965	1.837962567806244	-1.960151195526123	1.8338751792907715	1.5240631699562073	1.5247119665145874	-5.655358791351318	-0.20779144763946533	2.4311437606811523	0.973986204713583	3.182830810546875	1.94870126247406	3.217344284057617	2.2707091569900513	2.225335478782654	-2.1580889225006104	-0.06769716739654541	2.4309847354888916	-0.17794764041900635	-0.8800351619720459	2.0319865942001343	2.454460024833679	-1.0175774097442627	0.8863935470581055	0.20735114812850952	-1.7614562511444092	1.823644995689392	1.3258669078350067	2.7090442180633545	2.3503236770629883	1.386614441871643	1.8976625204086304	3.2252275943756104	1.9944199919700623	1.1245448365807533	0.7607915997505188	1.4907516241073608	1.5547770261764526	-0.1257103681564331	2.25933575630188	1.2276365906000137	1.7648252248764038	1.7493837475776672	0.05859231948852539	-17.4818115234375	1.5394991040229797	2.6888926029205322	-0.8463486433029175	1.839832067489624	0.9847853118553758	-2.222315549850464	1.7602110505104065	1.3500197529792786	-0.04056727886199951	2.0196930170059204	1.2100366204977036	1.7711694240570068	-0.056206464767456055	2.995760679244995	0.6344387829303741	2.6670138835906982	2.0296589136123657	0.7413671016693115	1.6803909540176392	2.6706719398498535	0.7287132143974304	1.971738338470459	3.102100133895874	2.1624977588653564	0.026025354862213135	1.7012828588485718	2.3976871967315674	2.1706151962280273	2.4596630334854126	1.1111860871315002	2.1901262998580933	2.7519794702529907	2.468607783317566	1.334448516368866	1.9794260263442993	2.6098448038101196	3.398041009902954	1.3091522455215454	2.1532742977142334	0.34954720735549927	-0.37405240535736084	-0.34111487865448	-0.05364656448364258	-1.5865874290466309	2.373857617378235	3.1534841060638428	1.709364891052246	0.7028440535068512	2.079006314277649	1.1283918619155884	4.288971424102783	0.6836444735527039	1.2504198551177979	0.3881494998931885	0.18798482418060303	2.2246123552322388	-2.292120933532715	0.5489589869976044	1.521223247051239	2.085084080696106	2.1773340702056885	1.2195037603378296	0.8958486393094063	1.3620969951152802	-0.059708356857299805	-0.47552263736724854	3.2105541229248047	1.5645493865013123	-1.4306421279907227	0.8333321511745453	2.0078498125076294	-3.110556125640869	1.045612134039402	-0.2561788558959961	0.501244843006134	1.0225851498544216	1.655937373638153	1.0411195009946823	-0.45638859272003174	1.7028304934501648	0.34427398443222046	1.8156298398971558	0.5020134449005127	1.5027413964271545	1.555320382118225	0.2516828179359436	-1.0413076877593994	2.4368234872817993	-0.9788848161697388	1.8528559803962708	0.4672418236732483	2.329492211341858	0.192679762840271	1.128039002418518	1.9576169848442078	1.1479774415493011	0.8418450802564621	0.37244701385498047	-0.2226552963256836	2.007357120513916	-1.3556373119354248	1.9269263744354248	2.2589844465255737	1.706646740436554	0.7914655357599258	1.776792824268341	0.6142070293426514	1.5175631642341614	0.9404376447200775	-0.6234618425369263	1.8066648840904236	1.2119167298078537	0.9387643709778786	3.021604537963867	1.0098364166915417	2.2417370080947876	1.6895244717597961	0.20833998918533325	0.7266124784946442	0.38558441400527954	-0.41803455352783203	5.304638385772705	2.87492835521698	0.6446951925754547	0.07820671796798706	0.782894179224968	1.3956884443759918	0.8762582242488861	1.6389105319976807	2.7124236822128296	0.6905640959739685	2.6386919021606445	1.933997631072998	3.958278179168701	1.620190978050232	1.2579533159732819	-0.5627312660217285	1.8810068368911743	0.4227150082588196	0.6894557476043701	2.5333272218704224	0.5074120461940765	-0.11406028270721436	2.146114945411682	1.9457873106002808	-2.04410457611084	2.3014638423919678	2.0378655195236206	0.8953806385397911	1.025002097710967	2.4785542488098145	2.223954200744629	0.29700344800949097	1.4456578195095062	1.3367701470851898	-0.5837259292602539	1.029410444200039	1.9677422046661377	-0.6753262281417847	-0.4043465852737427	-1.1201984882354736	1.7600626349449158	0.036646366119384766	-1.1255161762237549	1.7143922448158264	-0.2795940637588501	-0.6617491245269775	-0.40106141567230225	2.1339629888534546	-0.020781517028808594	1.0305896867066622	2.059205412864685	1.422040194272995	0.13873660564422607	1.3262429535388947	0.22782635688781738	0.6218238770961761	-1.9291613101959229	1.011412258259952	1.9895244240760803	1.457503318786621	0.936894990503788	-0.5468087196350098	0.6289025843143463	0.7796746343374252	0.9032589569687843	0.33688753843307495	0.5748606324195862	1.4655904173851013	0.26820826530456543	0.7846518754959106	2.512639880180359	1.853508710861206	0.458085298538208	0.3722994923591614	1.1629771441221237	-0.4815937280654907	-0.44384777545928955	0.6499673128128052	1.959383487701416	1.814115822315216	1.9503559470176697	-0.07393944263458252	3.607281446456909	2.2318955659866333	3.6194567680358887	-0.4334152936935425	2.3754950761795044	1.7732291221618652	1.6722790598869324	0.5070607662200928	1.6901981830596924	0.8954264745116234	0.5844744145870209	-0.32592809200286865	2.091184139251709	1.193615049123764	-2.3091695308685303	0.2492823600769043	1.2313565909862518	-0.16440820693969727	0.9157448336482048	0.7912567853927612	-0.21447360515594482	-1.6508567333221436	1.8724811673164368	2.3530133962631226	2.84330952167511	1.0101672569289804	-0.10363638401031494	0.5809076130390167	3.672353744506836	0.8671953231096268	2.0473891496658325	0.8969124332070351	2.4964228868484497	0.2119491696357727	2.034374952316284	2.9374990463256836	0.3831248879432678	1.6493474841117859	3.2884714603424072	0.1469517946243286	2.5328201055526733	0.002070188522338867	-1.8950939178466797	-1.126791000366211	-1.7354741096496582	0.2711968421936035	-0.34216630458831787	-0.2578716278076172	1.5751590728759766	-0.544058084487915	1.3688775300979614	1.1033314242959023	1.4317924082279205	-1.9727027416229248	0.13836127519607544	1.4232307374477386	1.7482503652572632	0.6930682063102722	0.17531538009643555	1.9568687081336975	-0.021559953689575195	-0.844881534576416	1.0768939703702927	0.2018030881881714	-0.2980736494064331	0.691222757101059	1.867527425289154	0.04542863368988037	2.855274796485901	-1.833045482635498	1.3701091706752777	-13.176759719848633	0.19905364513397217	1.2932910919189453	0.22748297452926636	3.4234321117401123	1.1030586585402489	0.47148990631103516	0.12869250774383545	1.9348103404045105	2.1505308151245117	1.1973251104354858	1.8377095460891724	-4.8615498542785645	-0.1896522045135498	2.2623488903045654	0.8384647220373154	1.112381599843502	1.4885502457618713	2.626603603363037	0.07994604110717773	2.893304705619812	1.764162003993988	2.883967161178589	2.4538283348083496	1.2311476171016693	-0.33973562717437744	2.598193645477295	-0.9933654069900513	-0.363095760345459	-0.02012622356414795	0.7577748000621796	0.13326877355575562	1.5778285264968872	3.6334381103515625	1.4165985584259033	0.33080554008483887	1.0055281110107899	0.40370529890060425	0.6915957927703857	2.422153115272522	0.9354318976402283	0.6009831428527832	1.0069809616543353	0.1544167399406433	2.397768497467041	1.1695013344287872	-0.7875547409057617	2.1065921783447266	1.750831425189972	-0.7571293115615845	4.514833211898804	-0.07659566402435303	1.1965530961751938	4.2328996658325195	0.02397686243057251	1.1112911328673363	1.7437285780906677	1.8114356994628906	0.3354029655456543	0.497353196144104	1.226783648133278	0.006666898727416992	1.160109594464302	2.057989001274109	2.3724437952041626	1.6494990587234497	-0.1641249656677246	-0.9796782732009888	0.36665982007980347	0.5912646949291229	2.1171706914901733	-0.5021959543228149	1.213393434882164	1.1812254339456558	0.9212899580597878	-0.056322574615478516	0.7413568496704102	1.128773495554924	2.747037410736084	-0.6191484928131104	1.7080801129341125	0.16352730989456177	0.9860348701477051	-0.2068861722946167	1.2420355081558228	-0.763200044631958	0.6499213576316833	3.2555911540985107	1.0978048741817474	-0.8235210180282593	0.659042090177536	0.24797672033309937	2.2724220752716064	-0.14079296588897705	-0.4878154993057251	1.8319694995880127	0.997098320396617	2.553887963294983	2.8095098733901978	1.0519455820322037	0.3128185272216797	3.2347755432128906	1.3779062330722809	1.4775560200214386	1.7068143486976624	2.0295521020889282	0.3448631763458252	2.407915949821472	1.1589887291193008	1.3398422002792358	0.5258776545524597	1.4088905155658722	-1.0902080535888672	3.985820770263672	1.2947155833244324	-0.46500730514526367	0.9963196092285216	2.4103429317474365	1.5757005214691162	1.4609175622463226	-0.3579367399215698	0.9835306908935308	2.9588171243667603	0.9057331904768944	-0.4281349182128906	-0.05991947650909424	0.7896570861339569	0.20502948760986328	1.7758148908615112	2.239336609840393	0.009115636348724365	1.4074101746082306	2.1175910234451294	0.20403754711151123	2.4152793884277344	0.3481050133705139	2.9475423097610474	-0.5903409719467163	1.5282433032989502	0.7667899876832962	0.3437536358833313	1.795462191104889	2.1687437295913696	0.2684295177459717	2.4247679710388184	-0.28832995891571045	0.9184090793132782	2.621316075325012	1.6485059261322021	0.6216608583927155	0.3313523530960083	2.2232303619384766	0.32666295766830444	-0.5999059677124023	1.5783379673957825	2.3113107681274414	1.5610471963882446	-0.9958833456039429	1.0991619229316711	0.2461032271385193	1.6593450903892517	2.548745036125183	0.6748294234275818	1.195471540093422	-1.6027655601501465	-0.5082846879959106	1.7162084579467773	2.7509689331054688	2.642107367515564	0.12996584177017212	0.8549373745918274	0.9689145591109991	1.8846036791801453	0.48819178342819214	-4.424509525299072	0.44468575716018677	1.112105943262577	-0.16758286952972412	1.832913875579834	1.9857261776924133	1.2144201397895813	1.7276161909103394	1.8641555905342102	1.6985738277435303	1.6922824382781982	1.5195266604423523	-0.09012913703918457	0.21063309907913208	2.6991060972213745	0.6435155272483826	1.9036413431167603	-0.3861379623413086	0.3515176773071289	2.3372464179992676	0.05689960718154907	1.721510112285614	1.9635065197944641	3.635798931121826	-0.4651632308959961	-1.8605365753173828	2.9372212886810303	1.523133099079132	1.6708705425262451	-0.0008876323699951172	1.2552346289157867	3.884026050567627	3.4091434478759766	-3.1307268142700195	1.9321884512901306	0.9374098926782608	0.6764127612113953	-0.32251739501953125	2.2263996601104736	0.8397330343723297	1.4515270292758942	0.8248244524002075	1.1488305628299713	1.8792552947998047	0.21550649404525757	1.787540853023529	2.566278576850891	3.075343132019043	0.7063213288784027	1.2392827570438385	1.4645768702030182	1.5726884603500366	-0.740972638130188	-2.5383269786834717	-0.13441932201385498	1.3212384581565857	0.7334253489971161	1.030621463432908	1.3808196187019348	1.3890979290008545	1.2962312698364258	0.8828154504299164	-0.9343522787094116	0.06898778676986694	1.3447481393814087	2.092250943183899	2.3683366775512695	0.6032669842243195	-1.13893461227417	2.672758460044861	-1.6972026824951172	1.6456598043441772	0.5857898890972137	1.5132756233215332	0.1926668882369995	-1.3827061653137207	22.894046783447266	2.33240282535553	0.5978355705738068	0.32386451959609985	1.205690786242485	1.3471528887748718	1.7803995609283447	3.041015386581421	1.6134180426597595	2.2445948123931885	2.143682360649109	0.826665922999382	2.043188691139221	1.5375409126281738	0.9588439911603928	1.7801156044006348	0.2677702307701111	-0.1089324951171875	-1.2351250648498535	2.388954520225525	0.5038116872310638	-0.3624553680419922	0.9690783657133579	1.527485191822052	0.456170916557312	2.5536335706710815	1.131810337305069	0.6816062927246094	1.3865351378917694	0.7169836461544037	0.02573251724243164	0.4956139922142029	1.4110106825828552	0.9795305095613003	1.0642606243491173	0.6063781976699829	2.254238486289978	-0.14006328582763672	2.4949198961257935	-0.7164385318756104	-1.5061843395233154	1.6145910620689392	-0.4819568395614624	1.9531548023223877	0.48223239183425903	1.8339025378227234	-1.8947203159332275	1.7908793687820435	2.128800868988037	-1.9393084049224854	1.2466635406017303	0.7328433990478516	0.6326412260532379	0.4725324511528015	2.60903537273407	1.474400371313095	-1.022409439086914	-0.5628609657287598	-0.3298095464706421	2.0036383867263794	-0.06184232234954834	1.1646252870559692	1.1042643710970879	2.088842511177063	0.04853147268295288	2.073633313179016	1.805450201034546	1.0405730046331882	1.7956337928771973	-1.2142188549041748	-0.1740865707397461	1.656684160232544	1.8061366081237793	2.131551742553711	0.9601301960647106	-0.26696622371673584	0.890512652695179	0.13360798358917236	1.525172233581543	4.395630359649658	0.1983901858329773	0.10643023252487183	-0.37006330490112305	1.1824013143777847	-0.1740351915359497	1.8259538412094116	2.152068614959717	1.2213118225336075	2.320969820022583	1.2562181651592255	9.501837730407715	0.5319494009017944	0.44057321548461914	1.305320292711258	0.15688174962997437	0.7955034673213959	0.4700239896774292	3.1515445709228516	0.506049394607544	0.5659261047840118	1.7037752270698547	-0.3456707000732422	1.3937891721725464	1.429107815027237	1.1234780848026276	0.9760424457490444	1.9192666411399841	0.8547836989164352	0.3853520154953003	-0.6350212097167969	-0.1704413890838623	0.4002228379249573	3.333686590194702	1.3228582441806793	1.0174536667764187	0.4178782105445862	2.621986985206604	0.011171221733093262	3.0919079780578613	1.5986140966415405	0.6482727229595184	0.7137407958507538	1.7403432726860046	0.2951287627220154	0.4073643088340759	0.5761499404907227	-0.4730278253555298	0.004316806793212891	2.9842385053634644	2.223955750465393	1.6166641116142273	-2.112226724624634	2.161486029624939	2.100765347480774	2.300797939300537	1.9287503957748413	0.598145067691803	-0.3231654167175293	1.6890143156051636	2.707971453666687	0.2297499179840088	0.50168177485466	-0.17657744884490967	1.5655388236045837	1.4608328938484192	1.0199741311371326	2.7640814781188965	-0.01400768756866455	3.121126174926758	0.8545659184455872	1.2360763251781464	-0.08079731464385986	0.7379018366336823	0.7886435836553574	0.5751904845237732	0.3986336588859558	0.380449116230011	0.4236677885055542	0.4244757294654846	-0.025230050086975098	0.7668464034795761	1.2724908888339996	0.26351457834243774	1.6585445404052734	2.134589433670044	1.1709535121917725	3.0609490871429443	1.9334018230438232	3.5478203296661377	1.2150658518075943	1.8159263730049133	-0.6115680932998657	1.5843708515167236	0.7058289051055908	2.8695857524871826	3.283325433731079	0.5837383270263672	1.0587800852954388	2.053346872329712	0.9772135149687529	0.26679182052612305	0.8636666089296341	2.482215166091919	1.0053044809028506	2.55130672454834	3.699195146560669	1.6476869583129883	1.4880077540874481	-0.768682599067688	2.0949811935424805	1.068709671497345	0.2247641682624817	2.2513551712036133	1.588781476020813	1.4256242513656616	0.7583601027727127	2.3077701330184937	2.5884746313095093
