label	0	1	2	3	4	5	6	7	8	9	10	11	12	13	14	15	16	17	18	19	20	21	22	23	24	25	26	27	28	29	30	31	32	33	34	35	36	37	38	39	40	41	42	43	44	45	46	47	48	49	50	51	52	53	54	55	56	57	58	59	60	61	62	63	64	65	66	67	68	69	70	71	72	73	74	75	76	77	78	79	80	81	82	83	84	85	86	87	88	89	90	91	92	93	94	95	96	97	98	99	100	101	102	103	104	105	106	107	108	109	110	111	112	113	114	115	116	117	118	119	120	121	122	123	124	125	126	127	128	129	130	131	132	133	134	135	136	137	138	139	140	141	142	143	144	145	146	147	148	149	150	151	152	153	154	155	156	157	158	159	160	161	162	163	164	165	166	167	168	169	170	171	172	173	174	175	176	177	178	179	180	181	182	183	184	185	186	187	188	189	190	191	192	193	194	195	196	197	198	199	200	201	202	203	204	205	206	207	208	209	210	211	212	213	214	215	216	217	218	219	220	221	222	223	224	225	226	227	228	229	230	231	232	233	234	235	236	237	238	239	240	241	242	243	244	245	246	247	248	249	250	251	252	253	254	255	256	257	258	259	260	261	262	263	264	265	266	267	268	269	270	271	272	273	274	275	276	277	278	279	280	281	282	283	284	285	286	287	288	289	290	291	292	293	294	295	296	297	298	299	300	301	302	303	304	305	306	307	308	309	310	311	312	313	314	315	316	317	318	319	320	321	322	323	324	325	326	327	328	329	330	331	332	333	334	335	336	337	338	339	340	341	342	343	344	345	346	347	348	349	350	351	352	353	354	355	356	357	358	359	360	361	362	363	364	365	366	367	368	369	370	371	372	373	374	375	376	377	378	379	380	381	382	383	384	385	386	387	388	389	390	391	392	393	394	395	396	397	398	399	400	401	402	403	404	405	406	407	408	409	410	411	412	413	414	415	416	417	418	419	420	421	422	423	424	425	426	427	428	429	430	431	432	433	434	435	436	437	438	439	440	441	442	443	444	445	446	447	448	449	450	451	452	453	454	455	456	457	458	459	460	461	462	463	464	465	466	467	468	469	470	471	472	473	474	475	476	477	478	479	480	481	482	483	484	485	486	487	488	489	490	491	492	493	494	495	496	497	498	499	500	501	502	503	504	505	506	507	508	509	510	511	512	513	514	515	516	517	518	519	520	521	522	523	524	525	526	527	528	529	530	531	532	533	534	535	536	537	538	539	540	541	542	543	544	545	546	547	548	549	550	551	552	553	554	555	556	557	558	559	560	561	562	563	564	565	566	567	568	569	570	571	572	573	574	575	576	577	578	579	580	581	582	583	584	585	586	587	588	589	590	591	592	593	594	595	596	597	598	599	600	601	602	603	604	605	606	607	608	609	610	611	612	613	614	615	616	617	618	619	620	621	622	623	624	625	626	627	628	629	630	631	632	633	634	635	636	637	638	639	640	641	642	643	644	645	646	647	648	649	650	651	652	653	654	655	656	657	658	659	660	661	662	663	664	665	666	667	668	669	670	671	672	673	674	675	676	677	678	679	680	681	682	683	684	685	686	687	688	689	690	691	692	693	694	695	696	697	698	699	700	701	702	703	704	705	706	707	708	709	710	711	712	713	714	715	716	717	718	719	720	721	722	723	724	725	726	727	728	729	730	731	732	733	734	735	736	737	738	739	740	741	742	743	744	745	746	747	748	749	750	751	752	753	754	755	756	757	758	759	760	761	762	763	764	765	766	767	768
lagnarsi_1	0.4554728865623474	1.7792116403579712	0.8274616599082947	1.0907253548502922	0.36647558212280273	2.270707845687866	0.5750227570533752	-5.74915075302124	-0.39695191383361816	4.043698310852051	-0.5573564767837524	0.5868144035339355	2.972169876098633	0.6832209527492523	2.519123077392578	1.1192322969436646	-0.29502689838409424	2.189138412475586	0.48522329330444336	0.6186064779758453	1.3039067089557648	3.877478837966919	0.7043908834457397	-0.4730015993118286	2.0576616525650024	0.5295563638210297	-0.6852219104766846	0.533451497554779	1.927174687385559	2.3366706371307373	0.8415283709764481	1.8528198599815369	-0.02242100238800049	2.9871760606765747	1.8714749217033386	1.1515921354293823	0.39791566133499146	1.1459168046712875	-0.2211529016494751	0.7791274935007095	1.1713160425424576	2.278069019317627	1.5973348021507263	2.899288535118103	1.2144573032855988	-12.625354766845703	1.603381872177124	0.416312038898468	3.5885696411132812	1.3114632964134216	2.430595874786377	1.3393768966197968	-0.8734405040740967	-0.8601847887039185	2.985328793525696	1.7290119528770447	3.2588138580322266	-0.5758265256881714	1.3103850185871124	2.4182108640670776	1.7887182831764221	1.0101064015179873	0.7143119871616364	1.2672483921051025	2.5135353803634644	1.286215901374817	-0.37090229988098145	2.591755747795105	2.7906700372695923	1.1011590138077736	2.2740849256515503	0.9283544346690178	-0.8131436109542847	-1.8542494773864746	1.924512267112732	2.7052396535873413	-1.8417341709136963	0.710853099822998	2.7808088064193726	3.017615795135498	0.24741500616073608	2.104859471321106	0.6030497252941132	2.6371253728866577	2.084101438522339	-0.5689473152160645	0.033380210399627686	-0.7692794799804688	3.3857662677764893	1.312034547328949	0.6614023745059967	4.072124004364014	0.718971848487854	0.6793437600135803	3.475560426712036	1.1043093651533127	1.0275276023894548	0.7863807678222656	1.9944444298744202	2.2742228507995605	-0.04076492786407471	0.5013274550437927	-0.8084235191345215	-0.3452010154724121	1.8227593302726746	0.3766859769821167	-1.3190617561340332	1.548872470855713	-0.7725290060043335	0.1592543125152588	-0.020531892776489258	0.19182127714157104	2.9125736951828003	0.45120543241500854	0.47829288244247437	0.9241926670074463	-0.13353359699249268	2.02962863445282	2.701604127883911	0.9011528715491295	2.014632821083069	2.2204792499542236	0.33128786087036133	-0.12842822074890137	1.3139477372169495	0.16598016023635864	0.7847666591405869	2.8201507329940796	-0.46848738193511963	3.0057196617126465	-0.039307475090026855	1.322949767112732	1.5158763527870178	0.5701040625572205	3.2501227855682373	0.34721410274505615	3.147611141204834	2.462254285812378	0.6342386901378632	0.7560121864080429	1.727935016155243	-0.26819372177124023	1.9601824283599854	-1.2309718132019043	1.3617846071720123	1.4284490048885345	-0.3147599697113037	1.6174717545509338	2.1780604124069214	0.49337315559387207	0.8898343145847321	1.725789189338684	-0.08212566375732422	0.6986573338508606	0.39128994941711426	1.621657133102417	0.10055232048034668	1.3461456894874573	0.21105480194091797	1.1084720343351364	1.5848578214645386	3.8682429790496826	1.8247119188308716	1.5677691102027893	-0.2450854778289795	0.19931745529174805	1.1136816442012787	4.189625024795532	2.6103917360305786	1.0173225160688162	0.8232102990150452	2.372470498085022	2.062595009803772	0.7065645456314087	2.411918878555298	1.4464206099510193	-0.11183369159698486	2.7457571029663086	2.425456404685974	2.993997812271118	-0.2400752305984497	1.3970238268375397	0.6882568299770355	2.961320638656616	-2.03118634223938	-0.0833437442779541	1.6928750276565552	0.42568784952163696	3.0246973037719727	1.3320201635360718	0.5694414377212524	-2.6381657123565674	-0.6822937726974487	1.0689294412732124	2.1350187063217163	1.6700443625450134	0.14381533861160278	1.7030580043792725	0.6473323106765747	3.7443511486053467	3.038769483566284	0.10317975282669067	2.294301748275757	0.39731812477111816	3.2712275981903076	0.4856504797935486	1.9539108872413635	1.7302100658416748	0.11557209491729736	0.5700143575668335	1.79714435338974	1.012471861205995	-0.808868408203125	1.3086142539978027	0.8381785452365875	2.866353988647461	0.12666118144989014	2.1251237392425537	0.8614701330661774	0.6459550559520721	1.1745336055755615	0.5827866196632385	-0.3412438631057739	1.323589712381363	-1.4434616565704346	1.9745596051216125	-1.0212230682373047	1.0105760665610433	-0.9579224586486816	0.5160338878631592	4.2079362869262695	2.4991034269332886	1.467521995306015	-0.5850620269775391	1.1604814231395721	2.0591520071029663	-0.7246426343917847	0.004398822784423828	-0.31422340869903564	1.9643020033836365	0.7568495124578476	-1.0507571697235107	0.15533512830734253	2.3048388957977295	-0.0036661624908447266	1.0247909761965275	2.2386409044265747	1.7051506042480469	2.1852004528045654	4.349717855453491	0.618798553943634	1.3531501293182373	1.1511285156011581	0.3157554864883423	-0.24556350708007812	0.31360292434692383	0.9750834368169308	-0.27570033073425293	1.4076739847660065	0.15657109022140503	0.7065340280532837	1.6905697584152222	1.848546028137207	1.8838298916816711	-0.6884595155715942	4.281175374984741	-0.571010947227478	-0.2166968584060669	-0.687753438949585	-0.6014711856842041	0.28425294160842896	-0.43973100185394287	2.841339349746704	1.5092985033988953	0.3442283868789673	0.05618792772293091	1.757435917854309	0.5137819349765778	0.24884098768234253	1.6048178672790527	3.9161860942840576	-0.41887569427490234	1.515181064605713	1.5887818932533264	1.364156574010849	0.790390744805336	-0.7140905857086182	0.18222475051879883	-0.8209483623504639	1.8076094388961792	1.898669958114624	-1.1258199214935303	0.2587210536003113	0.5155544281005859	-0.8091096878051758	3.5933678150177	-1.0225615501403809	-0.9778823852539062	-1.0454981327056885	0.5200600028038025	0.681377112865448	0.9436273314058781	0.5224362015724182	0.13925474882125854	2.1999950408935547	0.26355814933776855	0.08940321207046509	0.8164769560098648	1.237206593155861	1.2104403674602509	-1.3697421550750732	-0.4795798063278198	-0.2814894914627075	-0.08181822299957275	2.594998598098755	2.3508198261260986	2.5982969999313354	1.436429738998413	1.079494409263134	-0.8212721347808838	-18.148221969604492	1.9173179864883423	-0.028377413749694824	0.6248794794082642	3.2805352210998535	1.6534711122512817	0.8219182938337326	0.4781741499900818	1.1241139248013496	0.7923015654087067	0.8790013045072556	0.9138186722993851	-3.387936592102051	1.440272957086563	0.4148440361022949	0.5114906430244446	2.382447123527527	-0.45997440814971924	1.9385282397270203	2.215531587600708	2.584611177444458	0.6215266287326813	1.8274240493774414	1.1332305371761322	1.051223088055849	-2.836298942565918	2.236262559890747	0.6552965641021729	1.229016587138176	0.5581302642822266	1.0446687452495098	0.6915890872478485	1.2234524488449097	1.7355611324310303	2.335098385810852	2.2579143047332764	0.5987293720245361	0.48807185888290405	-0.803298830986023	0.4104146361351013	0.4911082983016968	-0.3048328161239624	3.928990125656128	1.02939722687006	1.3788208663463593	1.4685560166835785	2.6074389219284058	2.797937273979187	2.9481401443481445	0.7531852275133133	2.6005756855010986	0.9473766833543777	3.094503879547119	-0.6652089357376099	-0.037964582443237305	-0.4260951280593872	1.8974462747573853	1.0969723835587502	3.0888783931732178	1.0967062562704086	1.6133952140808105	1.0534013099968433	1.7703045010566711	1.2707388699054718	2.302978277206421	1.7661104798316956	-0.3280060291290283	2.1204447746276855	-1.0572521686553955	1.912329614162445	0.50406613945961	0.4260674715042114	1.7222029566764832	-0.47271013259887695	1.1685155183076859	0.7662735432386398	1.6776136755943298	1.8512001633644104	3.272660970687866	-0.9981886148452759	0.09057897329330444	1.171452909708023	1.2141188383102417	0.22410279512405396	1.2234233021736145	-0.06280279159545898	1.342685580253601	1.6190924048423767	0.7115485370159149	-0.45888376235961914	0.7979533076286316	0.6869811713695526	2.095433235168457	2.593425750732422	2.3890615701675415	1.38058739900589	1.5232332348823547	1.5886138677597046	1.401616245508194	1.9369047284126282	2.649776816368103	0.5487748086452484	0.8140357732772827	0.9198170900344849	1.8980079889297485	1.370580643415451	1.5126192569732666	1.3172906041145325	0.8533200025558472	1.116174355149269	1.6992538571357727	1.1729149669408798	-0.6749677658081055	2.837743639945984	1.6982828378677368	-0.5448473691940308	-0.2581815719604492	3.058515787124634	0.6783752739429474	0.18543916940689087	2.295523762702942	2.0253125429153442	0.7889445871114731	1.7784759998321533	0.10537630319595337	0.6675771474838257	3.104076862335205	2.399988055229187	2.4735738039016724	0.9455642141401768	2.2167192697525024	1.1813608258962631	1.2467429488897324	1.9794860482215881	1.3648906350135803	0.08290624618530273	0.6303592622280121	-0.07589900493621826	0.4669809341430664	-0.4742492437362671	1.0274676457047462	1.251930832862854	1.2560923993587494	0.7966319471597672	3.016432285308838	0.6619853675365448	3.1551244258880615	0.04347139596939087	1.4025066494941711	0.6877036988735199	0.258350133895874	-0.6154539585113525	2.5776761770248413	-0.5556380748748779	1.7871452569961548	2.061915636062622	1.213793933391571	0.23376190662384033	0.8381474763154984	0.2748575806617737	-0.06650865077972412	-1.0328423976898193	2.210457921028137	1.6976369619369507	-0.6649866104125977	3.4691851139068604	2.1824076175689697	1.4677989482879639	1.3075810372829437	2.2067933082580566	1.0684470385313034	2.1836944818496704	1.0190868247300386	-0.09391188621520996	0.07078248262405396	0.7472346723079681	2.1975470781326294	-0.8016211986541748	1.8309728503227234	2.211024761199951	0.5988867580890656	1.2950204014778137	0.7225025594234467	0.3193668723106384	2.6416995525360107	-1.275425672531128	3.1738193035125732	0.07944977283477783	-0.02071976661682129	0.8659645617008209	1.4279410541057587	-0.06351613998413086	3.082888126373291	-0.6832253932952881	0.6918369829654694	1.2317930161952972	0.7498887479305267	1.746504545211792	0.9398132301867008	-2.8197920322418213	2.5340776443481445	0.11167418956756592	1.5274039506912231	-0.6386919021606445	-0.8055164813995361	-1.2928671836853027	0.9162775725126266	1.4321622550487518	2.4259564876556396	1.3976101279258728	0.4125559329986572	2.2983027696609497	1.5469079613685608	2.5952084064483643	1.8947243690490723	-0.7023457288742065	0.10238510370254517	-0.4510810375213623	0.8555134832859039	0.8914666250348091	1.3957752287387848	0.5225604474544525	1.7771000266075134	1.6245321035385132	3.086848020553589	1.0721210464835167	-0.08451294898986816	0.3688845634460449	1.458462804555893	-0.5633904933929443	1.579962134361267	1.861492931842804	1.8172177076339722	1.561206042766571	2.201225996017456	0.910777173936367	0.9301322177052498	-0.29373931884765625	2.6313180923461914	3.5398123264312744	2.1576532125473022	0.7641684114933014	0.678115963935852	0.9020109549164772	-1.142575979232788	-0.018857240676879883	1.2667526602745056	-0.06293916702270508	1.2703694999217987	-0.050035834312438965	19.10221290588379	3.244964599609375	-0.6397267580032349	0.997432780219242	2.404368758201599	1.6236183643341064	1.0725635215640068	3.855846405029297	1.159117504954338	1.674708604812622	0.9549233093857765	1.0973842069506645	0.6903857588768005	2.995968222618103	1.2533580660820007	2.6705849170684814	0.4080018401145935	0.27097851037979126	1.9653123021125793	3.9937584400177	3.0638444423675537	-1.7742407321929932	3.2731149196624756	1.4383423924446106	2.3863911628723145	0.029467225074768066	2.1376532316207886	-0.37534213066101074	0.916773222386837	2.245255708694458	0.8619083166122437	0.7000130712985992	2.014338970184326	2.9463891983032227	-0.8512039184570312	-0.14491164684295654	1.4995824098587036	2.1691296100616455	-1.2455570697784424	-1.8028268814086914	0.7398791015148163	1.2883789837360382	-1.9744572639465332	-0.13829445838928223	3.4592785835266113	1.9710959792137146	-1.9764740467071533	0.8241676092147827	1.4737575054168701	0.04069995880126953	2.0104143619537354	0.4480282664299011	0.5142633616924286	-0.2950669527053833	2.2278287410736084	0.03752487897872925	-0.5430155992507935	3.608590602874756	1.0339659564197063	0.23675751686096191	-0.448506236076355	2.008368968963623	1.738902747631073	2.4058871269226074	1.8250631093978882	0.7393093109130859	2.302302122116089	1.626491129398346	1.2006415724754333	-1.215207815170288	0.29775840044021606	1.5579501390457153	0.531920313835144	2.3578131198883057	0.7888944298028946	3.4848921298980713	-0.9341498613357544	0.877348005771637	1.7139381170272827	1.4846694469451904	0.5043286979198456	1.8849050998687744	0.6498567163944244	-0.22149372100830078	2.183648467063904	2.6184407472610474	1.384520798921585	1.0824914425611496	2.342449188232422	0.7280054688453674	12.948545455932617	2.9590108394622803	0.8647058755159378	-0.09662091732025146	2.4643633365631104	-0.11461484432220459	1.2752138674259186	1.3561881482601166	-0.15511608123779297	1.5300602912902832	0.4947327971458435	1.7328108549118042	1.105138137936592	1.3929200768470764	0.5905263125896454	0.6510416865348816	-0.8957593441009521	2.779257655143738	0.6948399245738983	-0.35116636753082275	1.8687939643859863	1.1386372298002243	0.005912899971008301	1.1657667607069016	2.9046294689178467	-1.5183675289154053	1.4475593268871307	-0.9913610219955444	0.39760518074035645	1.5913217067718506	-0.4674283266067505	2.538828134536743	2.685845971107483	-1.681584358215332	0.344241738319397	0.9022411927580833	-1.4212870597839355	2.497907876968384	1.5016647577285767	0.49806922674179077	-0.062316179275512695	-0.8469666242599487	0.9076555296778679	0.27137279510498047	0.7182064354419708	1.4127633273601532	1.0099722957238555	1.0266321301460266	1.5520665645599365	2.240762948989868	0.9434827454388142	2.1894317865371704	-0.29263317584991455	1.0961516425013542	1.654751718044281	0.9193755313754082	0.5909293591976166	-0.5506515502929688	0.02167600393295288	1.973378300666809	1.123320609331131	1.1939028650522232	3.139923572540283	0.3976517915725708	-2.249938726425171	0.7195106446743011	2.247961163520813	0.2995479106903076	-0.39743268489837646	-0.43187451362609863	0.8199980109930038	1.7749464511871338	-0.44053781032562256	3.0756378173828125	2.711430072784424	0.6006362736225128	1.9891295433044434	1.6241999864578247	2.2829991579055786	-0.5970937013626099	2.067033886909485	2.06563138961792	1.048412062227726	0.24490654468536377	1.4936697781085968	-0.19564270973205566	1.5539664030075073	0.22648674249649048	1.4636077880859375	1.2052302807569504	-0.10158300399780273	1.9246812462806702	-0.05901002883911133	-0.44011473655700684	-0.6313647031784058	1.7153750658035278	1.8204309940338135	2.2607096433639526	1.1869686096906662	2.2572823762893677	0.9340595901012421	0.21320277452468872	1.0418559834361076	3.307664632797241	0.6150242388248444	0.059528887271881104	1.0086019458249211	0.97298464179039
lamentare_1	-0.701913595199585	0.784265473484993	1.5401771664619446	-0.8206080198287964	1.4390900433063507	1.1885519325733185	0.5881638526916504	-6.715024471282959	0.6837661266326904	3.7023632526397705	0.8173824846744537	-0.2240123748779297	2.8241214752197266	3.805647373199463	2.3005266189575195	2.679865598678589	-1.1198737621307373	1.413526326417923	2.1907392740249634	1.0013047048123553	2.043932557106018	2.2094067335128784	2.907077670097351	1.2344977855682373	1.1938177198171616	1.5979111194610596	0.22096991539001465	3.201807975769043	0.3284682035446167	0.26615339517593384	2.638570785522461	-0.7221851348876953	0.12147659063339233	3.1479392051696777	-0.2656838893890381	1.4165147542953491	1.7937986254692078	1.8533149361610413	1.092858001589775	0.3223327398300171	0.19971126317977905	1.5838434100151062	2.3089189529418945	3.8629941940307617	0.7542503327131271	-16.678466796875	0.9204118475317955	3.376896858215332	-1.0738754272460938	2.103610396385193	3.3696606159210205	0.5365159213542938	0.902837723493576	1.5960423350334167	5.465514183044434	1.8863524198532104	1.1410639733076096	-0.8147776126861572	0.7758380323648453	3.4795680046081543	1.1002288833260536	2.471382737159729	-0.8047757148742676	1.749754011631012	1.353215515613556	3.2172904014587402	-0.8919585943222046	1.2026397287845612	3.382821559906006	0.23217958211898804	1.6743941903114319	-0.28881406784057617	-1.0465314388275146	-0.2567768096923828	1.725091278553009	0.6352735757827759	-0.0924609899520874	2.5019636154174805	0.9869246138259768	0.5376129150390625	0.341375470161438	3.1198818683624268	2.4995311498641968	2.6854406595230103	1.2448194175958633	0.7626799792051315	0.4927632212638855	-1.6957151889801025	0.634635865688324	0.5862978398799896	2.6042914390563965	1.8797640204429626	-0.23411035537719727	-0.10377669334411621	1.5235115885734558	3.562025785446167	3.5910747051239014	0.2639738917350769	0.8379580229520798	2.347099781036377	0.12697428464889526	-0.2733548879623413	-0.8131753206253052	-0.9668302536010742	0.8398951441049576	1.1563522517681122	1.8480312824249268	1.1989146023988724	0.16525089740753174	-2.936927556991577	0.5557085275650024	-1.667616367340088	3.1884682178497314	-0.2589682340621948	-0.15703201293945312	-0.09310829639434814	-1.0650138854980469	2.0865249633789062	1.6884849071502686	3.3954224586486816	0.8081836700439453	1.4608702659606934	-0.38405680656433105	0.15215420722961426	0.41416943073272705	-0.3682469129562378	3.9252614974975586	2.2504647970199585	0.5028150975704193	0.9894054681062698	1.100289985537529	1.5525004267692566	0.8937293291091919	1.9691807627677917	-0.28467655181884766	0.9211396351456642	2.407891035079956	3.2987425327301025	-0.09050655364990234	2.363615870475769	2.8697428703308105	-0.6256572008132935	1.1046176329255104	-0.6519508361816406	0.25479984283447266	1.2214248329401016	0.727210283279419	1.106216512620449	0.8703310936689377	1.8349786400794983	1.1790121644735336	0.711455374956131	-0.007679939270019531	-0.013977527618408203	1.4089014530181885	-0.7446029186248779	0.284881591796875	-0.5930616855621338	-1.0231928825378418	2.919331192970276	2.4117016792297363	2.495042324066162	-0.2447528839111328	2.7393006086349487	-0.07871007919311523	1.7056185007095337	0.46756458282470703	4.589583396911621	3.258246421813965	2.154898524284363	0.33007287979125977	1.8225178122520447	2.4271539449691772	0.602035254240036	0.6410717368125916	2.2530155181884766	1.093669779598713	1.6798942685127258	2.227744460105896	1.5931434631347656	3.6332356929779053	1.4597243666648865	0.7022029459476471	3.3648455142974854	-1.549659013748169	0.9149687215685844	2.823724150657654	2.6072041988372803	1.0999465882778168	1.9308449625968933	3.055920124053955	-1.750227689743042	-0.8513273000717163	1.4816234111785889	2.084815502166748	1.9071681499481201	1.8179130554199219	0.8789139911532402	0.37949997186660767	2.0398300886154175	2.367013931274414	1.0441382229328156	3.0374019145965576	3.9655649662017822	-0.2508664131164551	1.0146173341199756	1.6728859543800354	3.259080410003662	-0.43315184116363525	2.160459876060486	0.2038998007774353	0.5401840806007385	-1.3195078372955322	-2.3524935245513916	1.7486503720283508	1.5485246181488037	1.6909101009368896	2.499623656272888	1.6131504774093628	0.13975310325622559	2.0132901668548584	-1.863077163696289	0.22200876474380493	-0.33850276470184326	-1.0187759399414062	1.5155435800552368	-0.43021130561828613	-0.48841798305511475	0.9110880270600319	0.9553040042519569	2.0623377561569214	0.9034251049160957	2.8453274965286255	-0.2937896251678467	0.5415512025356293	0.9542215429246426	0.21702289581298828	2.0386918783187866	1.9192549586296082	1.226589635014534	1.2864662408828735	-0.47634828090667725	0.6035731732845306	-1.1851141452789307	0.8453521728515625	3.013582468032837	1.2149463593959808	0.799051359295845	1.4816936552524567	4.041286945343018	0.47955358028411865	2.7099220752716064	1.2268959283828735	0.3455905318260193	2.4597378969192505	0.8058139234781265	-1.6831440925598145	0.7141237556934357	1.3997496962547302	-2.879871368408203	3.174940347671509	3.307804822921753	1.1233258247375488	1.503570020198822	1.0924919992685318	3.0562710762023926	1.1702281385660172	-1.2717533111572266	-0.4377477169036865	-1.8162117004394531	-0.6052747964859009	1.8217911124229431	1.924652338027954	1.6340485215187073	0.6778448820114136	2.4914615154266357	0.6886951327323914	1.1752386838197708	-0.0067642927169799805	1.412089467048645	1.4743240475654602	-0.18808305263519287	0.36008328199386597	3.1448538303375244	0.8802565187215805	-0.38689732551574707	0.8581679463386536	3.930788516998291	1.6069416999816895	3.151710271835327	2.285068154335022	-0.08653855323791504	-2.125502824783325	-0.553560733795166	1.1650670170783997	-0.041719913482666016	3.2059874534606934	-2.7496421337127686	-1.0379407405853271	4.243950605392456	1.0121601512655616	1.2150413542985916	1.974170446395874	1.678027629852295	1.4771602153778076	1.4667181372642517	-0.9637161493301392	-0.45939648151397705	0.46837395429611206	0.4873940348625183	-0.6473665237426758	-0.77568519115448	-0.5585843324661255	-0.12094199657440186	2.801396369934082	3.4157979488372803	1.6622717380523682	-0.4174821376800537	0.5914999842643738	1.2743107378482819	-19.53839111328125	2.511082410812378	0.6835611760616302	0.6212700009346008	1.7708424925804138	0.22731870412826538	1.4905572533607483	-1.4296932220458984	2.423798680305481	-0.2689216136932373	2.213530421257019	-0.6096304655075073	-2.873688220977783	0.9055220931768417	2.132489562034607	1.1826514899730682	-0.6709226369857788	1.1895304024219513	3.2887184619903564	-2.3273744583129883	2.910320997238159	0.02564871311187744	1.2222207635641098	0.03603339195251465	1.3527191877365112	0.6455032825469971	0.6433490812778473	0.4564674496650696	2.29221773147583	2.0369991064071655	0.7869398146867752	-0.8090964555740356	1.3999244272708893	1.6422464847564697	3.1505415439605713	0.8806468695402145	0.05302995443344116	1.769647479057312	0.9719468113034964	3.375185012817383	-0.3316611051559448	0.8519067615270615	2.1289150714874268	-0.41566574573516846	3.137918472290039	0.6297988295555115	0.8142337501049042	0.9592855982482433	1.9210897088050842	0.2625412344932556	1.2614987194538116	3.207814931869507	2.980620503425598	1.141589492559433	-0.8957961797714233	0.4465307593345642	1.6204416155815125	0.7449020445346832	-1.1256959438323975	1.361236721277237	1.7669677734375	-0.05806732177734375	0.6563768684864044	2.679035186767578	1.9953855276107788	2.1429152488708496	0.0070708394050598145	-1.2967746257781982	-0.4847605228424072	0.8768904432654381	0.6719364523887634	2.176395535469055	1.5403245687484741	0.9544817097485065	0.1749190092086792	1.7886632084846497	1.844646692276001	1.2610551416873932	3.116722822189331	0.7536717802286148	1.332665741443634	0.400321900844574	1.4203479290008545	0.8178084194660187	0.9052458554506302	0.6737013459205627	0.8222869336605072	-0.6047159433364868	1.772495985031128	1.9776906967163086	0.19874101877212524	0.4894711375236511	3.3570802211761475	3.0723023414611816	1.6800736784934998	2.850830316543579	1.3581555485725403	1.6614071726799011	2.276828169822693	2.66021990776062	1.478530615568161	-0.13584589958190918	-2.175281524658203	0.9375425353646278	1.965245246887207	0.3522961139678955	-0.14358019828796387	2.297552227973938	-0.23390352725982666	-0.3301023244857788	0.9616488441824913	2.437844753265381	-1.343646764755249	2.4887375831604004	0.8305587619543076	-0.34336650371551514	-0.17483890056610107	1.8220602869987488	2.8996376991271973	1.5668928027153015	-0.21214687824249268	-0.443731427192688	0.9602639079093933	1.3503480553627014	-0.8380476236343384	0.08176422119140625	1.5993149280548096	2.6190268993377686	3.1465232372283936	3.682292938232422	0.1778123378753662	2.269125819206238	0.7165585458278656	0.4838498830795288	2.6069698333740234	-0.12673914432525635	-0.02896106243133545	0.5133605897426605	1.5223499536514282	0.2547425627708435	0.40669965744018555	1.2236362844705582	1.5485122799873352	2.020827293395996	0.5524844825267792	0.6351276636123657	1.5978703498840332	0.7204641103744507	1.2689344882965088	0.33104926347732544	-1.0508460998535156	-0.29252707958221436	1.3792339265346527	-0.46526145935058594	1.220984786748886	1.0625245198607445	0.46596723794937134	0.5947408676147461	0.5203878581523895	-0.7309262752532959	0.7297511994838715	1.7692806720733643	0.5805734694004059	2.1103814840316772	-1.1223289966583252	1.032880537211895	1.6031122207641602	1.4667024314403534	1.958957016468048	1.1217150315642357	-0.645904541015625	0.4158517122268677	-0.07281327247619629	0.7550683915615082	-4.219107151031494	1.0063172751106322	2.573274612426758	1.4038470089435577	1.3741666674613953	0.634439617395401	2.025528073310852	1.1504296362400055	3.0554723739624023	0.3716012239456177	2.778831720352173	0.6476392149925232	0.25460708141326904	0.7543039619922638	1.89612478017807	-0.12271428108215332	-0.9534772634506226	-0.3015710115432739	1.6382972598075867	2.0731377601623535	1.3882127404212952	0.33348536491394043	0.7305799424648285	2.67421293258667	1.5113710761070251	-0.0011771917343139648	1.6225824356079102	0.5424156188964844	1.8092327117919922	-1.189265489578247	2.0263949632644653	1.6380387544631958	0.3305473327636719	-1.98468017578125	1.4821395874023438	2.2899742126464844	0.1133660078048706	2.090204119682312	3.686168670654297	0.7754929065704346	1.2522736191749573	0.23262596130371094	-1.3127679824829102	1.140462651848793	2.333961009979248	1.0231956969946623	2.0128968954086304	3.156346559524536	2.2344545125961304	2.363293170928955	2.003806948661804	1.4029726386070251	-1.2607638835906982	-2.0703837871551514	0.4090349078178406	-0.3628479242324829	1.578105092048645	3.151726484298706	2.180293083190918	-0.16785049438476562	2.342679500579834	-0.45323991775512695	0.4775853157043457	-2.2543094158172607	2.8384549617767334	4.100991487503052	1.4227543771266937	0.5267511606216431	1.8356726169586182	1.412973016500473	-0.6722215414047241	0.9906244687736034	0.14445394277572632	1.8433996438980103	-0.07229816913604736	0.058748602867126465	22.19707489013672	1.837156355381012	-1.37630033493042	2.3718501329421997	3.292841911315918	-0.11301755905151367	2.7299442291259766	2.361604690551758	-0.31160640716552734	1.8397253155708313	1.2850564122200012	0.8775920048356056	0.22806912660598755	-0.7638537883758545	2.6784814596176147	1.4935832023620605	0.7533846944570541	0.735765665769577	3.461700439453125	3.4299583435058594	2.1880574226379395	0.057593345642089844	-0.21649670600891113	0.3790608048439026	1.9122756123542786	1.1750288009643555	5.523996829986572	-1.0050694942474365	1.5090547800064087	0.9816761147230864	-0.49039435386657715	2.3377081155776978	3.3418943881988525	1.7825454473495483	-0.699593186378479	1.0755067020654678	2.3338695764541626	1.3908101618289948	-0.5438944101333618	-0.8681703805923462	1.1533365845680237	-0.05314064025878906	0.34835904836654663	-0.10635614395141602	-0.6390879154205322	0.08505946397781372	-3.751675605773926	1.6394609808921814	3.0424959659576416	2.337104320526123	0.11081427335739136	-0.1639540195465088	0.14585888385772705	-0.5847543478012085	5.215048313140869	0.11332756280899048	0.29707759618759155	2.653143286705017	0.33486682176589966	1.153148353099823	0.158369243144989	2.7847718000411987	2.834198832511902	2.782544493675232	0.7627701014280319	0.9732677843421698	2.787227511405945	1.7501070499420166	0.6245740950107574	0.1001250147819519	-1.3801653385162354	1.0168028250336647	1.4680377840995789	3.53615665435791	-0.3359287977218628	1.2451646029949188	-0.3108559846878052	2.2593162059783936	2.461811900138855	1.9446776509284973	0.4589843153953552	-0.2837022542953491	-2.1650888919830322	0.05146819353103638	2.1250789165496826	-0.0886685848236084	3.8506364822387695	0.9761936590075493	1.302758514881134	1.070651389658451	9.061448097229004	-0.16537392139434814	0.19345623254776	2.4693788290023804	2.6636563539505005	1.4902719855308533	1.719504475593567	1.581444501876831	2.0947757959365845	1.599388062953949	3.3163723945617676	2.0263088941574097	0.584042876958847	2.882970929145813	0.31771260499954224	1.829956591129303	1.0448341108858585	3.7216084003448486	1.7912032008171082	-0.5899782180786133	0.9287079125642776	-0.552021861076355	2.6212782859802246	-1.0069453716278076	0.6482694447040558	0.531900942325592	2.891538143157959	0.25925034284591675	1.0025077837053686	2.8616440296173096	0.15482765436172485	1.0930345505475998	1.0966398492455482	0.4197885990142822	0.11032873392105103	1.202966034412384	0.3706396222114563	0.7431851029396057	0.425719678401947	1.3555441498756409	2.735708236694336	-2.528717517852783	0.51369509100914	0.8113098442554474	0.659146249294281	0.06145685911178589	3.212876796722412	1.4440132677555084	0.0022039413452148438	3.0321905612945557	-0.04239380359649658	4.303567409515381	0.10140055418014526	1.1759082525968552	2.1500102281570435	0.7252685129642487	2.127744436264038	0.7073619365692139	0.4792622923851013	0.9412893354892731	2.586564540863037	0.2973920702934265	1.9773092865943909	2.411460041999817	-0.4316565990447998	1.2515218257904053	1.357604742050171	1.6218021512031555	0.1381041407585144	0.06176692247390747	1.595210611820221	0.8286148607730865	0.47798603773117065	0.7754326164722443	1.4885929226875305	-0.20050251483917236	1.3066431283950806	0.27877211570739746	2.3509281873703003	0.17915183305740356	2.7554495334625244	1.0971345379948616	0.6423981487751007	-0.14988446235656738	1.9818153381347656	-0.8114902973175049	0.21849048137664795	0.4451826214790344	0.6118440330028534	2.6493016481399536	1.519219696521759	0.6324721872806549	1.742845058441162	0.7266976237297058	1.2691995799541473	3.134012222290039	2.8140947818756104	0.9368448555469513	0.33918362855911255	-1.1837501525878906	1.358725130558014	1.022020386531949	0.7535496354103088	1.185740515589714	1.0360369384288788	2.0785828828811646	0.31140297651290894	0.8465197384357452
lamentare_4	0.08475792407989502	1.1323124170303345	1.6343822479248047	-0.3393160104751587	1.2465767413377762	0.932342879474163	0.8664660453796387	-5.579651832580566	1.6390870213508606	2.6817249059677124	0.6549928188323975	0.9293302595615387	2.6449058055877686	2.7970550060272217	1.9845556616783142	2.9160388708114624	-0.8640356063842773	2.1289955377578735	0.9918104810640216	0.6068535447120667	1.2964603304862976	1.247487634420395	1.5067045092582703	-0.40938401222229004	0.3600965142250061	1.8235007524490356	0.9611638858914375	1.2943761348724365	1.5760013461112976	2.42069149017334	0.2590782642364502	0.24566656351089478	-0.5716512203216553	2.503647208213806	0.9730098024010658	1.820074200630188	0.6938025951385498	0.5747098922729492	0.583472490310669	1.4943361282348633	1.0849618837237358	1.731370210647583	2.648097515106201	4.017301082611084	0.9753131214529276	-16.248414993286133	1.6660616993904114	2.0660871267318726	1.9895188808441162	1.0696185231208801	3.1964876651763916	0.866068884730339	0.763376772403717	-0.913516640663147	4.293957948684692	1.6995312571525574	2.205828905105591	-0.932815670967102	1.3216356933116913	2.8987114429473877	2.3525655269622803	2.5338404178619385	1.0477053187787533	1.8312960863113403	1.9635446667671204	2.035331130027771	-2.177410364151001	2.508099317550659	1.1797761917114258	0.4299384355545044	0.6994740962982178	1.0136391343548894	-1.3475689888000488	0.48887819051742554	1.3157275319099426	1.6648719310760498	1.9428696036338806	0.06062573194503784	1.8486964702606201	2.375109076499939	2.324516773223877	3.2569797039031982	2.953240394592285	1.4742030501365662	1.835903286933899	0.7941949814558029	-0.7636439800262451	-1.7265703678131104	0.7447445094585419	0.7080990672111511	1.6502477526664734	3.816742420196533	0.6158410906791687	0.7327835261821747	3.41662859916687	1.7669495940208435	3.2804646492004395	1.9306120872497559	-0.24009883403778076	0.7875193506479263	0.41864222288131714	1.0790973231196404	-1.8934621810913086	0.6308506727218628	2.1011855602264404	0.2677796483039856	0.6607334613800049	1.0169675573706627	-1.0061335563659668	-1.65091872215271	-1.1300992965698242	-0.9584914445877075	2.564128279685974	-0.02644050121307373	0.6719135344028473	-0.4069638252258301	-0.006607413291931152	1.2678642570972443	1.5341556072235107	2.0011218786239624	0.616915374994278	2.2846330404281616	0.40568429231643677	-0.5886316299438477	1.058256909251213	-0.2591041326522827	2.9126460552215576	0.6890192627906799	0.37556028366088867	2.5289254188537598	0.7007217407226562	1.7667308449745178	0.2635033130645752	1.6305721998214722	0.49291568994522095	1.4089751541614532	3.6627514362335205	2.663390874862671	-0.344673752784729	0.05019724369049072	0.9414809010922909	0.5895681381225586	1.7285588383674622	0.8107579350471497	1.801858901977539	1.9725108742713928	0.6232593357563019	0.9840491618961096	1.750286340713501	0.2533506155014038	-0.17481458187103271	1.6517803072929382	0.8555477261543274	-0.0893239974975586	-0.7267380952835083	1.1995712667703629	0.3080146908760071	0.19894129037857056	1.2758871018886566	2.9378479719161987	1.9550352692604065	2.76268470287323	1.5594494342803955	2.779470682144165	-1.0785894393920898	1.3177526891231537	0.51046222448349	5.315952301025391	1.7044063806533813	1.6707544922828674	1.2263835072517395	2.643699526786804	2.539085865020752	0.8854378908872604	2.099170207977295	2.111734986305237	0.057472288608551025	1.9122868180274963	3.362703561782837	1.210950955748558	1.022630263119936	0.9709977023303509	0.3085559606552124	2.078152298927307	-0.943564772605896	1.134629875421524	2.484408736228943	1.0238409712910652	0.6412636935710907	2.7298606634140015	0.7753486931324005	-3.266897678375244	-0.07711005210876465	0.8300134539604187	0.6173387467861176	1.0990588068962097	0.292092502117157	0.3150132894515991	1.3752617239952087	2.775731682777405	2.6611905097961426	0.6140605807304382	2.2447882890701294	1.1394825279712677	1.4701131284236908	0.6106924712657928	-0.5508091449737549	2.5256683826446533	1.1459482461214066	0.8111811131238937	0.659855306148529	3.6965978145599365	-1.215773582458496	-2.5776262283325195	0.6247003376483917	-0.0576702356338501	-0.1344311237335205	3.038965940475464	1.494537591934204	1.4045989513397217	-0.2113499641418457	0.8126769512891769	0.13422811031341553	0.25748205184936523	0.05956161022186279	1.4305340051651	0.33165091276168823	0.009289979934692383	-1.257277488708496	2.007254123687744	3.233621120452881	0.6639019846916199	3.580713987350464	-1.1867988109588623	0.11969119310379028	1.1336847096681595	0.3145369291305542	1.6705957651138306	-0.2579033374786377	0.7375572621822357	0.6635992228984833	-1.1042447090148926	-0.8772960901260376	0.5202666819095612	-0.45553529262542725	1.6923884153366089	1.192474514245987	1.0384123995900154	1.14849191904068	5.399778366088867	1.0305795781314373	1.3871475458145142	-0.32086312770843506	1.8136218190193176	1.9796932339668274	-0.41372716426849365	1.249810367822647	-0.30700254440307617	1.224085196852684	-1.9768967628479004	1.1033087372779846	0.9440942630171776	1.2901018857955933	0.37495118379592896	1.0287091918289661	3.1968274116516113	-1.2773091793060303	0.000990748405456543	-0.4153681993484497	-2.0753979682922363	-0.23029255867004395	0.06692755222320557	0.985089847818017	2.639062762260437	0.9372934699058533	2.769196391105652	0.8622316718101501	1.6225526928901672	1.058017984032631	0.13049548864364624	2.1603702306747437	1.0807843878865242	1.4607673287391663	1.7545770406723022	1.640377402305603	0.6111057996749878	0.15322327613830566	-0.14267122745513916	-0.8797425031661987	1.8381782174110413	1.941989243030548	-0.7582274675369263	-0.40728044509887695	0.21621936559677124	1.0154157988727093	1.8838289380073547	0.9057509824633598	-0.4639023542404175	-1.3593955039978027	1.8877410888671875	0.7819921672344208	3.014275312423706	0.5939310193061829	1.4586898684501648	2.5048558712005615	-0.2468571662902832	-0.24313747882843018	0.6549059748649597	1.9763839840888977	-0.4454613924026489	-1.22996187210083	1.1020040586590767	0.7897721976041794	-0.9144335985183716	2.631627321243286	3.1284339427948	0.45840996503829956	0.9933211198076606	-0.06365966796875	0.6122235357761383	-11.584813117980957	2.3131076097488403	0.2508992552757263	2.6931357383728027	2.84355890750885	0.03579038381576538	2.6544811725616455	-1.298128366470337	1.5971399545669556	0.1196051836013794	2.1954495906829834	-2.212291955947876	-3.904865264892578	2.514633536338806	0.6888139843940735	0.9582061804831028	-0.30949151515960693	-0.4668116569519043	2.0483137369155884	1.0830631405115128	3.4133524894714355	0.9929610183462501	3.7952497005462646	0.7521277517080307	1.6083482503890991	-0.6651743650436401	2.3227821588516235	0.01712268590927124	2.276194214820862	1.2141551673412323	1.008411849848926	-0.22626245021820068	0.5971846282482147	1.7026625871658325	2.8333688974380493	-0.18794989585876465	0.31238120794296265	1.7933796048164368	1.452895164489746	1.6338691711425781	0.31769293546676636	2.0486985445022583	3.0851950645446777	0.5439112484455109	1.3619325757026672	1.4375247657299042	0.790621742606163	3.1476833820343018	1.4639854431152344	-0.35741472244262695	0.9316060841083527	2.824209690093994	1.9626933932304382	-0.5668425559997559	-0.8731001615524292	-0.40788328647613525	1.0651276856660843	1.2244309931993484	0.19451689720153809	1.4663525521755219	2.143039107322693	1.783988893032074	1.4392438232898712	2.9834829568862915	3.3721325397491455	2.1175166368484497	-2.468876838684082	1.736800730228424	0.015132308006286621	0.674818754196167	0.9481807053089142	3.021117687225342	1.0943639650940895	0.4217997193336487	0.7181421220302582	2.318812131881714	1.4236758947372437	0.4461668133735657	2.8616827726364136	-0.7869876623153687	0.7910594642162323	-0.020165562629699707	3.163567543029785	0.47204726934432983	1.4556902647018433	-1.7408809661865234	-0.16026675701141357	0.5993872582912445	1.4056782126426697	-0.22309386730194092	1.3679233193397522	-0.1462956666946411	2.5386974811553955	3.954019546508789	2.7895121574401855	1.744899034500122	2.3301279544830322	0.15380090475082397	1.5282863974571228	2.309553027153015	1.6060383319854736	2.1635241508483887	0.06335330009460449	0.15938037633895874	0.203485369682312	1.9135549068450928	0.34032565355300903	1.3285176753997803	0.5556652545928955	1.9553016424179077	0.2998287081718445	1.5322470664978027	0.7206960618495941	2.3516080379486084	1.886185348033905	0.7041062712669373	0.6990088522434235	1.9962950944900513	0.7572246938943863	0.4157930016517639	1.2788830697536469	1.5346524715423584	-0.07338762283325195	3.142047643661499	0.5461161732673645	-0.4962271451950073	2.2145496606826782	0.269711434841156	2.7747087478637695	1.583972454071045	0.19442331790924072	1.1990955173969269	1.1115869358181953	2.0744025707244873	1.570751667022705	-0.06740128993988037	1.1894801259040833	-0.07225000858306885	2.0909262895584106	1.1941218823194504	-0.9244668483734131	-0.562640905380249	0.7409119009971619	1.0263555590063334	1.0246303062886	0.20810818672180176	1.3183883130550385	1.3218511641025543	1.3933612704277039	-0.4287381172180176	-0.07150733470916748	0.6020371317863464	0.8164003491401672	-1.0572950839996338	0.8209279775619507	1.2848531305789948	-0.30392682552337646	0.9316268414258957	0.776573434472084	1.9108492732048035	0.30279356241226196	3.2545948028564453	2.3992480039596558	1.8523703813552856	-1.7867343425750732	0.002604842185974121	1.775440752506256	2.1051374673843384	0.5358828604221344	2.076210379600525	-1.6364538669586182	0.7435973286628723	1.223996251821518	-0.47774553298950195	-3.2888636589050293	1.621640145778656	2.0306960344314575	0.4571327567100525	0.09040141105651855	1.1199872717261314	1.3447631001472473	1.418570637702942	1.7698264718055725	0.6946343183517456	1.8799995183944702	-0.22457826137542725	0.5907595157623291	-0.27025389671325684	-0.8979401588439941	-0.12807679176330566	-0.2773003578186035	0.6855262219905853	1.615689218044281	1.1599120795726776	2.2128440141677856	-0.04237020015716553	0.26079946756362915	2.2161203622817993	-0.306351900100708	-2.9283716678619385	2.7266581058502197	1.0348986685276031	1.0539757534861565	-0.9212710857391357	1.0926418974995613	0.6662784516811371	1.0375426672399044	0.9208560585975647	2.1060839891433716	2.63289475440979	-0.3042280673980713	1.4719350934028625	3.175905227661133	0.27636420726776123	0.45392102003097534	0.4463476538658142	-0.6787880659103394	0.7898031175136566	2.2906594276428223	0.21842825412750244	2.375947594642639	0.7707198411226273	-0.3930171728134155	0.9309086203575134	2.533714771270752	1.0040300940163434	1.5195337533950806	0.25839293003082275	1.5123513340950012	0.1431315541267395	1.663060486316681	2.1047677993774414	3.0105175971984863	0.17784631252288818	1.8576638102531433	0.0411718487739563	1.1474702507257462	0.20629996061325073	2.654993176460266	3.216944932937622	2.3541758060455322	1.2267268747091293	2.005772352218628	1.1483631283044815	0.5639603435993195	1.3723901212215424	0.8531083017587662	1.4272036850452423	0.2910640835762024	1.1173741295933723	21.625661849975586	3.2708675861358643	0.14269721508026123	1.3489517867565155	3.9139890670776367	1.1021210327744484	1.7469395399093628	3.0704751014709473	-0.8680723905563354	1.0209513939917088	1.0072408453561366	1.80245041847229	1.3939119577407837	1.590977430343628	1.5005937218666077	1.658802568912506	0.18328756093978882	-0.6218565702438354	3.029336929321289	5.044617176055908	4.763236999511719	-2.000383138656616	1.148561269044876	-0.5517839193344116	2.01662540435791	1.401767373085022	4.824811935424805	1.2626647353172302	0.6310894787311554	2.5938303470611572	0.3013044595718384	0.031136274337768555	2.4657665491104126	2.9763450622558594	-1.271352767944336	0.7755833119153976	2.334945559501648	0.9165515452623367	0.23275458812713623	1.7046437859535217	-0.10528004169464111	1.1189739853143692	-0.03205311298370361	-0.7036043405532837	0.5944543778896332	0.5505320131778717	-1.9482355117797852	1.2899428009986877	2.9311773777008057	1.2576660513877869	2.040597438812256	0.9119016379117966	0.20261073112487793	0.2937907576560974	1.4522071480751038	-0.4185141324996948	-0.290310263633728	4.397419691085815	1.9867339730262756	1.4351225197315216	-0.2845163345336914	1.5196481347084045	3.058500051498413	2.9095083475112915	0.9105503261089325	1.1201587319374084	2.8860702514648438	0.7544626891613007	0.2746184468269348	-0.681206226348877	0.9549634754657745	1.1982743293046951	-0.469978928565979	1.1845361292362213	2.2552348375320435	1.6636722087860107	-1.6480071544647217	1.1930884271860123	1.849718451499939	0.1871715784072876	0.7292082607746124	2.163862466812134	-1.3222873210906982	0.9700324852019548	1.8856834769248962	-0.15385937690734863	3.8969881534576416	0.6473033130168915	1.8127297163009644	0.6199829280376434	10.409971237182617	1.1513491421937943	2.2514768838882446	0.417270302772522	2.154037833213806	0.675529420375824	0.6556783318519592	3.3706881999969482	1.4835356175899506	1.0477663688361645	1.8804873824119568	2.5054858922958374	0.28207552433013916	1.2100081145763397	1.4792142808437347	0.1848132610321045	0.28429943323135376	3.5874948501586914	3.3252832889556885	0.33566898107528687	0.5848879516124725	1.382703423500061	1.2494700700044632	0.9447597227990627	1.415702611207962	-0.012915372848510742	1.134409561753273	-0.5350254774093628	1.180029720067978	0.7495002448558807	0.3455595374107361	1.6879220604896545	0.803355261683464	-0.21107161045074463	1.3781295716762543	1.3314462304115295	-1.3010907173156738	2.2122923135757446	-0.4940148591995239	2.119978666305542	1.8243697881698608	-0.9175010919570923	1.9783245921134949	0.09401953220367432	0.2368563413619995	0.27401578426361084	1.9124998450279236	-1.1927449703216553	-0.09036815166473389	0.4444650411605835	1.1545938700437546	1.2951154708862305	0.3047260642051697	1.9359328150749207	2.0301252603530884	1.3452356159687042	1.3960252702236176	0.9903902160003781	0.020553290843963623	-0.46781134605407715	2.4429266452789307	0.386227011680603	2.398376941680908	0.8543718159198761	-0.8107945919036865	1.1499723196029663	0.9541371054947376	0.432487428188324	-0.763798713684082	0.048168838024139404	1.6877631545066833	0.6226467788219452	-0.9509210586547852	1.5907050967216492	2.9442044496536255	-0.9469048976898193	1.0830198749899864	1.0390041954815388	2.9810291528701782	-1.1097257137298584	4.683004856109619	0.8070152103900909	2.3381218910217285	-0.11230742931365967	2.227089762687683	0.32320457696914673	2.173862099647522	0.3932644724845886	3.1642708778381348	2.0818523168563843	2.007384419441223	0.8793017938733101	1.083102397620678	-0.6639771461486816	1.8219151496887207	2.2406193017959595	3.1558914184570312	2.5241713523864746	-0.045810699462890625	0.98705670889467	1.7527600526809692	0.41024214029312134	0.3815615773200989	2.64023494720459	1.7530068755149841	-0.0914301872253418	1.8592342734336853	0.3983176350593567
lanciare_6	-0.5002497434616089	1.1579792648553848	1.3774589598178864	-0.5950051546096802	2.2019718885421753	1.069961279630661	1.3239571452140808	-4.511165618896484	0.02809882164001465	5.108924388885498	1.840259075164795	1.997587502002716	2.709095597267151	2.432823657989502	1.5536351799964905	2.559237003326416	-0.8741499185562134	0.45192164182662964	2.199751138687134	-0.1490628719329834	0.5283679366111755	2.4261730909347534	2.947869658470154	-0.7487856149673462	2.3047503232955933	0.29850929975509644	0.56774041056633	1.4261745512485504	1.2581141293048859	1.7396051287651062	0.5714371502399445	0.8244272470474243	0.27809351682662964	1.141052484512329	1.3000756204128265	1.9024088978767395	1.085282526910305	2.5076946020126343	0.5559463500976562	1.0915095880627632	1.6003676056861877	1.437109798192978	2.241920590400696	1.6643202900886536	0.13035738468170166	-17.29482650756836	0.20713067054748535	2.4121365547180176	0.11617171764373779	3.121603488922119	0.6970009803771973	-0.9108742475509644	0.671985000371933	-0.44120490550994873	2.253547191619873	1.521137535572052	2.6694531440734863	0.5700808465480804	0.469482421875	3.047534942626953	1.1072986721992493	3.001277446746826	0.7412511110305786	1.324213683605194	1.2896640300750732	3.1353132724761963	1.413464069366455	1.2742709517478943	5.113593578338623	0.7955756634473801	-0.20187008380889893	1.4414806365966797	0.03168082237243652	0.2683624029159546	2.27721107006073	2.5522913932800293	1.3039074540138245	1.5867660641670227	2.0461028814315796	1.0719584375619888	0.9435505717992783	3.3305153846740723	2.632347583770752	1.2893493473529816	1.9762215614318848	-0.18348395824432373	-0.7344002723693848	0.31218421459198	2.6935752630233765	-0.6386293172836304	0.9964898619800806	2.9520829916000366	2.132338285446167	1.105327568948269	4.690112352371216	2.437276005744934	0.8314528316259384	-1.5507278442382812	0.5253877341747284	1.2417433112859726	-0.9438731670379639	0.5629306137561798	-3.06082820892334	0.7868389338254929	1.3869217038154602	1.2893089652061462	1.8565560579299927	1.1539121568202972	-0.43378961086273193	1.2235924005508423	0.10106885433197021	1.660551130771637	2.0323184728622437	0.2979242205619812	0.252666175365448	-0.06614112854003906	0.4344412088394165	-2.26833438873291	0.6873646676540375	-0.2780691385269165	1.5871481895446777	2.1464786529541016	1.0848075300455093	1.5685263276100159	-0.24947452545166016	0.9868278168141842	1.58712500333786	1.9108152985572815	1.2563001811504364	1.54202800989151	0.7186457216739655	1.4568799436092377	1.4207762479782104	1.294168472290039	1.119590975344181	1.3477529287338257	0.1972414255142212	1.8547127842903137	1.1298647671937943	1.4805277585983276	2.287889242172241	1.3771379888057709	1.0541808046400547	0.24742752313613892	0.7401649653911591	1.0885021835565567	6.985664367675781e-05	0.7139531373977661	1.2621746361255646	0.20294195413589478	0.5273974239826202	1.4007051289081573	0.30221498012542725	-0.9549926519393921	2.0654231309890747	-0.24685931205749512	2.896263599395752	1.4594823122024536	-0.4356522560119629	3.551060914993286	0.5756654143333435	2.3283056020736694	-0.8859549760818481	2.3076545000076294	-0.44669508934020996	1.469677358865738	1.2315381169319153	6.137789249420166	1.9445595741271973	1.514754056930542	0.4323558807373047	2.654266119003296	0.7144913375377655	0.5411261916160583	2.5345641374588013	2.535516619682312	-0.405269980430603	0.6478496491909027	2.0022828578948975	2.9828128814697266	1.817892074584961	1.2283385396003723	1.4035760462284088	1.8134969472885132	-0.28046298027038574	1.3028249740600586	1.8811994194984436	1.4177846908569336	0.71631720662117	2.712066888809204	0.11783277988433838	-2.140186071395874	1.540315866470337	0.393687903881073	-0.09000205993652344	0.42016756534576416	0.6948275864124298	0.8775949478149414	0.8006584346294403	1.4547660648822784	1.3378422856330872	0.5099600553512573	1.2450486570596695	2.9924248456954956	1.7759529948234558	1.0914446860551834	1.2620936930179596	1.3222074806690216	-0.8677629232406616	0.5110609233379364	1.9511384963989258	0.2577669024467468	0.37123578786849976	-1.4711008071899414	0.4842990040779114	1.9760656952857971	2.0059093236923218	2.4111077785491943	2.579620599746704	0.5815891921520233	1.333201676607132	1.1762561053037643	0.9476254023611546	-0.8755398988723755	-0.22234106063842773	1.3758141994476318	0.880650207400322	0.30155545473098755	-0.5493720769882202	1.8232969641685486	0.15766072273254395	1.2502473592758179	1.2029069364070892	-0.5688686370849609	1.4140793979167938	1.6514676213264465	1.3844372630119324	2.6104289293289185	1.8386755585670471	-0.7702996730804443	0.23098629713058472	1.0613067708909512	-0.06352353096008301	-0.45499587059020996	1.0563737377524376	3.3685696125030518	1.4505294561386108	2.3643869161605835	-1.106649398803711	4.642766952514648	0.8183128386735916	2.092305302619934	0.9352498725056648	1.5885952711105347	0.7362447381019592	0.7323244512081146	1.2034872025251389	-0.5232380628585815	1.6075881123542786	-2.393695831298828	1.2740620374679565	2.158664107322693	0.06213366985321045	-0.47332072257995605	1.6097980737686157	1.9628510475158691	0.3786606192588806	-1.114262342453003	0.45060837268829346	0.5822637677192688	-0.33073246479034424	0.3127056956291199	0.6527435779571533	2.467345714569092	1.5685846209526062	0.8937752619385719	0.9291129410266876	3.840538501739502	0.5789515376091003	0.7292260229587555	0.5806284546852112	2.943852424621582	0.5424400866031647	2.426336884498596	0.8904435858130455	-0.15317964553833008	0.46687161922454834	3.7981162071228027	2.424608826637268	1.1887819319963455	0.6139019429683685	-1.947669267654419	0.5467780530452728	-0.02648794651031494	0.6818673312664032	-0.6157855987548828	0.6492227613925934	0.1068274974822998	-0.002259492874145508	2.1614646911621094	1.2607579827308655	1.2167707532644272	0.0427854061126709	1.3845634758472443	2.394292116165161	0.7083322405815125	1.1128664389252663	1.0158549454063177	2.1943308115005493	0.8492032438516617	-0.7386341094970703	-0.14349770545959473	0.08016902208328247	-0.13853144645690918	0.20855200290679932	1.571098804473877	1.0347881466150284	1.3844355344772339	-0.09732961654663086	0.2016393542289734	-19.332149505615234	2.266940712928772	1.278367668390274	-0.8252735137939453	2.6829408407211304	1.8840053081512451	0.3639192581176758	1.0306296218186617	2.362766742706299	0.4860484004020691	1.9155375957489014	0.04451531171798706	-2.8975141048431396	0.92836594581604	1.1876744478940964	-0.3181939125061035	1.0736235678195953	0.030725836753845215	0.8191485106945038	-0.29344892501831055	1.2679803669452667	1.735506534576416	2.218467116355896	1.3624635338783264	0.5302662551403046	-0.4116266965866089	1.3812588453292847	0.5373128652572632	-0.21821069717407227	1.7733861804008484	0.25874799489974976	-0.9726649522781372	0.4534416198730469	2.919405937194824	2.100070834159851	-0.7253963947296143	0.7625421732664108	1.475008487701416	0.7003635466098785	1.2889995276927948	0.4901377558708191	1.6100066900253296	1.3037773966789246	1.0555671006441116	2.1119898557662964	0.3297990560531616	-0.12677955627441406	3.9460856914520264	1.7633419036865234	0.6641009151935577	1.8317524194717407	0.3603304624557495	1.4878055155277252	2.106520175933838	-1.3532936573028564	1.5528984665870667	1.3904802203178406	1.6431242227554321	-0.2066408395767212	1.329328864812851	2.438809394836426	-0.45984625816345215	2.5982271432876587	3.353438138961792	2.8753299713134766	-0.18455159664154053	1.640872061252594	-0.7876007556915283	-0.23940527439117432	1.1566931456327438	0.9242264032363892	2.8678178787231445	1.9430387020111084	0.7431364357471466	1.379372239112854	0.932498537003994	1.229186624288559	2.725150465965271	2.384458065032959	-1.1633532047271729	1.2100316286087036	1.312729299068451	-0.1956721544265747	-0.9167340993881226	1.2395811825990677	-1.0928821563720703	-0.6886435747146606	1.459652155637741	-0.08767235279083252	0.1388832926750183	2.0605387687683105	0.8622643351554871	1.382371872663498	0.22721636295318604	2.0118329524993896	1.743395447731018	1.029707282781601	1.9875569939613342	2.0243271589279175	-0.052199363708496094	0.7694003582000732	2.8297418355941772	0.6582156121730804	2.918514609336853	1.8299128413200378	0.3130374550819397	0.6058099865913391	2.361462950706482	1.309153288602829	1.5759530067443848	0.04150456190109253	2.1642194986343384	-1.3438653945922852	3.1737685203552246	0.6066445410251617	0.05526459217071533	0.21336811780929565	2.1209253072738647	1.529331386089325	1.250499039888382	0.3036462068557739	1.2161801010370255	0.9431139528751373	1.5229547619819641	0.7003051340579987	1.3478350043296814	2.4708036184310913	0.0263519287109375	2.771171450614929	2.08048415184021	0.04461461305618286	0.5621100664138794	2.7700693607330322	0.3437856435775757	0.7803401350975037	0.7501238733530045	2.0921319723129272	-0.6101304292678833	1.4237930178642273	-0.3285095691680908	0.9087792113423347	1.414976567029953	0.7069859504699707	0.4816192388534546	0.9964883225038648	1.1838486641645432	1.215723603963852	3.1940791606903076	2.6291050910949707	1.4335549175739288	0.5104716718196869	2.193844795227051	1.3900051712989807	-0.8933547735214233	1.1189146861433983	-0.22002673149108887	0.5975876152515411	-0.8723781108856201	1.7578281164169312	0.9308959618210793	1.6015516519546509	0.6481236517429352	0.31462258100509644	1.8119581937789917	-1.0310466289520264	-0.4713481664657593	1.5225356817245483	2.6767890453338623	-1.7939579486846924	1.5265498161315918	0.8275008499622345	0.6716548800468445	0.5797116756439209	1.204234853386879	-2.2325503826141357	0.5143349170684814	1.7334077954292297	0.49416929483413696	1.159326747059822	2.036236882209778	0.32631444931030273	1.3179786503314972	2.194100260734558	2.460753560066223	1.2115521281957626	2.1886621713638306	0.9241997301578522	-0.29289233684539795	3.0480217933654785	-0.34961163997650146	0.6224506497383118	0.6707192361354828	0.19530946016311646	1.2475508004426956	1.1550554186105728	0.37221813201904297	1.81589937210083	2.9068400859832764	-0.04230391979217529	-0.9842052459716797	0.6573238372802734	2.710882067680359	1.8804808855056763	0.4093437194824219	0.46613091230392456	2.0633612871170044	1.682307243347168	-2.8358092308044434	2.594155430793762	0.6796915829181671	-0.4537540674209595	0.8750390857458115	3.5060172080993652	0.3188249468803406	1.5460666418075562	0.42421913146972656	0.8906699791550636	2.040332078933716	2.2954379320144653	1.9186891913414001	2.681296706199646	2.6608248949050903	0.7620252072811127	0.4447399973869324	1.5901216864585876	1.9887714982032776	-1.8084936141967773	-0.2405719757080078	0.04647064208984375	0.3686448931694031	1.9320223331451416	2.350955367088318	3.38029408454895	0.24264872074127197	2.1418380737304688	1.016760315746069	-1.1345746517181396	-0.9767779111862183	2.2958539724349976	1.5183629393577576	2.471542239189148	0.5359165668487549	0.20098614692687988	1.5234006643295288	-0.3181302547454834	1.018802871927619	-0.4072800874710083	1.605619490146637	-0.02705562114715576	-0.1115196943283081	22.713035583496094	2.152953028678894	-0.9675203561782837	0.6065037548542023	1.180588185787201	2.5149853229522705	1.1771894991397858	2.5247517824172974	0.9025878831744194	1.3238014876842499	0.9491259530186653	2.2461130619049072	1.6476844549179077	0.7182115316390991	2.079741358757019	0.9853630745783448	1.1082602068781853	0.21048039197921753	-0.7776429653167725	1.8490490317344666	2.1414480209350586	-0.17203116416931152	0.986187151633203	0.9213745296001434	-0.7434818744659424	1.725223422050476	1.2338174879550934	-0.15358996391296387	1.151690810918808	-0.23784780502319336	0.3825915455818176	0.473124623298645	1.531320571899414	1.0537902116775513	0.4856839179992676	1.009905052371323	4.0424840450286865	1.1845150887966156	0.7521875351667404	-0.5932285785675049	-0.45252716541290283	2.1913262605667114	0.6624730229377747	-0.688791036605835	1.240943804383278	1.3415643572807312	-1.087660551071167	2.0218563079833984	1.3053717017173767	-2.344097375869751	0.05050003528594971	2.186468720436096	-0.3947772979736328	2.072440266609192	2.968771815299988	0.46849703788757324	-0.39928507804870605	0.6802781224250793	-0.9546337127685547	1.6573073267936707	-0.8093832731246948	1.547419548034668	0.9753106012940407	0.8596421629190445	0.19279241561889648	2.005717635154724	1.5574284791946411	0.29065239429473877	2.4551371335983276	-1.434734582901001	-0.6758447885513306	1.6803085803985596	0.9911897527053952	1.1740709841251373	1.3811253607273102	1.8558713793754578	0.4840918779373169	1.0017007470596582	1.6691737174987793	2.102638363838196	1.562840223312378	-1.0844488143920898	0.22177422046661377	1.3468630611896515	1.2138576209545135	0.6250585317611694	2.488053560256958	0.9482436776161194	3.849198341369629	0.5775385499000549	8.664282321929932	0.5713028609752655	-0.37721288204193115	1.2772663533687592	1.6470540761947632	1.4528447091579437	-0.49154436588287354	2.5610891580581665	0.985987588763237	1.7281976342201233	1.46531742811203	0.0002867579460144043	0.38761627674102783	1.3599110543727875	1.8452516794204712	2.3155866861343384	0.82488152384758	1.3739657402038574	1.0941119194030762	-0.644239068031311	1.5557789206504822	0.7610330283641815	2.678648591041565	0.7056914269924164	0.46975964307785034	0.6494221687316895	1.7968227863311768	0.2586056590080261	2.7927032709121704	3.4371798038482666	0.18827104568481445	0.47995465993881226	1.8337540030479431	-0.03935086727142334	0.6809018850326538	1.0916935727000237	-0.35091161727905273	1.301939070224762	1.5812037587165833	2.190102696418762	0.5679239630699158	-1.8542473316192627	-0.377239465713501	2.4266247749328613	0.20380181074142456	2.078942894935608	3.2993171215057373	2.209022045135498	0.8011155277490616	0.6246748864650726	-0.4596666097640991	0.428147554397583	0.4160374402999878	1.5076401233673096	2.1950045824050903	1.4638960659503937	2.532943606376648	0.04275447130203247	1.5198140144348145	1.7901134490966797	2.0220009088516235	-0.036362648010253906	1.2610959112644196	1.875963032245636	-0.30998802185058594	1.9934137463569641	0.14801877737045288	0.6866865456104279	1.6124514937400818	1.345582276582718	2.0097330808639526	0.5098974406719208	0.6245449185371399	2.326720356941223	3.0775084495544434	1.0023728371597826	0.8960895910859108	2.1387827396392822	3.5473594665527344	1.5907105803489685	2.2902698516845703	0.28909844160079956	1.0638525038957596	0.20160949230194092	2.544453978538513	1.5963354110717773	0.37582749128341675	1.2232229858636856	0.06608659029006958	1.5675551295280457	1.191286876797676	0.9721849244087934	1.290342390537262	1.2826343178749084	0.8040048778057098	3.897800922393799	2.5919156074523926	1.4171158075332642	0.7595319002866745	3.466062307357788	1.5151448845863342	1.334093153476715	1.7389300465583801	0.7206092178821564	1.3330844640731812	0.294350266456604	2.138168215751648	1.9090253710746765
laureare_1	0.05624067783355713	1.4367880523204803	0.9661816544830799	1.962603747844696	3.1565654277801514	1.1977019309997559	1.6634708046913147	-5.003717422485352	-1.4397077560424805	1.8171016573905945	-0.08643591403961182	-0.2829965353012085	1.1631925106048584	0.7605008631944656	1.7846834659576416	3.7507243156433105	-2.297773599624634	1.6334710717201233	1.020720822736621	0.30157971382141113	0.9193327948451042	-0.10779201984405518	4.097725868225098	0.014222681522369385	0.48188722133636475	1.3001610934734344	1.3875503838062286	0.4017599821090698	0.8763003423810005	2.1818387508392334	1.637408196926117	-1.1122915744781494	3.1857450008392334	0.774800106883049	1.1917936205863953	3.0085294246673584	2.2175475358963013	2.3142319917678833	0.9571989551186562	0.4671143889427185	0.8554105162620544	1.0367183350026608	1.9625293612480164	0.3145151138305664	-1.9094712734222412	-15.513561248779297	2.5199005603790283	2.463272213935852	0.19148194789886475	0.7839711606502533	2.9405516386032104	-1.687434434890747	-1.8167104721069336	-1.5508882999420166	1.324764370918274	1.905080795288086	3.3076767921447754	1.4004633724689484	1.130938708782196	3.29280686378479	2.6613816022872925	4.199256896972656	1.328546404838562	0.03170818090438843	0.6838431656360626	1.882542371749878	-0.4494417905807495	1.4304667711257935	0.18448680639266968	0.3989362120628357	-0.32206499576568604	-2.3139336109161377	0.5099949538707733	3.5875120162963867	1.1270896792411804	0.9129348695278168	2.143373489379883	1.7643484473228455	2.3081799745559692	1.55241197347641	1.7163681387901306	3.3488690853118896	2.6293139457702637	2.7056676149368286	1.3404683470726013	0.05654245615005493	-0.9269939661026001	-0.6488933563232422	2.026183843612671	0.753732293844223	1.8494719862937927	3.372880697250366	2.0848270654678345	-0.8615684509277344	1.4433464705944061	2.2835745811462402	0.8744352459907532	0.9873753329738975	-0.2772865295410156	0.6291733086109161	-1.7031915187835693	2.896001935005188	-0.741722822189331	1.4148114025592804	3.188706398010254	-0.734521746635437	-0.3794064521789551	2.577856421470642	-0.8641598224639893	-0.5518951416015625	-1.0076885223388672	0.1994030475616455	2.277901530265808	-1.3947792053222656	-0.3894461393356323	-0.2118067741394043	-1.7519359588623047	4.204245567321777	0.8309796154499054	0.22953450679779053	-0.31345057487487793	2.049512505531311	0.754653200507164	0.7987076193094254	-0.14437401294708252	0.5036619007587433	0.789738655090332	1.4140999615192413	1.376363456249237	2.043364405632019	1.4795331954956055	3.3046672344207764	0.254547119140625	1.3497228920459747	-1.6899971961975098	2.2728018760681152	1.1338074654340744	1.270175576210022	0.3988775610923767	1.7155143022537231	-0.3817349672317505	2.365501284599304	1.507993996143341	-0.16658389568328857	1.1941139250993729	1.834921419620514	0.31136447191238403	2.1226009130477905	0.5930768251419067	1.1634616255760193	0.8954522535204887	1.5564116835594177	0.6327961981296539	0.44518256187438965	-2.63169264793396	-0.33184266090393066	0.8050027787685394	-0.29875636100769043	0.5382646322250366	2.5401031970977783	1.3479709923267365	0.8946486487984657	0.47334879636764526	1.151994749903679	-0.9585705995559692	1.2987734973430634	2.0396827459335327	3.692706346511841	0.6001727879047394	1.3509597182273865	2.0887492895126343	3.7791407108306885	2.7262299060821533	0.9826952815055847	0.45565974712371826	2.934635043144226	-1.3334691524505615	2.3818788528442383	3.2820956707000732	0.14740240573883057	1.3081978559494019	1.2154490500688553	0.30921071767807007	3.4306509494781494	0.6841391324996948	1.451039969921112	2.6709702014923096	0.6358931362628937	0.08653849363327026	4.469779968261719	0.4506991505622864	-2.6511476039886475	-0.6478409767150879	1.9484466314315796	0.2635897994041443	-0.3960294723510742	0.5385147333145142	1.3510944545269012	1.7609226703643799	1.7205936908721924	0.7072520852088928	-0.17837202548980713	-0.22740185260772705	1.9402425289154053	1.550098717212677	1.1214549466967583	-3.2446680068969727	2.737472176551819	-1.4218978881835938	1.8049173951148987	1.6590424180030823	3.5083189010620117	1.6998803615570068	1.5387133955955505	3.084080696105957	1.680746078491211	-1.3552956581115723	5.839735984802246	2.5413296222686768	0.525373250246048	1.3933729827404022	3.5395567417144775	1.9806951880455017	0.1948499083518982	-1.5423667430877686	-1.0873968601226807	1.236298844218254	0.48401331901550293	0.24448305368423462	-0.3043297529220581	-0.6158877611160278	0.6021458506584167	3.7296180725097656	0.22083795070648193	-1.044870138168335	1.3044461905956268	-0.09045684337615967	3.550612211227417	0.5363869369029999	-1.4491631984710693	0.41077715158462524	1.0222014170140028	1.1038010120391846	2.03072726726532	0.9153534919023514	6.231027126312256	1.243431717157364	2.5808186531066895	0.3123031258583069	4.857514142990112	-1.2264046669006348	1.1310410499572754	1.0227888338267803	2.9596915245056152	-1.151254653930664	1.8601295351982117	-0.5583401918411255	-0.850775957107544	0.914736807346344	0.6691775321960449	1.4587057828903198	1.6748886704444885	-0.09605681896209717	0.34495842456817627	1.94662743806839	1.7546638250350952	-0.6083670854568481	2.1156013011932373	1.7165426015853882	2.078512668609619	0.20994067192077637	1.357183575630188	1.7441329956054688	0.2699190378189087	0.09931570291519165	2.540968656539917	2.57649302482605	1.3487994372844696	1.01661348156631	2.3874926567077637	1.2773886024951935	1.704795777797699	-0.506750226020813	2.922749638557434	1.7287396788597107	1.0705409049987793	0.8803987801074982	1.1450346410274506	-0.1723569631576538	3.0459485054016113	2.2305859327316284	-3.290485382080078	-1.5475244522094727	0.6255119442939758	0.26410335302352905	-1.4217844009399414	1.466283768415451	-1.6421420574188232	-0.06031310558319092	2.4105299711227417	-0.18783175945281982	0.2151113748550415	-0.5976905822753906	0.2527170777320862	3.307321786880493	1.1855373531579971	0.6692067682743073	0.4533093571662903	0.7276527881622314	0.48161423206329346	1.3842474818229675	0.10364335775375366	1.1781438887119293	0.9078952968120575	1.5291237235069275	3.4174177646636963	0.9264695718884468	3.615748167037964	1.2340454459190369	0.18420565128326416	-5.24582052230835	1.3005000352859497	-0.3602970838546753	0.9403997659683228	0.5429980456829071	2.1514856815338135	3.1447231769561768	2.473833918571472	0.6107034683227539	-0.10865604877471924	1.576766848564148	-4.118196487426758	-4.987582206726074	3.483776330947876	-1.3319108486175537	1.9410569667816162	1.4778942167758942	-0.9474430084228516	3.7793660163879395	1.1904720664024353	2.3983147144317627	2.8721752166748047	1.9304202795028687	2.230442523956299	0.4141307473182678	3.5877885818481445	1.1556028425693512	-3.495777130126953	-0.5399715900421143	3.257902145385742	-0.8227779865264893	0.07495665550231934	2.77955424785614	1.0819332152605057	3.814605474472046	0.5836448669433594	0.7936776578426361	1.4325993359088898	1.1503366976976395	2.6004515886306763	1.3517968654632568	2.4426268339157104	0.7845312058925629	0.9681585058569908	0.9732756335288286	-0.061858415603637695	-0.535698652267456	2.8403820991516113	2.7458434104919434	0.16297316551208496	1.2259762436151505	3.83064866065979	-0.07483458518981934	0.92542814463377	0.12375599145889282	-0.6261487007141113	0.7541608363389969	-0.16124165058135986	0.8892332762479782	-0.002883315086364746	0.8535243421792984	1.3201739490032196	2.6808489561080933	2.2760730981826782	1.8346832394599915	3.5089311599731445	-0.22057604789733887	-1.3029158115386963	0.6891286075115204	2.8712767362594604	-1.6411631107330322	-1.367924451828003	1.9925866723060608	-0.30783092975616455	1.9065489172935486	1.066684603691101	0.906072810292244	-1.0004963874816895	2.4519213438034058	-1.4133272171020508	-0.03430819511413574	1.1036690175533295	1.4241273999214172	1.3004042208194733	0.36529773473739624	4.045822858810425	-1.1083643436431885	2.1256297826766968	1.9211989045143127	0.9518344029784203	1.5267606377601624	0.6448937356472015	-1.3237440586090088	1.7042010426521301	2.5106090307235718	1.2440872341394424	2.2799819707870483	1.796153485774994	2.7670875787734985	-0.5024752616882324	-1.4898557662963867	1.6691897511482239	-0.7279095649719238	0.6941471993923187	0.8730569630861282	-0.16138505935668945	-0.14383041858673096	-0.08774197101593018	1.7128527164459229	0.8058154731988907	0.4475032687187195	1.7634786367416382	1.06222390756011	1.5018556118011475	3.4149482250213623	-0.9360413551330566	-1.5666394233703613	0.31377142667770386	2.6791971921920776	1.089493565261364	-0.728691577911377	2.548297166824341	0.1477399468421936	4.196851491928101	0.6128613352775574	0.22267377376556396	0.950379990041256	0.9422990083694458	3.0536439418792725	1.4291958808898926	0.1936315894126892	0.13176751136779785	0.22351986169815063	2.0435532331466675	2.6550610065460205	-0.8637862205505371	1.3948538601398468	-1.5408213138580322	1.8347179293632507	-0.6543917655944824	0.7061240077018738	-1.2139298915863037	-0.360837459564209	0.7391962707042694	1.6715375185012817	1.225615605711937	2.6608970165252686	0.9098835289478302	2.4606798887252808	-0.08624887466430664	1.8231843709945679	1.6408746242523193	0.7896430939435959	1.2856519222259521	1.507263422012329	-0.2324584722518921	2.653996706008911	1.681353747844696	2.9123129844665527	0.27769482135772705	3.0180532932281494	0.26146358251571655	0.45603275299072266	2.5100380182266235	-2.9013864994049072	1.33525812625885	1.3002899289131165	2.107380986213684	-0.9691234827041626	2.4159680604934692	1.6058953404426575	0.9707990828901529	1.6284690499305725	1.5944625735282898	-3.142712116241455	-1.0758631229400635	1.8108489513397217	0.3060801029205322	0.5092229843139648	3.1077210903167725	1.152078628540039	1.4102181494235992	0.19944822788238525	-0.8913553953170776	1.8867313265800476	2.003269672393799	2.0425310134887695	-0.8641852140426636	1.5787100195884705	0.3820649981498718	1.2989716529846191	2.06418240070343	3.520172119140625	3.9957144260406494	2.4305694103240967	-0.09715628623962402	0.2762157917022705	2.0251024961471558	2.212355136871338	-1.0347814559936523	-0.13449585437774658	1.3930234611034393	-1.7535293102264404	-0.4557236433029175	-0.34694182872772217	2.109374761581421	2.2490835189819336	3.0615103244781494	1.5143232941627502	2.68868625164032	-2.045778751373291	-0.6914489269256592	4.252459526062012	-0.024381160736083984	2.90070116519928	0.714562326669693	-0.316825270652771	2.807293653488159	-1.5007712841033936	1.9070397019386292	3.3754358291625977	-2.6927177906036377	0.23509687185287476	0.8323102593421936	2.5698020458221436	2.6285312175750732	-1.1281812191009521	0.35507357120513916	2.453048825263977	1.3571578860282898	0.6132577061653137	1.951289415359497	3.1104228496551514	0.5040486454963684	1.6196901202201843	-0.33714020252227783	0.1381109356880188	0.3391193151473999	1.8157730102539062	-0.19205594062805176	1.739179015159607	0.8269350975751877	2.315330743789673	3.7487270832061768	-0.24275970458984375	-0.2375572919845581	0.8379175961017609	-0.15421998500823975	-0.5370892286300659	2.427202820777893	21.113222122192383	2.75801420211792	-1.8474373817443848	-0.18446123600006104	3.4976346492767334	1.7644872665405273	2.234783411026001	-0.5330338478088379	-1.2330033779144287	2.116192579269409	-0.542985200881958	1.7426340579986572	2.061484456062317	0.7319784462451935	2.736101508140564	1.925310730934143	0.37931978702545166	1.0172226391732693	2.070018172264099	6.317617416381836	3.763744592666626	-1.3559362888336182	0.5739145278930664	-1.045846939086914	1.7440209984779358	0.9904586235061288	-0.37803661823272705	0.22582018375396729	1.7141562104225159	-1.6708788871765137	1.427076131105423	1.483917236328125	0.3674244284629822	2.3403514623641968	1.6843857765197754	-0.7813948392868042	2.8516746759414673	0.3816068172454834	1.3115909397602081	0.19330161809921265	-0.688530683517456	3.450282096862793	0.7729348540306091	-0.6266047954559326	5.273373126983643	2.619552254676819	-3.4508094787597656	1.1843136847019196	2.5249019861221313	-2.723254442214966	1.3995585441589355	1.5925209522247314	-0.7141678333282471	-0.3678056001663208	5.109042167663574	-0.813630223274231	3.3221583366394043	3.0470964908599854	0.9114511981606483	1.9709451794624329	1.0078775668516755	0.4932435154914856	1.9219180941581726	1.7495946288108826	1.0255971625447273	1.65421062707901	1.339269757270813	2.5935490131378174	2.4010159969329834	-1.7643630504608154	1.175920307636261	1.8253559470176697	0.2845349907875061	0.3102641701698303	1.3396289944648743	3.1372554302215576	1.1778557300567627	3.051271915435791	0.7162862718105316	2.317846417427063	0.8179605603218079	-1.1185448169708252	0.8492258638143539	-0.8294467926025391	-0.7809920310974121	-0.02853226661682129	4.481269121170044	1.1601292788982391	5.049266338348389	0.15314191579818726	12.988302230834961	2.4817028045654297	-1.1507518291473389	1.235128104686737	-0.22364985942840576	0.17095911502838135	0.3887302279472351	3.871742010116577	0.9946758230216801	2.8490397930145264	-0.37232017517089844	0.3373117446899414	-0.1016768217086792	0.1293821930885315	-0.533079981803894	0.8684996962547302	2.852547764778137	3.4201393127441406	1.2429095208644867	-0.6150034666061401	2.9422961473464966	1.0306084025651217	1.1623538434505463	1.836316466331482	3.9974710941314697	0.9219850227236748	2.7997597455978394	1.7725843787193298	3.53889536857605	1.3998675048351288	0.8174204677343369	1.3621644377708435	1.8275975584983826	1.6444301009178162	2.4941680431365967	0.9240891635417938	-1.024371862411499	4.079986572265625	-0.8713455200195312	3.9317924976348877	0.5116241276264191	-0.4962269067764282	0.8291207402944565	2.1920018196105957	0.40677446126937866	-0.9782620668411255	0.8715207427740097	-0.3833305835723877	-0.18058884143829346	-0.637790322303772	1.9063632488250732	-0.8228663206100464	1.260052353143692	1.4884661734104156	1.7178868651390076	0.974855987355113	0.01884746551513672	0.7401932775974274	2.1770516633987427	0.7207239866256714	2.620227336883545	0.7127246856689453	0.7853340059518814	2.1217048168182373	-1.6089084148406982	1.2101843357086182	1.278086394071579	0.7064630389213562	0.7603168040513992	0.4374714493751526	3.000397205352783	0.33462613821029663	2.044375419616699	-0.404013991355896	2.3803802728652954	0.14002728462219238	1.7606626749038696	1.6666144728660583	3.224726676940918	-0.07943189144134521	2.3627623319625854	-0.1787034273147583	-0.015349864959716797	0.021989822387695312	0.49656158685684204	2.0666658878326416	-0.9320559501647949	1.2490567117929459	4.370362997055054	1.442234605550766	2.463952898979187	-0.7375597953796387	2.904235005378723	1.054560400545597	-2.5560555458068848	1.8694784045219421	4.104246616363525	1.8069140911102295	-0.2527730464935303	0.4405009150505066	1.521744966506958	1.6205191016197205	1.7605840563774109	-0.025072932243347168	1.1561088860034943	-1.98427414894104	0.8649623543024063	1.2067429423332214
lavare_1	2.110819458961487	1.405406653881073	-0.10472798347473145	-0.1731036901473999	0.5781678259372711	2.210663914680481	1.5265843868255615	-5.037947177886963	-1.3810336589813232	2.4459874629974365	0.3150681257247925	3.3331384658813477	2.2102867364883423	2.2820193767547607	1.3343474566936493	2.9034093618392944	-0.03180503845214844	1.4884049594402313	0.8362989872694016	1.316524088382721	0.6183251440525055	2.5740468502044678	2.1362346410751343	-0.832304835319519	1.122773915529251	0.3546207547187805	0.33759331703186035	2.1618088483810425	2.4723979234695435	1.7438438534736633	1.720519483089447	1.2097761929035187	3.5283377170562744	2.975805163383484	0.07049590349197388	2.8828673362731934	0.8698498755693436	1.4440297186374664	1.7680540084838867	1.2109893262386322	1.0225808173418045	1.158331274986267	2.5173386335372925	2.043684244155884	-0.419702410697937	-16.159881591796875	1.2728579640388489	2.0984665155410767	-0.8931816816329956	0.4404389262199402	1.82002454996109	-0.06783366203308105	0.9312857836484909	0.8798656240105629	4.173577070236206	2.2481926679611206	0.27427375316619873	-0.50362229347229	0.37620484828948975	3.4823710918426514	0.9703706372529268	3.2413361072540283	0.8934517800807953	2.1805217266082764	0.7494992017745972	2.019400119781494	-0.6178115606307983	0.07735574245452881	4.250621795654297	1.4071734249591827	0.9709797911345959	0.3437015414237976	2.09997820854187	1.459933191537857	1.4087327718734741	1.2737804055213928	1.763384461402893	2.000304341316223	1.1597083508968353	2.2865171432495117	2.4542263746261597	0.3351435661315918	3.080598831176758	1.726524531841278	0.9594392254948616	1.2809017598628998	-0.7799228429794312	-0.6866239309310913	-0.4538043737411499	0.24385327100753784	3.0541985034942627	2.6597980260849	0.28899747133255005	-0.47718048095703125	1.6672676801681519	1.486183375120163	1.1115791201591492	0.6756333708763123	1.0816318541765213	1.5978681445121765	0.42135322093963623	1.6769859790802002	-1.1394343376159668	-0.46947169303894043	2.713811755180359	1.2828086614608765	0.5623606145381927	1.5625873804092407	1.7286470532417297	-0.5910024642944336	-0.633715033531189	0.320534348487854	3.416776180267334	0.1455034613609314	0.5786171555519104	0.7836638987064362	2.0271244049072266	1.6434907913208008	2.1860578060150146	1.388454407453537	0.43441319465637207	1.5459253191947937	0.629286378622055	0.9792180825024843	0.28257298469543457	-0.4994790554046631	0.3013087511062622	1.5071260333061218	0.0357588529586792	2.3570293188095093	0.5743245184421539	1.828924834728241	-0.05206263065338135	1.9023314714431763	-0.5729985237121582	0.7212665677070618	1.1581904888153076	2.88034451007843	1.2178895473480225	0.6562384366989136	0.1736709475517273	1.7218242287635803	1.0833941623568535	0.21571940183639526	0.8244328051805496	1.79454904794693	-0.3800908327102661	0.6424707174301147	1.865341067314148	0.6777267754077911	-0.5100276470184326	2.0306118726730347	0.9695453513413668	0.7419992089271545	0.6569070518016815	0.31652432680130005	1.0097121093422174	0.6533438563346863	0.6973562240600586	2.7836979627609253	2.4606930017471313	2.7794342041015625	1.5555787086486816	1.3273000121116638	-0.13451266288757324	3.250645160675049	0.42001742124557495	3.62180233001709	1.506334900856018	1.2775993943214417	0.23921144008636475	2.2473368644714355	2.2031078338623047	1.402061939239502	1.4331248998641968	3.0698533058166504	2.1487091779708862	1.1240216866135597	0.8024200648069382	3.0489206314086914	2.3367161750793457	1.310324251651764	-1.5593101978302002	-0.06883788108825684	0.4696153998374939	0.47327786684036255	2.1985305547714233	0.35592758655548096	1.3393946886062622	1.2528557777404785	1.4031382501125336	-2.885849714279175	-0.03309166431427002	0.7410162389278412	1.2349261492490768	1.0878095254302025	1.1921374648809433	1.5154132843017578	0.9384923353791237	0.6655789315700531	0.929964691400528	0.16637712717056274	-0.24405550956726074	-0.9494131803512573	-0.37955284118652344	0.4088945984840393	0.3577311635017395	2.2679412364959717	0.05838775634765625	1.3179906904697418	1.7016263008117676	0.9057932943105698	0.19971120357513428	1.9661108255386353	1.4973408579826355	0.7070094048976898	1.1293876618146896	5.339519023895264	0.02212393283843994	1.1346246600151062	1.7476820945739746	1.1289891749620438	1.5483256578445435	1.4882747530937195	0.5792435705661774	1.6336894631385803	0.5585688054561615	-0.27207767963409424	-0.7282289266586304	1.4005300998687744	1.6889680624008179	0.15870004892349243	1.4673604667186737	1.7858734726905823	0.43773967027664185	1.4278278350830078	1.0685067772865295	1.4544768035411835	-0.1703728437423706	0.3221498727798462	0.514792263507843	0.5788034498691559	0.1928788423538208	0.4324856400489807	0.3247920870780945	2.9477380514144897	1.527048647403717	1.3806786239147186	1.651341438293457	4.188805341720581	1.3444007635116577	2.4267947673797607	0.0750732421875	1.4854206442832947	0.6916217803955078	1.1690377593040466	-0.4189941883087158	0.07896029949188232	1.020733481273055	0.6888071000576019	1.2188225835561752	2.545629382133484	1.0523248687386513	0.6430686116218567	0.7330470085144043	1.7384922504425049	-0.5908976793289185	-0.42651283740997314	0.8194735944271088	1.5986963510513306	-0.16420352458953857	1.408118486404419	2.939700126647949	1.9179085493087769	0.011627376079559326	2.4361456632614136	1.752868115901947	1.6084844470024109	0.023346245288848877	0.5341898798942566	0.46361273527145386	1.8606644868850708	0.007342159748077393	1.7173432111740112	0.37405914068222046	1.3692186772823334	-0.25586414337158203	2.105200409889221	0.9148418605327606	2.1791709661483765	1.3265132009983063	-0.5350059270858765	-0.9121500253677368	-0.4382725954055786	1.2768463492393494	1.360548883676529	-0.5052345991134644	0.1715552806854248	-0.2808786630630493	1.5411465764045715	-0.726901650428772	2.2417887449264526	1.9829807877540588	0.7950952649116516	-0.49407315254211426	0.02364039421081543	0.1962742805480957	1.6099745035171509	1.0252076853066683	1.1070295125246048	0.6218161582946777	1.0623929239809513	-0.40262937545776367	0.875067412853241	0.5849181115627289	2.309844970703125	1.5224601030349731	1.4286728501319885	-1.2978222370147705	-0.0444793701171875	-13.524497985839844	0.242470383644104	0.04172021150588989	0.944914922118187	3.8086352348327637	1.1452083587646484	-0.29931890964508057	1.6141481399536133	1.7568968534469604	-0.14974308013916016	1.154936820268631	-1.3813509941101074	-3.591391086578369	0.5912091135978699	0.26292353868484497	0.8239028751850128	1.5953209400177002	0.20260119438171387	2.0674850940704346	0.9141890779137611	0.45576226711273193	0.3571130633354187	2.3119430541992188	0.3644660711288452	0.565677136182785	0.18320250511169434	2.080431818962097	-0.3682323694229126	1.066928967833519	0.5121013522148132	0.8436147719621658	0.9442603774368763	0.3951007127761841	2.722579598426819	1.0734104961156845	0.8082590848207474	1.6658768057823181	0.5554134249687195	0.541557103395462	0.5827839970588684	0.446682870388031	0.6954173147678375	1.9637010097503662	1.6273106336593628	0.9418761134147644	0.791501373052597	1.1821836233139038	1.1037148162722588	1.34555384516716	0.2716792821884155	1.2026003301143646	2.622957944869995	1.0707174092531204	2.3701651096343994	0.8338115066289902	1.1709389984607697	3.0950424671173096	2.2571349143981934	1.6461890935897827	0.8106056153774261	0.43835270404815674	0.6168217658996582	1.3171967566013336	1.5916962623596191	1.9645861983299255	0.951356515288353	0.04487764835357666	-0.01892685890197754	-0.6861793994903564	1.8168132901191711	0.9554577246308327	0.10014313459396362	0.531152218580246	-0.15314078330993652	1.3806824684143066	0.5853974223136902	1.3397449851036072	0.10059905052185059	2.8170679807662964	-0.6468982696533203	-0.02634882926940918	0.5301554799079895	0.18098777532577515	0.8709403425455093	1.1590109169483185	-0.9798903465270996	-0.0034869909286499023	1.7178577780723572	1.5369861125946045	-0.08880579471588135	0.5514250993728638	0.8641434460878372	1.428719013929367	2.46209979057312	1.6987674832344055	1.1717174351215363	2.1898831129074097	0.9347869828343391	2.2683935165405273	1.4260580241680145	0.17883461713790894	1.9631752967834473	2.1222310066223145	2.1080201864242554	2.0679752826690674	0.23839056491851807	1.1222588270902634	2.635566473007202	1.0897531285881996	1.2748979032039642	0.07033485174179077	1.8177587985992432	0.5985247194766998	1.7786820530891418	0.29024219512939453	0.4330301880836487	-0.4054063558578491	1.796616792678833	0.655738890171051	1.1297869980335236	-0.3130544424057007	1.6961361169815063	1.7182071208953857	2.5854369401931763	0.876817524433136	0.6499157547950745	0.37933284044265747	2.2284209728240967	2.6607745885849	3.4708926677703857	-0.3791384696960449	2.002817988395691	1.9228543639183044	2.835292100906372	1.6316106915473938	-0.676414966583252	1.1965446025133133	-0.6844775676727295	-0.17873680591583252	-1.870821237564087	0.4406588077545166	-0.4684610366821289	3.0282974243164062	1.4020361006259918	1.3947640359401703	0.7839952260255814	1.949587106704712	1.1886066198349	2.9096072912216187	0.6735280454158783	2.349695920944214	-0.26209259033203125	1.2403575479984283	-1.168306827545166	1.4765166640281677	1.7315686345100403	0.9136536121368408	1.2825639843940735	1.8354437351226807	0.9455149956047535	2.4468475580215454	1.3039106130599976	1.2332877665758133	0.2756468653678894	-1.8059720993041992	2.195265054702759	1.7188275456428528	1.0114281103014946	0.6169259250164032	1.5183513760566711	1.2062164843082428	1.1577867269515991	0.3441939949989319	0.45452427864074707	-4.747375011444092	0.5128197073936462	1.2759511470794678	0.23173558712005615	0.969074409455061	3.1810202598571777	1.5056052207946777	0.19734811782836914	2.505103588104248	0.5603612959384918	1.7981256246566772	0.8374381512403488	2.0369064807891846	1.2029263973236084	0.884420782327652	1.4498848915100098	1.7095913887023926	0.6083419919013977	1.940182864665985	0.992614968214184	1.2170342653989792	1.538705289363861	2.0006067752838135	1.9968289732933044	0.25898897647857666	-1.814840316772461	1.7011372447013855	3.006584882736206	0.81810562312603	-1.7607653141021729	-0.17404210567474365	0.7818379998207092	0.8702661097049713	-1.2504372596740723	1.793649673461914	3.289358139038086	0.08107686042785645	0.23199594020843506	2.572707772254944	2.474992036819458	1.4083054959774017	0.47435998916625977	-0.2930096387863159	1.5785303115844727	0.892337329685688	0.8085270971059799	2.3905041217803955	2.5836347341537476	1.9740357398986816	1.752311885356903	2.4854507446289062	1.1421760618686676	2.031937837600708	-1.8470184803009033	0.5338887274265289	1.5241529941558838	0.9303113222122192	2.6195602416992188	1.800774097442627	1.2260464131832123	1.1135491579771042	0.06340277194976807	0.8305550664663315	0.2532934546470642	2.4315388202667236	1.9197614789009094	0.6226857006549835	0.709631085395813	0.7780513018369675	2.0995272397994995	0.24467790126800537	2.0268142223358154	0.034228742122650146	-0.7560825347900391	0.8076237738132477	1.3831589818000793	22.092979431152344	0.3905685544013977	-0.4642782211303711	1.1129728928208351	1.2607255280017853	0.5451717972755432	1.4801245033740997	2.712744355201721	1.690361201763153	1.684898555278778	1.0983701050281525	1.2048395723104477	1.196797788143158	0.7506804913282394	2.1276416778564453	1.8109697699546814	0.4413432478904724	0.9498355984687805	1.176565021276474	2.0110583305358887	2.103228449821472	0.5658868253231049	1.3773012459278107	1.411034345626831	2.5981171131134033	0.9253439679741859	1.7705934643745422	-1.0755245685577393	1.6919614672660828	0.6450150310993195	2.1786824464797974	0.8049976527690887	0.9478556178510189	0.40589845180511475	0.3526977300643921	-0.4549696445465088	1.2495191991329193	0.04778587818145752	-0.46513354778289795	-0.4665104150772095	0.9824873730540276	1.9526624083518982	2.1754878759384155	0.3502897024154663	1.417261689901352	0.6661757528781891	-1.5094993114471436	1.402936041355133	1.903054416179657	1.0740910917520523	1.5041929483413696	1.931453287601471	1.007353164255619	-0.45005762577056885	1.3844223618507385	0.3271949291229248	0.773288682103157	2.4993436336517334	0.34464031457901	0.44316399097442627	0.02580469846725464	1.4174324870109558	2.105737328529358	1.1629644483327866	1.4236282408237457	1.9840011596679688	0.3134276270866394	1.487057864665985	1.2378557324409485	-0.4468275308609009	-0.17971360683441162	1.169378936290741	0.7440297603607178	1.8058195114135742	2.889236807823181	1.4399804770946503	0.8834134563803673	1.5113192200660706	1.3321861922740936	0.8880193680524826	0.05643969774246216	0.7820773273706436	0.32918697595596313	0.35870057344436646	0.07173663377761841	0.912450522184372	2.8442498445510864	0.8358736038208008	0.42508262395858765	0.4812490940093994	10.627772331237793	0.0899268388748169	-0.23823285102844238	-0.5401653051376343	1.1769283562898636	1.6352765560150146	0.7840628027915955	2.302851438522339	0.24750864505767822	1.0582545399665833	1.8993784189224243	2.555652379989624	0.6965201497077942	2.476500630378723	2.4650245904922485	1.7194591760635376	3.688915252685547	2.9677270650863647	-1.6493186950683594	1.0087639670819044	1.9495425820350647	0.5354855060577393	1.2578575015068054	0.7385091781616211	1.4644747078418732	0.06923985481262207	0.3609582781791687	0.5431974232196808	1.2308725863695145	-0.046192049980163574	0.36966419219970703	1.1369716376066208	0.9057975485920906	-0.10899972915649414	-0.23272204399108887	1.1203946396708488	0.48214054107666016	0.308668851852417	1.5315929651260376	1.155461147427559	1.857514202594757	-1.5553267002105713	1.6765921115875244	0.20852893590927124	1.5798062086105347	1.5501117706298828	0.5814429819583893	1.7887756824493408	0.030646562576293945	3.178595781326294	0.4446641802787781	1.6903260350227356	0.5828564167022705	2.3771793842315674	1.2661706507205963	0.8627280294895172	1.4678448736667633	0.41150641441345215	1.857819139957428	-0.4624652862548828	1.4883718192577362	-0.49198591709136963	1.54340398311615	1.159105822443962	0.7600168585777283	0.7701429128646851	0.005522251129150391	0.4850897789001465	0.8117802143096924	1.4680978953838348	0.764178603887558	1.3915059864521027	2.080959677696228	3.816298007965088	2.9153425693511963	1.1584389358758926	2.167139768600464	1.5799015164375305	2.0837711095809937	1.1817509084939957	5.171868801116943	0.2741251587867737	0.27692288160324097	1.2474838197231293	2.9596614837646484	-0.9844739437103271	1.0360741801559925	1.0756099447607994	2.043440103530884	1.525273084640503	-0.022302985191345215	0.5914431214332581	0.8170666545629501	0.5287941992282867	1.7136476635932922	0.5533644556999207	2.5460894107818604	1.856416940689087	0.651501476764679	1.6731917262077332	0.7525683790445328	0.2491520643234253	0.020908892154693604	2.2535887956619263	0.26727598905563354	-0.11971569061279297	1.499052107334137	-0.05915331840515137
