label	0	1	2	3	4	5	6	7	8	9	10	11	12	13	14	15	16	17	18	19	20	21	22	23	24	25	26	27	28	29	30	31	32	33	34	35	36	37	38	39	40	41	42	43	44	45	46	47	48	49	50	51	52	53	54	55	56	57	58	59	60	61	62	63	64	65	66	67	68	69	70	71	72	73	74	75	76	77	78	79	80	81	82	83	84	85	86	87	88	89	90	91	92	93	94	95	96	97	98	99	100	101	102	103	104	105	106	107	108	109	110	111	112	113	114	115	116	117	118	119	120	121	122	123	124	125	126	127	128	129	130	131	132	133	134	135	136	137	138	139	140	141	142	143	144	145	146	147	148	149	150	151	152	153	154	155	156	157	158	159	160	161	162	163	164	165	166	167	168	169	170	171	172	173	174	175	176	177	178	179	180	181	182	183	184	185	186	187	188	189	190	191	192	193	194	195	196	197	198	199	200	201	202	203	204	205	206	207	208	209	210	211	212	213	214	215	216	217	218	219	220	221	222	223	224	225	226	227	228	229	230	231	232	233	234	235	236	237	238	239	240	241	242	243	244	245	246	247	248	249	250	251	252	253	254	255	256	257	258	259	260	261	262	263	264	265	266	267	268	269	270	271	272	273	274	275	276	277	278	279	280	281	282	283	284	285	286	287	288	289	290	291	292	293	294	295	296	297	298	299	300	301	302	303	304	305	306	307	308	309	310	311	312	313	314	315	316	317	318	319	320	321	322	323	324	325	326	327	328	329	330	331	332	333	334	335	336	337	338	339	340	341	342	343	344	345	346	347	348	349	350	351	352	353	354	355	356	357	358	359	360	361	362	363	364	365	366	367	368	369	370	371	372	373	374	375	376	377	378	379	380	381	382	383	384	385	386	387	388	389	390	391	392	393	394	395	396	397	398	399	400	401	402	403	404	405	406	407	408	409	410	411	412	413	414	415	416	417	418	419	420	421	422	423	424	425	426	427	428	429	430	431	432	433	434	435	436	437	438	439	440	441	442	443	444	445	446	447	448	449	450	451	452	453	454	455	456	457	458	459	460	461	462	463	464	465	466	467	468	469	470	471	472	473	474	475	476	477	478	479	480	481	482	483	484	485	486	487	488	489	490	491	492	493	494	495	496	497	498	499	500	501	502	503	504	505	506	507	508	509	510	511	512	513	514	515	516	517	518	519	520	521	522	523	524	525	526	527	528	529	530	531	532	533	534	535	536	537	538	539	540	541	542	543	544	545	546	547	548	549	550	551	552	553	554	555	556	557	558	559	560	561	562	563	564	565	566	567	568	569	570	571	572	573	574	575	576	577	578	579	580	581	582	583	584	585	586	587	588	589	590	591	592	593	594	595	596	597	598	599	600	601	602	603	604	605	606	607	608	609	610	611	612	613	614	615	616	617	618	619	620	621	622	623	624	625	626	627	628	629	630	631	632	633	634	635	636	637	638	639	640	641	642	643	644	645	646	647	648	649	650	651	652	653	654	655	656	657	658	659	660	661	662	663	664	665	666	667	668	669	670	671	672	673	674	675	676	677	678	679	680	681	682	683	684	685	686	687	688	689	690	691	692	693	694	695	696	697	698	699	700	701	702	703	704	705	706	707	708	709	710	711	712	713	714	715	716	717	718	719	720	721	722	723	724	725	726	727	728	729	730	731	732	733	734	735	736	737	738	739	740	741	742	743	744	745	746	747	748	749	750	751	752	753	754	755	756	757	758	759	760	761	762	763	764	765	766	767	768
fabbricare_1	1.5065518617630005	1.263367086648941	1.0827345177531242	0.8081129640340805	1.2095943987369537	1.5822275876998901	1.2169393599033356	-7.982398986816406	-1.5188677310943604	1.7549141645431519	0.8146462440490723	1.9091973900794983	0.9175098687410355	1.6554832458496094	0.2492448091506958	1.882550835609436	-0.7390329837799072	1.055591318756342	-0.6807836294174194	0.1294439435005188	0.48492223024368286	2.9813698530197144	1.1558392494916916	-1.7153606414794922	-0.1945730447769165	0.27452200651168823	1.220630094408989	2.0953201055526733	1.436057686805725	2.0424753427505493	0.24268025159835815	1.0819708406925201	2.657297730445862	2.8828964233398438	1.058100774884224	2.2086511850357056	1.4419251680374146	0.4662078022956848	1.4560465216636658	1.9159424901008606	1.22081059217453	0.840058758854866	2.7465333938598633	1.2737269699573517	0.12461590766906738	-16.31048583984375	0.7153257429599762	2.2181423902511597	-0.1567450761795044	2.4471546411514282	0.00881105661392212	0.29530662298202515	0.06343775987625122	0.48575663566589355	5.538818359375	2.2356340885162354	1.3929795920848846	1.9965537786483765	-0.12427723407745361	4.173403263092041	1.157161831855774	1.4416912198066711	1.0676185190677643	1.7810297012329102	1.557627022266388	2.289872884750366	0.453321635723114	1.1861050873994827	3.329120397567749	1.7079328894615173	1.6325015425682068	-1.2325968742370605	0.6045924723148346	0.362723171710968	1.5645911693572998	2.0082805156707764	0.3502950072288513	2.000894784927368	1.139737755060196	1.5021550059318542	0.9521985538303852	1.3349292278289795	2.0755510330200195	1.1114521697163582	1.8761204481124878	1.350831001996994	-0.7120227813720703	0.17408162355422974	2.348375678062439	0.9012533649802208	2.274882674217224	2.132439374923706	0.59381103515625	-1.0871453285217285	1.3749137222766876	1.4151331186294556	2.2105809450149536	0.7649538069963455	0.8180912733078003	0.41754329204559326	-0.9918807744979858	1.040223155170679	-0.4508190155029297	-0.43849754333496094	2.5313926935195923	1.4495452642440796	1.9272311329841614	2.3138160705566406	-0.4351770877838135	-0.5562567710876465	-0.427154541015625	0.402532696723938	3.428229331970215	0.3358192443847656	-1.2436883449554443	-0.233756422996521	0.6462118625640869	0.5533300936222076	2.0779645442962646	0.486591637134552	0.9533261135220528	1.6659533977508545	0.8011522591114044	0.8614750653505325	0.4040639400482178	0.5566880106925964	1.2955138087272644	1.594919204711914	0.6173267960548401	2.21323025226593	-0.14828276634216309	1.542858064174652	1.210374891757965	0.878804586827755	-0.5546344518661499	1.4738409221172333	0.8471646159887314	0.9085499346256256	1.5867509245872498	1.448882818222046	1.900098443031311	0.8775428608059883	1.199527993798256	-0.21494078636169434	0.8964218273758888	1.440830647945404	1.3033544719219208	1.4559330642223358	1.7952182292938232	2.4768781661987305	-0.11934411525726318	1.208446443080902	1.8376601934432983	1.4962911307811737	-0.9930635690689087	1.3481589555740356	1.252920150756836	0.9600577279925346	1.036190327256918	2.5234323740005493	0.12101984024047852	2.2097229957580566	1.7056818008422852	1.6045425534248352	0.27072674036026	2.357679605484009	0.29064756631851196	3.517408847808838	1.738178551197052	1.602938175201416	0.8251535892486572	1.6848901510238647	1.2987826466560364	-0.12184572219848633	1.3694162666797638	2.239331007003784	1.2588231265544891	1.243600219488144	1.9458518028259277	1.8379440307617188	2.566497325897217	1.1801711916923523	0.9765420574694872	1.2227576673030853	-0.9944436550140381	0.9277559444308281	3.053497076034546	1.4894484281539917	1.485128402709961	2.4931061267852783	3.2379086017608643	-0.1878681182861328	0.810906782746315	0.6992802619934082	0.4193875193595886	1.9572474956512451	2.0726081132888794	1.7551382184028625	0.8725812286138535	1.4313750267028809	1.0010662981076166	0.7752002477645874	1.6764491200447083	0.9674838483333588	0.16632312536239624	0.8560278117656708	0.4023119807243347	2.2459702491760254	-0.11938166618347168	0.4991356134414673	1.524512529373169	0.7747708708047867	0.48618125915527344	0.07395356893539429	0.2761725187301636	1.5403770208358765	0.3366008996963501	2.4865423440933228	2.4047425985336304	0.4965721368789673	1.667897880077362	0.46132612228393555	0.9223865792155266	2.0645899772644043	0.19625872373580933	1.7610800862312317	-0.18225669860839844	-0.025783538818359375	-0.5735634565353394	0.47871190309524536	2.1708959341049194	2.2735270261764526	1.2732445299625397	1.1483944803476334	1.1585400253534317	1.1514598280191422	0.13341736793518066	2.174611210823059	0.14835327863693237	0.3343127369880676	0.5741762518882751	-0.29384303092956543	0.9185301437973976	0.869529515504837	0.7184355556964874	3.043091058731079	1.5165112614631653	1.8640560507774353	0.728882372379303	4.226693391799927	1.848145306110382	2.065677046775818	0.782452717423439	1.80636727809906	0.05867582559585571	1.6357726454734802	0.6069848835468292	0.6121701896190643	1.4723877012729645	-0.502585768699646	0.7443483471870422	2.8569772243499756	0.9730841666460037	0.4645150899887085	0.3119581937789917	1.4310311079025269	-0.3465670347213745	-0.5016624927520752	0.06759339570999146	0.663874626159668	0.24097204208374023	0.04457247257232666	1.9335113763809204	1.5553585886955261	0.3206973671913147	2.1142677068710327	1.126562938094139	1.7076623439788818	-0.7807767391204834	0.4188135862350464	2.2691829204559326	1.5402857065200806	-0.8000403642654419	2.4504376649856567	0.859002023935318	0.040438294410705566	1.2195729166269302	1.2804055213928223	0.5227888524532318	1.8364791870117188	1.3562964797019958	-0.03257906436920166	-0.11508738994598389	0.4096769094467163	1.907260239124298	1.9042062759399414	-0.7568610906600952	-1.387650966644287	-0.5479089021682739	2.4306315183639526	1.0466282702982426	0.9270792156457901	0.704058438539505	0.7503868043422699	1.1033634692430496	0.3807317018508911	0.5568222105503082	0.4039163589477539	1.5788659453392029	-0.6461819410324097	0.9599679745733738	0.45981836318969727	0.3229900002479553	0.7755978852510452	0.587011069059372	3.2077524662017822	1.0642843693494797	0.7818626016378403	-0.585767388343811	-0.6773583889007568	-14.702792167663574	1.4576443135738373	0.0747944712638855	0.9702106136828661	3.6912930011749268	1.4931317567825317	0.7756777405738831	1.9484775066375732	1.692363977432251	-0.3053833246231079	1.4864452481269836	1.118351198732853	-2.8079440593719482	1.3716168999671936	0.808316633105278	1.1816388368606567	1.8308715224266052	1.6605545282363892	2.390111565589905	-0.8972402811050415	1.098563902080059	1.7131800055503845	1.5623789429664612	0.6122393608093262	2.27990460395813	1.163757860660553	1.3182666599750519	0.9037002772092819	1.8852629661560059	2.2127219438552856	-0.5035523176193237	-0.08393669128417969	0.16279661655426025	1.5395719408988953	0.9367808774113655	0.46380800008773804	0.5628717839717865	0.7248973250389099	1.377812147140503	-0.2616581916809082	0.5997373759746552	1.2764671742916107	2.0290085077285767	1.2326998263597488	1.029675129801035	1.4999074637889862	-0.0981525182723999	1.2336149513721466	1.4955455660820007	0.04305529594421387	-0.03186392784118652	1.7208274006843567	1.7318019270896912	3.312394142150879	-0.3996899127960205	1.101442612707615	1.6263014674186707	2.841860771179199	2.195158839225769	1.7692617177963257	0.810071125626564	1.5202736258506775	2.1361318826675415	1.8905855417251587	2.4382282495498657	0.7972567081451416	-0.20359563827514648	-0.07126474380493164	0.451271653175354	0.8885841742157936	-0.22367048263549805	1.0502380169928074	2.1809685230255127	0.8529513478279114	0.9785087238997221	0.6207718551158905	1.104253739118576	1.2911154329776764	2.028064727783203	1.2691575586795807	-0.34810400009155273	1.3998576700687408	0.7806710004806519	0.6686866283416748	0.9333909153938293	1.0593022219836712	-0.2208852767944336	2.0559407472610474	0.7773757725954056	-1.4984078407287598	0.7533757090568542	1.0129142114892602	2.1595141887664795	1.7441227436065674	0.48545628786087036	1.8351497054100037	1.4971967935562134	1.1250072568655014	2.31855309009552	1.3774321377277374	-0.35960114002227783	2.044425845146179	0.3734402656555176	1.8470182418823242	2.014244794845581	0.11746925115585327	-0.14731621742248535	2.0954208374023438	1.6699776649475098	1.2918355464935303	1.4124325215816498	1.4302970468997955	-0.4302107095718384	2.5197938680648804	1.1199108362197876	-0.1758362054824829	-0.02449619770050049	0.535577118396759	0.8895369246602058	-0.23663628101348877	-1.4632902145385742	0.9975116967689246	1.597350299358368	2.953186869621277	0.1914556622505188	1.198659986257553	-0.06270360946655273	1.788759469985962	2.670416831970215	1.9996036887168884	-1.0763781070709229	2.364469885826111	1.7029841542243958	2.664840579032898	1.7626242637634277	-0.11893153190612793	1.5701164603233337	0.8879297897219658	1.1175345852971077	-1.1569995880126953	0.38029175996780396	-0.5028277635574341	1.8276110291481018	1.026649409905076	1.2108561992645264	0.46149832010269165	1.3629589974880219	1.647262692451477	3.3631742000579834	2.3829245567321777	1.8963334560394287	1.6717829704284668	0.3945348858833313	-0.12268626689910889	2.0747487545013428	1.8295380473136902	1.5192701816558838	-0.666335940361023	2.1245111227035522	1.010209989733994	1.370075911283493	0.4533696174621582	1.264225035905838	1.6153998970985413	-1.590442180633545	0.3911842703819275	2.1993727684020996	0.4497765302658081	0.33242255449295044	0.9261611253023148	0.8621766567230225	2.0822798013687134	0.21185815334320068	-0.1976379156112671	-2.4076895713806152	-1.3736186027526855	1.4038720428943634	0.16687434911727905	0.8157834261655807	3.33034086227417	1.0270035527646542	1.2003262639045715	2.3654857873916626	1.0330237969756126	0.9617926813662052	0.8829637765884399	1.2136379182338715	0.6827216148376465	0.8998970612883568	0.1720854640007019	1.3478580713272095	0.8446794003248215	2.43247127532959	1.3430529534816742	1.3986488282680511	0.1496807336807251	0.6215138733386993	1.8620206117630005	0.9387599676847458	-0.8833738565444946	2.060058355331421	2.9965012073516846	1.599710464477539	0.1627853512763977	-0.7443661689758301	1.6537634134292603	-0.11732769012451172	-1.3712928295135498	2.186353921890259	2.4549444913864136	-0.31802260875701904	1.5992476344108582	2.0517998933792114	1.7831127643585205	1.7039092779159546	-1.1613624095916748	-1.287963628768921	0.7770957201719284	-0.003877997398376465	2.0038458108901978	1.3895468711853027	1.6812973022460938	2.1560548543930054	0.964325312525034	3.5810863971710205	1.4925030171871185	-0.1062781810760498	0.4024253487586975	0.32703107595443726	0.9004764184355736	0.3494296073913574	2.3361974954605103	2.4997395277023315	1.0177435539662838	0.7459063529968262	0.11751550436019897	1.4235285520553589	1.263292282819748	3.531325578689575	2.983729124069214	1.1460327357053757	1.0739756971597672	-1.025785207748413	0.9874664340168238	0.7456081807613373	1.9421653747558594	0.4189602732658386	-0.2076472043991089	1.2145347893238068	0.9092409983277321	22.5008602142334	2.373077630996704	-1.0933220386505127	2.7669315338134766	0.1971597671508789	2.4454965591430664	1.8613570928573608	2.1621923446655273	1.5786455869674683	1.8414093255996704	0.16153347492218018	0.1121789813041687	1.8722246289253235	2.2055550813674927	3.2593905925750732	0.6627675294876099	0.7719859480857849	0.6132718920707703	0.779265895485878	2.8221187591552734	1.854003131389618	0.4251977205276489	0.4050810933113098	1.482063740491867	0.4950639009475708	2.079536199569702	0.4092392325401306	-0.9551949501037598	0.4124424457550049	-0.48163092136383057	-0.409054160118103	1.2042281180620193	0.670197457075119	2.7527213096618652	-0.43322253227233887	0.8224494904279709	1.798071026802063	0.39119279384613037	-0.22642314434051514	-0.24561429023742676	-0.6759778261184692	2.1443861722946167	1.3494422435760498	1.143364503979683	1.5446926355361938	1.71973717212677	-2.4290413856506348	1.8204793334007263	1.2424963265657425	-0.552629828453064	0.45445603132247925	0.5172553062438965	0.18593358993530273	0.4980866312980652	4.029782056808472	1.0652073174715042	0.0066721439361572266	0.33761847019195557	-1.6250216960906982	2.5319310426712036	0.8470893204212189	0.6089229583740234	1.3794945180416107	1.5874544978141785	0.8789393156766891	2.769889235496521	1.5147246718406677	1.7656643986701965	0.8952230364084244	-0.17785680294036865	0.5846902430057526	0.6575157046318054	1.2731396853923798	1.846537172794342	2.9907697439193726	0.08936911821365356	0.9510678574442863	1.7732685208320618	1.2472926527261734	1.7462313771247864	0.7760607004165649	1.2655496001243591	0.7517503798007965	1.2019165754318237	0.11244487762451172	0.8000813573598862	1.7982963919639587	2.1227413415908813	0.9522207230329514	0.08558392524719238	9.582077026367188	0.20104819536209106	0.6189572513103485	0.6895161271095276	0.8532378524541855	0.7962450385093689	0.5953976511955261	1.6320762634277344	0.21770697832107544	1.3343343436717987	0.6317380964756012	1.7445743083953857	0.6125820279121399	2.1353334188461304	2.641734004020691	2.2644712924957275	1.5113694071769714	2.8491703271865845	0.3348076343536377	-0.8257815837860107	1.4098833799362183	0.5450447499752045	2.4463369846343994	0.2138490080833435	1.966410517692566	0.017880916595458984	0.6827887296676636	0.19122296571731567	1.9282602667808533	1.0465514287352562	0.31480520963668823	1.2488466501235962	1.7233652472496033	-0.3631998300552368	1.3444642126560211	0.8233277946710587	0.3689463138580322	1.1328474432229996	1.6614497900009155	2.252664566040039	2.5251413583755493	0.9010400995612144	0.5108510553836823	0.5913452506065369	1.8492109179496765	1.4711460173130035	2.285372018814087	0.9224803149700165	0.6812718510627747	3.743089199066162	0.7851929813623428	2.9819748401641846	0.7494479119777679	1.9747270941734314	0.8205989748239517	0.8689530193805695	0.06846857070922852	0.32876235246658325	2.5684531927108765	0.2489098310470581	1.1086773574352264	0.5262403786182404	0.8899542540311813	0.25882667303085327	0.5470684468746185	-0.4177926778793335	0.3261091709136963	-0.4903261661529541	-0.31077146530151367	1.5199418663978577	1.34160777926445	1.677381694316864	1.7712573409080505	1.925642192363739	2.513005256652832	1.5936305522918701	2.217162251472473	1.5752508640289307	1.5499104261398315	0.6577208936214447	4.573149919509888	1.0718979835510254	0.9460599757730961	0.9478586725890636	2.790622353553772	0.5751002728939056	-0.21971213817596436	0.30801475048065186	2.0291030406951904	1.8244715332984924	0.3377090096473694	0.3931388258934021	-1.3332221508026123	1.2090411335229874	0.46940314769744873	2.435431957244873	2.4653024673461914	1.4726046025753021	1.006289403885603	1.6819544434547424	1.5177654027938843	1.2902911305427551	1.3523419797420502	1.1691396683454514	0.5185951292514801	-0.7773634195327759	0.5860485732555389	1.223557397723198
favorire_1	1.3791590631008148	1.4874340891838074	2.1131287813186646	0.5662312209606171	1.3915317952632904	1.8410453796386719	1.2747000753879547	-7.524537086486816	-0.04543256759643555	3.7585928440093994	0.2719249129295349	-0.04269075393676758	2.027289390563965	1.1485539078712463	-0.07913339138031006	2.444778800010681	0.3253416419029236	-0.13493096828460693	2.631609320640564	1.0503628104925156	0.931858703494072	2.4218943119049072	0.6606555283069611	-1.4777545928955078	0.6624280214309692	0.7585521787405014	-0.15557396411895752	2.4813252687454224	1.6621884107589722	0.6700741648674011	1.3537477254867554	0.582722395658493	0.1975652575492859	1.0603309907019138	0.7614736258983612	1.3261482417583466	1.6794628500938416	1.7455909252166748	1.3111315667629242	0.3257891535758972	1.3645837306976318	1.1511796116828918	2.6221197843551636	2.573451519012451	0.16039937734603882	-19.032379150390625	-0.07689404487609863	1.2714596390724182	-0.5406827926635742	3.798304796218872	0.2362552285194397	-1.6408233642578125	1.5170400142669678	-1.1668972969055176	5.724827289581299	1.6259786486625671	0.8951978459954262	0.10229963064193726	-0.033548831939697266	3.6966452598571777	1.1570139229297638	2.977773666381836	0.4582979083061218	0.6580313444137573	1.1467691957950592	1.2794801592826843	-0.7851595878601074	1.1630264073610306	3.070195198059082	1.0235503613948822	0.6257037222385406	2.1848145723342896	1.0044943895190954	0.6105639338493347	2.01530385017395	1.817882776260376	1.4941262006759644	1.0377159155905247	1.8110080361366272	1.7977651953697205	1.3983119130134583	0.21779155731201172	2.1692100763320923	0.015111327171325684	2.0757365226745605	0.824377566576004	-0.786700963973999	0.07504212856292725	1.2281686663627625	-0.2436763048171997	0.4792163372039795	1.9500846862792969	1.8975041508674622	0.6604297459125519	3.419029712677002	0.6030609905719757	1.6377962231636047	0.3792785406112671	1.2677981853485107	0.4763514995574951	-0.18249154090881348	0.30689752101898193	0.045646607875823975	0.5388325154781342	3.1067893505096436	2.133651852607727	1.413800209760666	1.2349790036678314	0.9182292148470879	1.5937856435775757	0.38353264331817627	1.9470531344413757	2.0191171169281006	-0.3908888101577759	-1.5678598880767822	-0.42035210132598877	0.22019338607788086	0.7135608792304993	1.1436266750097275	1.1149623841047287	0.3171171545982361	3.3688974380493164	0.8146345764398575	1.3732746541500092	-0.3338276147842407	-0.12921249866485596	0.8540814220905304	3.000322103500366	1.6726269125938416	1.7021527886390686	1.5589478611946106	2.1492252349853516	0.33702027797698975	1.5132330656051636	0.13630741834640503	1.9206866025924683	0.4897199869155884	0.3730347752571106	2.2612112760543823	1.6265398859977722	2.3781116008758545	1.521717607975006	1.1513519585132599	0.34506338834762573	1.5646894574165344	0.4591177701950073	1.0044650388881564	0.9659604802727699	-0.09640705585479736	1.0236147232353687	1.766615390777588	0.6396083831787109	0.6960102617740631	-0.00025784969329833984	-0.004997372627258301	0.5797832906246185	0.9381780922412872	0.5390008985996246	2.4262067079544067	3.3120665550231934	2.027938723564148	1.0684691295027733	-0.41695261001586914	2.4001792669296265	-0.8176482915878296	0.5388485789299011	1.1940860599279404	3.481436014175415	3.2573609352111816	0.4972448945045471	0.2044486403465271	1.4052682518959045	0.04632723331451416	2.005855083465576	1.705134928226471	1.0203133430331945	-0.32704198360443115	1.467798113822937	1.083098441362381	1.7841540575027466	2.8181238174438477	1.7550496459007263	1.9599146842956543	1.61099374294281	-1.310534954071045	0.937527235597372	0.9456154368817806	1.4127062559127808	1.900095522403717	1.9750803112983704	2.609548568725586	0.4411824941635132	-0.15283000469207764	1.0792473703622818	1.7935293912887573	1.9804604053497314	1.2997269332408905	0.05164945125579834	1.3941205739974976	1.5448173880577087	1.7158632278442383	0.892424464225769	2.269927144050598	2.6276469230651855	2.7880399227142334	0.34758907556533813	0.9816660340875387	1.4584598541259766	0.6665070652961731	-0.16279637813568115	1.4259688556194305	0.8299407362937927	-0.060277700424194336	-1.3739759922027588	0.8327671736478806	0.46410679817199707	-0.11511993408203125	2.3389995098114014	3.005781888961792	1.0749512985348701	1.7618857622146606	1.8240036964416504	1.0736095905303955	-0.08189129829406738	0.023954331874847412	0.9425485767424107	-0.4790151119232178	1.528105914592743	-1.3206682205200195	1.0421445034444332	1.1575248688459396	-0.05142474174499512	1.6855434775352478	1.6142383813858032	1.4145514070987701	-0.6241697072982788	0.7198613286018372	1.194554015994072	0.00786060094833374	-0.6071794033050537	0.1930774450302124	0.7236958146095276	0.09152412414550781	0.2351393699645996	0.7555427700281143	2.374477982521057	1.9765560030937195	1.0439399778842926	-0.33886754512786865	3.589779853820801	1.3170435428619385	1.7983174324035645	0.9030608907341957	0.24716472625732422	-0.5838286876678467	1.0254661347717047	1.1419076323509216	-0.3812246322631836	0.7572228461503983	-1.6368470191955566	0.14141970872879028	2.378182291984558	-0.5313888788223267	0.6812094449996948	1.042598333209753	3.1807403564453125	1.3434773683547974	0.7685769945383072	-0.12135624885559082	0.22779327630996704	0.4537239074707031	-0.8194935321807861	-0.21022844314575195	2.4563852548599243	0.11066484451293945	1.827866017818451	0.4980201721191406	2.079381227493286	0.7093060612678528	0.03370386362075806	-0.24977362155914307	2.411088228225708	0.08563923835754395	3.224848985671997	1.0164835676550865	1.1096391826868057	0.7143328487873077	2.6340672969818115	2.4361265897750854	0.9148069620132446	0.1668771505355835	-2.811627149581909	0.4936886429786682	-1.1153903007507324	1.1048520654439926	2.094617009162903	-0.6851089000701904	-0.28599977493286133	-0.7704718112945557	2.61825430393219	0.5734509825706482	0.5887797474861145	1.2664933502674103	1.0054590096697211	2.0511510372161865	-0.14886784553527832	0.524285078048706	0.3099812865257263	1.9582093954086304	0.847242459654808	0.1640046238899231	1.1236339062452316	0.331024169921875	0.10329169034957886	1.5222939848899841	2.183719277381897	0.9934760699979961	2.5355870723724365	-0.4554809331893921	-0.16666793823242188	-13.31453800201416	2.073689579963684	-0.41909360885620117	0.7450549900531769	3.445279359817505	1.5569925904273987	0.5917935371398926	2.049341917037964	1.8141990303993225	-0.16972577571868896	-0.35777175426483154	-0.09260368347167969	1.4847968816757202	1.482229322195053	0.8592183887958527	2.9195609092712402	0.6738054752349854	1.0411487929522991	-0.27202820777893066	0.7020508050918579	-0.8939642906188965	2.549999475479126	2.842727780342102	1.4748274087905884	-0.3615455627441406	0.6760452687740326	1.6000421047210693	-0.349292516708374	0.9853943977504969	1.2006590366363525	-0.49605000019073486	-1.5776927471160889	1.2193042039871216	2.7710546255111694	0.21140509843826294	1.062124140560627	0.6330934166908264	1.0734978839755058	0.4068111777305603	-0.2529035806655884	1.6836289167404175	-0.006021738052368164	1.6791523694992065	1.5340590476989746	1.1441624462604523	0.09399867057800293	1.1538298279047012	1.5196033120155334	1.5744625329971313	0.3259270191192627	1.7446221709251404	1.729358434677124	2.5368950366973877	1.3032468557357788	-1.8219799995422363	1.9298745393753052	1.7972169518470764	1.1823846697807312	0.4939255118370056	1.73976069688797	2.6073946952819824	-0.06031596660614014	1.3895984888076782	0.9698572419583797	1.4005118012428284	-0.07020854949951172	0.7097156345844269	-0.2718207836151123	-0.12334573268890381	0.5773636400699615	0.06866717338562012	2.8763784170150757	1.9910871982574463	1.213796228170395	0.43528109788894653	2.2933846712112427	1.523240566253662	0.8549127876758575	2.627053737640381	0.857000470161438	0.8280596435070038	1.7477118372917175	1.8677209615707397	0.6876319050788879	-0.6214557886123657	-0.2555851936340332	-0.8840503692626953	0.5839226245880127	0.8182474076747894	0.34726637601852417	1.9898080229759216	0.9047647938132286	1.974193811416626	0.5947302877902985	2.3862675428390503	1.9863072037696838	0.9405596405267715	1.0230384562164545	1.700999915599823	1.301857441663742	1.100643552839756	1.5851640105247498	0.22780615091323853	1.4292421638965607	0.3820652961730957	-0.9161858558654785	2.0661662817001343	0.6681795418262482	0.10426884889602661	0.839640811085701	-0.10264265537261963	2.5810163021087646	0.99009018111974	3.0013556480407715	0.9555788077414036	-0.05755877494812012	0.4056568145751953	2.07669198513031	0.9035301804542542	0.0017217397689819336	0.26010042428970337	0.8483116179704666	1.1052791625261307	2.3940532207489014	0.28984010219573975	1.3754535615444183	2.539568066596985	1.3673778176307678	3.0419580936431885	2.7161335945129395	0.1275695562362671	3.1166679859161377	1.924735963344574	2.0373138189315796	1.4167685806751251	0.6378150880336761	1.4439318180084229	-0.877295732498169	1.0212976969778538	-1.6009881496429443	0.9368769451975822	1.5885565876960754	1.1854320764541626	1.494617611169815	0.8929560407996178	0.343935489654541	1.3028123676776886	0.2553919553756714	1.6214584112167358	1.7857863903045654	0.6754526197910309	1.0758901685476303	3.169724225997925	0.5943787097930908	1.6844590306282043	1.7454673051834106	0.5591541230678558	0.5667000710964203	0.5370862782001495	1.4884641468524933	1.6846904158592224	0.29514145851135254	0.46055829524993896	1.3582223951816559	-1.649810791015625	1.2733485996723175	1.3883921802043915	2.1689172983169556	-1.172670602798462	2.3626606464385986	0.5965451896190643	1.7729229927062988	1.5709418058395386	0.8356214463710785	0.19592159986495972	-0.011347293853759766	1.7139431238174438	0.3259507417678833	1.317810446023941	2.3893109560012817	0.665402352809906	0.9855482112616301	3.047726631164551	1.6914313435554504	2.0723732709884644	2.3116838932037354	2.914690852165222	0.5640550255775452	1.0102198887616396	0.5468016862869263	3.5251054763793945	-0.5279605388641357	1.2790918350219727	1.3928692936897278	2.7656266689300537	0.8453320562839508	0.7221560180187225	0.7824260741472244	0.7450082302093506	-0.1608949899673462	1.1150157004594803	1.5737102627754211	2.1258320808410645	0.5814376771450043	0.2000177502632141	2.2673181295394897	-0.44902849197387695	0.5947106778621674	1.57640540599823	2.2658965587615967	0.6224283576011658	2.2617039680480957	3.367964744567871	-0.44115495681762695	2.204958915710449	0.9656141549348831	0.2055780291557312	0.9938237951137125	1.547095537185669	1.9445141553878784	1.9249323010444641	3.5876991748809814	1.998245894908905	1.2584993541240692	1.6144821643829346	0.133830726146698	-0.6857970952987671	-1.5400574207305908	2.754203200340271	2.056355595588684	1.8236654996871948	2.6104191541671753	2.8844317197799683	-0.779475212097168	0.8939216807484627	-0.7162264585494995	-0.38468611240386963	0.3277391195297241	2.489737391471863	1.4762512743473053	-0.4442932605743408	1.6971392631530762	0.9494010768830776	0.1952958106994629	-0.2954772710800171	0.6364260017871857	-0.4826089143753052	-0.04523622989654541	0.665982574224472	0.8419115841388702	22.946861267089844	0.5319087207317352	1.599294662475586	-0.36861205101013184	1.321987807750702	1.7723102569580078	1.3701059818267822	1.689561903476715	1.6910293698310852	1.3632826507091522	1.9913689494132996	2.799630284309387	1.920749545097351	-0.047515153884887695	1.4896205961704254	1.0352640934288502	1.387429267168045	-0.19747304916381836	1.9432390332221985	2.9608243703842163	1.862489938735962	1.087841011583805	2.282550811767578	0.7402447164058685	-0.12341070175170898	1.6954569220542908	0.5785908102989197	-0.08940768241882324	1.1806469112634659	-1.126429557800293	0.003070652484893799	1.9674650430679321	0.30752140283584595	1.6778509020805359	-0.4998565912246704	0.7787456810474396	2.5157445669174194	1.8353516459465027	-0.050408244132995605	0.615801066160202	1.4228819012641907	0.810010552406311	0.026000499725341797	-0.16040360927581787	0.2411442995071411	2.538457751274109	0.3988494277000427	1.5021511912345886	1.6897593140602112	1.2357657551765442	1.162832573056221	2.505749821662903	0.7364915013313293	1.4078519344329834	1.9997491836547852	0.4618925452232361	-0.7360736131668091	0.9910970348864794	0.14903497695922852	0.6825246214866638	0.7168490588665009	1.45058074593544	1.64287668466568	1.311003863811493	0.015951037406921387	2.357421875	-0.1724863052368164	2.2659648656845093	1.7933587431907654	-0.41677141189575195	0.9225056320428848	1.1549472361803055	1.2402251213788986	1.0210554488003254	1.7487592697143555	1.1691342890262604	0.33530497550964355	2.4595608711242676	1.533879816532135	3.004204273223877	2.4994617700576782	0.6927793622016907	1.052739441394806	1.178469106554985	0.7271443605422974	-0.8519552946090698	2.478184700012207	1.5213583111763	0.8554315716028214	2.9597448110580444	7.197148323059082	-0.14361655712127686	0.5670316815376282	0.4835702180862427	2.811081290245056	0.7858435362577438	0.19361895322799683	3.2506003379821777	0.6572197675704956	0.3122769594192505	1.5029500722885132	0.38717561960220337	1.007772769778967	0.4140446186065674	0.9604329839348793	2.1774539947509766	1.6603920459747314	2.3687634468078613	1.969396948814392	-0.7920759916305542	2.798785090446472	0.8351622819900513	2.7367022037506104	0.4951571822166443	0.6875941157341003	0.0486903190612793	1.0554028004407883	0.8154119402170181	2.7110655307769775	0.7932042330503464	0.9508649036288261	1.3848418295383453	0.7966107577085495	-1.1185486316680908	2.0155439376831055	1.5382808446884155	0.31643146276474	1.2089446187019348	2.458957314491272	2.9256914854049683	1.9225562810897827	-0.562484622001648	-0.6217741966247559	0.08898133039474487	2.276714563369751	1.110619179904461	1.728748083114624	2.5122448205947876	1.5216075778007507	3.4752230644226074	1.0114526683464646	2.6568607091903687	0.23382419347763062	1.9496665596961975	0.9200089573860168	0.7199234068393707	1.0597628578543663	1.2015401273965836	0.7498717308044434	2.0033936500549316	1.4829358458518982	0.9659571461379528	2.5778409242630005	1.5706288814544678	-0.1145026683807373	0.7689258456230164	1.6755090951919556	0.0076122283935546875	-0.11038601398468018	0.6519690752029419	1.2264248579740524	0.3315889239311218	1.4054518342018127	0.8966120257973671	1.2775518298149109	-0.3718247413635254	0.353934109210968	0.8377719968557358	2.9182132482528687	0.6554582417011261	2.2464641332626343	0.898255854845047	0.8028490245342255	0.6722665727138519	2.0556914806365967	0.6818739473819733	1.2079953998327255	1.6933494806289673	0.4380086660385132	0.4719200134277344	0.44365376234054565	2.0442800521850586	-1.1613316535949707	2.2789294719696045	1.3129332959651947	2.408472776412964	1.5374777913093567	1.6861207485198975	0.6876704096794128	1.6104754209518433	1.2552034556865692	0.29499900341033936	0.0695040225982666	2.048433303833008	0.9059413224458694	-0.0027588605880737305	0.8922492563724518	1.798707127571106
ferire_1	0.3542032837867737	0.9634275883436203	0.38906407356262207	0.2295587658882141	1.9789044260978699	2.8545682430267334	1.337338149547577	-6.143219947814941	-0.5991160869598389	2.0262973308563232	-0.09992659091949463	1.1408203393220901	3.6450154781341553	3.033601999282837	-0.09693634510040283	1.0480677038431168	-1.6774601936340332	3.3020641803741455	-0.1560649871826172	-0.36926817893981934	0.3677036166191101	0.986810308881104	3.0380172729492188	0.690718412399292	1.0918393582105637	2.2297356128692627	0.3342481851577759	1.9575082063674927	2.1707688570022583	1.092843845486641	3.451375722885132	-1.0075874328613281	0.6763165295124054	1.8482556343078613	1.1794216185808182	0.9649976976215839	1.789021074771881	-0.17418456077575684	0.9044079259037971	0.873006209731102	0.15546101331710815	0.8919418603181839	2.598663330078125	-0.08341515064239502	0.11972659826278687	-15.208528518676758	1.3705304265022278	1.790607988834381	0.7105128765106201	0.7700089663267136	1.9055054783821106	-1.7954154014587402	-1.8438894748687744	0.28845494985580444	1.777218759059906	1.4431946575641632	0.5044967830181122	1.3861129581928253	0.20983052253723145	3.9057469367980957	1.4514736533164978	2.8600351810455322	1.7598653435707092	1.6046712398529053	1.9570500254631042	1.7439672350883484	0.6943240165710449	1.338393360376358	2.0926932096481323	0.46862947940826416	2.158066511154175	-0.8753330707550049	-0.11472690105438232	0.18938297033309937	1.8334797024726868	1.524737298488617	1.1958703249692917	2.8643033504486084	1.7571700811386108	0.9767680484801531	2.751879572868347	1.0571927316486835	1.7007476091384888	1.7854334115982056	1.2804407477378845	1.3151927292346954	0.05729115009307861	-0.7740193605422974	0.5350758135318756	0.5474682748317719	2.6483808755874634	3.2973756790161133	-0.5932319164276123	1.4244575500488281	1.0811663642525673	1.930871844291687	0.7513590157032013	-0.8336489200592041	0.28521907329559326	1.7138023376464844	0.030281782150268555	2.0852726697921753	-1.0329856872558594	-0.776246190071106	2.273423910140991	1.8423055410385132	1.8750324845314026	1.5132802724838257	-1.210334300994873	0.37651729583740234	1.9338653087615967	2.094725489616394	3.780836820602417	-0.027188897132873535	-0.042175889015197754	-0.23281335830688477	-0.1815730333328247	2.9980502128601074	2.6974374055862427	1.8420968651771545	1.3635401725769043	1.2672314643859863	1.1548026651144028	2.7836815118789673	0.12962311506271362	1.8927668333053589	0.7599495202302933	1.4175949692726135	2.2532936334609985	-0.21242713928222656	0.1596975326538086	1.4288565516471863	1.6338306069374084	1.4042035639286041	0.6440138816833496	2.051362991333008	2.1471492052078247	0.6990343630313873	1.1099268645048141	1.042136237025261	0.40795081853866577	1.0186009872704744	-0.7271018028259277	0.2514219880104065	2.231360077857971	1.1377926766872406	1.152400255203247	1.0084319459274411	1.7120649218559265	2.964900493621826	0.6723910868167877	0.9675783887505531	0.20481473207473755	0.4493557810783386	0.6764130592346191	0.44882237911224365	2.6145042181015015	-0.19764256477355957	0.042718470096588135	1.6333964467048645	1.4809418320655823	1.9219340682029724	1.3550374507904053	0.7197040021419525	-0.6782448291778564	1.9766927361488342	0.3993469476699829	3.465928792953491	2.1854432821273804	0.59605872631073	0.7289895117282867	2.6419312953948975	2.2822028398513794	0.1992587447166443	2.027681827545166	1.697073757648468	0.3612753748893738	0.6211787462234497	1.0713511854410172	2.8441308736801147	2.9964683055877686	0.6480990052223206	1.2973996996879578	1.8240086436271667	-0.3318687677383423	0.9284823834896088	0.8991127386689186	1.6724830269813538	0.14571481943130493	1.5037346482276917	1.1392172574996948	1.2443755269050598	0.8199700117111206	1.237763687968254	2.485137462615967	1.9727005362510681	1.271441787481308	1.308690756559372	0.829621747136116	1.6696155071258545	0.46282702684402466	-0.6908677816390991	3.012648344039917	2.361644744873047	1.6390106678009033	2.91540789604187	0.02727043628692627	2.559996485710144	1.4446237087249756	-0.024826765060424805	1.602843165397644	0.5623136758804321	-0.7543653249740601	1.7885304689407349	1.8764527440071106	1.1945793181657791	1.2562213242053986	6.238317966461182	1.4283429682254791	0.4784972071647644	0.9657357335090637	1.088752269744873	0.4929024577140808	0.4772496223449707	0.48099666833877563	0.8602356314659119	0.3907712697982788	-1.291654348373413	-0.006084561347961426	-0.4812963008880615	0.28454917669296265	1.081955648958683	1.6603495478630066	0.42688417434692383	-0.30212676525115967	2.431225895881653	0.47105610370635986	2.231818914413452	0.6836820542812347	-0.46708083152770996	-0.15188992023468018	0.6044467389583588	0.6926897168159485	2.1024768352508545	0.021638989448547363	3.6073615550994873	1.9311572909355164	1.6486291289329529	0.4154573082923889	5.050515651702881	1.958657681941986	2.0437378883361816	0.8437370955944061	0.7020547389984131	-1.3146014213562012	-0.33208656311035156	0.9167561680078506	-0.22061610221862793	1.2439818680286407	1.1781378537416458	0.2274073362350464	3.530881643295288	1.4730272591114044	0.23525232076644897	1.1452460587024689	3.34195876121521	0.6157966256141663	-1.8263704776763916	0.5795314610004425	-0.3641566038131714	0.731083333492279	0.6253054440021515	3.4848790168762207	0.6870981752872467	1.5550154447555542	2.4901410341262817	1.898788332939148	2.190580129623413	1.8104076981544495	1.0815019607543945	1.2991031110286713	1.5300272703170776	-0.006615757942199707	2.300317168235779	1.4860345721244812	-0.2780648469924927	-0.6201026439666748	2.423716902732849	1.2972568273544312	1.48380845785141	0.6639936864376068	-1.3985803127288818	-1.0831499099731445	0.935499869287014	-0.14032971858978271	0.12015163898468018	2.037320852279663	-2.7097558975219727	-1.2355506420135498	1.7042351961135864	1.213592767715454	1.1727362871170044	-1.6341962814331055	1.2707735300064087	1.5355958938598633	-0.08788204193115234	0.5351540148258209	0.9223706424236298	-0.33685481548309326	-0.08021795749664307	-0.16434156894683838	1.2053642570972443	0.06145697832107544	-0.5088295936584473	0.7208236455917358	2.404078960418701	1.6105212569236755	0.8119450062513351	0.8283950239419937	0.4630829691886902	-12.081653594970703	1.8764982223510742	1.413740485906601	0.7595937550067902	1.493540495634079	-0.3970513343811035	0.4765079617500305	1.5069208145141602	2.02999746799469	-0.3985257148742676	1.1246379762887955	-1.3665189743041992	-3.818295478820801	2.3527469635009766	0.7949668318033218	0.9332126677036285	1.6756203770637512	1.6957380771636963	2.7624958753585815	-0.4580059051513672	0.7532451450824738	1.3830320239067078	0.051273345947265625	1.4923797845840454	1.0674157366156578	1.803088128566742	1.5100285410881042	-1.6586825847625732	0.3299786448478699	1.8553348779678345	-0.5668491125106812	-0.8480006456375122	0.1937657594680786	2.494569420814514	1.159631684422493	1.6582106947898865	1.5810626745224	0.4655437469482422	-1.6991691589355469	1.81305992603302	1.0423558689653873	1.2395520061254501	1.2032590061426163	0.4786139130592346	1.7694317698478699	1.7425007224082947	1.1588372439146042	1.5950956344604492	1.2994042038917542	-0.4318366050720215	-0.9745430946350098	0.7289824485778809	1.0527751259505749	2.7033987045288086	0.14534246921539307	-0.08212673664093018	0.4364461898803711	1.4262966513633728	1.5357054471969604	0.7823265343904495	0.6811674535274506	-0.008405566215515137	1.9226757884025574	1.8292284607887268	2.7500630617141724	2.127495527267456	1.5719133019447327	-2.5147206783294678	-1.3434228897094727	0.8968360498547554	2.128939986228943	1.173726350069046	1.7487181425094604	-0.30129051208496094	-0.05204880237579346	1.6963912844657898	1.4783504903316498	1.3767900168895721	1.3344935774803162	-2.3093783855438232	1.7578272819519043	-0.18305540084838867	2.234367609024048	1.10736832767725	0.7415223121643066	0.3778863549232483	0.5868207514286041	-0.20007264614105225	0.9807483516633511	1.6802151203155518	0.6954889893531799	1.8330639004707336	1.4885005354881287	1.4614252150058746	2.58925724029541	1.1089799776673317	1.7194206714630127	0.7036592066287994	3.0130491256713867	1.979196846485138	1.7288719415664673	1.7647873759269714	1.9687692523002625	0.9282242134213448	0.09166222810745239	0.27028048038482666	0.42047375440597534	1.304269790649414	0.5755766928195953	0.7039858996868134	1.0486896112561226	1.4400880932807922	1.2131508439779282	3.0333807468414307	1.4814920127391815	-1.4211397171020508	1.961124062538147	2.5209919214248657	0.25224584341049194	0.2325182557106018	-0.7407757043838501	1.9958723187446594	1.1368817389011383	2.1516531705856323	-0.4422224760055542	0.12589043378829956	3.324690580368042	1.1646330654621124	2.2544608116149902	2.537662982940674	0.7274124920368195	1.2726552486419678	1.0209520645439625	0.10044163465499878	1.2074506878852844	1.0907508581876755	0.6728564500808716	0.2545192241668701	0.3987494111061096	0.104206383228302	0.373094379901886	0.20505976676940918	1.2027436047792435	1.6210975050926208	1.1172452867031097	2.5237165689468384	2.8632187843322754	1.2254343032836914	1.922347903251648	1.1736548840999603	1.8735472559928894	2.0959441661834717	1.8022512197494507	0.40153902769088745	1.0177972093224525	-0.7519901990890503	1.1601415276527405	0.28606128692626953	1.5706958770751953	1.8598135709762573	3.0817925930023193	1.6953006982803345	1.553236722946167	1.069644458591938	-2.2332980632781982	0.21648478507995605	1.1359459310770035	-0.03970956802368164	1.5446954369544983	1.4222505688667297	1.3097206950187683	0.7573399394750595	1.1184454411268234	1.2166879773139954	-1.8805162906646729	-0.10558497905731201	1.0051910718902946	1.49020916223526	1.0550126805901527	3.0459952354431152	1.51087886095047	-0.14939022064208984	3.574497699737549	2.001788020133972	1.3951875567436218	0.18693339824676514	1.6728578209877014	0.5110489130020142	-0.3817981481552124	-0.4428825378417969	2.501274824142456	-0.06857538223266602	1.9068145751953125	1.7266094088554382	1.1168119758367538	0.2528321146965027	-0.12889838218688965	1.2249072939157486	0.1564253568649292	-2.0971057415008545	3.189242362976074	2.344780921936035	0.655354768037796	-0.3273172378540039	0.32029229402542114	1.4356520175933838	0.9367981851100922	1.2848346531391144	2.5897475481033325	1.5316352844238281	0.16380971670150757	1.8858811855316162	3.8030459880828857	0.16047948598861694	0.9733417853713036	1.690891981124878	-0.08294522762298584	0.2974435091018677	0.5195192098617554	0.7459219396114349	2.8706332445144653	1.9088855981826782	1.968425452709198	2.2596594095230103	2.250579595565796	1.2544525861740112	0.6326584815979004	-2.601133346557617	2.67777156829834	0.7307518720626831	1.0509482957422733	2.183219075202942	2.272876024246216	2.187373399734497	1.8856030702590942	0.564667820930481	-0.6554372310638428	0.9251674488186836	1.9047051668167114	1.8620779514312744	3.2781994342803955	0.5163097977638245	0.9115115106105804	3.0504329204559326	0.8393530994653702	-0.8784477710723877	0.2966960072517395	2.231359362602234	-0.23030388355255127	0.8814733698964119	22.057342529296875	1.2362784892320633	1.0178980939090252	0.3592325448989868	1.5606739521026611	1.409067302942276	1.9947892427444458	1.7455090284347534	0.5431012511253357	1.1994206309318542	-0.37543046474456787	1.8819859027862549	0.8207181245088577	0.2401309609413147	1.8238065838813782	1.519444763660431	-0.38746118545532227	0.4398137331008911	3.131803035736084	3.225883722305298	3.2573585510253906	-0.03956198692321777	1.8867911100387573	0.19998198747634888	0.31398171186447144	-0.0916757583618164	0.9585191048681736	1.5740643739700317	1.599281668663025	-0.8533216714859009	-0.9917492866516113	1.8318272829055786	1.213984489440918	2.9359498023986816	-0.1982053518295288	-1.073143482208252	2.6556893587112427	0.6946641206741333	0.5631637573242188	-0.09601449966430664	0.813083603978157	2.309600353240967	-1.0626111030578613	1.5861470699310303	2.768982172012329	2.5087153911590576	-2.6941475868225098	1.441303312778473	2.007160782814026	-0.6806385517120361	-0.6168010234832764	1.5141640901565552	-0.17872178554534912	2.2820059061050415	3.106222152709961	-1.144258975982666	1.9003630876541138	-0.35401809215545654	-0.16185736656188965	1.3668745458126068	0.1256961226463318	2.050347685813904	1.488111436367035	2.3533791303634644	-0.5411269664764404	2.0881259441375732	0.29600703716278076	1.9095805287361145	0.5845824480056763	-1.0229308605194092	0.26798421144485474	0.82012540102005	0.9194552451372147	2.750514507293701	1.8743510246276855	-1.3759586811065674	-0.22167611122131348	2.2190282344818115	1.9715914130210876	2.5022436380386353	-0.2053443193435669	-0.5814208984375	-1.3612303733825684	1.1905477643013	-0.6200389862060547	1.1336323767900467	3.073796272277832	0.8780758082866669	-0.08664941787719727	2.839438796043396	11.495219230651855	-1.3292875289916992	0.7943320125341415	0.9321270361542702	1.7842327952384949	0.7058864831924438	0.9357252866029739	3.301166534423828	0.5525835454463959	2.705935001373291	1.5469753742218018	0.9881152492016554	0.22467750310897827	3.502930164337158	-0.494254469871521	3.2040188312530518	3.6360535621643066	1.5148990154266357	1.8310337662696838	-0.24722826480865479	0.6153863072395325	1.1944698840379715	1.2990365326404572	0.24295419454574585	2.5927529335021973	1.5978944897651672	1.3309187591075897	0.20007634162902832	2.168779492378235	2.4820876121520996	0.44641125202178955	2.472178816795349	0.687731146812439	0.8038855344057083	0.5619136989116669	1.9813962578773499	0.05761122703552246	4.205714225769043	1.7571340203285217	2.963113307952881	2.486612915992737	-0.8658155202865601	1.0846549272537231	1.0043455245904624	-0.45240962505340576	0.10787022113800049	1.2305234521627426	0.5173821449279785	-0.27231907844543457	3.3325233459472656	-0.07278287410736084	0.875241719186306	0.28817033767700195	1.7675790786743164	1.836474061012268	1.8210447430610657	0.8239902406930923	0.13919180631637573	0.36490923166275024	-0.5700149536132812	1.4264132380485535	0.10054564476013184	1.3023120164871216	0.6528646051883698	0.6432623863220215	1.220787838101387	0.5686359405517578	-0.2666661739349365	1.478112280368805	1.2781311571598053	1.4758340418338776	1.6936403512954712	2.014305353164673	2.1663416624069214	1.77968168258667	-1.1847639083862305	1.611068606376648	1.411323219537735	1.5883713960647583	0.7138190269470215	2.124845027923584	1.0765379220247269	1.1467585265636444	2.808708906173706	1.1803181171417236	0.8621195256710052	0.16358578205108643	0.6837998330593109	3.2426869869232178	-0.49558472633361816	2.4833112955093384	1.6623135805130005	0.9993876335211098	0.37177056074142456	0.4799683690071106	1.1968580782413483	4.09819769859314	1.0163894183933735	0.18948417901992798	-0.10659146308898926	0.7090675830841064	0.833590492606163	0.32574164867401123	1.3739422857761383	0.14589643478393555	1.0400491282343864	0.4733160734176636	0.8619024455547333
festeggiare_1	2.7413543462753296	0.657077819108963	1.4293461441993713	0.8758218660950661	1.1759362071752548	2.772859573364258	1.4905107617378235	-7.40672492980957	-0.6982549428939819	2.936948776245117	0.20810824632644653	0.5974565148353577	1.7578780055046082	1.4700504541397095	3.025367021560669	1.155467540025711	-2.196735143661499	1.9978041052818298	0.7110563814640045	0.1913977861404419	-0.12082970142364502	2.2582496404647827	1.2671875059604645	-0.5700256824493408	0.6867552101612091	-0.33322882652282715	-0.7352523803710938	2.1312135457992554	0.7425668835639954	1.7678995728492737	0.8227506577968597	-0.39233505725860596	-2.125772714614868	1.9180646538734436	1.606647253036499	2.107050657272339	0.32308483123779297	1.8009544610977173	2.841310977935791	0.7106663584709167	1.7775943875312805	1.677944839000702	3.733603000640869	2.5781924724578857	1.2187045514583588	-17.163475036621094	0.9783925842493773	1.6834362745285034	1.2767708897590637	2.558544158935547	1.0261482559144497	1.1380030512809753	1.0054821711964905	-0.5067991018295288	0.26532453298568726	1.1431904286146164	1.9195747375488281	0.34658992290496826	0.36813443899154663	3.2894160747528076	1.382379561662674	2.954321503639221	0.8152816146612167	1.302150934934616	1.577157199382782	2.337030291557312	-1.077845573425293	1.089919663965702	0.9652661941945553	2.1391069889068604	1.3173047602176666	-0.14883458614349365	0.482710063457489	2.023006796836853	1.9628258347511292	1.6335505247116089	2.3393043279647827	2.248085379600525	1.2438048720359802	1.7027826309204102	2.1278672218322754	2.0557905435562134	2.641193985939026	1.5993995070457458	2.4958280324935913	0.8366654515266418	-1.417560338973999	-0.9088394641876221	0.18237614631652832	0.6713038980960846	0.3057251572608948	3.60980224609375	0.9033666104078293	-0.0023729801177978516	3.2457187175750732	3.395380735397339	1.5604957342147827	0.42695939540863037	-0.3480677604675293	-0.16013765335083008	-0.234794020652771	-0.46866071224212646	-1.8845891952514648	1.8856393694877625	2.4143952131271362	2.161371111869812	1.6616244912147522	1.4410396218299866	-0.6392825841903687	1.2183115184307098	1.3958197832107544	1.070023849606514	2.479531764984131	0.015219628810882568	1.691959023475647	0.6852604448795319	1.876391589641571	1.1438651829957962	0.6453254520893097	0.6130571365356445	0.5448427200317383	2.5054967403411865	0.9596282318234444	1.235311508178711	1.0985332503914833	0.7706339806318283	0.7925784289836884	2.751812219619751	0.7497288286685944	1.7630561590194702	1.250409483909607	0.6817106306552887	0.35056227445602417	1.6719962358474731	1.465364396572113	1.7364155054092407	-0.224648118019104	2.108192563056946	0.983821852132678	1.449804574251175	1.6792495846748352	1.9382317662239075	-0.4463287591934204	-0.9037442207336426	2.021139621734619	0.15429234504699707	1.0803188160061836	0.402049720287323	1.413401186466217	0.8111420720815659	2.1949336528778076	1.9658852219581604	0.604472279548645	0.46860557794570923	0.975717693567276	0.7611028850078583	2.213223695755005	0.7848804742097855	1.686661720275879	2.0897918939590454	0.8623596280813217	1.976133644580841	-0.4320049285888672	3.7254836559295654	0.3712312579154968	0.878570094704628	2.0312191247940063	5.402364730834961	1.7991667985916138	0.981307977810502	0.8962592259049416	0.5911308825016022	1.713028073310852	0.9063015058636665	0.1824924349784851	1.2225572913885117	0.41629451513290405	2.5316394567489624	0.8560394644737244	1.182125598192215	3.0102763175964355	0.9175879135727882	1.0529742240905762	2.072277069091797	-0.6651761531829834	1.0533741377294064	1.3833464980125427	0.6877434849739075	3.178391218185425	0.20003831386566162	0.9402282871305943	-0.4975299835205078	0.6727866530418396	-0.3599975109100342	0.5737921297550201	-0.7662577629089355	0.24328500032424927	1.3358707129955292	0.3896579146385193	2.5891644954681396	0.946674644947052	1.2015284150838852	0.5915791094303131	3.2691946029663086	2.2358131408691406	1.8177348971366882	-0.02158379554748535	0.48322969675064087	1.0968230664730072	0.06646192073822021	2.0028549432754517	1.6990121603012085	-0.19531512260437012	-0.15263152122497559	-1.0662860870361328	1.5572078227996826	1.2742548286914825	3.8901374340057373	1.2816385626792908	0.8604468256235123	1.146114245057106	1.1627508848905563	0.7578901201486588	-0.1476048231124878	1.4335400760173798	0.9787451066076756	0.699386328458786	1.153999775648117	-0.2587167024612427	1.0005964547162876	0.1641896367073059	1.5760570764541626	1.5124139189720154	0.12365394830703735	1.4658631682395935	1.9390739798545837	0.19237738847732544	1.9548259377479553	0.43109405040740967	1.66248619556427	0.23633021116256714	0.9643079042434692	-0.28543519973754883	-0.2003260850906372	0.507136881351471	3.9993975162506104	1.9481000900268555	1.2544011175632477	0.0013949275016784668	5.024720668792725	0.6307549774646759	2.6454126834869385	0.45828527212142944	1.4681514203548431	1.818909764289856	-0.19265639781951904	1.2973117530345917	-0.1945641040802002	2.049611806869507	-0.5546109676361084	2.0054370164871216	0.6326546370983124	0.8541494756937027	2.206979274749756	1.995882272720337	3.4850568771362305	-0.24793243408203125	-1.665198802947998	0.7145504057407379	-0.2492516040802002	0.6157337129116058	-0.7699217796325684	1.0542868338525295	1.4870622754096985	1.1128770485520363	0.963110014796257	1.0492786578834057	1.9420150518417358	0.8535193055868149	1.3382644355297089	-1.814286708831787	1.2579611241817474	0.9943909645080566	2.814818501472473	-0.043383240699768066	0.6198291480541229	0.7889704704284668	1.4844105541706085	2.84731662273407	1.5524558424949646	-0.07238447666168213	-0.9770419597625732	-0.3246241807937622	-0.6736414432525635	0.08026319742202759	0.3347943425178528	-0.5054347515106201	-0.5406233072280884	-1.4523696899414062	2.8344898223876953	-0.10302591323852539	0.7211053967475891	0.4960452914237976	1.8529777526855469	2.7693979740142822	1.0060582580044866	0.870267704129219	1.699370801448822	1.4650515019893646	0.8541515171527863	-0.9890079498291016	0.8960603252053261	0.6044487357139587	0.6407584249973297	2.0365251302719116	1.761775553226471	0.7845364958047867	1.7937334179878235	0.44431114196777344	-0.8952749967575073	-13.587284088134766	1.1301023364067078	0.03116708993911743	0.8425305187702179	4.7866151332855225	0.9029739201068878	1.1788257956504822	1.4083989262580872	1.5756545662879944	0.09843796491622925	0.8313415795564651	-0.18629562854766846	-1.9984827041625977	0.14624613523483276	1.5138574242591858	1.1099365875124931	-0.227469801902771	0.0651349425315857	1.2283179759979248	-0.5728042125701904	0.34571075439453125	1.3265603184700012	3.9014081954956055	1.6173190474510193	0.49186277389526367	0.429843008518219	1.0832900181412697	-0.042189836502075195	2.263002872467041	1.1627552211284637	-0.7663426399230957	0.1950528621673584	-1.1120545864105225	1.95030277967453	0.010655403137207031	-0.6946326494216919	1.8705602884292603	0.40476661920547485	1.1373602747917175	1.3059563040733337	0.9734906163066626	-1.6528584957122803	1.8247255086898804	1.1386476457118988	1.1639937609434128	1.1151014864444733	0.8044776916503906	1.685039758682251	1.9160362482070923	0.26643067598342896	1.0689079314470291	2.5466898679733276	1.670583963394165	0.4510558843612671	-0.2589796781539917	1.5015280842781067	1.246510535478592	3.0494558811187744	-0.5125746726989746	0.18181681632995605	2.533423066139221	0.27135157585144043	0.19176220893859863	1.8207671642303467	2.8768837451934814	1.0885729640722275	-0.04126882553100586	-0.6229965686798096	-0.625654935836792	1.3849073946475983	0.22923684120178223	2.8315552473068237	2.6118311882019043	0.9823432229459286	1.3805454075336456	3.3463432788848877	2.480075478553772	-0.057181596755981445	1.7137183547019958	1.6447169780731201	1.8751344680786133	0.4951057434082031	2.271108031272888	1.0475845076143742	0.7063415348529816	1.4430701434612274	-0.5426005125045776	0.16057032346725464	-0.6380095481872559	-0.01239311695098877	1.6264418363571167	0.8594195395708084	0.747702032327652	0.5682723224163055	1.9162352681159973	3.8286633491516113	0.6722914576530457	1.0691740065813065	1.4803847968578339	-0.5575573444366455	0.8767602741718292	2.010825037956238	0.24979877471923828	1.1490834206342697	1.6314560770988464	-0.45357584953308105	0.4959058165550232	1.5937597155570984	0.4121292233467102	0.7912981063127518	1.0906159058213234	2.0011664628982544	1.0627223700284958	0.8226909786462784	2.355621576309204	-0.2973790168762207	0.08222860097885132	1.1852525025606155	1.2517793476581573	0.3011589050292969	-0.01612997055053711	0.9159256741404533	1.6902253031730652	2.7390363216400146	0.5701064169406891	1.342806726694107	2.490691304206848	1.4974861443042755	1.9426229596138	3.8296823501586914	-0.2838122844696045	1.9221814274787903	1.995836853981018	1.6251314878463745	1.7804282903671265	0.29537123441696167	1.5120260119438171	0.34514319896698	0.825720876455307	-0.6541054248809814	0.31243234872817993	1.4197849333286285	1.3318043649196625	1.291882187128067	0.6634937226772308	1.0215086694806814	2.867439866065979	-0.21285676956176758	0.22910398244857788	-0.08003592491149902	0.7913862615823746	-0.22597432136535645	0.2761574387550354	-0.20887231826782227	1.1518299281597137	1.7349083423614502	0.9449604414403439	-1.105696201324463	1.8600407242774963	1.5501728057861328	2.903600573539734	0.3041829466819763	1.630778193473816	1.9674303531646729	-1.1746110916137695	-1.1255524158477783	1.6891433596611023	1.7732272744178772	-0.04815220832824707	0.9291675910353661	0.13008081912994385	1.723132848739624	2.3565547466278076	-0.1979426145553589	-1.9740729331970215	1.1109499260783195	0.6231581270694733	0.18238365650177002	1.916657567024231	2.7431362867355347	1.3921960294246674	3.1389145851135254	2.2902547121047974	1.1923653334379196	1.8669284582138062	1.3565671741962433	1.9150688648223877	-0.20278429985046387	1.3190616369247437	0.3654407858848572	2.057193398475647	-1.1308693885803223	1.0832693129777908	1.9726327061653137	0.5779362916946411	0.5958762764930725	1.2098926156759262	1.0710222572088242	-0.5646094083786011	-0.96635901927948	1.942179262638092	1.6966564059257507	2.584657311439514	0.5084840059280396	-0.1314866542816162	-0.23497140407562256	-1.0600454807281494	1.9336454272270203	2.3956947326660156	2.545347809791565	-0.028559088706970215	2.843752384185791	3.0945487022399902	0.6569880843162537	3.0148987770080566	-0.28369271755218506	-1.0496790409088135	1.978751003742218	2.349589705467224	1.4492582082748413	1.5802851915359497	1.1773193031549454	1.9341869950294495	1.7930783033370972	2.7841694355010986	1.0956482961773872	-1.0253210067749023	-1.044609546661377	3.136493444442749	0.7035550177097321	0.9667846597731113	2.6144092082977295	3.521118402481079	1.2216486930847168	1.6345428228378296	0.29615795612335205	-0.7622462511062622	-0.0807105302810669	3.036613941192627	2.4565224647521973	0.28828686475753784	1.4019930064678192	0.6623152494430542	2.9567583799362183	1.7001100778579712	0.042228758335113525	-0.10182738304138184	-0.05558335781097412	0.36521583795547485	3.5811753273010254	22.225433349609375	1.7542168498039246	0.3641433119773865	-0.4022390842437744	0.03494000434875488	1.5428089499473572	2.169268488883972	2.450827717781067	1.6987364292144775	1.8666050434112549	0.44120723009109497	0.9643088728189468	1.464605063199997	0.3067018985748291	1.0077230976894498	0.4572690725326538	0.008188307285308838	-0.081931471824646	-0.504987359046936	2.143346905708313	1.0899500027298927	-0.6785944700241089	1.1312276273965836	0.13955247402191162	-1.7250823974609375	1.6715190410614014	0.34054142236709595	0.8608240038156509	1.5566574335098267	1.561858355998993	0.48795270919799805	0.5020255148410797	0.515937477350235	2.228369116783142	-0.914236307144165	-0.16137588024139404	0.8901301622390747	0.9082742184400558	0.04386544227600098	1.7488852739334106	3.0955774784088135	1.6806036829948425	0.16928178071975708	0.5512792468070984	1.6245971322059631	1.6051359176635742	-1.8925695419311523	1.5962387919425964	1.6025776267051697	-1.2172658443450928	0.01955127716064453	2.0032572746276855	1.1275330930948257	1.0271660313010216	2.7990849018096924	-0.3599104881286621	0.6831246912479401	0.9780236836522818	-0.8993910551071167	1.4712556302547455	-0.5662212371826172	1.5337051153182983	2.007170796394348	1.098070614039898	1.2879786789417267	2.688764214515686	1.2133089751005173	1.384951263666153	1.7758247256278992	-1.4575626850128174	0.5479560196399689	0.8930071517825127	2.0365692377090454	0.9235798865556717	1.087761029601097	0.9495384469628334	1.4236837029457092	3.19280743598938	1.2719866931438446	1.8324981331825256	0.7252141535282135	1.2885031402111053	1.2726012766361237	0.7130287289619446	1.1105501875281334	-0.4807274341583252	1.99256831407547	0.8035812079906464	3.443049907684326	1.1684238612651825	10.710796356201172	0.5942689478397369	-0.25488269329071045	1.265604853630066	2.223796248435974	-0.5603272914886475	-0.8686977624893188	1.0054198591969907	0.9132362902164459	0.13020437955856323	1.956247091293335	0.2682933211326599	1.2437523901462555	0.9249743968248367	1.6303435564041138	2.44113552570343	-0.013422846794128418	3.2763214111328125	0.4081724286079407	-0.512765645980835	0.7164617478847504	-0.27035367488861084	1.1036702319979668	0.6196607947349548	1.6809986233711243	1.4671751856803894	0.3601868748664856	1.0445986986160278	3.702989101409912	2.440415859222412	1.2129767835140228	0.3849421739578247	1.9475656747817993	-0.4051605463027954	2.06815505027771	1.5444071292877197	0.678836315870285	2.2568706274032593	1.945497751235962	1.2825855314731598	2.4916586875915527	-1.1892061233520508	2.685011386871338	1.4131717383861542	1.411790668964386	0.8887835517525673	1.081499494612217	2.3631287813186646	0.593635082244873	2.135841727256775	-0.34417617321014404	2.3400670289993286	0.7191911935806274	1.9488406777381897	1.7032552361488342	1.8432167172431946	2.276516079902649	0.42275625467300415	1.1199899464845657	0.3992891311645508	3.07625412940979	0.35915088653564453	1.5629685521125793	1.2228371053934097	-0.8036959171295166	-0.18003451824188232	-0.6554902791976929	0.6958138644695282	0.03719806671142578	0.6544983685016632	1.1851564347743988	0.607625275850296	2.764175534248352	1.3477092683315277	2.4437873363494873	-0.2706707715988159	2.067995071411133	1.5105940699577332	2.5649406909942627	0.81984081864357	1.9407549500465393	-2.052628993988037	0.7994906008243561	-0.5838844776153564	4.5277626514434814	-0.45084428787231445	1.2947111427783966	1.1534246653318405	2.2380553483963013	0.1588684320449829	3.081883430480957	1.1200537756085396	0.6783395707607269	1.441303938627243	-0.16937386989593506	3.048168897628784	4.227614879608154	2.888879179954529	0.7770425379276276	1.6597287058830261	0.6899115741252899	0.6890306174755096	-0.5634251832962036	1.4412842094898224	0.2793395519256592	-0.8976809978485107	1.097166158258915	1.6680999994277954
festeggiare_2	2.9604411125183105	0.810262069106102	0.9043521210551262	0.49122679233551025	0.6472140550613403	1.922872006893158	2.181504011154175	-5.655543327331543	-1.5178663730621338	3.1145570278167725	-0.0719219446182251	0.2614859938621521	1.7171750664710999	1.5515285730361938	2.7773956060409546	1.5813239812850952	-2.0632901191711426	1.2688802182674408	-0.023216605186462402	0.3216307759284973	0.4041427969932556	1.5278292894363403	0.871925950050354	-0.44026458263397217	0.06789761781692505	1.087827131152153	1.021336892619729	1.8758285641670227	1.2100628167390823	1.6807155013084412	0.3679017424583435	-0.13886773586273193	-1.068314552307129	2.790082097053528	0.5354563891887665	1.56794673204422	0.6312179863452911	0.827533558011055	3.6275713443756104	1.3603830933570862	0.8309061825275421	0.7576957643032074	3.3430819511413574	2.1892608404159546	0.8329189121723175	-14.219695091247559	1.014438671991229	1.5978227853775024	1.8102923035621643	1.2274270951747894	2.322711944580078	2.5392295122146606	1.2953537106513977	0.14958566427230835	-0.7723510265350342	0.8727961033582687	2.688607931137085	0.41908079385757446	1.1186765804886818	3.7612977027893066	1.321408897638321	2.55570650100708	1.257520854473114	0.7064369320869446	1.4655246436595917	3.0519473552703857	-1.0436675548553467	1.5326709747314453	0.234649658203125	2.090389370918274	2.8390936851501465	-0.10324347019195557	0.41009217500686646	2.0010721683502197	1.874751091003418	1.9965912103652954	1.8268317580223083	1.812195360660553	-0.2587686777114868	2.2335201501846313	1.6228322386741638	3.2751846313476562	1.4735676646232605	1.2893131077289581	1.158399984240532	0.7379956841468811	1.0014816601760685	0.1108255386352539	0.12777453660964966	0.9896271266043186	-0.11685693264007568	3.5559322834014893	-0.8783277273178101	0.5895985066890717	1.8943272233009338	2.340382218360901	2.2590014934539795	1.931927740573883	-0.08682465553283691	0.1665319800376892	-0.16977965831756592	0.776385173201561	-1.7464420795440674	2.4374003410339355	3.276123046875	1.886867880821228	1.619903326034546	1.4099270701408386	-1.0862317085266113	0.39943498373031616	2.7908313274383545	1.0121227381750941	2.37515127658844	0.32290977239608765	1.914650797843933	1.2313739210367203	1.192012369632721	1.3381925523281097	0.7974283993244171	0.2771850824356079	0.6860487163066864	1.8243946433067322	0.6940256655216217	1.6074116826057434	1.5137161016464233	1.3114096224308014	0.8514513075351715	1.3411506712436676	1.3221442997455597	2.24813449382782	2.757964253425598	1.9758623838424683	0.5043563544750214	0.9922149949707091	1.233282446861267	2.0413622856140137	1.9704203009605408	2.327361822128296	1.8405731320381165	1.7499513626098633	1.0401386320590973	2.055488109588623	-0.7115670442581177	-0.9172487258911133	2.475258231163025	-0.2840898036956787	1.1737709045410156	0.11574172973632812	1.9286271929740906	1.2812371850013733	2.698285460472107	1.4700702726840973	0.29597795009613037	1.393408626317978	1.1684482395648956	0.9987113741226494	2.9127917289733887	0.03617292642593384	0.8682406097650528	1.5662625432014465	0.45337265729904175	2.4310760498046875	1.2412995398044586	3.029176950454712	1.1348347216844559	1.2724290490150452	2.3719736337661743	4.217772483825684	2.0891822576522827	0.34659337997436523	1.9676967859268188	0.8559538275003433	2.4448821544647217	0.40815800428390503	-0.04853677749633789	2.6380852460861206	-0.545849084854126	2.7982916831970215	1.3837880790233612	1.0843612849712372	2.3524270057678223	-0.0811612606048584	0.4353026747703552	1.9716234803199768	-0.7873985767364502	1.2897930443286896	0.859720379114151	0.13223481178283691	2.3308424949645996	-0.8786994218826294	0.24633461236953735	0.4218127131462097	0.7827007919549942	0.3861590623855591	0.7375494837760925	-0.4649878740310669	0.11690294742584229	1.535906434059143	0.029019594192504883	3.4841291904449463	1.418555200099945	0.3588902950286865	1.1958267241716385	2.115135669708252	1.5923947095870972	1.8414169549942017	-0.024837493896484375	0.939852885901928	1.5000836849212646	0.032325565814971924	1.5405956506729126	1.3481141328811646	0.14901131391525269	1.1468359529972076	-0.5345286130905151	0.9678693227469921	1.8099047541618347	2.35430371761322	1.0651125237345695	1.1371980607509613	0.9069718047976494	1.9908013939857483	1.257182627916336	0.6999518871307373	1.5784802436828613	1.2591137290000916	-0.02065861225128174	1.3102858066558838	-0.24041450023651123	1.9152241945266724	-1.4204468727111816	1.2793159782886505	0.9420547857880592	-0.12459290027618408	1.2954376637935638	0.9456354677677155	-0.9628919363021851	2.162078857421875	1.0219939928501844	0.9260122701525688	1.6881264448165894	0.5573204159736633	-0.527738094329834	-0.7715152502059937	0.901519350707531	3.188197612762451	1.820792317390442	1.72651606798172	0.2732985019683838	7.602892875671387	0.9456983655691147	0.9437003880739212	1.0957202464342117	2.0153017044067383	1.8129627704620361	0.8933091834187508	1.3903427124023438	-0.3373144865036011	1.3368708193302155	-0.24053740501403809	2.268739104270935	1.3501920402050018	1.0323390066623688	1.7462859153747559	1.135993778705597	5.434676647186279	-0.03770041465759277	0.14453870058059692	0.28617316484451294	0.26536625623703003	1.3334637880325317	-0.33825111389160156	1.6192819476127625	2.4484061002731323	0.06522393226623535	0.9193778559565544	1.562583327293396	0.7349814176559448	1.1920502334833145	1.3168530464172363	-1.5703089237213135	-0.21699178218841553	1.053671095520258	2.945903182029724	0.847107321023941	0.5803243815898895	0.08425414562225342	0.4488922953605652	2.1367292404174805	0.9653121531009674	0.4764258861541748	-1.1507644653320312	1.375400960445404	-1.855656623840332	0.5129421651363373	-0.4807177782058716	-0.2941417694091797	-0.08086943626403809	-1.6407461166381836	2.643186330795288	0.2818431258201599	1.794120967388153	1.5798287987709045	1.5902159214019775	3.4464876651763916	1.0512046068906784	0.26485300064086914	1.8623414039611816	-0.3232356309890747	1.3042415976524353	-0.28656959533691406	0.45505619049072266	0.22042226791381836	0.23600280284881592	1.088504932820797	1.8834956884384155	1.581436812877655	1.571195363998413	1.267351359128952	0.6130189299583435	-18.912076950073242	0.9106304198503494	0.14304769039154053	1.4054079353809357	3.1331825256347656	0.5064018964767456	1.4404930472373962	0.8322117328643799	1.3038704693317413	-0.8941794633865356	0.837817519903183	0.9709653370082378	-2.5831074714660645	1.1471148431301117	1.5693150162696838	0.9884274136275053	0.4243893623352051	0.3798120617866516	1.7671586871147156	0.41828012466430664	-0.44567418098449707	0.9317722767591476	3.100649356842041	1.3101139962673187	0.21163946390151978	0.22476977109909058	2.7940789461135864	0.5271811485290527	2.1203160285949707	1.5233930349349976	-0.5169616937637329	0.3938369154930115	-1.6583948135375977	1.4335515201091766	-0.5372172594070435	0.19244444370269775	1.0527761727571487	0.04643857479095459	0.055976271629333496	1.4539944529533386	0.6479019522666931	-0.8602041006088257	1.3416760861873627	0.6683666110038757	0.7880223393440247	1.1759764850139618	1.434792399406433	1.2971344292163849	2.4352829456329346	-0.4339864253997803	-0.384873628616333	2.6204867362976074	1.665641725063324	0.9803369212895632	0.29173505306243896	1.5741215944290161	0.6711363792419434	1.8190225958824158	0.836740255355835	1.5134441256523132	2.36833119392395	0.2760853171348572	-0.37247276306152344	1.004476262256503	4.005662441253662	1.5131039023399353	0.19755899906158447	0.727735698223114	-0.5771362781524658	2.315053343772888	0.5921609103679657	2.6168349981307983	3.371548891067505	0.8232612013816833	1.1140658259391785	3.5182082653045654	2.8835076093673706	0.2229853868484497	2.2218321561813354	1.0555987507104874	1.588693380355835	0.23404014110565186	2.1031535863876343	1.866597294807434	0.44199657440185547	0.8032170683145523	0.02626901865005493	1.348833829164505	-0.18913817405700684	0.5724548399448395	1.6879217624664307	1.2064546942710876	0.9480302184820175	0.8891611099243164	1.188333049416542	2.7881124019622803	1.1354747712612152	1.5515352487564087	1.2636019885540009	-1.6523144245147705	0.3685547113418579	1.5934216976165771	0.8049328029155731	1.6368133425712585	1.6811209917068481	0.8566750586032867	1.6003761887550354	1.6039580702781677	0.23382848501205444	1.152033805847168	0.8826178163290024	2.6387444734573364	2.163009762763977	1.0820984095335007	1.6742525100708008	-0.6988162994384766	0.45653074979782104	1.8830944299697876	1.4555859565734863	-0.46743202209472656	0.044041454792022705	1.6780652403831482	1.307672530412674	1.4842191934585571	0.5641862750053406	0.4320145845413208	1.318257987499237	1.4484758973121643	2.157551884651184	3.897552728652954	-0.5916335582733154	1.4303427338600159	0.9307128712534904	1.7922682166099548	0.6556325554847717	-1.0960474014282227	0.014403223991394043	1.0064585898071527	1.7745670676231384	-0.6454340219497681	-0.20729923248291016	0.6832327544689178	1.4717631936073303	1.3661687076091766	0.6312613487243652	0.3498225808143616	2.8193222284317017	-0.5747302770614624	-0.44215714931488037	0.7010139226913452	1.0127536822110415	-1.3714027404785156	0.36023515462875366	-0.6264570951461792	0.8644809871912003	1.9359868168830872	0.7939893454313278	-1.1245806217193604	1.5199372172355652	2.0414260625839233	2.7985397577285767	1.0474839843809605	1.925844430923462	2.952384829521179	-0.8691548109054565	-1.3086779117584229	2.1405361890792847	0.49672752618789673	-0.1301250457763672	1.5905142426490784	0.8189444690942764	1.2313698381185532	1.2383179068565369	0.2179415225982666	-2.6216344833374023	1.1563816219568253	0.27213048934936523	0.676334947347641	0.8193123638629913	3.164626121520996	0.8377246558666229	1.6513668298721313	1.933716595172882	1.1010838001966476	2.3484519720077515	0.38077986240386963	0.6720452308654785	-0.2808932065963745	-0.3463355302810669	-0.8877893686294556	1.2263746410608292	-1.0428357124328613	1.1252296715974808	1.5382117629051208	0.36692970991134644	1.0584930405020714	0.9196448251605034	-0.41535866260528564	-0.510849118232727	-1.44612455368042	1.7339724898338318	0.7289413511753082	1.1333485543727875	-0.6346323490142822	0.48931771516799927	-0.028076171875	-1.2075576782226562	2.219494581222534	3.0708811283111572	2.6798572540283203	1.1339383125305176	2.851631999015808	2.7899727821350098	1.4248948097229004	3.3319523334503174	-0.682758092880249	-0.28903746604919434	2.1586958169937134	1.511410415172577	1.4463406801223755	1.1253441125154495	-0.4257463216781616	2.0335832834243774	0.947228729724884	2.95724356174469	0.9641909599304199	0.36975228786468506	-0.1116797924041748	3.1629137992858887	0.5922988057136536	0.8361096978187561	1.814125120639801	3.908884048461914	1.625511884689331	1.631838858127594	-0.2296288013458252	-0.12134265899658203	-0.17467284202575684	3.713306427001953	3.288313865661621	0.3230907917022705	0.8655175268650055	0.7031869292259216	3.5972774028778076	1.9799007773399353	-0.28865015506744385	0.5062836408615112	-0.5041390657424927	0.9969302958343178	2.9536741971969604	22.28028106689453	3.0793707370758057	0.30637019872665405	-0.14677774906158447	1.0134262088686228	0.7885307967662811	2.2660473585128784	3.696183919906616	1.6277728080749512	1.0421998836100101	0.41119903326034546	0.7586987763643265	1.5606184005737305	1.6839005947113037	1.9414759874343872	1.809226632118225	0.5243450999259949	-1.0734710693359375	-0.2427370548248291	1.357749342918396	1.7788509726524353	-1.401496171951294	2.199238896369934	0.8789313957095146	-0.6136767864227295	1.6901670098304749	0.20672732591629028	0.36048007011413574	0.7005915641784668	2.1838650703430176	0.6043794751167297	-0.32647228240966797	0.11801308393478394	3.0335559844970703	-1.7331125736236572	-0.012029886245727539	1.7344199419021606	-0.18378937244415283	-0.0328444242477417	1.984279990196228	3.2942471504211426	0.3428764343261719	-0.24615681171417236	0.4891361594200134	0.5275254249572754	0.9671005867421627	-0.22407948970794678	0.7898999750614166	1.7586553692817688	-2.2439494132995605	0.9069570228457451	0.7654882669448853	1.228521153330803	1.1633777171373367	1.4573140442371368	-1.0853593349456787	0.8829004317522049	1.1248772516846657	-0.12801694869995117	1.4628169536590576	-1.1725940704345703	0.7422529458999634	3.187279224395752	0.8860796093940735	2.2857741117477417	1.366617739200592	1.0041333730332553	1.8337862491607666	1.1693642437458038	-0.12171828746795654	0.45801252126693726	1.0390313230454922	2.6825919151306152	1.0653431564569473	0.5524159371852875	1.519702434539795	1.3295894861221313	2.63521146774292	1.5640891790390015	1.1746909022331238	1.1245239898562431	0.9113148599863052	2.549775242805481	0.971782186999917	1.5380997061729431	0.34857940673828125	2.160356283187866	0.04118531942367554	3.7177579402923584	0.7883563339710236	13.021180152893066	0.9086741209030151	-0.3819509744644165	0.3422423005104065	2.4142696857452393	0.008239507675170898	0.10717570781707764	0.030839264392852783	1.3956778943538666	0.7054944336414337	1.6522208452224731	-0.10877490043640137	1.430586189031601	0.5272843241691589	1.7391870021820068	2.3256418704986572	0.508356899023056	2.671620726585388	0.5670879483222961	0.5894473493099213	1.5071119666099548	-0.8815531730651855	0.806394413113594	0.923749640583992	1.1507200300693512	0.22371739149093628	0.02641773223876953	0.9459127746522427	3.405639886856079	2.245121717453003	1.211121067404747	0.3407444953918457	3.036613702774048	-0.8242170810699463	1.4593035280704498	2.4687005281448364	0.048171818256378174	2.4186346530914307	1.1580113023519516	1.7742122411727905	0.5351625978946686	-1.046870231628418	2.4974207878112793	1.1884478628635406	1.7354468703269958	0.8750956133008003	0.0073233842849731445	1.4014126658439636	1.192503109574318	2.0076844692230225	0.2573065757751465	1.8967660069465637	0.17040419578552246	1.3713115751743317	1.513385832309723	1.9700995683670044	0.7389453649520874	0.6639041900634766	0.6425001323223114	0.6242059469223022	3.181037187576294	1.0483575649559498	1.315603792667389	0.44283968210220337	0.27381712198257446	-0.06945145130157471	0.10031455755233765	1.6377474069595337	0.487102746963501	-0.7081688642501831	1.806423008441925	0.13607782125473022	2.6738048791885376	2.2006486654281616	2.767327070236206	-0.0112684965133667	2.4201961755752563	0.9961727671325207	2.217145323753357	1.0190789569169283	-0.0595935583114624	-0.7977219820022583	-0.43209683895111084	-1.2438914775848389	3.9328975677490234	-0.6214801073074341	0.6431860327720642	0.8532378673553467	2.7851563692092896	-0.6501879692077637	3.1046838760375977	0.8136723190546036	0.4835289716720581	0.6825248301029205	-0.2736591100692749	2.0000250339508057	4.538588762283325	3.3190295696258545	2.2679202556610107	0.259803831577301	0.5221905708312988	-0.2280980348587036	-0.5259170532226562	1.4299623668193817	0.018422245979309082	-0.10289692878723145	1.525900959968567	0.5958827435970306
fidanzare_1	1.8425123691558838	2.0055571794509888	0.6721498072147369	-0.4547792673110962	2.427964210510254	2.217903971672058	1.1177175119519234	-5.000402450561523	-1.4854395389556885	2.1115729808807373	-0.1852349042892456	1.2290696054697037	2.0533987283706665	2.1322730779647827	1.1205129250884056	2.0027339458465576	-1.8448872566223145	1.378689855337143	-1.1815822124481201	-1.493992805480957	0.5322908759117126	1.7985132336616516	3.539928436279297	0.583276629447937	1.303522914648056	-0.20491421222686768	1.5921926498413086	1.8730508685112	1.2529406249523163	2.7178471088409424	0.09494251012802124	0.21063458919525146	-0.37722599506378174	0.9661741778254509	3.2677624225616455	2.079806089401245	0.8387654423713684	1.4497148394584656	0.7198973596096039	-0.21043384075164795	0.4461790919303894	0.6893411576747894	2.1354777812957764	1.815760850906372	-1.9287095069885254	-14.050461769104004	0.13760679960250854	2.712342858314514	1.984237015247345	0.05278146266937256	2.1615313291549683	-0.2867242097854614	-0.725716233253479	-0.8472540378570557	2.0983474254608154	1.3026626110076904	2.1102068424224854	0.5758351981639862	2.328443169593811	3.784210443496704	1.353555053472519	3.1362411975860596	2.0238544940948486	1.2862572371959686	2.2451752424240112	2.337836503982544	-1.2882678508758545	2.2724993228912354	0.796288251876831	0.8870783224701881	1.4224037528038025	0.5000151097774506	0.22884148359298706	2.2670751810073853	-0.03073418140411377	2.7614976167678833	2.739690661430359	2.5521258115768433	3.2686898708343506	1.902429461479187	1.7516817450523376	1.6639255285263062	2.5697332620620728	1.8137054443359375	1.0524811893701553	1.970587134361267	-1.1584129333496094	-1.1069083213806152	2.2456252574920654	1.3601659834384918	2.3246877193450928	5.719715595245361	2.339680790901184	-0.6047524213790894	3.415898323059082	1.6894042491912842	1.7699707746505737	-0.009420990943908691	1.2992939054965973	0.8880324065685272	-0.5857771635055542	1.7674330472946167	-2.3956172466278076	2.1104676723480225	3.136762857437134	-1.494107723236084	-0.6847875118255615	1.6399675011634827	-0.835051417350769	-0.334891676902771	-0.711051344871521	0.2286929488182068	2.6763956546783447	-1.303281545639038	1.0623147003352642	1.2814880311489105	1.54354989528656	0.9627907462418079	0.9518003165721893	1.703031599521637	1.3224297165870667	1.911161720752716	0.08797627687454224	0.40110939741134644	1.747545838356018	-0.28311610221862793	0.09780949354171753	1.1435832530260086	0.27607351541519165	1.7403902411460876	1.1596061885356903	2.5351608991622925	0.1796661615371704	2.0205607414245605	-0.7454407215118408	2.4734705686569214	1.5408373475074768	1.2243309766054153	-0.6997089385986328	0.5639427602291107	0.24638628959655762	0.3276205062866211	0.1874745488166809	-0.552056074142456	3.112032890319824	1.6806225776672363	-1.555295705795288	1.9962587356567383	2.077636480331421	0.07513004541397095	1.0311975814402103	1.733595848083496	3.036510467529297	0.5402439534664154	-1.5603549480438232	1.1017154455184937	1.8107622265815735	-0.838417649269104	-0.46358025074005127	0.4290376901626587	1.9975383281707764	3.021824359893799	0.4550396203994751	1.0367285385727882	-0.8592092990875244	1.6579113602638245	1.8608556389808655	3.9898269176483154	1.2301901131868362	-0.03331112861633301	0.5186622738838196	2.486270308494568	3.729813814163208	3.066173791885376	1.5551766157150269	2.5167664289474487	0.5701962411403656	2.0805134773254395	3.7287654876708984	1.291241854429245	1.7057309746742249	0.8786944970488548	0.7280653715133667	4.12621545791626	0.013369321823120117	1.8473876118659973	1.4943330585956573	0.40767401456832886	0.9455592148005962	2.8339645862579346	1.7134669423103333	-1.5683698654174805	1.3199953436851501	2.1367106437683105	-2.8843588829040527	0.2641924023628235	-0.7271525859832764	0.19242948293685913	2.1265408992767334	1.828748881816864	0.7569410800933838	0.08277219533920288	-0.8472450971603394	0.9254408329725266	1.9401809573173523	0.8426010608673096	-0.8695223331451416	0.9331508800387383	0.7383124530315399	1.1045850291848183	0.8773912712931633	1.6999481320381165	0.07612991333007812	0.7819198668003082	0.5813061594963074	1.2252266258001328	-0.2874610424041748	2.885594367980957	1.3388862311840057	0.6289224922657013	1.0564899779856205	2.1085785627365112	-0.22596299648284912	2.671212673187256	0.10261529684066772	-0.41890525817871094	0.07432335615158081	0.5862607955932617	0.3096488118171692	0.7919498383998871	-0.2641209363937378	2.4240894317626953	2.2671830654144287	-0.4214068651199341	0.577604740858078	0.8365710973739624	-0.139886736869812	2.0563935041427612	-0.13508176803588867	-1.0064048767089844	0.5266581475734711	0.2993064522743225	-0.11453652381896973	2.4307936429977417	0.09497278928756714	5.404237270355225	2.706817388534546	1.5842485427856445	1.468700885772705	5.61805534362793	0.5806113481521606	1.1193915754556656	1.5532196164131165	1.7790098190307617	-1.203958511352539	0.8185567110776901	1.9726552963256836	0.3078593611717224	1.175680249929428	-1.6463375091552734	0.5681767761707306	2.091983437538147	3.0796046257019043	-0.8875753879547119	0.38819724321365356	3.407299041748047	-1.3865320682525635	-0.07520997524261475	2.0029674768447876	1.3689996302127838	-1.0754704475402832	-0.6011544466018677	3.148627519607544	1.2838128507137299	-0.03358495235443115	3.1418046951293945	0.5066509246826172	0.21753811836242676	0.6009369790554047	1.7298706769943237	2.106961727142334	2.361270785331726	1.823282539844513	3.063849687576294	1.5395542979240417	1.24069444835186	0.8288163393735886	-0.46489155292510986	-0.9719914197921753	2.136137366294861	2.871224284172058	-1.0003116130828857	1.7684563994407654	-0.15845906734466553	-0.040827155113220215	0.9871241105720401	-0.02108776569366455	-3.8343939781188965	-2.4483070373535156	1.641170859336853	0.8316202908754349	2.0197302103042603	1.6419593691825867	0.3676493763923645	2.851310968399048	1.3399389386177063	1.308396190404892	0.6815301477909088	1.5587862730026245	-1.574253797531128	-0.9232127666473389	2.2730633020401	0.2530408501625061	1.1150784641504288	0.8651842623949051	2.1927250623703003	2.1302281618118286	2.017519950866699	-0.27780187129974365	0.6973081231117249	-13.886899948120117	2.067907214164734	-0.3082674741744995	0.6626909673213959	1.1279781311750412	1.0769212022423744	1.7259087562561035	2.809834837913513	-0.3351438045501709	-0.6464570760726929	1.420895278453827	-1.0276970863342285	-4.314089298248291	3.001577138900757	-0.7898786067962646	1.3581687211990356	2.4047677516937256	-0.3090393543243408	3.4155025482177734	-0.24791193008422852	2.3981711864471436	2.8697681427001953	2.4760711193084717	1.0118500776588917	2.1178364753723145	-0.6002439260482788	1.9320957660675049	-0.4030097723007202	1.7756463885307312	-1.2808854579925537	0.06968146562576294	-0.990669846534729	1.743232250213623	3.3157217502593994	1.0450894832611084	0.34714120626449585	0.04438215494155884	-0.1064608097076416	0.5929346978664398	1.496196299791336	1.4624959230422974	0.5253847539424896	1.719307005405426	0.6825713217258453	0.18482375144958496	2.5596104860305786	0.4458070993423462	1.9854567646980286	3.8820478916168213	-1.6072146892547607	1.1958697140216827	4.019254207611084	1.1080286428332329	-0.5932879447937012	-0.37781643867492676	-0.15189111232757568	1.405117928981781	0.9959601131267846	0.808774471282959	0.1027383804321289	2.050921320915222	0.7570672929286957	0.8051827996969223	2.7232325077056885	3.3840138912200928	3.877662181854248	-0.017410635948181152	0.3951275944709778	0.7320530414581299	1.5648280382156372	0.14265483617782593	-1.367375135421753	0.35453295707702637	-1.5275073051452637	1.837178111076355	0.8231760710477829	1.1572445929050446	1.0732560530304909	2.32133948802948	-0.4805126190185547	0.6083099246025085	0.4536212682723999	3.340330123901367	1.6400640606880188	0.30379199981689453	3.748347520828247	0.6284098625183105	2.1759694814682007	-0.08371007442474365	-0.8871922492980957	0.35754871368408203	-1.4939775466918945	0.6865048408508301	1.94334214925766	0.7274909019470215	2.42613685131073	3.0846424102783203	1.0213265754282475	2.440744996070862	0.8066120892763138	-0.44791340827941895	0.971643028780818	0.26821231842041016	2.1320821046829224	0.06341749429702759	1.3571011424064636	0.3159615397453308	2.5522178411483765	2.382816791534424	1.7823480367660522	0.6202873289585114	1.536473274230957	-0.3413447141647339	2.853124737739563	2.563812017440796	0.1280946135520935	-0.6235929727554321	1.228327825665474	3.070798635482788	0.4846055507659912	-1.0857179164886475	1.0550903789699078	0.3900967836380005	3.173603057861328	0.16771763563156128	-0.04514598846435547	3.184760570526123	1.5672617554664612	1.7235772013664246	1.0659397020936012	-0.954250693321228	1.7492326498031616	-0.023089051246643066	1.831392228603363	2.2282391786575317	0.23758059740066528	2.117655634880066	-1.1047844886779785	1.101074494421482	-1.3358054161071777	-1.23297119140625	-0.3740030527114868	1.5703814625740051	0.9387045986950397	2.275803804397583	0.9758727103471756	0.6840446889400482	1.0333414264023304	1.1883857250213623	0.28546142578125	1.0617160126566887	2.508891224861145	3.0124168395996094	-0.688301682472229	0.2307497262954712	0.940738957375288	0.34999626874923706	0.6594460904598236	2.532950758934021	0.9118790104985237	2.912160634994507	2.6551636457443237	1.5560767650604248	1.9323045015335083	-1.8274574279785156	-0.9070042371749878	1.2089831829071045	2.119259476661682	0.39339566230773926	1.8729724884033203	0.8643138855695724	0.6849288046360016	-0.47392308712005615	0.4100295901298523	-2.041309356689453	0.7405206859111786	2.4115755558013916	-0.2171313762664795	0.7992331236600876	3.107144832611084	-0.9702824354171753	0.4231475591659546	1.471588909626007	2.58338463306427	3.119936943054199	0.6290785670280457	0.5916850864887238	-0.8841968774795532	-0.8003143072128296	0.3992827534675598	0.7905287146568298	0.13045108318328857	2.490618944168091	1.3442224562168121	1.068973571062088	1.1078673526644707	-0.5234102010726929	1.1898159831762314	0.4062614440917969	-1.6320858001708984	1.663619875907898	2.1306110620498657	0.1478898525238037	0.816742479801178	-0.9210294485092163	0.9801355432718992	2.4433103799819946	3.1276028156280518	2.952882170677185	4.189301013946533	-0.2757272720336914	1.2651907801628113	1.9626283645629883	0.49604737758636475	1.6430472135543823	-0.14837849140167236	-1.1514477729797363	0.24355816841125488	1.0168915912508965	0.3080400824546814	1.453172504901886	-0.5500389337539673	0.6512819528579712	-0.29714202880859375	2.18402099609375	0.3288195729255676	1.9149431586265564	-0.7118350267410278	1.9265073537826538	1.4252728819847107	1.0958627089858055	2.2942700386047363	4.443209648132324	0.7669541984796524	1.0603946149349213	-0.2893754243850708	1.3719426691532135	0.3846626877784729	2.6710392236709595	2.812541127204895	1.7054970860481262	0.5989930927753448	1.0072723594494164	1.8930506110191345	0.1729031205177307	0.49875038862228394	-0.30835115909576416	0.6913930475711823	-0.01788473129272461	2.8263847827911377	21.674835205078125	1.6803041100502014	1.1193025708198547	0.08138185739517212	2.726211428642273	0.5117910206317902	1.7265504598617554	1.976576030254364	0.8731241226196289	1.6621304154396057	0.02139204740524292	0.566126674413681	4.113118648529053	0.6796875	2.028274178504944	1.5022018551826477	0.18474549055099487	-0.2145754098892212	2.4747302532196045	4.223779678344727	3.078632354736328	-2.110369920730591	2.5129464864730835	-0.138666033744812	3.5484955310821533	0.0656740665435791	1.1376271098852158	0.5532411932945251	1.7184730172157288	-0.7923578023910522	3.12965989112854	-0.26815855503082275	0.8271827697753906	1.0009246008703485	1.9586116075515747	0.16074305772781372	3.064009428024292	1.1220602318644524	-1.1233406066894531	0.8586245477199554	-0.143166184425354	2.3585976362228394	-0.8120905160903931	1.1134349629282951	1.4478132724761963	1.9557791352272034	-2.351804733276367	2.0688976049423218	2.7765852212905884	-0.6839251518249512	1.9826727509498596	1.2953231632709503	0.7114542424678802	0.5876755714416504	3.370816946029663	-0.23164451122283936	1.8390843272209167	1.9678667187690735	0.25403398275375366	2.887492537498474	0.7965568006038666	1.8468371033668518	2.5717207193374634	3.126913070678711	1.183042362332344	0.9742793571203947	1.1526957750320435	0.32211363315582275	2.1815305948257446	-1.2415244579315186	2.4672064781188965	1.6532018184661865	0.3066502809524536	1.0275723524391651	0.0568423867225647	2.3200842142105103	0.5241663157939911	2.2534011602401733	0.934102289378643	1.8299540281295776	-0.8205655813217163	0.669399231672287	0.12351256608963013	0.26394569873809814	1.2445629686117172	2.7350064516067505	3.1676204204559326	0.22963041067123413	2.335779070854187	0.2082560658454895	11.380285263061523	1.3553394377231598	-0.8853694200515747	1.716695249080658	0.7398538589477539	-0.49173295497894287	0.914587177336216	2.278503894805908	0.3406131863594055	0.9560232497751713	0.8475212752819061	0.9408531859517097	0.09765636920928955	0.8112077116966248	-0.1390080451965332	1.4247060716152191	-0.7167682647705078	2.053444027900696	0.6853833794593811	0.758945569396019	3.626209259033203	1.5295787453651428	1.0147984251379967	0.8823851346969604	4.341289281845093	0.15924787521362305	1.7708645462989807	1.3930151760578156	2.8700064420700073	2.3365795612335205	1.29955193400383	1.5392492413520813	2.016723394393921	1.6641939282417297	1.4836939573287964	2.045116901397705	-2.4994847774505615	3.629021406173706	-2.0931875705718994	3.982712984085083	-0.6828588247299194	-0.3383481502532959	1.5918816924095154	0.5956505239009857	1.0519339963793755	0.5370488166809082	0.15056633949279785	1.3706527054309845	0.18117034435272217	0.6631936430931091	0.4195287823677063	0.3950026035308838	1.0921330824494362	0.06734031438827515	2.200688123703003	1.0008610146469437	0.7643969655036926	-0.40414881706237793	1.594018042087555	-0.13562297821044922	3.3766891956329346	0.8953957930207253	1.0674809366464615	0.5873149037361145	-0.43148744106292725	2.1297327280044556	2.3213648796081543	1.5671272277832031	0.9914570897817612	-0.21536004543304443	1.4170396029949188	1.373090922832489	1.0888403430581093	2.4652798175811768	3.288066864013672	0.23906666040420532	0.49556034803390503	1.5161049962043762	3.425229072570801	-0.8858305215835571	2.2894976139068604	0.09930050373077393	0.8650290071964264	-0.9714615345001221	2.753990054130554	1.4535666108131409	-0.18199169635772705	-0.18877029418945312	2.7986823320388794	1.1592199951410294	2.780551314353943	-0.5808708667755127	-0.017075061798095703	-0.593399167060852	0.5116489827632904	0.5031149685382843	3.1526944637298584	2.2077850103378296	1.8775402307510376	0.8171756416559219	0.8093532919883728	0.7066507935523987	1.0589600019156933	1.406708687543869	2.6755324602127075	-0.12982022762298584	2.079939603805542	0.8086636811494827
