label	0	1	2	3	4	5	6	7	8	9	10	11	12	13	14	15	16	17	18	19	20	21	22	23	24	25	26	27	28	29	30	31	32	33	34	35	36	37	38	39	40	41	42	43	44	45	46	47	48	49	50	51	52	53	54	55	56	57	58	59	60	61	62	63	64	65	66	67	68	69	70	71	72	73	74	75	76	77	78	79	80	81	82	83	84	85	86	87	88	89	90	91	92	93	94	95	96	97	98	99	100	101	102	103	104	105	106	107	108	109	110	111	112	113	114	115	116	117	118	119	120	121	122	123	124	125	126	127	128	129	130	131	132	133	134	135	136	137	138	139	140	141	142	143	144	145	146	147	148	149	150	151	152	153	154	155	156	157	158	159	160	161	162	163	164	165	166	167	168	169	170	171	172	173	174	175	176	177	178	179	180	181	182	183	184	185	186	187	188	189	190	191	192	193	194	195	196	197	198	199	200	201	202	203	204	205	206	207	208	209	210	211	212	213	214	215	216	217	218	219	220	221	222	223	224	225	226	227	228	229	230	231	232	233	234	235	236	237	238	239	240	241	242	243	244	245	246	247	248	249	250	251	252	253	254	255	256	257	258	259	260	261	262	263	264	265	266	267	268	269	270	271	272	273	274	275	276	277	278	279	280	281	282	283	284	285	286	287	288	289	290	291	292	293	294	295	296	297	298	299	300	301	302	303	304	305	306	307	308	309	310	311	312	313	314	315	316	317	318	319	320	321	322	323	324	325	326	327	328	329	330	331	332	333	334	335	336	337	338	339	340	341	342	343	344	345	346	347	348	349	350	351	352	353	354	355	356	357	358	359	360	361	362	363	364	365	366	367	368	369	370	371	372	373	374	375	376	377	378	379	380	381	382	383	384	385	386	387	388	389	390	391	392	393	394	395	396	397	398	399	400	401	402	403	404	405	406	407	408	409	410	411	412	413	414	415	416	417	418	419	420	421	422	423	424	425	426	427	428	429	430	431	432	433	434	435	436	437	438	439	440	441	442	443	444	445	446	447	448	449	450	451	452	453	454	455	456	457	458	459	460	461	462	463	464	465	466	467	468	469	470	471	472	473	474	475	476	477	478	479	480	481	482	483	484	485	486	487	488	489	490	491	492	493	494	495	496	497	498	499	500	501	502	503	504	505	506	507	508	509	510	511	512	513	514	515	516	517	518	519	520	521	522	523	524	525	526	527	528	529	530	531	532	533	534	535	536	537	538	539	540	541	542	543	544	545	546	547	548	549	550	551	552	553	554	555	556	557	558	559	560	561	562	563	564	565	566	567	568	569	570	571	572	573	574	575	576	577	578	579	580	581	582	583	584	585	586	587	588	589	590	591	592	593	594	595	596	597	598	599	600	601	602	603	604	605	606	607	608	609	610	611	612	613	614	615	616	617	618	619	620	621	622	623	624	625	626	627	628	629	630	631	632	633	634	635	636	637	638	639	640	641	642	643	644	645	646	647	648	649	650	651	652	653	654	655	656	657	658	659	660	661	662	663	664	665	666	667	668	669	670	671	672	673	674	675	676	677	678	679	680	681	682	683	684	685	686	687	688	689	690	691	692	693	694	695	696	697	698	699	700	701	702	703	704	705	706	707	708	709	710	711	712	713	714	715	716	717	718	719	720	721	722	723	724	725	726	727	728	729	730	731	732	733	734	735	736	737	738	739	740	741	742	743	744	745	746	747	748	749	750	751	752	753	754	755	756	757	758	759	760	761	762	763	764	765	766	767	768
abbagliare_1	2.6841952800750732	0.8837830796837807	1.0534583888947964	0.6923642158508301	1.9043872952461243	4.311634540557861	2.2660140991210938	-7.227878570556641	-0.6467196941375732	4.898353815078735	-1.1751649379730225	0.8455586731433868	2.3262945413589478	-0.7486307621002197	1.0628807470202446	2.070370078086853	2.1718610525131226	1.6702938079833984	-0.9469373226165771	-1.5809061527252197	0.0572742223739624	2.2780401706695557	-0.6759603023529053	-1.4158880710601807	1.8073351383209229	0.042536914348602295	0.9276653006672859	2.0991523265838623	1.3905582129955292	0.823184534907341	2.3052191734313965	0.484907865524292	1.6513202786445618	2.2919262647628784	0.9703876152634621	1.3481827676296234	-0.47128331661224365	0.9867214523255825	0.4563899636268616	0.7893845289945602	0.6889739036560059	1.5592013597488403	2.752990961074829	2.0876736640930176	0.7728374302387238	-15.829744338989258	1.5866623520851135	2.488050937652588	0.4156283140182495	1.7084282636642456	1.47247314453125	-0.2842402458190918	-1.0816810131072998	-1.2828712463378906	3.7468061447143555	2.474735140800476	2.3633017539978027	0.43694472312927246	-0.33104097843170166	2.8018628358840942	0.2683178186416626	0.4334492087364197	0.1299331784248352	1.389429658651352	1.8210995197296143	1.8705658316612244	0.9617062732577324	2.1066900491714478	3.5345163345336914	0.16568756103515625	3.2037010192871094	1.590621829032898	2.9933236837387085	-0.5439082384109497	1.241135761141777	3.6968834400177	0.38467127084732056	1.270230084657669	2.371131658554077	0.8920627161860466	2.7621541023254395	-0.00806891918182373	2.204273223876953	0.9895535940304399	0.43615812063217163	1.0887903422117233	-0.012927889823913574	-2.294630289077759	-1.1443328857421875	1.7531147003173828	0.706676572561264	3.3379273414611816	2.3985047340393066	1.7420052886009216	3.0103366374969482	0.2939283847808838	3.934588670730591	-1.518101692199707	1.9965524673461914	-0.4363590478897095	-0.4334307909011841	2.3688182830810547	-2.0473387241363525	-1.0715320110321045	1.8122825622558594	0.90823695063591	0.3901395797729492	1.2413411289453506	-0.2688814401626587	0.07110494375228882	0.3190308213233948	0.3448439836502075	3.2252371311187744	0.21552395820617676	0.23815608024597168	1.6050679683685303	1.3768025636672974	0.5970779657363892	2.9722988605499268	-0.004607200622558594	-0.2190943956375122	1.2868097126483917	-0.3778482675552368	1.456944853067398	0.8690225332975388	1.2824518084526062	2.957985997200012	1.722192645072937	0.6957789957523346	1.6217859387397766	1.0167324040085077	1.6981536149978638	1.488031268119812	0.03847908973693848	1.0622017234563828	0.17690712213516235	2.0019549131393433	2.257568836212158	-0.42778050899505615	-0.9768803119659424	1.2664842307567596	1.3014120161533356	-0.11290287971496582	2.902292847633362	1.2436533272266388	1.4346973299980164	1.0353774577379227	2.365120053291321	1.0890395492315292	2.7609479427337646	1.5029953718185425	0.8039572536945343	0.9127603247761726	0.6376698911190033	-1.1716382503509521	1.0467565469443798	-0.5980632305145264	-0.2993662357330322	0.5898235142230988	1.6229785084724426	1.724713921546936	2.235315680503845	-0.11977362632751465	3.049609422683716	0.4094431400299072	1.325080543756485	0.7384765148162842	3.5730600357055664	1.6021745800971985	0.7277869582176208	2.024255156517029	2.5459131002426147	1.4136687219142914	0.9617900177836418	0.461577832698822	1.9090616106987	-0.034699320793151855	3.275008201599121	1.2145588099956512	1.9024383425712585	0.6163362860679626	0.6873644292354584	0.14751046895980835	1.9685912728309631	-0.3248920440673828	1.8938082456588745	-0.2156825065612793	-0.19724607467651367	0.5029492080211639	-1.3293700218200684	2.54202401638031	2.21733021736145	-0.19252753257751465	0.9387983568012714	-0.17149817943572998	2.654227137565613	1.313730776309967	2.451081871986389	0.9890607595443726	3.1093075275421143	1.2162831276655197	0.4986383318901062	1.4043442010879517	1.4195003509521484	1.6245944499969482	1.283542662858963	2.442134737968445	2.114690661430359	0.8821018636226654	-0.7502014636993408	1.566116452217102	1.8055703043937683	1.1711980551481247	2.705623507499695	0.9543167278170586	1.3873047828674316	0.6944516599178314	4.736512660980225	2.185308337211609	-0.18632423877716064	0.8671406656503677	1.9744895696640015	-0.14991331100463867	1.45942023396492	0.43992239236831665	-0.6865050792694092	3.317952871322632	0.31508487462997437	-0.8231301307678223	0.48460036516189575	-1.0199675559997559	2.1518847942352295	2.1791107654571533	0.8546983450651169	0.5491166412830353	1.5139802694320679	0.6621986329555511	1.4806095659732819	1.7380228638648987	0.41724568605422974	-0.5697152614593506	-0.20304369926452637	-0.23931539058685303	-1.0525243282318115	-0.67376708984375	3.6360669136047363	0.22405141592025757	3.545720100402832	1.3352709412574768	3.5760717391967773	2.428885340690613	2.252378463745117	0.8130019307136536	0.534574031829834	0.35327911376953125	0.13919132947921753	1.6170803904533386	-0.08907425403594971	-0.045137882232666016	-1.020106315612793	0.5321119427680969	2.8378204107284546	0.5141969621181488	1.355088323354721	0.9020987451076508	3.0185000896453857	0.966944981366396	-0.8674123287200928	-0.7985069751739502	-0.20443367958068848	-0.133811354637146	0.2989580035209656	4.161985874176025	1.5091705918312073	2.322274923324585	1.6667420864105225	1.9397573471069336	0.8818250596523285	2.3352930545806885	-1.4832127094268799	-0.1421881914138794	1.4940744042396545	0.764300599694252	2.321609616279602	0.2943437099456787	2.0491844415664673	0.1507466435432434	0.664496898651123	-0.8038204908370972	1.832463026046753	0.683763712644577	-1.0271484851837158	-0.24249577522277832	0.43157607316970825	-2.5451369285583496	0.9434388242661953	1.4077306389808655	-2.3642945289611816	-1.636521816253662	0.9658663757145405	1.933836042881012	1.5038405656814575	0.24237287044525146	0.038430869579315186	-0.46313679218292236	1.993038296699524	0.31326305866241455	2.1641623973846436	0.3962605595588684	-0.5066187381744385	-0.6497533321380615	-2.109959363937378	0.6634606719017029	-0.27021896839141846	1.8883706331253052	4.027940273284912	2.1139880418777466	-0.0026340484619140625	-0.4958308935165405	0.029389560222625732	-10.555776596069336	3.9097900390625	1.262360692024231	0.506598174571991	1.805788815021515	2.1232036352157593	1.0305005069822073	1.86532062292099	0.40814852714538574	0.09252279996871948	2.169830799102783	0.9680046252906322	-4.000372409820557	2.8673309087753296	1.8116676211357117	3.300380229949951	1.1867325454950333	1.3397071957588196	2.3752448558807373	-0.265899658203125	-0.7043973207473755	1.0537708662450314	0.40074360370635986	1.2658916413784027	0.659792572259903	-0.20351719856262207	2.5021921396255493	-1.7085707187652588	2.2594776153564453	1.126704603433609	-0.2796323299407959	-0.6311800479888916	0.5051236748695374	1.9550811648368835	0.4458247423171997	0.9259874001145363	0.5904729068279266	0.04714548587799072	-0.8136333227157593	0.26795393228530884	-0.7976384162902832	2.186946153640747	2.8370977640151978	1.3032264709472656	0.8796449154615402	-0.21513688564300537	0.3609606623649597	1.671704351902008	1.2807476222515106	-1.3440840244293213	-1.29608154296875	2.0866938829421997	2.9010415077209473	3.4022011756896973	-0.9690884351730347	2.6535165309906006	1.3377023041248322	1.5651406049728394	2.8394129276275635	1.88490891456604	0.9571353644132614	-0.4981592893600464	1.137310341000557	1.3100999593734741	3.103483200073242	0.23294013738632202	0.9844524227082729	0.3356201648712158	-1.372896671295166	0.21950185298919678	2.019239902496338	0.8696288019418716	0.6775158941745758	-1.366844654083252	1.0744139701128006	1.0377408601343632	2.2461544275283813	2.091226816177368	3.0535991191864014	-0.6452773809432983	-0.554442286491394	0.4945151209831238	0.9978634675499052	2.749848961830139	1.3810120522975922	-0.7328107357025146	0.07081770896911621	0.004600346088409424	2.3518146276474	1.1218844875693321	0.8693545907735825	1.7918274998664856	2.1756569147109985	0.5109454691410065	1.550395131111145	1.644883155822754	2.7234286069869995	2.4827483892440796	2.5155766010284424	1.5739982724189758	0.13802701234817505	2.815176248550415	1.7505488991737366	0.11042207479476929	-0.33424580097198486	2.558588743209839	1.5414655208587646	2.4500174522399902	0.7783069759607315	2.1259464025497437	2.4295324087142944	1.5729185342788696	-1.5980398654937744	1.563991665840149	1.0820389613509178	-2.186892032623291	-0.0516817569732666	2.8009811639785767	2.4364346265792847	0.9322249069809914	0.05906409025192261	1.2333464473485947	0.3909052610397339	2.6588791608810425	-0.03884077072143555	-0.5174108743667603	4.156557321548462	0.07723331451416016	2.0526119470596313	1.186216488480568	-0.7185037136077881	0.41834741830825806	0.0201568603515625	1.2362301796674728	1.4477041959762573	0.907709613442421	0.2662980556488037	-0.38312065601348877	1.2128417193889618	-4.098453998565674	0.43261104822158813	0.5967085659503937	1.3886726796627045	1.4849004745483398	1.284371018409729	2.658164858818054	1.2807004153728485	0.6379652321338654	1.9367619156837463	1.6134616136550903	1.0171441044658422	2.8552794456481934	2.489658236503601	2.0777591466903687	1.909561574459076	1.9414916634559631	1.816658616065979	-0.015871763229370117	1.4430484175682068	3.463175058364868	1.9969807863235474	0.2364247441291809	1.7645393013954163	1.9880053997039795	-1.9803547859191895	3.5002975463867188	1.1347888261079788	1.156892642378807	0.3694332242012024	2.3990343809127808	3.377329111099243	-0.1543574333190918	0.9538336880505085	0.7761024981737137	-0.6358153820037842	1.8725398778915405	0.3196345567703247	-0.5596795082092285	0.4284135103225708	3.05130934715271	-0.05631983280181885	0.30785733461380005	3.1551921367645264	1.0311802737414837	2.0573570728302	1.955609917640686	0.824723944067955	1.3467903435230255	1.496616244316101	2.852967619895935	3.2085304260253906	-0.8143256902694702	3.564730167388916	2.4996981620788574	0.19212520122528076	2.160809278488159	-0.24623143672943115	1.9112429022789001	0.9454949423670769	-0.9621696472167969	2.60329806804657	2.181612491607666	1.3853640854358673	-0.10040533542633057	0.8102659285068512	0.08770674467086792	-0.34313178062438965	-1.3399498462677002	1.9331544637680054	3.165811777114868	-0.21606457233428955	2.5250141620635986	2.7894481420516968	0.6902221739292145	1.8699092864990234	-0.9812651872634888	0.1522243618965149	2.218673348426819	1.2612802386283875	2.3565086126327515	2.207782745361328	2.307918906211853	0.9666071124374866	2.1030558347702026	2.2478708028793335	-0.5690103769302368	0.4224357008934021	-1.234398365020752	1.2274975329637527	0.8341977894306183	0.8479075878858566	2.2863441705703735	0.23446452617645264	0.20925337076187134	0.2867264151573181	2.6601628065109253	-0.7829445600509644	0.5987653434276581	3.2158548831939697	1.5869672894477844	1.1453399658203125	1.4667839705944061	0.3625800609588623	0.29593425989151	0.3906707763671875	0.31738799810409546	0.9487368203699589	1.3967629075050354	1.6950538158416748	1.2000001817941666	19.011089324951172	1.483117252588272	-1.278367042541504	-0.471970796585083	0.832643449306488	1.5335573554039001	1.288829743862152	3.4509432315826416	-0.21225321292877197	2.6961820125579834	2.0568931102752686	1.1372011303901672	0.26346391439437866	0.4837912321090698	0.47761285305023193	1.6512715816497803	0.3576907515525818	-0.10182809829711914	-0.08240687847137451	3.7448344230651855	0.3565261960029602	-0.34035003185272217	1.3663462400436401	0.11082082986831665	0.6502737104892731	2.5883809328079224	2.4700570106506348	0.4649342894554138	1.475703865289688	1.3660299479961395	2.359012484550476	1.2384641617536545	2.19761860370636	0.8866570070385933	2.4273548126220703	0.9903793064877391	2.677543878555298	-0.2959249019622803	1.3191053569316864	0.056159377098083496	0.4674501419067383	2.3246426582336426	-0.07023370265960693	-0.028792977333068848	2.114027500152588	1.7108287811279297	-0.5041558742523193	2.4217472076416016	-0.38433337211608887	1.4569343328475952	0.7852766364812851	1.1823955923318863	1.4128863215446472	2.0049099922180176	2.476277470588684	-0.5746172666549683	1.5877148509025574	1.5105385184288025	0.6086606979370117	2.029482126235962	-0.7209593057632446	1.843697726726532	2.419952630996704	2.784793734550476	-0.1182701587677002	2.6303768157958984	2.013884425163269	2.2946149110794067	-0.2837677001953125	-0.11833405494689941	0.0116652250289917	0.16384536027908325	0.5149361193180084	2.077226758003235	0.9811933357268572	-0.6203105449676514	0.3370710015296936	2.208269238471985	1.511951982975006	1.0321854129433632	0.8892103880643845	1.185681477189064	1.79271000623703	0.8334638327360153	-0.7057677507400513	-0.5348633527755737	2.578834295272827	0.36072033643722534	0.9457050748169422	2.6864594221115112	11.820658683776855	1.8959027528762817	-1.8709359169006348	-0.9200778007507324	1.2796455323696136	0.5685518682003021	0.05568718910217285	4.106090784072876	-0.8337395191192627	1.9526560306549072	2.1640461683273315	1.4594682157039642	0.3038036823272705	2.6558539867401123	2.1802520751953125	3.282670497894287	2.7384934425354004	3.0154972076416016	0.8485075682401657	1.0805683359503746	0.7468148469924927	2.2866616249084473	1.5681136846542358	0.4957563281059265	1.1609227508306503	0.8683452606201172	1.829010546207428	0.6498299837112427	1.1378551423549652	1.0651946291327477	2.224025845527649	2.1979966163635254	2.070534586906433	-0.1760324239730835	1.9740687012672424	2.1034176349639893	-0.07428085803985596	2.9825466871261597	1.3242868185043335	2.0454400777816772	1.4219564497470856	-1.485802412033081	1.5585604310035706	-0.23193120956420898	-1.052640438079834	0.2534745931625366	0.5858249664306641	-1.8938841819763184	0.8597375303506851	3.6127841472625732	1.182384043931961	-0.201690673828125	1.1272847652435303	2.9069594144821167	0.8577892631292343	2.203743100166321	1.9096386432647705	0.04949545860290527	-1.0899531841278076	0.8125899583101273	2.1846600770950317	1.1314805895090103	3.0330698490142822	0.6882114410400391	-1.4583556652069092	0.0047013163566589355	0.675084263086319	0.26213282346725464	1.1730780452489853	1.7752056121826172	1.458078771829605	1.8831560015678406	-1.3926670551300049	1.0772726610302925	0.8960303291678429	0.03721517324447632	0.14907556772232056	0.3770373463630676	1.2926307916641235	-0.282850980758667	2.070974111557007	1.0587982535362244	-0.20397841930389404	1.1743142902851105	0.9024012535810471	0.6133343279361725	1.0130593199282885	0.1124114990234375	3.287332057952881	1.7136752009391785	1.4999371767044067	3.435720682144165	-1.1398346424102783	0.3527466654777527	0.5540474653244019	1.362725406885147	3.715446710586548	-0.32764732837677	-1.1676702499389648	0.6863783895969391	1.3296753466129303	1.359992802143097	-0.7975494861602783	2.831623911857605	1.3531202375888824	2.149158477783203	1.6937089562416077	3.3281259536743164
abbagliare_2	3.2036244869232178	1.3635610044002533	1.5342212915420532	1.3093189895153046	1.4036796689033508	3.939809799194336	2.39227294921875	-8.109909057617188	0.25483405590057373	5.067294597625732	-0.8710691928863525	2.007886528968811	2.682687520980835	0.23446905612945557	0.8852523639798164	3.0765388011932373	1.0326693579554558	1.432403951883316	-0.02522134780883789	-0.6115062236785889	-1.223357915878296	1.7299398183822632	0.8764069601893425	-0.6517643928527832	1.7516644597053528	1.5033448934555054	-0.4206300973892212	2.1368552446365356	1.8430194854736328	0.39251619577407837	3.0403857231140137	0.1670207977294922	1.4628627598285675	1.7778925895690918	1.276481717824936	0.9694750923663378	0.7134032547473907	0.4720044732093811	-0.16419494152069092	0.8539808243513107	0.40273016691207886	2.277754783630371	2.367832064628601	2.019535183906555	1.5253452062606812	-15.342710494995117	1.8793278336524963	1.1902994066476822	1.8861069083213806	2.6352094411849976	1.5652922987937927	-0.4369213581085205	-0.7797809839248657	-0.24942266941070557	3.7228891849517822	1.6014636158943176	2.837303638458252	0.28190314769744873	0.2424716353416443	2.723871350288391	0.32410627603530884	0.5607843697071075	1.5034897327423096	1.6791822910308838	1.1843105256557465	2.0787893533706665	0.49091070890426636	1.597422182559967	1.868722140789032	0.8505100011825562	1.395673543214798	0.8439997285604477	1.9231273531913757	-0.08084285259246826	1.4221249520778656	2.544500470161438	0.23327338695526123	0.13878434896469116	3.258768081665039	1.650290310382843	3.4357690811157227	0.5890281796455383	1.9181296229362488	1.1077332198619843	0.9730261228978634	0.825123593211174	-0.7668642997741699	-1.7048616409301758	-0.5903877019882202	1.927386224269867	-0.3557077646255493	2.761999487876892	1.53187096118927	1.0971549525856972	3.824266195297241	-0.18304908275604248	3.0754785537719727	-1.0541388988494873	1.7456017136573792	0.7225527465343475	-1.07584547996521	2.163832664489746	-1.1765313148498535	0.4992414116859436	1.6413306593894958	1.310556948184967	0.8544104546308517	1.4171673357486725	-1.3712563514709473	0.04744488000869751	-0.22635352611541748	-0.11278879642486572	2.675806760787964	0.1047888994216919	-0.6547274589538574	1.175109162926674	2.185814142227173	0.7489607632160187	3.309081792831421	-0.827056884765625	0.1504879593849182	1.0663365721702576	-0.6193588972091675	1.6756367087364197	1.5133816003799438	1.6707621216773987	2.21045458316803	2.1778863668441772	2.3741071224212646	1.3318807780742645	0.8228492885828018	1.7873364090919495	1.975369393825531	0.34715890884399414	1.5028473138809204	0.9235915243625641	2.493377685546875	1.514420747756958	1.1049811765551567	-0.675004243850708	1.9509333968162537	1.146156221628189	0.8575069159269333	2.397544741630554	1.384311556816101	2.1971973180770874	1.6762985587120056	2.131432294845581	1.0893679484724998	1.8514409065246582	1.6164629459381104	0.19603729248046875	0.2063983678817749	0.30349165201187134	-0.8862079381942749	1.0692125633358955	-0.4961203336715698	0.06057077646255493	1.163075402379036	2.3962453603744507	2.3794124126434326	3.219153642654419	0.11545497179031372	1.4720785021781921	-0.3732411861419678	0.9513017572462559	0.121340811252594	3.2903335094451904	1.863503098487854	0.49632614850997925	0.7890364974737167	2.6230926513671875	0.953037615865469	0.9345599636435509	1.4506846368312836	1.233970269560814	-0.7150615453720093	2.0153322219848633	1.293817013502121	1.29646497964859	-0.5908081531524658	1.084189236164093	0.5130210518836975	1.9285054206848145	0.6349022388458252	1.7487820386886597	1.1716820895671844	-0.19616854190826416	0.3596106171607971	0.6966578960418701	2.5198800563812256	2.201229453086853	-0.17235314846038818	0.7291572391986847	1.3026080131530762	2.202855110168457	0.3307987451553345	2.9423450231552124	1.3173061609268188	3.6729989051818848	1.6122063994407654	-0.08010685443878174	1.7407870292663574	0.2599641680717468	2.4273265600204468	-0.09683752059936523	3.1017234325408936	2.4562766551971436	0.6704612076282501	-0.5806939601898193	0.8962300270795822	2.817578911781311	-0.13219738006591797	1.879101037979126	1.25322887301445	1.703028380870819	-0.1327674388885498	2.997594714164734	1.6461848616600037	0.16615039110183716	0.6864874064922333	2.1289210319519043	1.2206607908010483	2.186700940132141	0.6826632022857666	0.6544652283191681	1.908990502357483	0.46002626419067383	-1.4904050827026367	-0.005537986755371094	-0.43552684783935547	2.2752116918563843	2.179944396018982	0.6718350052833557	0.027165591716766357	-0.09995949268341064	1.788600742816925	1.4062999188899994	1.83901447057724	-0.08018088340759277	-0.2871837615966797	-0.663617730140686	-0.3248993158340454	0.4214593172073364	0.469526469707489	3.718928337097168	1.2368237525224686	2.6223427057266235	1.1253130286931992	3.8714046478271484	2.3813276290893555	1.3876231610774994	1.258303314447403	1.477838933467865	0.15268248319625854	0.1079438328742981	1.6625407934188843	-0.9664040803909302	-0.04430675506591797	-0.06483578681945801	-0.08580541610717773	2.783660054206848	1.6929212808609009	1.6993086338043213	0.8184310048818588	1.9284527897834778	0.23694860935211182	-0.6738563776016235	-1.305774211883545	-0.5269534587860107	0.038356781005859375	-0.3658207654953003	3.381688356399536	1.9896095395088196	1.3855125904083252	1.3576740324497223	1.0704626813530922	0.8022531867027283	1.7546048164367676	-0.06974542140960693	1.0480801165103912	2.3464876413345337	0.4392910599708557	1.9809260964393616	0.5615359246730804	1.2967705428600311	0.3816721439361572	0.6295331120491028	-0.02510666847229004	1.7345337867736816	0.9304877817630768	-1.5900440216064453	-0.4630206823348999	-0.8536736965179443	-1.7441587448120117	0.007818222045898438	0.20501112937927246	-2.255645990371704	-1.6083426475524902	0.46823936700820923	2.0935733318328857	2.315633773803711	0.014248549938201904	-0.022076129913330078	-0.9731495380401611	2.942500948905945	-0.5985721349716187	1.2830886244773865	1.3525830507278442	-0.6050843000411987	-1.8644468784332275	-1.3946318626403809	1.1745260059833527	-0.47441327571868896	1.9110151529312134	3.28985857963562	1.7800021767616272	-0.17975664138793945	0.40438926219940186	-1.4956483840942383	-10.292335510253906	2.9427393674850464	0.8915228545665741	1.1379862278699875	2.6625152826309204	1.4635489881038666	1.1741185784339905	2.0029925107955933	0.4053683280944824	0.19872575998306274	1.6013367176055908	1.1136726066470146	-3.847024440765381	1.0972899422049522	1.4451915919780731	3.4631752967834473	1.3318728506565094	0.28556573390960693	1.2600134909152985	0.4523523449897766	0.21032053232192993	0.5512518286705017	1.1251343339681625	1.2163860946893692	1.270491898059845	0.6282633543014526	3.6705596446990967	-1.6315515041351318	0.7514580488204956	2.020372748374939	-0.11184680461883545	0.45659923553466797	0.8372145295143127	2.3478102684020996	0.1486998200416565	0.5309619903564453	1.1886955350637436	0.16106057167053223	-1.2844963073730469	0.20389705896377563	-0.2708306312561035	2.1994287967681885	1.4961355030536652	0.745521754026413	1.94680517911911	-0.14611148834228516	0.31559354066848755	1.7296674847602844	0.9575613923370838	-0.8963537216186523	-1.1918468475341797	1.0518511794507504	1.853192687034607	3.6703057289123535	0.103554368019104	1.5979381203651428	0.8920149803161621	1.684826374053955	2.5280239582061768	2.2140512466430664	0.9582204632461071	0.829590231180191	1.6842332482337952	1.9537619948387146	3.5312676429748535	0.1044619083404541	1.0982762798666954	0.6371637284755707	-1.1535286903381348	-0.24414801597595215	1.5718743801116943	1.0246108174324036	0.5089809894561768	-0.7725398540496826	2.0606669187545776	1.9649872779846191	1.4737628996372223	3.4972357749938965	2.7500312328338623	-2.3405110836029053	0.13837707042694092	0.33870047330856323	0.7050995528697968	1.758890986442566	1.1069267019629478	-1.2372043132781982	0.24021172523498535	0.8819603845477104	1.6400868892669678	0.9819589015096426	0.8472953736782074	0.9609895795583725	1.83504056930542	1.357166826725006	1.6002246141433716	1.786699116230011	2.441390037536621	2.1922186613082886	2.6810619831085205	1.2752610743045807	-0.6087366342544556	1.9129322171211243	1.317970484495163	-0.39763379096984863	-0.5179053544998169	1.5598278641700745	1.9332016706466675	2.4510412216186523	0.46005553007125854	1.7285252213478088	1.396832138299942	1.5156445503234863	-0.6378077268600464	2.158142328262329	1.9101547598838806	-1.8712589740753174	0.4553634524345398	2.64500629901886	1.4517231285572052	0.1779414415359497	0.8569942563772202	1.7820161581039429	0.5901588797569275	3.2334694862365723	-1.3436009883880615	-0.9128578901290894	4.0903074741363525	0.37926656007766724	2.3613440990448	2.1097939014434814	1.1070517227053642	0.40327364206314087	0.22855836153030396	1.5468522906303406	0.6096457242965698	1.0998483672738075	1.161731317639351	-1.2112319469451904	0.5778758823871613	-2.5212066173553467	0.21971148252487183	-0.42322254180908203	1.9955715537071228	0.8598346263170242	1.8172187805175781	2.0882177352905273	1.8794463872909546	0.4997594952583313	0.9671245589852333	2.137457013130188	0.944086242467165	3.919360637664795	3.6781961917877197	0.8060864210128784	2.001582384109497	2.363523840904236	2.151926875114441	0.4394780993461609	0.5748467147350311	2.3502283096313477	1.140631228685379	0.4646320939064026	2.1241081953048706	1.3833926320075989	-1.962249517440796	3.780198812484741	1.7911813259124756	1.6889868378639221	-0.46995365619659424	2.113103985786438	2.3342381715774536	0.7762696892023087	1.294499158859253	0.48578184843063354	0.25235915184020996	1.997568130493164	-0.2865666151046753	-0.41067469120025635	0.5061042308807373	2.377468466758728	0.4861043691635132	-0.43722712993621826	2.768314480781555	0.7264969050884247	1.7032395005226135	1.1793858110904694	0.7626638859510422	0.3653208017349243	0.42058253288269043	1.9634015560150146	4.195845127105713	0.06770509481430054	2.7807537317276	2.457048177719116	-0.08467328548431396	1.3461786210536957	1.0251393653452396	2.5505560636520386	-0.08415603637695312	-1.9612412452697754	2.2461527585983276	1.9191392660140991	1.2194877117872238	-0.2515758275985718	1.7426681518554688	0.6259324550628662	0.08148384094238281	-1.9332730770111084	1.1359111964702606	1.7637341618537903	0.6070313155651093	2.066460609436035	2.6719566583633423	0.31343817710876465	0.8861917704343796	-0.2729496955871582	1.0446737371385098	0.6645298302173615	-0.39754271507263184	1.6216379404067993	3.077033758163452	1.5340470671653748	1.0816813111305237	2.062859296798706	1.3412257134914398	0.4246479868888855	-0.36852777004241943	-0.1790369749069214	1.6078556180000305	1.1683907210826874	1.485157549381256	2.7871681451797485	1.0506988801062107	0.9543473236262798	0.917405404150486	2.448692202568054	-0.5576200485229492	0.9833228066563606	2.4829394817352295	1.6947150230407715	0.8722292929887772	1.3935419619083405	1.2609324157238007	1.2854196429252625	0.70884108543396	0.913467176258564	0.8314550518989563	1.6686235666275024	0.9450655914843082	1.0187730938196182	19.75819206237793	1.352434128522873	0.3715609312057495	0.09181129932403564	0.9677177406847477	1.4556966125965118	2.823480725288391	3.7208077907562256	0.04190617799758911	1.8251299858093262	2.303167462348938	2.31872296333313	1.23225237429142	0.2839086651802063	0.6881811022758484	2.16631817817688	1.1629216372966766	0.2544538378715515	0.44955140352249146	2.831780195236206	-0.0281144380569458	-1.2321503162384033	2.274024724960327	0.7472038865089417	1.807538390159607	2.1409934759140015	1.3433812856674194	1.1140382885932922	1.932860255241394	0.5910264849662781	1.9865495562553406	1.4559485912322998	2.1422258615493774	1.1682479828596115	2.6294305324554443	0.293892502784729	2.601406455039978	0.03053182363510132	1.3277537822723389	-0.3983433246612549	0.4118049740791321	1.7165560722351074	-1.0009093284606934	-0.8674972057342529	2.72612464427948	1.380076825618744	0.8817339166998863	2.548266887664795	-0.22186946868896484	1.2439454346895218	1.5391932725906372	1.0472238771617413	0.33351796865463257	2.986243724822998	3.4094650745391846	-1.8485949039459229	0.17678195238113403	1.7001859545707703	0.2854245901107788	3.140178680419922	-0.9420982599258423	2.357619881629944	1.3460099697113037	3.115978717803955	0.0030438899993896484	1.999407947063446	1.8073551058769226	1.7342934608459473	-0.1188194751739502	0.5057486593723297	1.176180139183998	0.9591664858162403	0.5243984758853912	2.069396138191223	1.4701325297355652	-1.188429594039917	-0.23757755756378174	1.3331859111785889	1.7733187675476074	1.439834713935852	1.0882584750652313	1.9839841723442078	0.09607130289077759	0.3393120765686035	1.1144077479839325	-0.25565874576568604	1.263661414384842	1.6471092104911804	1.0710338801145554	3.177187442779541	11.525652885437012	2.201322555541992	-1.794872760772705	0.38253581523895264	1.8129519820213318	0.022340834140777588	-0.41381287574768066	3.6899194717407227	-0.6127907037734985	1.8630813360214233	1.926544964313507	1.6907275915145874	0.9997679746738868	2.6517008543014526	0.9913136502727866	2.0720313787460327	2.2393354177474976	0.9684009179472923	0.10469526052474976	0.5790073573589325	1.1966530531644821	2.7347031831741333	1.3503119051456451	0.8540714681148529	1.8595663905143738	-0.6980786323547363	1.6524311304092407	-0.13612580299377441	1.9616684913635254	0.40421777963638306	2.1049277782440186	1.518627643585205	2.0607829093933105	-1.2047157287597656	2.619233727455139	1.1087020859122276	-0.44395220279693604	2.2454406023025513	1.9662997126579285	1.4072488248348236	1.273203432559967	-0.6513787508010864	0.7638501226902008	-0.29981982707977295	-0.9880906343460083	1.0640612691640854	-0.3209007978439331	-1.2046473026275635	1.4572399854660034	5.076028823852539	1.2980397045612335	0.566815048456192	1.1249448508024216	2.3853572607040405	1.1420204192399979	2.5773128271102905	2.296294927597046	-0.061739325523376465	0.1948952078819275	1.0304958876222372	1.4887825548648834	-0.08146297931671143	3.204831123352051	0.39528095722198486	-1.8758163452148438	-0.7949769496917725	1.7969867587089539	0.7949201315641403	1.0010543440002948	-0.29441380500793457	2.18848717212677	0.6887522637844086	-0.0598752498626709	1.5023831725120544	2.8045040369033813	-0.7840105295181274	-0.4528411626815796	0.2857697606086731	0.8921906873583794	-0.22997868061065674	1.5847363471984863	2.1296677589416504	-0.09980547428131104	0.3385986089706421	2.095272183418274	0.6235714852809906	2.155314087867737	0.27235132455825806	2.6966705322265625	1.1185028851032257	0.1631450057029724	2.9179004430770874	-0.9126293659210205	-0.1578143835067749	0.7099485695362091	1.5884500741958618	2.304540991783142	0.4582896828651428	-0.421417236328125	1.2684378921985626	1.9002732634544373	0.8765140175819397	-0.6514180898666382	2.681975841522217	0.7463381588459015	1.4034691154956818	1.7197859287261963	3.0140411853790283
abbaiare_1	2.5028088092803955	1.838539719581604	0.23241233825683594	-0.3216218948364258	1.4251716136932373	1.6891887784004211	0.48991304636001587	-6.581786632537842	-1.3838129043579102	4.980799436569214	-0.2900737524032593	1.520616888999939	2.4079220294952393	2.0199791193008423	1.1631646305322647	1.361033946275711	-0.45851969718933105	0.5003884732723236	-0.18950653076171875	0.19896268844604492	-0.6923102140426636	2.557765007019043	0.9609248675405979	-1.420403242111206	-0.18546295166015625	1.4365588426589966	1.2584372460842133	2.3922895193099976	1.3364472091197968	-0.1184396743774414	1.5524667501449585	0.8669356405735016	1.1898832470178604	3.372788906097412	0.7537755966186523	0.25767821073532104	0.31602776050567627	-0.020757198333740234	-0.0923612117767334	0.394564688205719	2.096852660179138	0.7951242476701736	2.8615243434906006	1.2694259285926819	-0.42666471004486084	-14.8795804977417	1.8565255999565125	2.13803768157959	1.272312879562378	2.3239718675613403	1.4087015986442566	-0.22667181491851807	-0.9301517009735107	0.4334453344345093	4.99040412902832	3.8559274673461914	1.612890899181366	-0.5896261930465698	0.02610403299331665	3.319740056991577	0.6275684535503387	0.9970955809112638	0.7768609076738358	1.631704866886139	1.7847378849983215	2.4982082843780518	0.9156815558671951	1.0724164620041847	2.919427752494812	-0.8529709577560425	0.8165152370929718	0.4765956997871399	2.3170011043548584	-0.32949674129486084	1.2472672015428543	2.9727444648742676	0.5521993637084961	1.599892020225525	1.913604974746704	1.0538071915507317	1.1067211329936981	1.758093237876892	1.7731322646141052	0.7784117013216019	0.4259544610977173	1.5664921402931213	2.1188689470291138	-1.427720546722412	-0.339033842086792	1.205520674586296	0.1583491563796997	3.2493057250976562	-0.6241070032119751	0.9302324205636978	2.8131879568099976	2.0749071836471558	2.8247846364974976	-0.3701246976852417	2.7550463676452637	0.41094285249710083	-1.3817658424377441	1.4491578936576843	-1.235206127166748	0.2883421778678894	1.6818225383758545	2.355503559112549	0.8944359347224236	2.15339457988739	-0.8392964601516724	-0.7601287364959717	-0.057120323181152344	0.21716994047164917	4.30394983291626	0.9927555192261934	0.9932633610442281	0.9392515383660793	1.3174819946289062	0.3206663727760315	3.4580788612365723	1.4620047509670258	2.2887054681777954	0.9004207700490952	0.36894482374191284	0.08055776357650757	1.2738057971000671	0.6269154846668243	3.9859349727630615	0.7254120707511902	0.44813865423202515	2.5852264165878296	0.9264058247208595	1.7800152897834778	1.8413431644439697	-0.382928729057312	0.07049113512039185	1.3900279700756073	1.634692370891571	3.522557497024536	1.2165104150772095	0.057128727436065674	2.246755361557007	1.3341922760009766	-0.35006821155548096	1.4822631776332855	0.4796310067176819	1.286520093679428	0.5808887183666229	1.2467822432518005	2.0934077501296997	2.4488394260406494	2.160262107849121	1.4394300282001495	2.3715567588806152	1.1325761526823044	-0.3096410036087036	1.0808731615543365	0.36099672317504883	-0.030704736709594727	0.6462947130203247	1.510266661643982	0.8031888008117676	3.6890738010406494	1.1220593452453613	1.3645007014274597	0.6827096045017242	1.275592416524887	2.8884096145629883	3.9692747592926025	1.4462285935878754	1.0522888004779816	1.212162807583809	1.5863551497459412	2.274205446243286	1.665219783782959	-0.18197286128997803	2.8073151111602783	-0.7734774351119995	1.7832817435264587	2.243627905845642	2.3839515447616577	1.3875560760498047	-0.18114924430847168	1.002471194602549	0.5048048198223114	-0.135786771774292	1.193332627415657	1.2949135899543762	-0.6920852661132812	0.6958792209625244	-2.4413697719573975	0.8457779735326767	1.7745806574821472	0.08404409885406494	0.5983578562736511	0.787669450044632	1.9662627577781677	-0.24209809303283691	1.8194463849067688	0.7438307106494904	1.8013178706169128	0.818577766418457	0.43526625633239746	1.3495208024978638	1.7927038073539734	0.9584525600075722	1.5859951972961426	0.6931904554367065	2.6913979053497314	0.5834665596485138	1.1416161954402924	1.6158300638198853	3.3735294342041016	-0.5081249475479126	1.3769857287406921	0.6500820815563202	0.8759185746312141	1.945716679096222	5.046582221984863	0.2881218194961548	-0.17457211017608643	0.4676882028579712	2.8457905054092407	1.2904472351074219	1.496244728565216	-0.18304646015167236	0.35485273599624634	1.9635642766952515	0.13617855310440063	-1.5398595333099365	-0.019658684730529785	0.45863085985183716	1.672217309474945	2.096366047859192	0.6731208860874176	0.7859419882297516	2.2001380920410156	0.6852982044219971	2.269819974899292	2.2278517484664917	0.15582209825515747	0.6577622294425964	-0.6471937894821167	0.2687479257583618	-1.2121992111206055	0.9896323820576072	2.90641713142395	0.25849783420562744	2.788576364517212	1.5991477966308594	4.916537523269653	2.680212378501892	3.5413050651550293	1.4146545231342316	0.2517072558403015	2.754480719566345	0.2754939794540405	0.7654388248920441	-0.23750591278076172	0.7933038622140884	-0.8191993236541748	1.0982945412397385	3.106203079223633	1.27547487616539	1.4125337600708008	0.9088046997785568	2.233668565750122	0.16199874877929688	-1.5599501132965088	-0.3084573745727539	-1.4185893535614014	0.08276253938674927	0.14996230602264404	3.476316452026367	1.8189496397972107	2.736984610557556	2.1156976222991943	0.10380005836486816	1.8149018287658691	0.7890792042016983	0.2887539863586426	-0.16067242622375488	1.5575693249702454	0.6400262117385864	2.263771653175354	1.3964820206165314	2.1945210695266724	0.1948142647743225	2.0960853099823	-0.544001579284668	3.094287633895874	0.5088030397891998	0.22205454111099243	-0.7250443696975708	0.48645633459091187	0.2021438479423523	-0.2328047752380371	-0.39697980880737305	-1.7391986846923828	-1.1875925064086914	2.198019027709961	2.415880799293518	2.2777416706085205	0.7139338850975037	0.9328249171376228	0.8327242434024811	1.4305395781993866	0.9122035726904869	0.9298979267477989	0.7462627291679382	-1.005661964416504	-0.6270973682403564	-2.111396074295044	-0.7875968217849731	0.8410135954618454	0.6172452569007874	2.796446442604065	1.551563799381256	-0.5715019702911377	-0.07020354270935059	1.240446612238884	-11.412262916564941	2.0657652616500854	-0.01194310188293457	1.3338774740695953	0.4300817847251892	0.6728265285491943	-0.03244757652282715	2.046562433242798	1.2567595541477203	-0.36753296852111816	2.116732597351074	1.6977983713150024	-4.442065238952637	2.4797751903533936	1.8292142748832703	1.2135352939367294	0.31724363565444946	1.1299331337213516	2.630703926086426	-0.13881206512451172	0.6417175829410553	0.5681248903274536	2.0093159675598145	0.36098945140838623	-0.5634629726409912	-0.3936293125152588	3.136521816253662	-1.4402811527252197	2.707769513130188	0.313045859336853	0.48612135648727417	-0.7435909509658813	0.4195657968521118	2.4953638315200806	1.168122723698616	1.5915060639381409	0.9616455920040607	-0.2309950590133667	-2.010280132293701	0.5962536931037903	-0.10992777347564697	3.5401663780212402	1.210147276520729	1.6212468147277832	0.779953807592392	1.5546118021011353	1.346295952796936	0.44595563411712646	2.2522348165512085	-0.1978081464767456	1.1610466539859772	2.5561463832855225	1.3269919455051422	1.8484757542610168	1.1526621878147125	1.8931922316551208	-0.10738527774810791	2.890268564224243	1.8567104935646057	2.118423819541931	0.8390755206346512	-0.36024558544158936	0.011445820331573486	1.1899065971374512	3.8688645362854004	2.029139757156372	0.19133883714675903	0.9135346338152885	-0.1204143762588501	2.781834125518799	1.9412405490875244	1.9446961879730225	0.33827918767929077	-0.5446263551712036	1.0517125390470028	0.41999250650405884	2.75227427482605	2.4377533197402954	2.5997105836868286	-2.151362895965576	0.07193011045455933	0.7472449839115143	-0.560720682144165	0.2803270220756531	1.5094887018203735	-0.05567514896392822	0.8435055911540985	0.450717031955719	2.6991716623306274	0.32436472177505493	0.7411633431911469	2.1336902379989624	2.1591674089431763	2.5612668991088867	-1.3000414371490479	1.2829300463199615	2.469133496284485	2.3971327543258667	1.6455327272415161	1.1853776425123215	1.5127388834953308	1.4613962471485138	1.8371033668518066	0.5978337228298187	-0.0027132034301757812	2.3263922929763794	1.594862937927246	2.164999842643738	0.45144444704055786	1.5582875609397888	2.2495917081832886	2.002660632133484	-1.9362080097198486	1.305544376373291	0.8899754136800766	-1.8615951538085938	0.6796573996543884	3.348581314086914	2.926686644554138	1.670565128326416	0.5281406939029694	1.9260322451591492	1.3113382160663605	1.878359615802765	-1.0010793209075928	-1.353778600692749	1.6402912735939026	1.6045985221862793	2.3594573736190796	1.689272701740265	-0.052690863609313965	2.0136126279830933	0.7840300053358078	1.1628293991088867	1.4275350868701935	0.4220830798149109	0.963259506970644	1.2170807868242264	1.6159344911575317	-3.604595184326172	-0.09793269634246826	1.0010738178389147	0.691148430109024	1.1278467923402786	1.6434922814369202	1.1446418017148972	1.5916372537612915	-0.4216576814651489	1.81717050075531	1.7334599494934082	1.5821478366851807	1.6111046075820923	2.3554307222366333	-0.2485581636428833	0.536739856004715	2.7762848138809204	1.454261690378189	0.20212340354919434	1.529058814048767	1.798113226890564	1.6888424158096313	-0.47365880012512207	3.2729828357696533	3.2603254318237305	-1.7821736335754395	1.6944729089736938	0.7105853855609894	0.8306873887777328	1.2035232782363892	2.764844298362732	0.6094983518123627	0.2463090419769287	0.42927324771881104	1.0575281344354153	-0.8017324209213257	2.6171663999557495	1.3375617861747742	2.0964515209198	0.3117099404335022	2.8081248998641968	1.596303105354309	-0.529983401298523	1.5057219862937927	1.8187323212623596	2.9981565475463867	0.9237426444888115	1.2328294664621353	2.281259536743164	0.6661933958530426	2.8936054706573486	1.8321880102157593	-1.5569062232971191	3.405900001525879	1.0744610279798508	0.44228994846343994	2.0806682109832764	0.8599141985177994	2.554600238800049	0.896150104701519	-3.110747814178467	0.15113109350204468	2.721776604652405	0.20333939790725708	-0.4187833070755005	-0.01764822006225586	-0.3708268404006958	2.4465659856796265	-1.7726771831512451	2.8250831365585327	3.7121341228485107	-0.6906050443649292	1.9628124237060547	2.151025652885437	0.5984267890453339	1.1707739681005478	-1.1199746131896973	-0.24133777618408203	1.8538333773612976	1.7343595027923584	2.2841596603393555	2.2740901708602905	1.4282031655311584	0.8902411982417107	2.342157006263733	3.5597503185272217	-0.06131482124328613	1.8066242933273315	-0.8932875394821167	1.2617354989051819	-0.8501588106155396	0.06088423728942871	1.645211100578308	0.36682575941085815	0.22624927759170532	0.945423498749733	0.904017761349678	-0.21517252922058105	-0.06769776344299316	3.4967877864837646	3.027787923812866	1.667964220046997	1.1092070415616035	-0.5255007743835449	2.0291688442230225	0.650666207075119	-0.25356411933898926	0.43585240840911865	1.2594521343708038	0.3377988338470459	0.9448780491948128	21.51775360107422	2.914249300956726	-1.3472437858581543	3.3909032344818115	1.3629663288593292	0.6907007396221161	1.9181818962097168	3.9253811836242676	1.0122367041185498	2.73629367351532	1.27737557888031	-0.13848185539245605	1.3657543361186981	2.053424119949341	1.6594647765159607	1.9878293871879578	1.1197239756584167	0.22668135166168213	3.4268958568573	2.528502106666565	3.0195071697235107	-1.1890323162078857	2.576811909675598	2.1544770002365112	2.3241087198257446	1.5593628883361816	1.88218355178833	-0.7436379194259644	1.4283159375190735	-0.2544398307800293	1.9486042261123657	2.9473414421081543	1.6875552535057068	1.7271745204925537	1.623746931552887	0.9841706175357103	2.4974838495254517	0.5236559808254242	0.8241834044456482	0.92294592410326	0.8459704369306564	0.8331348598003387	-0.9458595514297485	-0.014874458312988281	1.5147465467453003	0.4047301411628723	-0.30786705017089844	1.9369139671325684	0.3849261403083801	0.24913084506988525	1.3674036860466003	1.3488853573799133	0.4943419098854065	1.3622038066387177	1.7306509613990784	-0.4104139804840088	-0.9126908779144287	1.2023253291845322	-0.06124424934387207	2.451447010040283	-1.574751377105713	1.6575323343276978	3.7469992637634277	2.253376603126526	0.399908185005188	0.16185671091079712	1.3654868602752686	2.115582823753357	-0.8913637399673462	0.01140594482421875	-0.5353928804397583	0.5532771050930023	1.0784560218453407	3.064879894256592	1.667133390903473	0.4579116702079773	-1.1666786670684814	1.806143045425415	1.2757033109664917	-0.7963409423828125	-1.4956271648406982	0.4564347267150879	0.9929374856874347	0.06275171041488647	-1.4397633075714111	0.006309092044830322	3.0290772914886475	0.9434323869645596	0.2821996212005615	1.0958852842450142	12.090903282165527	2.6326539516448975	-0.30337679386138916	-0.9816275835037231	0.6889701187610626	2.0619404315948486	-0.14685845375061035	2.777375102043152	1.4556315541267395	3.0802712440490723	2.213882327079773	0.025260508060455322	0.6648900508880615	3.8161544799804688	1.9818882942199707	2.4082337617874146	2.488521456718445	2.088526487350464	-0.5054870843887329	1.2921527028083801	-0.055411458015441895	0.8327901214361191	0.47395849227905273	0.7597138434648514	0.12908709049224854	0.27769535779953003	1.0412076376378536	-1.2998359203338623	0.21594852209091187	1.1230242252349854	0.46949875354766846	0.5848825573921204	2.050170421600342	1.9369099736213684	0.9546192400157452	0.8140332996845245	-0.08313977718353271	-0.6097921133041382	0.7256841659545898	1.0945263504981995	1.5392736792564392	-0.5129439830780029	1.007021733559668	0.41093599796295166	-0.03363978862762451	0.19120407104492188	1.134420484304428	-0.22667372226715088	0.04199552536010742	4.527239561080933	-0.31368815898895264	-0.23773670196533203	0.6020441353321075	1.8102316856384277	1.168738231062889	0.9577526561915874	1.366942822933197	0.7055235207080841	1.8950310349464417	1.3956046402454376	3.307262897491455	1.857852041721344	2.0618573427200317	0.5249553322792053	-1.4582066535949707	0.43080800771713257	0.3040725588798523	0.5150196254253387	1.600638210773468	1.2798666059970856	1.7858179211616516	2.2510143518447876	-1.2113087177276611	2.2716147899627686	0.6890951991081238	1.5461339354515076	1.015779308974743	1.1379843652248383	0.9694349784404039	-1.1332221031188965	2.603087902069092	0.7962525635957718	0.3643304705619812	0.0781373381614685	1.3471841216087341	0.690720796585083	1.9287413954734802	-0.21334326267242432	4.725537538528442	-0.8153846263885498	0.521796852350235	1.8702625036239624	-0.920782208442688	-0.5279150009155273	1.4291184842586517	1.551518738269806	3.7824838161468506	0.6505371630191803	0.6955472528934479	-2.2338106632232666	0.7209402620792389	0.7064406871795654	0.6233522295951843	2.3981966972351074	0.47002702951431274	0.928532749414444	1.8449549674987793	2.086907744407654
abbassare_1	2.92685329914093	1.7988522052764893	1.9514392018318176	0.6567002832889557	0.7309260368347168	2.8898606300354004	1.7160463333129883	-6.8913140296936035	0.7179593145847321	3.3765511512756348	1.081604890525341	1.4063076972961426	1.8157727122306824	2.748697280883789	-0.1788797378540039	2.2984880208969116	-0.3672144412994385	0.30699217319488525	2.769551157951355	1.2067827880382538	0.7328980565071106	2.4826029539108276	0.6910611689090729	-2.148169994354248	0.1682741641998291	-1.317903995513916	2.023488402366638	2.4168847799301147	2.0295608043670654	1.9846593737602234	1.546375572681427	1.0910607650876045	1.3016420602798462	2.5842517614364624	1.2736423015594482	1.9078651070594788	1.7532517313957214	1.0729208514094353	2.3583112955093384	1.01587457023561	0.8793362900614738	2.2000523805618286	2.4576488733291626	0.8586621284484863	-1.584984302520752	-16.683349609375	-0.08502709865570068	1.8714703917503357	-0.8092721700668335	3.4757161140441895	0.943206325173378	-1.5166044235229492	0.9421583190560341	0.050895869731903076	5.19777774810791	1.5255532264709473	-0.6158314943313599	-0.8613107204437256	-0.009369730949401855	3.777928352355957	0.8512267768383026	2.488502025604248	1.2978133261203766	1.4988796412944794	2.02529239654541	2.314528465270996	-0.16848576068878174	1.0210235603153706	2.740787386894226	1.2645487189292908	2.0317041873931885	2.3988499641418457	3.4934403896331787	0.8660827875137329	2.470928430557251	1.7140090465545654	2.8561646938323975	0.35222333669662476	1.340746432542801	1.2134062945842743	0.4570167064666748	2.2925758361816406	3.266423463821411	0.9022504240274429	1.9134411215782166	1.032689657062292	-0.8877534866333008	-0.5668051242828369	0.10996192693710327	0.5433077216148376	2.5240997076034546	2.0415186882019043	2.1747310161590576	2.0262550115585327	4.855792999267578	2.443129539489746	1.5681875348091125	0.7376994788646698	1.3387476205825806	-0.4429541826248169	0.31545060873031616	1.280877709388733	-0.2979722023010254	0.9240386709570885	2.9761048555374146	0.2825924754142761	1.254115641117096	0.7079888582229614	1.1981887072324753	1.2471426725387573	0.9289359524846077	1.7019068002700806	2.509485363960266	0.0649990439414978	-1.5800917148590088	-0.4642835855484009	0.5470700860023499	1.4436177611351013	1.0764942690730095	1.5108619332313538	0.5870244204998016	3.1114442348480225	1.2087812423706055	1.9982492327690125	0.15747672319412231	-0.20407044887542725	1.4058901071548462	2.0576558113098145	2.100992441177368	2.190116763114929	0.6429937779903412	2.3998658657073975	-0.31014370918273926	0.9331270605325699	0.5952258110046387	1.9478482604026794	0.5389822423458099	1.4868432581424713	0.6488037109375	0.3484078049659729	2.316548705101013	1.5248347520828247	0.10973912477493286	1.6273703575134277	0.00714111328125	0.7006492018699646	-0.1907978057861328	1.0377096869051456	0.36354416608810425	1.1743914783000946	2.3695926666259766	-0.74648118019104	0.09786218404769897	1.0585311129689217	0.4126524329185486	1.1120392754673958	0.990079777315259	0.4603310227394104	1.6010093688964844	4.376719951629639	1.8001627326011658	1.745598018169403	1.2828214466571808	2.9972528219223022	-0.0016063451766967773	0.8158908784389496	0.9306237101554871	2.7983208894729614	2.318886876106262	0.6712819337844849	-0.25360143184661865	1.1106847822666168	1.0069007948040962	1.5417831540107727	2.6738866567611694	1.0642217844724655	-0.2613532543182373	2.9443854093551636	-0.39637184143066406	3.0128226280212402	2.5944809913635254	2.672086000442505	1.8732322454452515	1.6475179195404053	0.5146977603435516	0.6601426303386688	1.8516165018081665	0.6118592619895935	2.14413058757782	0.16482019424438477	1.6000837087631226	0.39002525806427	0.5348821878433228	1.8433457016944885	1.8567534685134888	2.2467191219329834	0.11423438787460327	0.4935324788093567	0.8269356489181519	2.1754660606384277	1.5284870862960815	0.14594244956970215	2.2050586938858032	2.430997133255005	1.27657750248909	0.6661084890365601	-1.8569936752319336	0.7358390688896179	0.3000718951225281	-2.403960943222046	1.4766496419906616	0.2877954840660095	-0.3397970199584961	-1.626143217086792	0.8327358812093735	1.200690135359764	0.7689294964075089	3.0651838779449463	1.6714879274368286	1.4766777157783508	1.837096929550171	1.4382259547710419	0.8990815728902817	0.7470264136791229	1.4638595283031464	2.184925675392151	0.5366942286491394	1.3459795713424683	-1.03456449508667	1.275108426809311	1.7808012962341309	-1.1414318084716797	1.279562920331955	2.5052032470703125	-0.05273258686065674	0.6384666860103607	2.14400053024292	1.1217039451003075	0.9771732594817877	-0.08061933517456055	-0.12128579616546631	0.2762211561203003	0.07401877641677856	0.6863738894462585	-0.3408050537109375	1.4924561977386475	1.280814528465271	2.0054738521575928	0.5242129862308502	2.755515217781067	1.0114582860842347	4.348703145980835	0.28101253509521484	0.9979334073141217	0.20744645595550537	-0.325808048248291	2.030093789100647	-0.973990797996521	0.8148461133241653	0.1381639838218689	-0.5052320957183838	2.2276300191879272	-0.7099003791809082	0.990622965618968	1.6138702630996704	2.5328913927078247	0.19895637035369873	1.1734016388654709	0.40656453371047974	0.6436387300491333	-0.7468647956848145	-0.3011496067047119	1.7524030208587646	2.487790822982788	1.2109442353248596	2.7555428743362427	0.27174627780914307	1.7454789876937866	0.2335653305053711	0.3064645528793335	2.1605236530303955	2.4145894050598145	1.089221253991127	1.9626014828681946	0.581992119550705	1.1936481893062592	1.208684355020523	1.8775237798690796	2.532778739929199	0.8552120923995972	0.18649721145629883	-1.1652281284332275	-1.3748109340667725	-0.9247457981109619	1.6202290058135986	1.1088384538888931	0.5583785772323608	0.6237404346466064	-1.913010597229004	1.558263123035431	0.25104010105133057	0.8235987424850464	2.4415223598480225	-0.11153149604797363	0.14271676540374756	-0.37004685401916504	1.5681233406066895	2.372537136077881	2.097413182258606	0.005475044250488281	-0.5113383531570435	0.9646827504038811	-0.3229050636291504	0.6241475343704224	0.8484571427106857	1.5790531635284424	2.0841267108917236	1.611764669418335	-0.8322325944900513	0.33199870586395264	-16.67435073852539	0.8989251405000687	-0.36363279819488525	-0.14583265781402588	3.692885160446167	1.3428127467632294	1.3904009461402893	3.353912115097046	1.8184099793434143	-0.15120387077331543	2.12795352935791	-1.0438463687896729	-1.5663785934448242	1.0617720559239388	1.4620635509490967	1.0118207056075335	1.2791505753993988	1.1189949661493301	1.0071329241618514	0.21409273147583008	0.8185796588659286	-0.14585089683532715	1.127333626151085	-0.056626319885253906	2.0655587911605835	0.637237936258316	0.20338106155395508	-1.1625776290893555	0.6050901710987091	0.9278350099921227	-0.017523527145385742	0.8645883202552795	-0.03336226940155029	2.7015023231506348	0.8134010434150696	0.7168613076210022	1.8679348826408386	0.24130582809448242	0.8160067796707153	-0.2003037929534912	0.7669434398412704	3.5902259349823	2.691010355949402	1.2358499765396118	0.9478316940367222	0.7711582183837891	1.9996963143348694	1.6847134232521057	1.3402366936206818	1.121601164340973	2.6834492683410645	0.8028462529182434	0.2582206130027771	1.5265479683876038	-1.4638903141021729	2.906559944152832	1.5138763785362244	1.5106690526008606	0.7218629419803619	0.32953929901123047	1.5789663791656494	-0.029715299606323242	1.4769237041473389	2.274641990661621	1.440980315208435	0.14714133739471436	1.1548885107040405	-0.5578736066818237	1.0655395835638046	-0.08901560306549072	0.3951377272605896	2.805917263031006	1.305375874042511	-0.15704560279846191	0.6284091472625732	0.5152890086174011	1.5963183641433716	1.1413868814706802	1.6243997812271118	-0.14238500595092773	0.9060624465346336	0.9145727157592773	0.960617121309042	-0.8003214597702026	1.0153145641088486	-1.061279058456421	-0.033698320388793945	0.7054801881313324	-0.062294602394104004	1.43596151471138	0.8348758816719055	1.8852492570877075	2.454743504524231	0.4115278124809265	2.157003164291382	2.1785577535629272	1.6365285515785217	1.017316086217761	0.3404233455657959	0.30077773332595825	0.024879038333892822	1.961633324623108	0.9146836623549461	-0.24201059341430664	-0.10537731647491455	1.1348860710859299	2.221011996269226	0.7655753046274185	1.5600805282592773	0.8629326671361923	0.9788313861936331	1.9179369807243347	0.30150407552719116	2.07472825050354	-0.12058186531066895	-1.6395673751831055	-0.020872950553894043	2.442923665046692	1.8099363446235657	-0.07922482490539551	1.7176620960235596	1.1233062148094177	1.2218753695487976	3.225693464279175	0.3187252879142761	-0.2390667200088501	1.7908068895339966	0.3943994641304016	2.7211520671844482	1.6831247210502625	-0.310909628868103	1.0431278981268406	3.0416390895843506	1.2092609405517578	1.9444087147712708	-0.46075356006622314	2.098840832710266	-0.896064281463623	1.5402531027793884	-2.624330520629883	-0.18817663192749023	0.9101047813892365	3.2723677158355713	2.146469473838806	2.395186424255371	0.8903597146272659	1.7135213613510132	1.2285367399454117	0.34166282415390015	1.084911897778511	0.7138822972774506	-1.215226650238037	0.821189358830452	-0.6497061252593994	1.7164511680603027	3.113581895828247	0.6534394323825836	0.3899325132369995	1.5884451866149902	1.0699496790766716	1.3703461587429047	1.3411416411399841	0.48795920610427856	1.3191867768764496	-1.3295857906341553	1.4479900300502777	1.3224869668483734	1.2785600125789642	-0.8424341678619385	2.4559274911880493	0.3914962410926819	1.630506992340088	1.077445611357689	-0.023340821266174316	-2.102768659591675	0.4685540199279785	2.490281820297241	-0.5161731243133545	1.4480425715446472	0.13502860069274902	-0.03525400161743164	1.6416427493095398	2.2689108848571777	1.1573193967342377	1.6563042402267456	1.2542692422866821	2.3683459758758545	0.16677677631378174	2.3900094032287598	1.7081449031829834	1.678141713142395	-0.286840558052063	1.3822308778762817	1.408379226922989	-0.4566218852996826	1.979532539844513	1.7226447463035583	0.5824311375617981	0.5742549002170563	-1.3209822177886963	1.2707848250865936	2.219233751296997	2.2760761976242065	0.5124236941337585	0.0672997236251831	0.6780886948108673	-0.9204432964324951	0.2888934016227722	1.39434215426445	0.9424548409879208	0.24315595626831055	2.277223825454712	3.400505542755127	-0.27401864528656006	0.6728063821792603	1.438226342201233	0.8070776164531708	1.9378732442855835	0.9281648397445679	0.1505454182624817	2.232722043991089	2.4377729892730713	0.5977938175201416	1.6103301644325256	2.454837679862976	-0.08317816257476807	-0.6753956079483032	-1.5532560348510742	1.7891752123832703	0.7329847514629364	2.2394858598709106	1.335826575756073	3.0242292881011963	-0.48255372047424316	0.2576911449432373	-0.2326221466064453	-0.6041059494018555	-0.5662307739257812	2.6592605113983154	1.3761822879314423	-0.4874083995819092	0.9192704483866692	0.483093798160553	1.8866572380065918	0.12036943435668945	-0.5800110101699829	-0.2781960964202881	-0.15452563762664795	-0.019475340843200684	1.3585943579673767	21.887344360351562	1.1125471666455269	-1.7985079288482666	3.026655435562134	2.5575027465820312	1.1455820053815842	1.393222838640213	3.265411138534546	1.931413471698761	1.70781409740448	1.8886573910713196	2.1868010759353638	2.879512906074524	-0.07517147064208984	1.2850878834724426	0.27440160512924194	0.5229896605014801	0.32809555530548096	2.4532288312911987	3.2934410572052	2.4886691570281982	-0.0440143346786499	3.168792724609375	1.4390670657157898	1.279054045677185	0.9155611991882324	1.8385746479034424	0.3064209222793579	1.5752254128456116	0.15499401092529297	0.415235698223114	1.108524888753891	2.6535122394561768	1.2739524245262146	-0.04525148868560791	0.46928709745407104	1.732785701751709	0.6958967447280884	0.33212733268737793	0.5600233972072601	0.19596362113952637	2.4741557836532593	0.2366144061088562	-1.0175106525421143	2.5522971153259277	1.6919390559196472	0.28122854232788086	1.7417612075805664	1.2181450128555298	0.8912130892276764	-0.7336722612380981	2.967922806739807	0.8044340908527374	1.8598881959915161	2.3059747219085693	-0.13921880722045898	-1.021681547164917	3.014575242996216	1.5373581647872925	1.5838531255722046	0.670268714427948	1.8029017448425293	2.5108143091201782	1.171906664967537	0.3100152015686035	3.1917240619659424	0.14613807201385498	0.8725758045911789	1.982403576374054	-0.06621026992797852	0.20628207921981812	0.8350224643945694	0.9912269404157996	1.941418468952179	1.8620709776878357	0.30878758430480957	0.9708076547831297	2.320902466773987	0.6665787100791931	0.5038148462772369	1.2038698345422745	-0.2634507417678833	-1.4979619979858398	1.2419154644012451	0.14823943376541138	0.7361781895160675	3.095913887023926	1.555793285369873	1.074690155684948	3.857835054397583	8.918798923492432	-1.0255482196807861	0.08895999193191528	-0.2564833164215088	2.9045495986938477	1.8170409798622131	-0.7828185558319092	3.1784324645996094	0.16681575775146484	1.238302305340767	3.2135555744171143	0.7810935229063034	0.7134901583194733	1.412091076374054	1.4529399871826172	1.901045024394989	1.168336659669876	2.7791744470596313	-0.16089355945587158	-0.5375188589096069	2.654623866081238	-0.512434720993042	3.211219549179077	0.9867678750306368	0.5500418543815613	1.34884375333786	0.4433274269104004	0.10231149196624756	3.8053793907165527	1.7062838077545166	-0.0006961822509765625	2.50191867351532	0.9527886360883713	-1.3810560703277588	2.619026303291321	1.7760076522827148	-0.9689967632293701	-1.8501605987548828	2.824911117553711	-0.8037514686584473	2.3723682165145874	-1.5459322929382324	2.2199432849884033	1.3612468540668488	0.8340320140123367	0.6155307292938232	2.4658854007720947	0.583910197019577	1.4441973567008972	3.5050487518310547	0.9950838307850063	3.066636323928833	1.0197430290281773	2.807559609413147	1.5648402571678162	1.2417720556259155	3.174865484237671	0.2596854567527771	2.2054145336151123	0.1886158585548401	2.1265329122543335	0.22844654321670532	2.0921998023986816	1.7552622556686401	0.25077110528945923	2.012827157974243	0.4928319454193115	-0.5600043535232544	0.8740788400173187	-1.2523446083068848	1.3300893008708954	-0.520637035369873	2.460725426673889	1.8118093609809875	1.592124879360199	0.9957103827036917	1.3875048756599426	1.8424237966537476	0.5582890510559082	0.5206997096538544	3.4764838218688965	-0.6511529684066772	0.2268325686454773	0.7861448973417282	1.0741468220949173	1.6850956678390503	1.7343324422836304	1.6916005611419678	1.0162419881671667	-1.3731822967529297	0.8090324550867081	1.301566332578659	-1.7355268001556396	1.1606558859348297	0.13272637128829956	2.4084763526916504	2.7472763061523438	1.029806885868311	0.8870700299739838	1.1861229687929153	1.8491955995559692	0.567412942647934	0.373487651348114	1.7305116653442383	1.4162148535251617	0.37855052947998047	0.9726897571235895	2.554740786552429
abbattere_1	0.5562859177589417	1.2728004455566406	0.5416180789470673	-0.6442255973815918	1.1937510818243027	2.4057239294052124	1.5607582926750183	-7.293290138244629	-0.6062897443771362	3.4543936252593994	0.6133634746074677	1.901149570941925	3.015413522720337	2.6099109649658203	1.0090970676392317	1.8527836203575134	-1.3995378017425537	2.4159034490585327	1.8062371015548706	0.4948008060455322	0.0724642276763916	2.1137919425964355	2.7869287729263306	-1.116715431213379	0.8104141354560852	0.6522216498851776	1.813270390033722	1.7866051197052002	1.9476407170295715	1.7035518884658813	2.2389897108078003	0.4625070095062256	2.124776244163513	2.0442135334014893	1.0387843772768974	1.4664483666419983	1.0887043997645378	0.21119695901870728	0.9403807483613491	1.6467302441596985	0.9191017895936966	1.6554539799690247	2.8243346214294434	0.5360067188739777	-1.92936110496521	-14.88061237335205	1.3073250353336334	1.635542869567871	-0.35553276538848877	1.9952743649482727	0.6073921024799347	-0.5436149835586548	-1.1496281623840332	-0.5500246286392212	3.392270088195801	2.0232937335968018	1.0982742384076118	1.3262181878089905	-0.42455995082855225	4.466922044754028	1.1311380118131638	3.1958765983581543	0.941682830452919	1.4304786622524261	2.127210259437561	1.559752345085144	1.3815096020698547	0.2690426707267761	2.591744303703308	0.732852041721344	2.8725496530532837	-0.03702592849731445	1.0846090763807297	-0.34671127796173096	1.9844719767570496	3.8506572246551514	2.959288716316223	1.4746345281600952	2.3877378702163696	0.7514244765043259	-0.6175751686096191	1.682674765586853	2.964464545249939	1.5215834975242615	2.67076575756073	1.2452577203512192	-1.2694013118743896	0.2091808319091797	1.0031650601886213	-1.0240890979766846	1.6181684136390686	2.840901494026184	1.9640795588493347	-0.045290589332580566	3.503323793411255	2.153634190559387	0.7785031348466873	-1.4402718544006348	-0.7489182949066162	0.5441328585147858	-1.1130144596099854	2.8502739667892456	-1.520941972732544	0.1776028275489807	1.5118584632873535	1.1314183622598648	0.73483806848526	0.8153098970651627	-1.385481595993042	-0.25366508960723877	0.42458516359329224	1.0540668591856956	3.5907928943634033	-0.9128139019012451	1.1827822029590607	0.06064009666442871	1.172402337193489	0.660022646188736	1.9751717448234558	1.5922268629074097	1.1843840777873993	1.5117647647857666	1.4277942776679993	1.99582439661026	-0.22141075134277344	1.40790593624115	2.931093692779541	1.0084812380373478	2.011980891227722	1.7322165369987488	0.7982356250286102	1.5760537981987	1.3003948032855988	0.2496395707130432	-1.0618109703063965	2.5607242584228516	1.6461259126663208	-0.4199490547180176	1.4795453250408173	0.8508623987436295	0.9262955039739609	1.2879280149936676	-0.8428703546524048	-1.0610895156860352	0.7259430289268494	2.0733120441436768	0.6160430610179901	0.92577014118433	1.9975984692573547	1.847964584827423	0.8205329924821854	-0.29417645931243896	0.8849730789661407	1.2736332714557648	0.3265458345413208	1.4899444878101349	1.9784252047538757	0.6806546449661255	-0.11678886413574219	3.0516669750213623	0.4025117754936218	1.744322121143341	1.6799516677856445	0.6124500632286072	-0.4294475317001343	1.3360994756221771	0.7207624316215515	3.623234272003174	2.6977827548980713	0.684035986661911	0.3872377872467041	1.868158757686615	1.0329689271748066	0.12265163660049438	2.7603644132614136	1.8638477325439453	0.05397951602935791	1.8687543272972107	1.2022675722837448	1.9289811253547668	2.7096288204193115	2.2480098009109497	2.4756773710250854	1.1261375099420547	0.464782178401947	1.0101923067122698	2.28379225730896	0.9570047073066235	1.6931575536727905	0.5953632593154907	1.1178908050060272	0.29236704111099243	1.648326814174652	1.0762285366654396	1.3890255391597748	1.4724913537502289	0.7991320043802261	0.5799869000911713	1.301706314086914	0.6723957061767578	1.0543913394212723	0.03880107402801514	3.3202409744262695	2.337693691253662	1.6646237969398499	1.9914360642433167	-0.8367613554000854	1.6053555011749268	-0.19874250888824463	-0.917120099067688	1.5778689980506897	-0.042507052421569824	0.9901132304221392	1.0021903752349317	2.0562788248062134	1.9842873811721802	1.8561490774154663	4.671576023101807	2.6242594718933105	0.18510061502456665	2.1603076457977295	0.7620679587125778	0.6565401256084442	0.699395626783371	0.10841470956802368	-0.5295847654342651	1.1527995765209198	-0.32200467586517334	0.04583257436752319	1.1842407435178757	1.9465774297714233	0.9682904593646526	0.5464129745960236	1.9391142129898071	1.3958501815795898	1.9887344241142273	0.9502226822078228	1.6516834497451782	1.5105422735214233	-0.5724774599075317	0.08588272333145142	0.7554825246334076	0.5230726897716522	-0.18756020069122314	0.7159730792045593	2.3437498807907104	2.0210872888565063	2.3587489128112793	-0.654029130935669	3.848327875137329	1.289917379617691	4.074849843978882	0.5624050498008728	1.3252806961536407	-0.6253788471221924	-0.016785264015197754	0.8384571075439453	-0.06545662879943848	0.6384345293045044	-0.9413304328918457	-0.11983561515808105	3.4995086193084717	1.2232330739498138	0.13455891609191895	1.9191409945487976	1.6219062805175781	0.926627054810524	0.0016250014305114746	0.8982627689838409	0.6179380714893341	-0.1688295602798462	0.22481906414031982	3.224954128265381	2.8783451318740845	1.97201406955719	1.3065083622932434	0.9850083375349641	3.123897075653076	0.682664304971695	0.8538090735673904	0.34895867109298706	1.7326200604438782	0.6899724304676056	1.3094684779644012	1.115853913128376	-0.07942640781402588	0.22694432735443115	2.6318657398223877	0.7913905531167984	1.6848508715629578	0.7310858368873596	-0.08641457557678223	-0.9481841325759888	1.0993998348712921	0.4974055886268616	-1.7577745914459229	1.5070878267288208	-1.9459526538848877	-1.8747928142547607	3.4971272945404053	2.284608006477356	0.9666097313165665	0.21950024366378784	0.14935380220413208	0.7263010740280151	0.808086559176445	2.174453020095825	1.3185707032680511	1.7161445617675781	0.3957989811897278	-0.21932780742645264	0.6280726790428162	-0.6979401111602783	-1.089278221130371	0.3790931701660156	3.1438238620758057	1.5073818564414978	-0.04863917827606201	-1.0585544109344482	0.5489927530288696	-15.289482116699219	1.214776948094368	0.7234191298484802	0.009054958820343018	2.6343729496002197	0.1865062117576599	-0.38600993156433105	2.499757766723633	2.312817335128784	-0.7255077362060547	0.605998158454895	0.26642972230911255	-1.1046206951141357	2.2176395654678345	1.387682020664215	1.245379164814949	1.9072930812835693	1.540688931941986	3.140530824661255	-0.13383698463439941	0.9415012560784817	1.8336533308029175	1.2221997678279877	-0.2621579170227051	1.5141274333000183	0.9347489699721336	1.393484741449356	-1.2617907524108887	1.8641053438186646	0.2700936198234558	-0.967201828956604	-0.34471118450164795	-0.46961474418640137	1.016331760212779	0.564234733581543	0.45265936851501465	1.2965273559093475	-0.009154200553894043	-0.1314026117324829	-0.14050686359405518	-0.07399249076843262	2.314852237701416	1.3298191130161285	2.291417360305786	1.3947157859802246	1.8967218399047852	0.2862843871116638	1.6697102785110474	0.9370884671807289	-0.004254937171936035	-0.1729830503463745	1.1543728858232498	1.4881996810436249	0.741200864315033	-0.3349766731262207	1.3133680522441864	2.093167543411255	1.9153184294700623	0.7407455146312714	0.529906153678894	0.801623985171318	0.4890872836112976	2.131508708000183	2.2906230688095093	0.91390610486269	1.076784573495388	2.7209701538085938	-2.3846282958984375	-0.2925773859024048	1.6971453428268433	0.9866460310295224	3.3671114444732666	1.8035346865653992	0.7079159915447235	0.37934237718582153	1.795362651348114	0.5813313722610474	2.097002625465393	1.484240710735321	-0.8081176280975342	0.6193440556526184	1.1792144626379013	1.677710473537445	-0.25380373001098633	0.6594810485839844	-0.5200892686843872	0.3968381881713867	1.4695262908935547	0.3598173260688782	0.07259601354598999	-0.03757119178771973	1.8826639652252197	2.347929835319519	1.5798402428627014	1.0251820161938667	2.4846999645233154	1.5670083165168762	2.39419949054718	1.7707127332687378	-0.11152279376983643	1.1041492745280266	2.5840346813201904	0.41207510232925415	1.1187534406781197	1.4322330057621002	-0.2720109224319458	0.9342960342764854	2.477273464202881	2.4501670598983765	1.902446210384369	0.5702114701271057	2.228622794151306	-0.7168713808059692	2.4071627855300903	0.20662474632263184	-1.578059434890747	0.48321253061294556	2.6874500513076782	1.346159666776657	0.7482921779155731	-0.12849116325378418	2.104809522628784	0.6351635158061981	3.051699638366699	0.303155779838562	0.0976341962814331	2.516375184059143	1.757907509803772	2.1393502950668335	1.6122732162475586	-0.6799380779266357	1.3023038506507874	1.4244895577430725	2.0885411500930786	1.8609999418258667	1.816077470779419	1.3004821836948395	1.0932941883802414	1.3312720656394958	-1.7389788627624512	0.4994189143180847	0.03172367811203003	1.5983874797821045	2.0309218168258667	1.557050347328186	0.8133722394704819	2.9759902954101562	0.7966441214084625	2.882543683052063	0.9758325908333063	1.4429691433906555	1.7771128416061401	0.6198794543743134	-0.14208686351776123	0.5793937146663666	2.081055998802185	1.686431646347046	-0.27500486373901367	1.6006062626838684	1.3270915746688843	2.794618844985962	1.5789769291877747	0.5698226392269135	0.9790888912975788	-1.81258225440979	1.103685773909092	1.632096529006958	1.784256935119629	-0.08357071876525879	1.5791980028152466	0.43273186683654785	1.1467806845903397	0.9285440891981125	1.0769307911396027	-1.5222249031066895	0.5018355250358582	1.7066289186477661	0.45407283306121826	1.0606481842696667	1.4968938827514648	0.047801971435546875	3.1577529907226562	3.5255939960479736	2.8445221185684204	0.7681887596845627	-0.2090986967086792	1.7949329614639282	0.3723835349082947	1.8263960480690002	0.09309858083724976	0.6830535233020782	-0.6084848642349243	0.2902647852897644	1.4323921203613281	0.16789448261260986	1.2091521173715591	-0.4717637300491333	2.1356788873672485	0.5417395532131195	-1.6177277565002441	0.8345337063074112	2.514979839324951	1.1224979311227798	0.9202031940221786	-0.21451401710510254	-0.6821435689926147	1.6176809072494507	-1.4007973670959473	1.5599072575569153	1.168373242020607	0.6790256798267365	2.1631585359573364	3.270446300506592	0.8123621195554733	1.9763044714927673	0.9054148867726326	-0.37968266010284424	1.3258634805679321	0.9827689789235592	-0.39105749130249023	1.693464994430542	1.887633204460144	1.8095000982284546	2.1215893030166626	2.8593279123306274	1.594051718711853	-0.8967815637588501	-2.3976571559906006	1.3662825524806976	0.6973553895950317	0.7190747559070587	2.4851702451705933	2.625413656234741	-0.5920659303665161	0.2871338725090027	-0.7733458280563354	-0.4556981325149536	0.6584553420543671	2.4161791801452637	2.3433616161346436	2.491729974746704	0.5479611158370972	-0.6978663206100464	2.0613913536071777	0.650674968957901	0.0964193344116211	-0.17295920848846436	0.09948956966400146	1.4462887644767761	0.07006341218948364	21.83084487915039	1.3634797036647797	-0.17347443103790283	2.2489417791366577	1.6165340542793274	2.3729723691940308	1.8923218250274658	1.8829711079597473	0.8065553158521652	1.5493710041046143	-0.29721832275390625	1.909867525100708	2.2257916927337646	0.00019466876983642578	1.8163378238677979	1.2025818526744843	0.287878155708313	0.3699055314064026	1.9350839257240295	2.265793561935425	1.8229047060012817	0.1733238697052002	1.911221206188202	0.6798463761806488	-0.5643699169158936	0.7626119405031204	0.6986967921257019	-0.2021697759628296	1.1560673862695694	0.16101592779159546	0.11737161874771118	2.289114236831665	1.3215891122817993	2.028251051902771	0.43582892417907715	-0.12800908088684082	2.5089449882507324	0.7377962470054626	1.3124256432056427	0.3306472897529602	0.2787286639213562	1.4266368448734283	1.4544577598571777	1.3648363053798676	3.3878862857818604	1.6136879324913025	-2.555222272872925	1.768554449081421	1.3004697859287262	-0.0007032155990600586	-3.173842430114746	2.3446418046951294	0.1125062108039856	1.3387470245361328	2.93158495426178	-0.2407323122024536	0.39551597833633423	1.4376663565635681	-2.2485923767089844	2.2377175092697144	0.894931323826313	2.609275698661804	1.419796645641327	1.7855993509292603	-0.33898723125457764	2.370256781578064	1.7405164241790771	1.4085129499435425	0.933935672044754	-0.9613034725189209	0.16218870878219604	0.7076934278011322	0.8094496428966522	1.9802988171577454	2.669661045074463	-0.5707882642745972	1.5106884837150574	1.4336586892604828	1.0902547165751457	0.7030394673347473	1.1347654610872269	0.3002853989601135	-0.9441198110580444	1.1105084419250488	-0.08382093906402588	1.049818079918623	2.243033528327942	1.7893922328948975	2.04368257522583	1.9994897246360779	9.024331092834473	-0.1742537021636963	0.3269824981689453	1.464572161436081	1.1289836466312408	2.30365252494812	0.2696453928947449	2.9460697174072266	0.640298992395401	2.454731583595276	3.275965452194214	0.38811665773391724	0.2656751871109009	2.7855831384658813	0.8705570995807648	3.112658739089966	1.8981990814208984	3.2928597927093506	0.036928772926330566	-0.2880241870880127	0.35193032026290894	1.1467572897672653	3.0696778297424316	0.3550124764442444	1.7190831899642944	1.2934671342372894	0.7754100114107132	0.9179624021053314	3.345146417617798	2.437710404396057	0.3147836923599243	1.5158644914627075	0.8624871075153351	0.4374101161956787	1.4410120844841003	1.9605740904808044	-0.22568178176879883	0.11634987592697144	2.6200073957443237	1.414569467306137	2.759729266166687	-0.8388065099716187	0.39824557304382324	1.185241088271141	1.0619592741131783	1.2110375612974167	2.3699638843536377	2.12954318523407	0.26947295665740967	3.98854398727417	1.2677483558654785	1.445828378200531	0.8171045184135437	2.404316782951355	2.0771682262420654	0.35050463676452637	1.9299417734146118	-0.500573992729187	1.3656071424484253	-1.0890190601348877	0.5971764028072357	0.38028591871261597	1.4403129816055298	1.6859896183013916	1.0299509055912495	0.07127052545547485	0.8830447047948837	-0.9463702440261841	-0.08601319789886475	1.648056149482727	2.0859827995300293	1.7115386128425598	1.6881991028785706	0.628545880317688	1.8248234391212463	0.26564735174179077	1.744933009147644	2.2675198316574097	-0.5851213932037354	0.7342541515827179	3.056560754776001	-0.45353007316589355	0.7050131261348724	1.256837785243988	1.3800270855426788	2.365169644355774	0.481344997882843	0.4978904724121094	2.8322415351867676	-0.150529146194458	1.4954011142253876	1.2585408091545105	-0.15458905696868896	1.1719804406166077	0.7706198692321777	1.6975518465042114	3.1643693447113037	0.08218348026275635	0.8553145527839661	0.9745803810656071	1.1095274314284325	0.5728390514850616	-0.6056632995605469	2.6092230081558228	0.7281789183616638	0.7681550681591034	0.7518526464700699	2.1864665746688843
abbottonare_2	0.9083262011408806	1.694607138633728	0.9817470591515303	-1.8072607517242432	2.6606862545013428	2.2594146728515625	1.6146010160446167	-5.955794811248779	-0.5924623012542725	1.2720630466938019	0.30370527505874634	2.1957532167434692	1.9193810820579529	2.618617296218872	1.3160353302955627	2.086816430091858	-2.1827902793884277	0.3757508397102356	-1.061215877532959	-0.3064004182815552	0.20512616634368896	1.4270722270011902	4.437471866607666	-0.2682795524597168	1.7457549571990967	-0.32579874992370605	0.18068444728851318	2.4584767818450928	1.3578890264034271	1.2635995149612427	2.324810743331909	1.119744062423706	2.0814576148986816	2.057358503341675	3.436805486679077	-0.26245832443237305	0.14704537391662598	0.44620537757873535	1.5188040137290955	0.6145636737346649	2.215210199356079	0.8108199685811996	3.011568307876587	2.2775250673294067	-3.1655778884887695	-14.510652542114258	1.631140649318695	2.3000779151916504	0.8042164593935013	2.305533528327942	2.6741104125976562	-0.733569860458374	-1.4832487106323242	-0.09917104244232178	0.7653673738241196	2.815992832183838	0.5352533161640167	-1.505101203918457	0.9870195752009749	2.2446506023406982	0.68470498919487	3.759208917617798	1.0661334916949272	0.8808295577764511	3.150092124938965	0.9555385857820511	-3.1083521842956543	1.8074761033058167	4.691851615905762	1.0185462515801191	0.7047322392463684	0.04980951547622681	0.28965693712234497	0.3060990571975708	0.47319668531417847	2.8690693378448486	2.77032470703125	1.8753452897071838	1.3509955406188965	2.2092453241348267	2.434589982032776	1.6672717332839966	0.6851794421672821	1.4023685455322266	0.9533540420234203	0.04232978820800781	-3.183417320251465	-3.4897637367248535	-0.19567012786865234	-0.3188042640686035	2.1776576042175293	5.385983943939209	1.678158700466156	-0.4081763029098511	0.517237514257431	2.4585235118865967	1.681602418422699	-1.583190679550171	0.9073755070567131	0.5360835790634155	-0.01233530044555664	1.573239266872406	-3.620117664337158	-0.6584632396697998	3.384951114654541	0.07170206308364868	1.2616536319255829	2.75542950630188	-2.053281307220459	-0.0680152177810669	0.051156580448150635	0.252106249332428	4.199181795120239	0.056552767753601074	1.9920746684074402	0.21510130167007446	2.6296616792678833	3.299217462539673	2.3845794200897217	1.1077237576246262	0.7889065146446228	2.3868380784988403	-0.5465387105941772	-0.8540713787078857	0.2754039764404297	-1.4304533004760742	1.862885594367981	0.3628806471824646	0.3092663884162903	1.2239264398813248	0.10343992710113525	1.0343775674700737	-0.5540459156036377	0.2544630765914917	0.031361520290374756	0.2590242028236389	0.790534496307373	1.1783667206764221	0.2606505751609802	0.6466770172119141	2.3825957775115967	0.9275883510708809	-0.18325793743133545	-1.0493171215057373	0.8433721363544464	1.238861232995987	-0.270196795463562	2.2620972394943237	2.496368646621704	0.2094210386276245	-1.1461031436920166	2.175451874732971	0.10542118549346924	1.66234290599823	-1.6810531616210938	0.6347925364971161	0.7251727879047394	0.2451571226119995	0.612778514623642	1.3417544066905975	1.534447431564331	3.183619499206543	1.5563234686851501	1.4364387691020966	-1.2695338726043701	2.845914840698242	1.8960173726081848	4.14325737953186	3.7565691471099854	3.5106992721557617	0.9653594680130482	2.2833906412124634	2.0605579614639282	1.9449849724769592	0.5627995133399963	3.4496254920959473	1.3915710151195526	0.6005329489707947	3.6428487300872803	2.072805881500244	-0.581048846244812	2.046326518058777	-1.2567267417907715	0.9362132251262665	-0.0856635570526123	0.5426169037818909	2.672407031059265	0.03557717800140381	-0.029941320419311523	0.8041963577270508	3.1782619953155518	-0.4897129535675049	0.6183227300643921	0.4860653281211853	-0.1966874599456787	3.2551934719085693	2.2830125093460083	1.6992931962013245	0.7959945797920227	2.468588352203369	1.5006812810897827	-0.11333489418029785	0.4178582429885864	0.8401994407176971	1.3984333872795105	0.11870098114013672	-0.4381699562072754	3.191586494445801	-0.31743645668029785	0.3097248077392578	3.0561277866363525	1.372648686170578	-1.7654359340667725	2.507730484008789	-1.8318967819213867	0.6641680598258972	2.5403802394866943	5.850487232208252	2.219983696937561	0.2105494737625122	0.15962660312652588	1.4753923118114471	2.2157949209213257	2.4998326301574707	0.47516167163848877	2.918333649635315	2.012851595878601	0.26421135663986206	-2.550658702850342	0.6479247212409973	1.5146140456199646	1.3949730694293976	4.533514976501465	-0.43218469619750977	1.4219517409801483	1.9430506825447083	0.8092896342277527	0.2642679810523987	2.198249340057373	1.4129516780376434	-0.5429270267486572	0.34120678901672363	1.3619157671928406	2.143712878227234	-1.269223928451538	3.987830638885498	1.3370592296123505	1.83573716878891	0.9363686144351959	3.0533831119537354	0.7350811660289764	4.548496723175049	-0.9424364566802979	0.5183717906475067	1.3662994503974915	0.5749651789665222	3.052366018295288	-1.0855982303619385	0.5006270408630371	-1.1123545169830322	1.0167033150792122	3.7004878520965576	2.3655120134353638	-1.630140781402588	0.6097663640975952	2.1522544622421265	-0.5215346813201904	1.2317585200071335	1.9332656264305115	0.2466983199119568	-1.156451940536499	1.2194611877202988	5.128994464874268	0.4019120931625366	2.2694454193115234	0.9424226731061935	0.5763637721538544	0.8888720571994781	0.2742178440093994	0.685113400220871	1.5512868165969849	2.135193705558777	-0.5232306718826294	2.237336039543152	1.42001673579216	0.04797685146331787	1.1317156106233597	1.1212027221918106	-0.7737338542938232	1.9802880883216858	2.2467384338378906	-2.20039701461792	-3.6115317344665527	1.4161693155765533	0.8691600263118744	4.194734334945679	-0.5669064521789551	-2.1405088901519775	-0.8449928760528564	1.9106072783470154	2.03723406791687	1.374194324016571	0.9624091312289238	-0.7801111936569214	-2.144778251647949	1.406163364648819	0.9923375295475125	2.4527682065963745	0.8848185539245605	2.248307704925537	-1.2232928276062012	0.5772398412227631	0.825446680188179	0.5111364722251892	0.6704494059085846	1.6485291123390198	0.6909503936767578	-0.18718719482421875	-1.2946455478668213	0.2038038969039917	-12.47990894317627	1.8421526551246643	-0.3217810392379761	0.5252249836921692	3.141935110092163	0.788175955414772	1.6206341981887817	1.021894821897149	2.7349272966384888	0.6020793318748474	1.0578763745725155	-1.6096367835998535	-4.4103193283081055	3.082517147064209	0.580609142780304	0.17615896463394165	2.0407071113586426	1.3203241527080536	3.2590768337249756	1.1871253103017807	2.736429214477539	-0.41762423515319824	3.5309159755706787	-2.0972936153411865	-0.03896486759185791	0.8733967840671539	2.539861798286438	-1.8519468307495117	2.1391565799713135	0.5942093431949615	2.1547805070877075	0.5861835181713104	-0.7041922807693481	2.3331300020217896	0.8365456759929657	0.43830621242523193	0.004939675331115723	-0.8758057355880737	1.387456238269806	3.692800760269165	0.6627022325992584	0.7908448874950409	1.9716943502426147	0.694186270236969	1.524084210395813	0.4161299467086792	1.065247006714344	3.342576265335083	2.2885340452194214	-1.61924409866333	1.666187345981598	-0.044146180152893066	1.094455048441887	-0.9568116664886475	-0.1532449722290039	2.871165156364441	3.6504437923431396	0.8522417694330215	-0.21834266185760498	-0.2495046854019165	-0.7446160316467285	-0.7661610841751099	2.5152353048324585	2.5662115812301636	3.0819199085235596	1.0074183573015034	0.5989299118518829	0.38165509700775146	-0.42578041553497314	1.1978920847177505	1.40467569231987	-0.016827821731567383	1.3881383538246155	-2.6226656436920166	0.41749733686447144	-0.5342609882354736	0.8091823309659958	-0.40137648582458496	2.520103931427002	0.7156894505023956	-0.3496739864349365	0.5901692807674408	1.4517379105091095	0.7354061007499695	-0.35488808155059814	0.9841161742806435	1.2792668640613556	1.6509860157966614	1.1394411623477936	-3.723886489868164	0.6414685547351837	-0.2551541328430176	3.698946714401245	1.4785378277301788	2.5068371295928955	1.5613482594490051	1.6649900078773499	2.2629926204681396	1.9260083436965942	0.8014503568410873	1.5224133133888245	2.7800999879837036	1.621980905532837	1.9888243079185486	0.9480962306261063	1.7466278672218323	2.1900105476379395	2.0143474340438843	3.4784319400787354	3.0883066654205322	-0.3666146993637085	0.6344771385192871	-0.3042055368423462	3.9907736778259277	2.600346326828003	0.24219554662704468	0.42300933599472046	1.7462443709373474	1.4747439622879028	0.664748877286911	0.49912893772125244	1.9330896139144897	1.2249203026294708	1.3072363138198853	-0.24820077419281006	1.9462087154388428	4.136231422424316	1.4551749527454376	2.8735013008117676	0.6657659113407135	-0.31214964389801025	0.6451160609722137	1.3183728754520416	2.1162116527557373	2.9681676626205444	-0.6686251163482666	2.3631458282470703	-0.37049317359924316	0.015965759754180908	-2.710726737976074	-1.1762654781341553	0.22466468811035156	2.312051296234131	2.0892271995544434	2.439367175102234	0.3704872131347656	2.147896885871887	-0.35935163497924805	-0.1320652961730957	-0.0024695396423339844	4.596290588378906	2.8441907167434692	3.976459503173828	0.55962073802948	2.904470205307007	1.5290771126747131	0.6461950540542603	0.8040983527898788	2.564717411994934	-0.5363562107086182	-0.7137773036956787	1.9066577553749084	1.449030876159668	4.496419191360474	-2.1551899909973145	1.966181755065918	1.0768276005983353	1.534286618232727	0.653894305229187	2.07931125164032	1.6317614912986755	0.964555636048317	1.7230547666549683	-0.40203940868377686	-2.5114855766296387	-3.101083755493164	2.8242030143737793	-1.012639045715332	1.2722647190093994	4.040780544281006	0.9837995301932096	-0.10952675342559814	2.31269907951355	0.6588886678218842	4.695439338684082	-1.6818201541900635	0.9509317874908447	-0.1887500286102295	0.7684005349874496	2.609261631965637	3.398729085922241	2.7966010570526123	5.75654935836792	-0.4144895076751709	0.9628209881484509	2.084839940071106	-0.5694620609283447	1.7221917510032654	2.54243540763855	-0.44871246814727783	2.222996711730957	1.2691107392311096	0.8918210715055466	1.684452772140503	-0.7855565547943115	1.234759122133255	2.5392717123031616	-0.031646013259887695	2.3064188957214355	3.0963480472564697	0.2881714701652527	2.291837453842163	3.244889736175537	1.0729870051145554	2.015802264213562	-0.4899502992630005	-1.1243548393249512	0.8931241557002068	0.6933591663837433	0.9839240200817585	3.792095422744751	1.0081045990809798	1.5164422988891602	1.0301491115242243	4.001642942428589	1.0304021462798119	-0.2536698579788208	1.1805740892887115	2.2300124168395996	1.915979027748108	-0.501828670501709	2.8319432735443115	3.5805468559265137	1.5241281986236572	2.006598114967346	-1.609234094619751	1.0902394950389862	-0.3769795894622803	3.4186043739318848	2.668999195098877	1.0813864842057228	0.5361543893814087	0.20257943868637085	1.1658798903226852	-0.7397689819335938	2.6416293382644653	1.1861851513385773	0.00999462604522705	0.11158967018127441	1.8274360299110413	20.364398956298828	3.905778169631958	0.2526412606239319	2.9166259765625	2.270656108856201	0.5820326507091522	-0.17100787162780762	2.76282000541687	1.5084476470947266	2.9522976875305176	0.8470036834478378	-0.4085923433303833	3.2849488258361816	0.5312767326831818	0.07009625434875488	0.19466394186019897	0.9805581197142601	0.4487428069114685	1.1375970095396042	3.9407148361206055	3.4157938957214355	-1.9849216938018799	2.9808214902877808	1.9979285597801208	1.0987412482500076	2.4361318349838257	0.7720413953065872	-0.4652116298675537	1.3816221356391907	1.2922053039073944	2.8582440614700317	2.6983108520507812	1.3426589369773865	-2.134617328643799	1.426591843366623	1.5003386735916138	2.877737283706665	0.24594980478286743	0.34880518913269043	-0.7763867378234863	1.6633062362670898	3.2394938468933105	-0.08077347278594971	-0.8063123226165771	1.3704050779342651	0.8906056135892868	-2.58412766456604	1.6936930418014526	1.244774267077446	0.6067778468132019	0.2356863021850586	2.485488772392273	0.5930949747562408	-0.5669163465499878	3.478445529937744	-0.21287167072296143	1.1547013968229294	-2.0976831912994385	0.5930198132991791	1.150902658700943	-0.17451238632202148	1.7070585489273071	1.620907723903656	1.1983240246772766	-0.31871724128723145	2.7192704677581787	2.4393337965011597	2.833105206489563	2.0581334829330444	-1.6814470291137695	0.5218572616577148	1.4615266025066376	0.014413952827453613	4.160677909851074	1.9493961930274963	0.14262378215789795	1.160703107714653	2.9261170625686646	1.8231353759765625	1.5598329305648804	-1.8306105136871338	1.6262668371200562	-0.5509134531021118	0.16930168867111206	-1.6300075054168701	4.404474496841431	2.4007740020751953	0.01219630241394043	2.2967851161956787	0.4221563935279846	11.504532814025879	2.0771621465682983	1.7454487085342407	-0.9878672361373901	0.5735887885093689	-0.12330329418182373	0.6416725814342499	1.2866818606853485	0.37937676906585693	2.070785403251648	0.7943298071622849	2.9943926334381104	0.6624264419078827	2.1092203855514526	-1.1447629928588867	0.1995776891708374	0.13550758361816406	2.565107583999634	0.4462655782699585	0.9505900666117668	2.5238471031188965	1.1335960626602173	1.996584951877594	-0.036481380462646484	2.288963198661804	1.8274083733558655	-0.8933770656585693	-0.04735255241394043	1.9445270895957947	1.650182068347931	-0.02583622932434082	-0.2949860095977783	0.9394747652113438	1.146474376320839	3.5650787353515625	2.189342737197876	-0.8457118272781372	0.6738843619823456	3.469269037246704	2.2481510639190674	1.9357668161392212	0.5749081075191498	2.144214630126953	1.530696153640747	-0.9158625602722168	0.305286169052124	-0.3095569610595703	-0.26141488552093506	2.3108327388763428	2.305882215499878	0.1688169240951538	2.5510507822036743	1.7173951268196106	0.13174307346343994	1.0968175455927849	3.1244869232177734	0.9531506448984146	0.9831370208412409	0.929059773683548	-0.7003166675567627	3.1169052124023438	1.2420810908079147	0.8225394785404205	0.6044107973575592	-1.6602160930633545	2.0111762285232544	-0.47512829303741455	-0.20865368843078613	1.0503739938139915	1.7127530574798584	0.12476849555969238	0.9345314875245094	0.3587437868118286	2.3980672359466553	3.3364806175231934	-1.0366723537445068	0.15467113256454468	2.4516794681549072	2.814290404319763	0.060164451599121094	4.6051928997039795	-0.7915831804275513	0.9008714854717255	1.025537647306919	2.0211113691329956	1.909728765487671	-0.15194344520568848	-1.5346479415893555	4.430652856826782	3.2292208671569824	0.11982095241546631	-1.4064850807189941	0.4676968455314636	-0.4637794494628906	0.718361109495163	0.8030167669057846	2.32252037525177	0.32732242345809937	-0.6508965492248535	1.1410252004861832	0.9915506336838007	1.8501774072647095	0.7134809792041779	3.372359275817871	0.6338808238506317	-0.13493800163269043	-1.1847190856933594	1.985913336277008
