label	0	1	2	3	4	5	6	7	8	9	10	11	12	13	14	15	16	17	18	19	20	21	22	23	24	25	26	27	28	29	30	31	32	33	34	35	36	37	38	39	40	41	42	43	44	45	46	47	48	49	50	51	52	53	54	55	56	57	58	59	60	61	62	63	64	65	66	67	68	69	70	71	72	73	74	75	76	77	78	79	80	81	82	83	84	85	86	87	88	89	90	91	92	93	94	95	96	97	98	99	100	101	102	103	104	105	106	107	108	109	110	111	112	113	114	115	116	117	118	119	120	121	122	123	124	125	126	127	128	129	130	131	132	133	134	135	136	137	138	139	140	141	142	143	144	145	146	147	148	149	150	151	152	153	154	155	156	157	158	159	160	161	162	163	164	165	166	167	168	169	170	171	172	173	174	175	176	177	178	179	180	181	182	183	184	185	186	187	188	189	190	191	192	193	194	195	196	197	198	199	200	201	202	203	204	205	206	207	208	209	210	211	212	213	214	215	216	217	218	219	220	221	222	223	224	225	226	227	228	229	230	231	232	233	234	235	236	237	238	239	240	241	242	243	244	245	246	247	248	249	250	251	252	253	254	255	256	257	258	259	260	261	262	263	264	265	266	267	268	269	270	271	272	273	274	275	276	277	278	279	280	281	282	283	284	285	286	287	288	289	290	291	292	293	294	295	296	297	298	299	300	301	302	303	304	305	306	307	308	309	310	311	312	313	314	315	316	317	318	319	320	321	322	323	324	325	326	327	328	329	330	331	332	333	334	335	336	337	338	339	340	341	342	343	344	345	346	347	348	349	350	351	352	353	354	355	356	357	358	359	360	361	362	363	364	365	366	367	368	369	370	371	372	373	374	375	376	377	378	379	380	381	382	383	384	385	386	387	388	389	390	391	392	393	394	395	396	397	398	399	400	401	402	403	404	405	406	407	408	409	410	411	412	413	414	415	416	417	418	419	420	421	422	423	424	425	426	427	428	429	430	431	432	433	434	435	436	437	438	439	440	441	442	443	444	445	446	447	448	449	450	451	452	453	454	455	456	457	458	459	460	461	462	463	464	465	466	467	468	469	470	471	472	473	474	475	476	477	478	479	480	481	482	483	484	485	486	487	488	489	490	491	492	493	494	495	496	497	498	499	500	501	502	503	504	505	506	507	508	509	510	511	512	513	514	515	516	517	518	519	520	521	522	523	524	525	526	527	528	529	530	531	532	533	534	535	536	537	538	539	540	541	542	543	544	545	546	547	548	549	550	551	552	553	554	555	556	557	558	559	560	561	562	563	564	565	566	567	568	569	570	571	572	573	574	575	576	577	578	579	580	581	582	583	584	585	586	587	588	589	590	591	592	593	594	595	596	597	598	599	600	601	602	603	604	605	606	607	608	609	610	611	612	613	614	615	616	617	618	619	620	621	622	623	624	625	626	627	628	629	630	631	632	633	634	635	636	637	638	639	640	641	642	643	644	645	646	647	648	649	650	651	652	653	654	655	656	657	658	659	660	661	662	663	664	665	666	667	668	669	670	671	672	673	674	675	676	677	678	679	680	681	682	683	684	685	686	687	688	689	690	691	692	693	694	695	696	697	698	699	700	701	702	703	704	705	706	707	708	709	710	711	712	713	714	715	716	717	718	719	720	721	722	723	724	725	726	727	728	729	730	731	732	733	734	735	736	737	738	739	740	741	742	743	744	745	746	747	748	749	750	751	752	753	754	755	756	757	758	759	760	761	762	763	764	765	766	767	768
obbligare_1	2.1802600622177124	2.317266821861267	2.294827461242676	0.6200940012931824	1.4924388825893402	0.8299041539430618	1.409096509218216	-5.696812629699707	1.3537795841693878	1.8147001266479492	-1.2197766304016113	1.4394701719284058	2.5881532430648804	3.366262197494507	0.5684344172477722	3.3273110389709473	-0.15904474258422852	0.4345285892486572	0.8428620994091034	-0.11751687526702881	-0.21023547649383545	2.3646434545516968	2.141169309616089	-1.5089709758758545	1.5485055446624756	-0.4178333282470703	1.637607753276825	1.9684385061264038	1.9083922505378723	1.849764883518219	0.13597285747528076	-0.04160571098327637	3.0463380813598633	1.003624289529398	0.7628822177648544	3.375446081161499	0.5168137550354004	0.6922779381275177	1.0329061783850193	-0.07030785083770752	1.3992317914962769	0.16377770900726318	3.3194339275360107	0.6590970456600189	-1.1658625602722168	-16.90508270263672	0.7646475434303284	3.203022003173828	1.2710357904434204	2.017927885055542	0.1999337077140808	-1.8463120460510254	0.9025227054953575	1.3623733818531036	3.1759607791900635	-0.11870718002319336	1.362776756286621	-1.230710744857788	-0.4609687328338623	2.8912781476974487	1.5711700916290283	1.9134356379508972	2.3855175971984863	0.7929745316505432	1.1244301795959473	1.085595890879631	0.6715094149112701	2.7218997478485107	2.322289824485779	0.8078334927558899	1.2617975771427155	1.3873914182186127	2.801230311393738	1.081748127937317	1.3528200685977936	2.6529736518859863	1.166302040219307	0.9636675044894218	2.780135750770569	0.7258501350879669	3.892993927001953	0.5434822142124176	3.4714629650115967	-0.15300679206848145	2.3969117403030396	0.974916584789753	-0.9397331476211548	-0.5912315845489502	-0.5399494171142578	1.7390417456626892	2.221619725227356	3.6945199966430664	2.731657862663269	1.4072512686252594	4.300833702087402	-0.012176275253295898	-0.008060574531555176	-0.6989879608154297	0.3913835287094116	0.48790454864501953	0.5180937647819519	2.393460750579834	-2.1106748580932617	-1.1931252479553223	2.430673599243164	0.3918777108192444	0.5222855508327484	0.31607478857040405	0.9828740209341049	0.5044784545898438	-0.7339106798171997	0.9138516932725906	4.5552403926849365	-0.9807964563369751	-0.1290339231491089	-0.39068150520324707	1.034347228705883	1.2619599997997284	2.043035626411438	0.7036266028881073	-0.7925270795822144	1.275520235300064	0.405348002910614	0.6504382789134979	-0.009708881378173828	0.21787911653518677	2.6630433797836304	-0.6344946622848511	0.4829878807067871	2.831792950630188	1.3695516288280487	1.9585731625556946	0.5627284944057465	2.4287718534469604	0.11206358671188354	2.0651438236236572	0.9653658531606197	1.0326835736632347	2.0347225666046143	-0.5738860368728638	1.1204137802124023	1.0021812180057168	0.7176350355148315	1.1905195116996765	0.8893366530537605	0.816268265247345	1.7942161560058594	1.659555971622467	0.9622294753789902	0.13308024406433105	1.5376771092414856	2.6379376649856567	1.663865864276886	1.0329342372715473	0.979246012866497	0.7399765849113464	2.543551802635193	0.5605827271938324	2.5557690858840942	2.8726707696914673	1.4495903849601746	1.632357120513916	1.066580943763256	1.988530695438385	0.9759790170937777	-0.19076800346374512	0.9892150359228253	3.69936203956604	4.261051654815674	0.3436504006385803	-0.9247081279754639	0.9703923389315605	2.9679224491119385	0.9316750168800354	2.427712321281433	1.5344997644424438	0.4813995957374573	3.0796022415161133	1.746358036994934	2.055912494659424	-0.6016783714294434	0.24315965175628662	2.0848227739334106	1.5427805185317993	-0.9181195497512817	1.3339749872684479	0.12029671669006348	1.6021150350570679	1.069418877363205	2.2155754566192627	2.3125362396240234	0.5371038615703583	0.1751076579093933	2.995156168937683	0.7693177610635757	1.2903563976287842	2.2760844230651855	0.5899900496006012	1.0397119149565697	4.172511339187622	1.5403451919555664	-0.34529900550842285	1.5527867078781128	1.2776864171028137	1.7468939423561096	1.3143169581890106	-0.27067482471466064	1.2852646112442017	1.1096616759896278	-2.4298219680786133	1.2905526757240295	3.3714284896850586	0.026826798915863037	-1.5281257629394531	1.7319471836090088	0.7901987433433533	0.2667641043663025	3.2745094299316406	1.8787120580673218	-0.07207632064819336	-0.9959880113601685	2.6129618883132935	0.30914562940597534	-0.7490742206573486	0.5252812504768372	3.0162878036499023	0.8429683148860931	0.871168315410614	0.4903191328048706	1.6183221340179443	2.732721209526062	1.022269481793046	1.6090089082717896	2.091050148010254	2.1920053958892822	1.0396806597709656	-0.643189549446106	2.07836377620697	1.6549777388572693	-1.659703016281128	0.23176133632659912	1.5019684433937073	-2.3868932723999023	1.608401894569397	0.4615509510040283	0.6732838153839111	1.8375293016433716	0.882336713373661	0.5569647550582886	4.6535325050354	1.7349889278411865	1.4334693253040314	0.28000032901763916	-0.6960794925689697	-1.222876787185669	0.8273477703332901	1.7145209312438965	-0.6123669147491455	0.5950174927711487	-1.283151388168335	-0.4966092109680176	0.8113508820533752	-0.031145572662353516	-0.6477886438369751	1.1632971614599228	2.6478638648986816	0.04322612285614014	-0.6181415319442749	0.203832745552063	0.861241489648819	0.2881799340248108	1.027993967756629	-0.3749769926071167	2.9614182710647583	2.5197426080703735	2.189827799797058	-0.3459360599517822	3.1339800357818604	0.97943832911551	0.2136702537536621	1.1773694306612015	-0.28461968898773193	0.38015371561050415	2.6081807613372803	1.708434820175171	1.5450456142425537	0.1589449644088745	1.3396839499473572	1.8515913486480713	2.0248944759368896	0.3960360288619995	-1.8394718170166016	-0.9401612281799316	1.4304037690162659	0.2554823160171509	-0.5921895503997803	0.8161835670471191	-1.5143554210662842	-0.8503273725509644	-0.1294844150543213	2.233420252799988	1.0060234027914703	0.8105383068323135	-0.0673985481262207	1.2163565903902054	1.8726626634597778	0.8985452651977539	0.1269661784172058	1.292798012495041	-0.528846025466919	-0.07802152633666992	0.31894224882125854	0.33773505687713623	-2.2979249954223633	1.1778456717729568	2.0684773921966553	2.2797322273254395	3.4592995643615723	-1.082176923751831	-0.4620763063430786	-11.950340270996094	3.33687424659729	0.9031657725572586	-0.10976839065551758	4.170476198196411	1.3033829927444458	1.286146104335785	2.402999758720398	1.3533781170845032	-0.6528962850570679	3.0354866981506348	0.49145448207855225	-3.3798317909240723	1.3889159262180328	0.9285341873764992	2.952804207801819	1.6970704793930054	-0.40667200088500977	1.305021584033966	0.4210805892944336	1.0900054350495338	1.9951454997062683	2.745301127433777	1.9574289321899414	-0.9226968288421631	1.2679542303085327	-0.2859988212585449	-0.36465537548065186	0.6116122007369995	0.6575968563556671	-0.9332689046859741	-1.0118763446807861	0.9240391626954079	3.6060616970062256	0.4981594681739807	1.301139920949936	0.16837787628173828	0.8714690953493118	-0.6559426784515381	-0.48995649814605713	0.7113493084907532	2.4886168241500854	2.1460739374160767	0.915969230234623	1.917084276676178	0.5395412743091583	-0.2834041118621826	1.9291625022888184	0.9476522468030453	0.4705302119255066	2.214572787284851	0.33069080114364624	-0.5000064373016357	1.0973589941859245	-1.4147675037384033	-0.21407580375671387	2.3390926122665405	1.4911019504070282	0.2927857041358948	0.6344937980175018	0.7056344151496887	0.9585026800632477	0.8414912521839142	2.0112268924713135	1.992982029914856	-0.32087862491607666	-0.4384406805038452	0.12056076526641846	-0.2731388807296753	-0.7560919523239136	1.56085604429245	3.844370126724243	1.1935396790504456	-1.4339263439178467	1.1873413175344467	2.4247204065322876	1.0114412317052484	3.524359941482544	3.1661503314971924	-2.4498391151428223	-0.09409201145172119	0.8336068093776703	0.07844161987304688	-0.1452559232711792	-0.5908783674240112	-1.470121145248413	-0.6465705633163452	1.0542796701192856	0.5866662263870239	0.4228401780128479	1.7703563570976257	1.9662693738937378	1.4865714311599731	0.05410361289978027	1.854443371295929	0.5746876895427704	2.51583468914032	1.0905436128377914	1.0440100505948067	2.6357980966567993	-1.4496252536773682	2.9755779504776	0.8882236257195473	0.4699987769126892	-0.39652955532073975	0.8120056390762329	3.0619328022003174	1.931074619293213	0.6067777574062347	1.1583502292633057	1.4538846909999847	1.8912241458892822	0.4411123991012573	3.106541872024536	0.5391130745410919	-0.30405497550964355	0.5221268534660339	2.477408528327942	1.8259459137916565	-0.5281814336776733	0.8983413800597191	1.5733250379562378	1.2167590111494064	1.8928015232086182	-0.4421640634536743	-1.130847454071045	3.6627678871154785	0.9919802751392126	1.357999324798584	4.276877403259277	0.47740936279296875	0.9560987502336502	0.7507712543010712	4.164326190948486	1.4167077243328094	0.6221966445446014	0.675324410200119	-0.8949941396713257	0.6690486967563629	0.6868211030960083	-1.3199820518493652	1.8715139031410217	0.904564306139946	1.7679160237312317	2.7849494218826294	1.0266475807875395	2.2520911693573	0.3630184531211853	1.2736099064350128	1.0152922729030252	1.0910266786813736	0.5287756025791168	1.0698851570487022	0.3839847445487976	1.163646623492241	1.1760773211717606	-1.279134750366211	0.9310576990246773	-1.3004369735717773	2.2683080434799194	1.7555637955665588	2.0070135593414307	0.5902755260467529	2.3314335346221924	-1.4789514541625977	1.595701813697815	1.682766318321228	0.3630872368812561	0.6562531292438507	1.168838769197464	2.15771746635437	0.5669583976268768	1.1314128786325455	-0.23081159591674805	-1.9800794124603271	0.695512443780899	0.7152411341667175	1.2508536577224731	0.3899468183517456	1.9695268869400024	0.9420501813292503	1.920905351638794	1.7091547846794128	-0.9409658908843994	0.6604352295398712	1.4090321958065033	0.6849384605884552	0.3072536587715149	1.3383046984672546	2.0593643188476562	3.6084728240966797	-0.4578651189804077	1.1141625121235847	1.2861175835132599	0.8007493764162064	0.2708079218864441	1.0501669719815254	1.4841493666172028	-0.9208959341049194	-1.9412038326263428	2.247599720954895	0.35801243782043457	-0.4423961639404297	0.44162172079086304	0.13525301218032837	3.2337615489959717	1.4214990735054016	1.4813398718833923	1.150634989142418	2.2093989849090576	-0.3167595863342285	1.0872951000928879	1.7385473251342773	-0.48158061504364014	1.499750018119812	0.6136509776115417	-0.6147156953811646	0.2702360153198242	0.9767004605382681	0.790583923459053	2.6612242460250854	2.149006724357605	1.0478225648403168	2.6652239561080933	1.9523800015449524	1.9218924641609192	0.6445134580135345	-1.0939059257507324	2.057468295097351	0.8076022416353226	3.403428792953491	2.0794589519500732	-0.0183790922164917	0.3300977945327759	1.1128354147076607	0.9139871597290039	1.250097632408142	0.9884420381858945	2.6057963371276855	0.8255781531333923	1.8711758852005005	1.024128932505846	0.46983617544174194	2.9751960039138794	-0.712415337562561	-0.37555992603302	-1.2132058143615723	2.501732587814331	-0.37684667110443115	0.8345349580049515	22.34454345703125	-0.935918927192688	2.111953854560852	-0.20981907844543457	0.6825072765350342	1.0558322854340076	1.674623429775238	1.3921138942241669	1.0504739619791508	2.838026762008667	2.0810136795043945	1.3588889837265015	1.963221788406372	1.3058253526687622	0.818009153008461	0.1386317014694214	1.639991819858551	-0.46501386165618896	2.5994691848754883	4.470822334289551	0.1094745397567749	-0.6783157587051392	1.734505295753479	1.6316704750061035	2.1728906631469727	1.1728912442922592	-0.04838097095489502	1.859250247478485	2.3125301599502563	1.167250320315361	1.9597153663635254	2.3413233757019043	2.471801280975342	1.3288645446300507	-1.3208184242248535	-0.6827353239059448	2.170528531074524	-1.8368041515350342	0.19343262910842896	1.1641167253255844	0.8043301552534103	2.145917773246765	1.3199917674064636	1.0083066020160913	1.5639511346817017	1.0692785531282425	-2.299403429031372	1.004861066583544	1.1795614659786224	0.04419654607772827	0.8641705363988876	1.2743392288684845	1.1103103533387184	1.0942498371005058	3.1593894958496094	1.1954710334539413	1.018947197124362	1.4147161841392517	0.9990746254334226	2.1038143634796143	-1.0138673782348633	2.355946660041809	3.7770700454711914	2.919291615486145	0.3137303590774536	3.1122944355010986	1.1426699310541153	0.6383823454380035	1.3492584526538849	-2.041836738586426	0.6313488185405731	0.8195421397686005	1.4820399582386017	1.2982149720191956	0.2153976559638977	1.5701518654823303	0.1667313575744629	1.3522657454013824	1.708433747291565	2.7556629180908203	1.481273204088211	1.1388838291168213	0.1802908182144165	1.0706069245934486	0.5598221719264984	-1.5828578472137451	1.4247706532478333	0.31430304050445557	1.7309077978134155	2.699634313583374	10.848645210266113	-1.6837589740753174	2.3614643812179565	0.6802657842636108	2.2868950366973877	2.514983296394348	-0.45019853115081787	3.7829172611236572	0.8312956541776657	1.340171366930008	2.5038048028945923	0.9283593371510506	1.2975727915763855	0.01370316743850708	0.9047253653407097	2.662745475769043	2.0810376405715942	2.994089126586914	3.1242456436157227	-1.0651278495788574	3.3612582683563232	-0.49040043354034424	2.072499990463257	0.8944740518927574	3.2084531784057617	0.9162865802645683	0.41671866178512573	-0.08947908878326416	1.967585802078247	2.68481981754303	1.7183626890182495	2.3226168155670166	0.9693786427378654	-1.0633325576782227	2.4674134254455566	2.5092148780822754	-1.229553461074829	2.8736687898635864	1.0024033314548433	0.858476534485817	2.7430946826934814	-2.14890193939209	-0.8924462795257568	2.2530570030212402	2.772327184677124	1.337782770395279	2.060673475265503	-1.8327724933624268	0.9720251429826021	3.397441864013672	1.2382318377494812	2.506784439086914	0.6268819272518158	2.9526853561401367	0.5744569003582001	2.070400834083557	1.6974731087684631	0.5291529297828674	2.5046716928482056	1.2873069941997528	1.2789995074272156	0.20142579078674316	2.3067407608032227	1.2509517669677734	1.2283269315958023	1.2274645268917084	-0.4059598445892334	-0.09981191158294678	-0.031258463859558105	0.4588491916656494	2.0742409229278564	0.4765468239784241	-0.1311335563659668	1.9738898873329163	1.2370724976062775	0.3267861008644104	1.4255931377410889	1.700566291809082	3.176189422607422	1.0568994544446468	0.6309641301631927	0.44685953855514526	0.9818111583590508	0.36947429180145264	2.7978355884552	1.1332633644342422	1.2873494625091553	1.0957403182983398	2.092692732810974	0.13762134313583374	-0.6349488496780396	1.5055712461471558	-0.3054548501968384	1.578814446926117	0.6091721653938293	1.0684573948383331	1.820837676525116	1.921323001384735	0.6876671314239502	1.9474125504493713	1.34651318192482	1.4568432569503784	1.1944421231746674	3.1899194717407227	1.4723765850067139	1.3222835659980774	1.8688334822654724	1.8329536318778992
occorrere_1	1.534348487854004	1.8841453194618225	1.925114929676056	0.055274009704589844	1.2558962404727936	1.5867979526519775	1.219690129160881	-3.3168740272521973	-0.19845116138458252	1.933432936668396	-0.33574748039245605	1.6903967261314392	1.8370125889778137	0.6664500832557678	1.811134696006775	2.2997653484344482	3.0294716358184814	1.4612841308116913	2.4028096199035645	2.592231035232544	-0.04049193859100342	0.8454529196023941	1.2556421160697937	-0.3841593265533447	0.9333535209298134	0.10555475950241089	0.36726850271224976	1.7748869061470032	1.9383061528205872	2.4666459560394287	-0.6431081295013428	1.048193920403719	0.7833680510520935	2.7589584589004517	1.2499479055404663	2.03067409992218	0.4378504157066345	0.9449244141578674	-0.4938216209411621	0.5712925493717194	0.9856293080374599	-0.033911943435668945	2.4835944175720215	1.6165204644203186	0.07615137100219727	-16.09403419494629	0.5769234597682953	2.292617440223694	0.6702832579612732	2.0055137872695923	1.0840434953570366	0.8667486160993576	-0.7209715843200684	-0.4669044017791748	2.907254219055176	1.8355129957199097	1.0308376178145409	0.821664109826088	0.9279876872897148	3.1131327152252197	1.9652881026268005	1.615777313709259	1.7164285778999329	-0.4338369369506836	0.41721242666244507	2.2554969787597656	-1.4105749130249023	1.3694501519203186	2.19317090511322	-0.23448646068572998	2.1971338987350464	-0.476593017578125	1.6715670228004456	1.1802852898836136	1.8367410898208618	1.5855607986450195	0.7935976386070251	1.0301510654389858	1.3448556661605835	1.3664210140705109	2.2349942922592163	0.342517614364624	3.0097854137420654	0.3870031237602234	1.5091276168823242	1.2365444898605347	-0.0727006196975708	0.7880859822034836	-0.08358120918273926	-0.09603822231292725	1.1111158058047295	0.7101909220218658	-0.38282501697540283	1.4568096995353699	3.540113687515259	0.5169775784015656	-0.43218350410461426	-1.0652647018432617	1.2125936597585678	2.2463154792785645	1.5305580496788025	3.0736701488494873	-0.04156911373138428	-1.1493780612945557	2.7289501428604126	0.6666121184825897	1.8104750514030457	2.003877282142639	1.7232056260108948	-0.011220455169677734	0.46045517921447754	0.5520786643028259	2.8096450567245483	2.4791762828826904	-2.547834634780884	0.25228583812713623	-0.02149200439453125	-2.6298162937164307	0.5449972450733185	1.3307506740093231	-1.2812023162841797	1.968561828136444	1.5128865242004395	0.8048346489667892	1.7166983485221863	-0.21000659465789795	2.280638098716736	0.6094218194484711	0.33403176069259644	1.4251156747341156	-1.3914048671722412	1.3594394624233246	1.3204950392246246	2.0275226831436157	2.8054797649383545	1.0420793518424034	0.08993339538574219	2.425671696662903	0.4130791425704956	0.1656286120414734	0.6700200140476227	1.8688327074050903	-0.8239058256149292	0.1668298840522766	1.0687304958701134	-0.13082540035247803	2.3872629404067993	1.6019853949546814	1.3879811763763428	1.5963872075080872	2.1506701707839966	0.19402861595153809	0.32520270347595215	2.083077907562256	0.41077566146850586	0.3348280191421509	0.7916250228881836	1.8952009081840515	0.534191906452179	4.078448057174683	-0.21844482421875	-0.5822964906692505	-1.6654717922210693	2.814389705657959	1.488504320383072	2.3639873266220093	1.1603163927793503	2.9858990907669067	2.662189483642578	1.2568691968917847	0.3377256989479065	2.747941017150879	0.7434785664081573	-0.38676130771636963	0.9769072774797678	1.5989779829978943	-1.243567943572998	-0.35683226585388184	1.8697363138198853	0.05733215808868408	-1.3589012622833252	1.274355560541153	1.1764924824237823	2.990881323814392	1.2001756727695465	1.342353343963623	3.068345546722412	0.659752368927002	1.068422220647335	2.8153698444366455	0.7479378283023834	1.3525533974170685	-0.47487378120422363	0.5648806691169739	0.2512955069541931	0.4475082755088806	0.6419990360736847	0.511879563331604	1.2119613289833069	2.379884719848633	0.24965202808380127	0.38346028327941895	2.6982781887054443	-0.09435844421386719	0.7785131484270096	-0.09850680828094482	-0.974785566329956	2.801735997200012	0.9304834827780724	1.158913031220436	1.5255546569824219	0.024378716945648193	0.039315760135650635	-2.4342422485351562	3.169590950012207	0.7143076062202454	1.7519055604934692	1.2472261637449265	3.2775230407714844	1.3214124143123627	1.5422402024269104	1.3936426043510437	1.2177926003932953	-0.23373830318450928	-0.23908352851867676	0.6466705203056335	-0.35912859439849854	0.8409924209117889	0.49512648582458496	4.071193695068359	2.8723034858703613	0.41264808177948	2.048108220100403	2.5695120096206665	1.4192880690097809	0.06035500764846802	0.5173532068729401	0.7189406752586365	0.6838936805725098	-0.14580202102661133	0.32035887241363525	0.2606211304664612	-1.044572353363037	0.5444497168064117	0.3377341032028198	0.3003935217857361	1.443901777267456	2.0064241886138916	-0.45693767070770264	5.325736045837402	0.020842909812927246	0.6524385511875153	1.028120569884777	1.0884929075837135	-0.46077680587768555	0.9555937834084034	-1.8255078792572021	0.7279216647148132	1.3968137204647064	-1.9306294918060303	2.21341872215271	2.508491635322571	1.8268293142318726	0.1304660439491272	-0.08375275135040283	0.19408875703811646	-0.5018414258956909	-2.1047534942626953	0.16728687286376953	2.08139967918396	0.03809309005737305	1.1901838332414627	-0.4915250539779663	3.1270740032196045	1.3051069378852844	2.6985154151916504	0.02751898765563965	3.6262869834899902	0.6067646741867065	1.8217468857765198	1.986756980419159	0.14323002099990845	-0.005139589309692383	3.0533268451690674	0.8981964290142059	1.4490075409412384	0.10523116588592529	2.050042986869812	3.035508155822754	1.8993948698043823	2.0886943340301514	-2.468919277191162	0.008504390716552734	-0.9475170373916626	0.5215684473514557	0.9354542419314384	0.29067760705947876	-0.6260942220687866	0.6411598026752472	0.46850132942199707	-0.08129644393920898	1.62542325258255	0.6673819720745087	-0.2118915319442749	1.9038878679275513	1.1715309470891953	0.2898377776145935	2.239100694656372	1.5193160772323608	2.1718417406082153	0.05890005826950073	1.2960756421089172	0.7618022710084915	-0.30470168590545654	2.005308151245117	3.026397943496704	1.7595279812812805	1.388258010149002	-0.703292727470398	0.06475615501403809	-11.6072416305542	1.3816656470298767	1.3192583322525024	0.7887023240327835	5.348911762237549	1.4590693712234497	0.0473971962928772	2.6375337839126587	1.568925678730011	0.24154365062713623	2.252968907356262	-1.1474692821502686	-2.428626775741577	1.8651912212371826	-0.5119647979736328	1.534415066242218	2.073399305343628	2.1457372903823853	-0.499240517616272	2.147036552429199	-0.42517411708831787	3.2708306312561035	2.2302149534225464	0.272363543510437	-1.0505962371826172	1.1880328804254532	2.34306538105011	-0.38227379322052	0.7928264290094376	0.1701805591583252	-1.563403844833374	-0.6029002666473389	0.9360600411891937	3.547726631164551	0.5645909309387207	0.9794623125344515	1.9232575297355652	1.6360812783241272	-0.1377500295639038	2.0906639099121094	0.8022306263446808	-0.6276566982269287	1.4026272594928741	1.49931201338768	1.51920086145401	0.8007868528366089	0.007189452648162842	2.357825756072998	1.0941168814897537	0.3586044907569885	1.4072151482105255	1.3531535267829895	1.244811236858368	0.0022678375244140625	1.4681217670440674	1.1679333001375198	2.1169127225875854	1.1950380504131317	1.1216041520237923	0.7679930478334427	0.6655299365520477	0.6287676692008972	2.5724915266036987	2.829956889152527	0.730166882276535	-0.11181354522705078	-0.3031129837036133	0.6965808868408203	0.7512190937995911	0.4199007749557495	1.8371112942695618	2.2228786945343018	2.3915326595306396	-0.005161166191101074	2.2901148796081543	1.2310523837804794	2.050240397453308	2.5397119522094727	2.987865686416626	1.1501649171113968	0.4970073103904724	0.3093332052230835	1.1213252246379852	1.612246811389923	2.248016119003296	-0.8581501245498657	1.2236482203006744	-0.21532034873962402	2.257236957550049	2.129232168197632	1.199678897857666	1.3721878826618195	0.8314141780138016	1.5242881178855896	2.844734311103821	1.7053795456886292	0.8736713826656342	0.5942282378673553	2.06021249294281	0.7168170511722565	0.66357421875	2.3180365562438965	0.9258169308304787	2.4807486534118652	-0.21612179279327393	2.5921400785446167	2.213100552558899	0.6366373896598816	0.4851014018058777	0.1666630506515503	1.585473656654358	1.4293147325515747	1.0892593711614609	5.440911769866943	0.6320122480392456	0.8037058115005493	0.4497535228729248	-0.07383406162261963	1.740971863269806	0.5626098215579987	1.3883837163448334	-0.8861712217330933	1.631464660167694	2.9490468502044678	0.04842716455459595	-0.5708104372024536	2.320257067680359	2.0962458848953247	2.751223564147949	1.8193294405937195	-0.20512425899505615	1.5403610467910767	1.1449201107025146	2.117447018623352	0.1799817681312561	1.6971386671066284	1.6417201161384583	-0.9997071027755737	-0.23151254653930664	1.6633803248405457	1.151184931397438	0.47112637758255005	0.5407244861125946	0.42521631717681885	-0.15604186058044434	1.535715103149414	0.6451076865196228	-1.1883888244628906	3.3102004528045654	0.18657058477401733	0.04939180612564087	-1.428466796875	2.6757750511169434	-0.08093726634979248	-0.13309013843536377	3.9995830059051514	-0.7910932302474976	0.7230407893657684	1.9950459599494934	-0.0023871660232543945	0.9494515247642994	1.13319693505764	1.2819865047931671	1.1923089921474457	-1.9112448692321777	0.11791431903839111	2.3371479511260986	1.6236286163330078	-1.9620521068572998	1.1119986325502396	-0.5050008296966553	2.831397294998169	2.538443446159363	-0.874193549156189	-3.1410775184631348	1.0741349160671234	2.276589870452881	0.1770147681236267	2.2022324800491333	1.980234682559967	1.734985888004303	-0.6063076257705688	1.6451836228370667	1.6234309077262878	1.001931779552251	1.2140618562698364	1.876935064792633	-0.14876258373260498	1.5698222517967224	0.3449745774269104	0.9908348992466927	-1.223677635192871	1.9083783626556396	0.9162270873785019	2.5396777391433716	1.9604479670524597	-0.04160630702972412	2.8368725776672363	-0.34043824672698975	-0.20527899265289307	1.635524034500122	1.7294411063194275	1.7193371057510376	-0.18357527256011963	0.5597650408744812	4.052334547042847	-0.63402259349823	0.8703595995903015	3.167599678039551	1.7276262640953064	0.5462597906589508	1.271396815776825	1.4884215891361237	0.7510665059089661	1.6264591813087463	-0.8380575180053711	-1.1892375946044922	1.063249483704567	1.2125119715929031	0.06592118740081787	2.1414170265197754	3.5613837242126465	0.8345868736505508	1.1039118319749832	1.940952479839325	1.9222943186759949	0.7575724124908447	-1.4409008026123047	1.73662269115448	0.055491089820861816	1.158002644777298	1.4810127019882202	3.2369253635406494	0.5234260261058807	0.4569051265716553	0.7305184006690979	0.8040352910757065	-0.2684711217880249	1.2998879253864288	2.313826322555542	2.4796526432037354	0.46725207567214966	-0.11374068260192871	0.6591367721557617	-1.104217767715454	2.0234590768814087	0.7517717778682709	1.4017775058746338	-0.24087011814117432	-1.1369361877441406	23.632308959960938	0.3230694532394409	2.0967081785202026	0.6559571027755737	1.5959848761558533	2.629092216491699	1.4618775248527527	2.5396634340286255	0.4794743061065674	1.95914226770401	-0.2070547342300415	0.9727549031376839	4.7223944664001465	1.1531696021556854	2.955498218536377	2.939352035522461	-0.7969986200332642	0.4679422378540039	1.8139030933380127	2.291905164718628	-0.05468881130218506	1.0128698172047734	2.566995859146118	0.5858233273029327	4.2797815799713135	1.0379767641425133	1.6043795943260193	0.5656803548336029	1.501504898071289	-0.01295161247253418	2.6410950422286987	0.8486010134220123	1.3309117555618286	2.6550941467285156	-1.8329150676727295	1.95114266872406	2.389083981513977	-0.673546314239502	0.9288690909743309	-0.8905453681945801	-2.16377592086792	1.3074254095554352	0.40654557943344116	1.1211428046226501	3.702751874923706	-0.018738269805908203	-1.8526887893676758	1.714769959449768	0.5609579384326935	1.3053026497364044	0.2330455780029297	0.8486108928918839	1.276408851146698	0.35478901863098145	2.158042788505554	2.6974109411239624	0.3059154748916626	2.4639972448349	-0.77423095703125	1.4819676876068115	0.5973552763462067	0.9329270422458649	1.207154095172882	1.3394549489021301	0.7578830122947693	2.468228578567505	1.5209280252456665	1.6383702754974365	1.047411747276783	-1.440089464187622	1.7565921545028687	0.9019064456224442	1.0961355715990067	2.175885558128357	1.3213178217411041	2.7141987085342407	2.06587016582489	0.6719247400760651	1.3546484410762787	3.3044588565826416	1.8175302147865295	0.30052661895751953	-0.521947979927063	1.2630487084388733	1.2819253504276276	1.2504195868968964	3.460514783859253	0.9255062639713287	0.8926957175135612	0.7412506341934204	10.398933410644531	-1.1651415824890137	-0.8514155149459839	1.5299484729766846	2.4902833700180054	2.343984842300415	1.0676502138376236	2.3514238595962524	1.7596806287765503	1.5986669659614563	2.386177897453308	1.6549321413040161	0.5865456163883209	-0.9451366662979126	1.9094849824905396	2.6028335094451904	-2.0261008739471436	2.1645621061325073	3.1114656925201416	-1.6111071109771729	0.2685987949371338	0.10533332824707031	3.9109230041503906	1.1158310696482658	-0.8568549156188965	-0.980806827545166	-0.4958540201187134	-0.3459453582763672	2.643746495246887	0.768316239118576	-0.6194740533828735	0.39858323335647583	0.7151325941085815	0.43961000442504883	1.507178544998169	1.845588505268097	-1.362062931060791	0.6162653863430023	2.7299742698669434	1.6710565090179443	3.956331491470337	0.48585665225982666	-0.3397407531738281	0.6306015849113464	0.9136306345462799	1.2313501834869385	-1.1465065479278564	1.7340864539146423	1.2928627729415894	3.067737102508545	1.5585002899169922	1.7504938840866089	0.8356584459543228	1.8501123189926147	0.8853201642632484	1.974880039691925	0.9817722775042057	1.5066611766815186	0.21650350093841553	1.1872925460338593	1.472880780696869	0.7059589922428131	2.4048290252685547	1.4938271045684814	1.9301972389221191	1.6150963306427002	1.7575047612190247	0.9946054285392165	0.7326778173446655	0.5136566460132599	1.1243656799197197	0.9526891261339188	-0.5593148469924927	1.2270560413599014	2.4948112964630127	-2.059119701385498	-0.2670133113861084	0.08031278848648071	2.1602323055267334	1.6052573919296265	1.883285105228424	0.015578210353851318	1.303282618522644	1.154112696647644	3.080437183380127	1.6390354633331299	1.3949077725410461	1.465734601020813	2.2453272342681885	1.8341199159622192	-0.8069431781768799	1.8445374369621277	0.6581139862537384	1.431858479976654	0.13243639469146729	1.4530478417873383	1.149708405137062	0.7774744480848312	0.7920734584331512	2.263477325439453	1.1112032532691956	1.7666871547698975	0.36427760124206543	1.9301376938819885	1.1958965212106705	1.3750108778476715	2.3988040685653687	0.5859017968177795
occupare_5	-1.18772554397583	1.5128437876701355	1.0916918441653252	0.3157268762588501	1.8864989280700684	1.2755195498466492	1.1014092937111855	-5.230264663696289	0.6919910609722137	2.245677947998047	0.8638155609369278	-0.3172147274017334	2.6695362329483032	1.9251325130462646	0.7113295197486877	3.8031532764434814	1.962433934211731	1.1781103760004044	1.8954062461853027	1.5254942774772644	1.6488825678825378	1.9354303479194641	2.1169486045837402	0.5046184360980988	0.25865262746810913	0.5791420042514801	2.362707257270813	1.0732223615050316	1.2851331233978271	2.2067915201187134	0.8136836588382721	-0.5604411363601685	2.1801964044570923	0.9604941681027412	1.797376811504364	2.030269503593445	0.7750998735427856	1.1728962510824203	2.6395362615585327	0.6944657862186432	1.4736762046813965	0.8985683545470238	2.802703857421875	2.384274482727051	-1.1081790924072266	-18.386823654174805	1.9013699293136597	1.7621729969978333	0.8835682645440102	0.4247744083404541	2.6051687002182007	-0.3059753179550171	0.054071903228759766	-0.41984736919403076	4.249417781829834	2.588034987449646	1.6758894324302673	1.434766173362732	0.6559170782566071	3.736072301864624	2.9016014337539673	0.6789963245391846	0.37573206424713135	1.165971890091896	1.6438401937484741	0.7568233013153076	-0.7285515069961548	2.3919641971588135	0.6993997991085052	0.26089638471603394	1.0540931969881058	-0.5677976608276367	0.4820910692214966	1.022397045046091	1.8060040473937988	2.2541260719299316	2.1699531078338623	1.1622235625982285	2.0192084312438965	1.5440621972084045	3.9812493324279785	1.46729177236557	3.2942707538604736	0.9105708226561546	1.9422286748886108	0.1569647192955017	-0.9638620615005493	-1.1213362216949463	2.896583318710327	1.2243741750717163	0.06459420919418335	2.347553014755249	3.260059118270874	0.7374747395515442	2.606045722961426	1.2895881533622742	1.387860894203186	1.1330942660570145	0.6242795288562775	2.2901971340179443	-1.0434787273406982	-0.29108667373657227	-0.2868325710296631	0.19143646955490112	2.853311538696289	1.0566661842167377	0.4873213768005371	0.34719139337539673	-0.9116102457046509	-0.22893738746643066	-0.7808789014816284	0.7654919773340225	1.9811344742774963	-1.390195369720459	0.13125306367874146	-0.5102713108062744	-0.04585123062133789	0.4829210042953491	1.5639283061027527	1.7436751127243042	-1.9974231719970703	2.04895281791687	0.36022067070007324	0.47799742221832275	-0.4376862049102783	-0.21192717552185059	2.080595016479492	0.9539022482931614	1.0621661320328712	3.0395405292510986	2.586666703224182	2.0697739124298096	0.3081037998199463	3.257539987564087	0.9098366424441338	2.675222635269165	-0.3193514347076416	0.21789515018463135	-0.06977009773254395	-0.14512085914611816	0.3624665141105652	2.315966844558716	1.6193661093711853	-0.054673075675964355	0.5222548842430115	1.7349335551261902	-0.39612364768981934	1.2812303304672241	1.4989861249923706	1.1011708453297615	1.1383665055036545	3.702258348464966	2.1744266748428345	0.5777477025985718	-1.5970263481140137	1.3597331941127777	0.9449612908065319	-0.10835707187652588	1.3689320087432861	2.9271503686904907	0.04325258731842041	2.4808907508850098	2.4969455003738403	1.2199807465076447	-1.9161999225616455	3.171858072280884	1.1103153675794601	2.904963493347168	1.1408341377973557	1.125095933675766	0.09119820594787598	2.8867125511169434	1.5498927235603333	0.5107346773147583	0.6550455987453461	1.5690991878509521	0.5738085806369781	0.7797612100839615	0.3912529945373535	-0.41100168228149414	2.0679140090942383	1.1139193326234818	0.3086009621620178	2.1618865728378296	-0.36476266384124756	1.8298722505569458	1.657247006893158	0.8665652573108673	0.16363930702209473	3.2306761741638184	2.3759191036224365	-0.9484108686447144	0.19973790645599365	-0.635177493095398	-0.3289515972137451	1.288729578256607	1.6258066892623901	1.0602273754775524	2.266290545463562	2.464658737182617	2.2935038805007935	0.9875238938257098	1.6481193900108337	1.164488896727562	2.0578702688217163	-0.11778914928436279	-1.196566104888916	1.4621849656105042	1.8470851182937622	2.1175124645233154	0.4054839611053467	2.5217947959899902	-0.42866575717926025	-0.296777606010437	-0.7033593654632568	0.8837937638163567	0.2611458897590637	5.624075889587402	3.8902294635772705	0.866962194442749	1.0426724702119827	1.832286536693573	0.34992164373397827	0.9442804716527462	-1.030517339706421	1.1380415260791779	1.9589590430259705	1.4657833874225616	-1.2987172603607178	-0.6992992162704468	1.9469375014305115	0.21448713541030884	2.6991695165634155	1.903127908706665	1.3837851285934448	0.3109806776046753	1.5758026242256165	2.311283826828003	-0.57463538646698	2.541420578956604	-0.3399308919906616	-0.9302043914794922	-1.341728687286377	-0.6086620092391968	0.9242862910032272	3.200802803039551	1.2960253655910492	1.249744102358818	1.242673546075821	3.7431068420410156	0.13879388570785522	2.5196245908737183	0.33111733198165894	0.27103281021118164	1.3169004619121552	1.320702612400055	1.1961916089057922	-0.999118447303772	1.4852807819843292	-0.5100065469741821	0.08533358573913574	2.1150013208389282	-0.11328506469726562	-0.5072543621063232	1.2416819483041763	1.0171441212296486	-0.09103536605834961	-1.4898898601531982	0.28360646963119507	-0.6435354948043823	-1.772449254989624	0.66985222697258	0.2617419958114624	2.590571641921997	-1.3456780910491943	1.540830135345459	0.39622819423675537	1.2631697952747345	1.4350322782993317	1.4130001664161682	0.02938985824584961	1.543602705001831	0.7310729026794434	3.795555591583252	2.6617283821105957	2.2386474609375	0.842837318778038	1.1139926239848137	0.06200695037841797	2.2535250186920166	0.34864068031311035	-1.5606157779693604	-0.313845157623291	0.6749396622180939	0.8968890234827995	0.9654017873108387	0.01466357707977295	-1.6637530326843262	-1.1069958209991455	0.5432933270931244	-0.590472936630249	1.2743749916553497	1.0792396739125252	0.8806391730904579	1.9401767253875732	0.23257672786712646	0.4855484962463379	0.47924280166625977	1.8048277497291565	-0.2426447868347168	0.18607401847839355	0.6802370846271515	1.1005530431866646	-0.3251265287399292	2.2506076097488403	3.470132350921631	0.5009020268917084	2.764496684074402	1.1524766683578491	-0.43652212619781494	-6.621432781219482	2.0424433946609497	-0.09188735485076904	1.2366608083248138	3.835064649581909	1.3165165781974792	2.071277379989624	-0.42037487030029297	0.5102344453334808	-0.02926480770111084	2.4390103816986084	-0.9837909936904907	-1.64591646194458	1.9422782063484192	0.45595961809158325	1.101445235311985	0.476088285446167	-0.7338707447052002	2.230224609375	4.094157695770264	1.711059331893921	2.3306514024734497	3.232557535171509	0.8429577946662903	-0.2512739896774292	0.8542265594005585	1.6930561065673828	-0.4640384912490845	3.0317904949188232	2.1397784948349	-0.8656278848648071	0.11318570375442505	2.1619585752487183	1.5104309916496277	1.110676147043705	-0.13655328750610352	0.6701008677482605	1.2537018954753876	1.6176655888557434	1.9291486740112305	-0.6770883798599243	2.634387969970703	1.9863317608833313	0.7087020874023438	1.5779401063919067	1.0316944792866707	1.3564538359642029	3.9079275131225586	2.0944058895111084	1.2512063086032867	1.837315857410431	2.362473964691162	0.6611634492874146	-0.9358296394348145	-0.5656769275665283	0.6857195496559143	1.66600900888443	2.679350256919861	-0.5644721984863281	0.9012062773108482	1.314272165298462	0.25617629289627075	1.9220050573349	2.5057419538497925	2.280448317527771	2.9024890661239624	-1.2729411125183105	1.0446904674172401	1.6187824606895447	1.2588475048542023	0.05408883094787598	2.2685978412628174	0.8820509165525436	-0.8055320978164673	1.5061267018318176	1.3838576674461365	1.1029759794473648	-0.08604419231414795	3.2489728927612305	-0.4235299825668335	-0.36463046073913574	2.083477020263672	2.9318898916244507	0.03971463441848755	0.03639942407608032	0.1976395845413208	-0.6876074075698853	0.07722699642181396	2.0354807376861572	-0.18487298488616943	1.3243286609649658	-0.26807618141174316	-0.2524625062942505	4.089158296585083	2.1695863008499146	2.2283482551574707	2.9732738733291626	1.214534118771553	2.7781314849853516	2.1599830389022827	-0.971800684928894	2.579151749610901	1.0452821850776672	0.9156986027956009	-0.15519189834594727	2.569847583770752	0.888808086514473	1.3895108997821808	-0.20568084716796875	3.2148420810699463	1.5519487857818604	1.8651845455169678	1.105574056506157	2.711373805999756	1.6703766584396362	-1.5965399742126465	-0.5056749582290649	3.2732644081115723	-0.21862518787384033	3.1597650051116943	0.9286957308650017	1.4410880208015442	0.05442070960998535	2.065735101699829	0.6277604699134827	1.9920160174369812	3.925452470779419	0.54250168800354	1.961045742034912	0.8045560717582703	-0.5493927001953125	2.7107927799224854	0.1505722999572754	1.51907616853714	0.5085173845291138	-0.3908582925796509	0.6013818681240082	0.5707449316978455	1.728953242301941	-0.38124942779541016	0.1038128137588501	-0.6665445566177368	-0.2762068510055542	0.9408140443265438	0.407539427280426	1.5972947478294373	2.3215166330337524	0.09139418601989746	1.4805180728435516	1.1782285422086716	1.2145169526338577	2.2844114303588867	1.3662290275096893	0.3316672444343567	1.2011747807264328	1.9597591757774353	0.6833364069461823	-1.039719581604004	1.466316670179367	1.1981504410505295	0.9646290950477123	1.352895200252533	1.6978487372398376	2.9442297220230103	-1.3523690700531006	0.8345530182123184	1.948744297027588	1.8443030714988708	1.3513096272945404	3.3004212379455566	-0.6891683340072632	1.6310485005378723	1.7710514068603516	0.0365331768989563	-1.5224406719207764	0.7426794469356537	0.2022128701210022	0.34338366985321045	-0.5897746086120605	3.711197853088379	0.5720541179180145	1.1548101752996445	1.132324680685997	0.20837312936782837	0.3489142060279846	-0.9359991550445557	-1.4006774425506592	-0.5479459762573242	2.147290587425232	-0.09004652500152588	1.036703571677208	1.619537115097046	2.098421335220337	3.6497974395751953	3.600308895111084	0.8889089301228523	1.0628748685121536	1.0341791026294231	-0.4180670976638794	-2.302617073059082	2.0192646980285645	1.9405648112297058	1.407456398010254	-1.3528056144714355	0.13720417022705078	-0.0231095552444458	0.11940497159957886	1.030229039490223	1.167984589934349	2.5770312547683716	-1.5931293964385986	1.3220068514347076	3.7419040203094482	-0.8701725006103516	2.4823672771453857	0.054908812046051025	-0.6783615350723267	1.443062663078308	0.001386880874633789	-0.1235663890838623	2.1688480377197266	1.059203788638115	0.2732771635055542	0.41739511489868164	1.3215293884277344	0.5321046411991119	0.32953208684921265	1.212707832455635	1.867162048816681	2.0992913246154785	-0.8519090414047241	2.626906156539917	3.469609260559082	-0.001377701759338379	1.0667287036776543	0.5881899893283844	0.9921789430081844	1.6083875894546509	1.707271695137024	1.9844225645065308	1.9620361924171448	2.013196110725403	1.294199377298355	0.05896031856536865	-0.06871843338012695	2.5499545335769653	-0.15092992782592773	1.7396154403686523	-0.4913865327835083	0.8362975567579269	20.473012924194336	3.599918842315674	-0.5239014625549316	1.0870849043130875	3.0856239795684814	0.6647762358188629	2.676619291305542	1.258750706911087	2.5728068351745605	0.3331362009048462	0.6452786028385162	2.6342947483062744	1.5817392468452454	0.6454955637454987	2.2824023962020874	-0.4810863733291626	0.7645828127861023	0.1481664776802063	2.5455905199050903	6.281217575073242	4.060271978378296	-2.0150575637817383	0.8023340702056885	-1.0179321765899658	1.6538905501365662	3.159907341003418	2.1506261825561523	0.5323174893856049	-0.20148050785064697	1.1357272416353226	2.266653895378113	-0.2966541051864624	2.259761691093445	3.4919047355651855	0.9487027861177921	0.49771225452423096	1.9660043716430664	1.3370011746883392	-0.30087482929229736	2.4644787311553955	0.2722649574279785	2.6383821964263916	2.0505353212356567	-0.3564666509628296	-0.3851020336151123	1.8258411884307861	0.619296669960022	0.10196250677108765	1.4461548328399658	-0.5506963729858398	0.8831984773278236	1.7730681896209717	-0.319688081741333	-1.6555578708648682	2.670376420021057	0.35372281074523926	0.7210880517959595	1.5312348008155823	2.712583303451538	0.08722126483917236	0.8237757682800293	0.54402956366539	2.8066486120224	1.4304820895195007	1.0391040220856667	0.8940415158867836	1.876081109046936	2.0440019369125366	0.16513961553573608	-1.651153564453125	1.6249477863311768	1.7442456483840942	-2.0410923957824707	2.187516212463379	1.6348794102668762	2.198527693748474	0.2841506004333496	2.029966711997986	1.3278070986270905	-0.5062545537948608	1.254192739725113	2.909235954284668	-0.36938655376434326	1.7168834209442139	0.3577330708503723	-0.17948853969573975	1.9654149413108826	1.1999784409999847	2.4557493925094604	2.063130259513855	7.783705234527588	1.5429330468177795	0.5329896211624146	-1.8743164539337158	0.28751081228256226	-0.21343421936035156	-0.057952284812927246	3.9134583473205566	0.5428659021854401	1.3951962292194366	0.28354549407958984	1.5685521960258484	0.04911398887634277	0.5355870127677917	3.618311882019043	1.4614960849285126	0.38377541303634644	2.9748467206954956	2.1016337871551514	-0.17888951301574707	2.5858359336853027	1.2438610941171646	1.7641773223876953	0.6032540798187256	2.822032332420349	0.5403376519680023	1.5851601958274841	-2.360131025314331	-0.4395730495452881	-0.6768425703048706	-0.470157265663147	2.769928812980652	1.1472391784191132	1.1866279542446136	3.007657051086426	2.2466245889663696	-0.47169625759124756	1.0030489196069539	1.8075884580612183	3.601172924041748	1.1171077340841293	0.2871948480606079	-0.14983487129211426	-0.041086435317993164	-0.47003233432769775	-0.46610474586486816	1.923740565776825	0.0007390975952148438	-1.5191571712493896	0.4628777503967285	2.74875545501709	1.7446045875549316	1.2699743807315826	0.7576755881309509	1.4275946915149689	0.20021522045135498	0.9014944657683372	-0.33702635765075684	-0.1517852544784546	0.5730668306350708	1.375948429107666	1.2144563645124435	0.29338061809539795	1.6124445796012878	-0.8396691083908081	1.8815208077430725	2.012653350830078	-0.5395224094390869	-2.6530375480651855	0.8468289822340012	2.2672749757766724	1.7564407587051392	0.9580486379563808	1.5762726068496704	2.246543765068054	-1.2146861553192139	1.6968324780464172	1.9578483700752258	1.337250530719757	-0.20294702053070068	5.521022319793701	0.5615099370479584	1.1189327239990234	2.165721893310547	1.7713363766670227	0.8352541029453278	1.0892460569739342	0.48013854026794434	3.627823829650879	2.3365941047668457	2.956703543663025	1.238271802663803	0.7683514356613159	0.52047398686409	-0.00684046745300293	2.958661198616028	1.2761754393577576	2.132139205932617	0.4501962661743164	1.7290705442428589	2.4350749254226685	0.7517935186624527	-0.6585564613342285	2.8200734853744507	1.601561725139618	-0.5673928260803223	0.6475520431995392	0.00631028413772583
odiare_1	3.0043957233428955	1.6325241327285767	-0.6342756748199463	0.9232643321156502	1.1725532859563828	2.244246006011963	0.8128468245267868	-5.611623287200928	1.2793153524398804	2.4447656869888306	-0.07139742374420166	0.7091212868690491	2.15836763381958	2.523978352546692	1.1079538092017174	1.115169070661068	0.7478140592575073	0.5466148257255554	2.7861037254333496	1.2021802961826324	0.6399439871311188	3.201115846633911	0.6323799788951874	-1.3422448635101318	0.08113348484039307	1.4506961405277252	2.2309080362319946	1.8154549598693848	1.2842453718185425	0.7493923306465149	0.4357680678367615	-0.766578197479248	0.43971025943756104	2.4620827436447144	1.3284716308116913	1.0713815465569496	1.0820521712303162	0.8225808143615723	1.8671592473983765	0.04857414960861206	0.5301811099052429	1.127349004149437	1.7461290955543518	1.9521183371543884	0.29523766040802	-14.68062973022461	-0.3208504915237427	1.8342297077178955	-0.06149566173553467	2.5592522621154785	1.611929714679718	-1.0819675922393799	-0.6708507537841797	2.4254029989242554	3.5499014854431152	1.3603500723838806	1.7648192644119263	0.4113416075706482	-0.25422465801239014	3.9807662963867188	0.17622864246368408	2.314928650856018	1.3114083409309387	2.7285022735595703	1.5208370089530945	1.1721213907003403	0.8719268888235092	1.3431772291660309	2.2952879667282104	1.54756760597229	0.5034658312797546	-1.1143214702606201	0.4237578511238098	-0.4222843647003174	0.6346657872200012	1.075684554874897	0.45244139432907104	2.911043167114258	2.6203898191452026	2.0059709548950195	0.8904959410429001	0.8867248222231865	2.672732710838318	1.3137790262699127	0.9970557072665542	0.6337993443012238	-0.19469058513641357	-1.0018458366394043	0.6331444680690765	0.2222830057144165	2.302100419998169	2.430568218231201	1.635424792766571	0.47650015354156494	3.7735142707824707	3.701974868774414	3.6768782138824463	1.4475603103637695	2.3813453912734985	1.7383638620376587	-0.5010918378829956	1.6050584316253662	-0.7821904420852661	0.07058680057525635	1.7094139456748962	0.7077820599079132	1.302864670753479	-0.2004716396331787	1.2710025310516357	-0.3589448928833008	0.9253334626555443	0.7507936507463455	2.322136402130127	0.5980813503265381	-0.6894644498825073	0.6198793351650238	2.2982157468795776	1.8443743586540222	2.2473355531692505	2.803114652633667	-0.0629279613494873	1.162213459610939	0.6007153689861298	0.40411829948425293	-1.1143367290496826	-0.6047966480255127	1.4912834167480469	1.5373479723930359	0.9968457345385104	2.579943537712097	0.6789468228816986	1.8230095505714417	0.5768729150295258	0.9035764932632446	-0.5436954498291016	1.5842450857162476	1.7825263738632202	1.651807427406311	1.4069051444530487	0.3382115960121155	0.6912167966365814	0.6856676042079926	-1.0975818634033203	1.5898367166519165	1.5170762538909912	2.4688854217529297	0.8224879503250122	0.9716397263109684	1.2637716829776764	-0.0477219820022583	1.44819575548172	0.534052163362503	2.846911072731018	0.8993829861283302	0.790917307138443	0.5051401555538177	0.3860214948654175	-0.6209324598312378	0.5401601791381836	2.7272236347198486	1.4521266520023346	1.5876073837280273	1.296809822320938	1.5595937967300415	-0.8757917881011963	-1.299882411956787	-0.09539365768432617	2.8930723667144775	2.283543586730957	0.9310796856880188	2.022626042366028	1.0647802278399467	2.402791738510132	1.400693565607071	2.815558075904846	2.0344111919403076	0.8040655702352524	2.334436058998108	1.7668858170509338	1.9667150378227234	1.0962389931082726	0.7658610790967941	0.5695359408855438	2.07949697971344	-0.33006906509399414	1.1019386127591133	0.2515650987625122	-0.2659485340118408	2.049290180206299	-0.13851475715637207	2.369586706161499	-1.3596534729003906	-0.08996295928955078	2.9634047746658325	0.0799485445022583	1.685946762561798	0.5282747149467468	0.4497274160385132	1.9681344628334045	1.5802595019340515	0.058693647384643555	0.8888254314661026	2.8900312185287476	2.0021588802337646	0.6145509481430054	2.105859875679016	-0.211403489112854	2.9601519107818604	1.2142162322998047	0.5971903204917908	0.9498479850590229	1.6381649374961853	0.3984786868095398	-2.3131368160247803	0.5134260654449463	0.8122121542692184	1.4044075906276703	4.685261249542236	2.1908267736434937	0.854467362165451	2.1075055599212646	-0.26532137393951416	0.13194161653518677	-0.5987664461135864	1.1338486522436142	1.9588447213172913	1.2005603909492493	0.21806573867797852	-0.7089084386825562	2.051641345024109	3.056674003601074	1.1258087009191513	2.7488492727279663	1.2118655890226364	0.4560610055923462	0.9798915144056082	-0.756799578666687	1.683396339416504	0.27884942293167114	0.2287241816520691	0.1266503930091858	-0.6774325370788574	-0.2725764513015747	0.09484612941741943	1.0991243943572044	3.223604917526245	1.0208087135106325	1.8983548283576965	1.047333862632513	3.834904193878174	1.8177949786186218	2.1145291328430176	0.38573169708251953	1.5090753436088562	1.718981683254242	0.6645794212818146	0.10168439149856567	-0.45758795738220215	1.159794345498085	-0.46478724479675293	0.7416233718395233	0.697494387626648	1.6546303629875183	0.375257670879364	1.4093408584594727	2.642509937286377	-0.9383282661437988	0.5720018148422241	0.5712928473949432	0.4184200167655945	1.077084243297577	-0.6094069480895996	2.5083192586898804	3.965573787689209	2.97979998588562	2.190627098083496	0.8348863422870636	1.553695797920227	1.6226866245269775	0.24353772401809692	1.4552378058433533	2.1098181009292603	0.6234059631824493	2.345934510231018	1.1064853221178055	1.8081107139587402	0.9490540586411953	1.1266199797391891	0.4815656542778015	1.5196573138237	2.347108006477356	0.2864038348197937	-0.8803747892379761	-0.9187231063842773	0.30444562435150146	-0.13218927383422852	-1.4593267440795898	-1.7585198879241943	-1.0379226207733154	0.16408634185791016	1.7082518935203552	0.7838708013296127	0.9822726491838694	1.3189823031425476	1.2084496915340424	2.125686287879944	0.5008707344532013	1.5006164908409119	1.6718456745147705	-1.113518238067627	-0.6699910163879395	0.6165774762630463	0.28444766998291016	1.1064334586262703	2.2400739192962646	2.9286227226257324	3.035245895385742	0.5578219294548035	-2.097454309463501	0.4337562322616577	-12.6416597366333	1.6346704959869385	-0.5498846769332886	1.5796554684638977	2.23254930973053	0.9671815410256386	0.2983248233795166	2.321032166481018	0.5250675976276398	-0.7345510721206665	2.367340564727783	0.1935889720916748	-3.0916218757629395	0.3345143795013428	1.3728421330451965	0.7879552692174911	0.057242631912231445	0.82911416888237	2.5623799562454224	-0.7102724313735962	1.8149521350860596	1.1338486224412918	1.7976788878440857	2.425373911857605	0.6101162135601044	0.4281771183013916	2.256440758705139	0.5994086861610413	1.4835765361785889	-0.7317482233047485	0.7121993899345398	0.5104203522205353	1.0892848446965218	2.1197744607925415	1.6057133078575134	0.7379293441772461	0.756292387843132	0.3003060817718506	-0.9681704044342041	0.12035369873046875	0.08815687894821167	2.224518895149231	2.144934892654419	0.25765109062194824	1.6104967594146729	1.0338929034769535	2.2042051553726196	0.09387195110321045	1.2198211997747421	0.11354762315750122	0.9035347104072571	1.900630235671997	1.927234947681427	1.8141148686408997	0.24638402462005615	1.7775570154190063	0.17131370306015015	1.3733311593532562	0.9713603537529707	0.3958142399787903	1.2131264209747314	1.152432695031166	1.6326817274093628	0.5190003514289856	2.8304160833358765	1.6517391800880432	0.6113572418689728	-0.17648792266845703	0.12256461381912231	1.16103096306324	0.11444681882858276	2.523476243019104	1.3496661186218262	0.6936257779598236	1.4801874160766602	3.5590271949768066	1.2729962766170502	2.8670289516448975	2.729263186454773	0.3346579670906067	0.7955613136291504	0.41616421937942505	2.1371331214904785	-0.782120943069458	1.7694772481918335	-0.8668569326400757	0.65925732254982	0.7435441613197327	0.9504136554896832	0.12867802381515503	0.5636772811412811	1.2270180583000183	1.4978415071964264	1.1114251166582108	1.683142364025116	2.5065364837646484	1.498248130083084	1.4047927260398865	2.6291446685791016	0.7816709578037262	1.414410799741745	2.923423647880554	0.22237879037857056	1.337557077407837	0.9404060393571854	0.674144834280014	0.45038431882858276	2.6408385038375854	1.7125011086463928	0.6445775032043457	-0.47229695320129395	1.4458461999893188	0.9854694241657853	2.748894214630127	0.5188197493553162	-1.3749902248382568	0.17596304416656494	2.2565964460372925	1.7958970665931702	-0.41259169578552246	0.2388519048690796	1.8577341437339783	0.7805839478969574	2.8048534393310547	0.756697490811348	0.7185447216033936	2.5760090351104736	1.5520963072776794	2.280774712562561	2.7632133960723877	-0.22357428073883057	0.9525329917669296	2.03167986869812	0.8843837305903435	1.4322098195552826	0.7845499515533447	1.3563804924488068	0.0764738917350769	1.4384227693080902	-1.691664218902588	-0.35949206352233887	0.5902464687824249	1.7776259779930115	1.1593676507472992	2.932216167449951	1.001644567353651	1.494748830795288	-0.38889575004577637	0.8444463461637497	0.23507976531982422	-0.43345510959625244	-0.024435758590698242	2.0323058366775513	-0.03820955753326416	1.637398600578308	1.2011623680591583	0.903823509812355	1.0005506100715138	1.3536390960216522	2.0577688217163086	1.0673763006925583	0.8919755667448044	1.8023558855056763	1.4642078280448914	-1.3494811058044434	1.5521184802055359	1.5233769416809082	2.1734203100204468	0.6402390599250793	1.6223278045654297	0.1492835283279419	1.8565528392791748	2.1276707649230957	-0.46981561183929443	-2.5592401027679443	1.7704392671585083	1.0838335752487183	0.34772366285324097	0.405123233795166	0.3117600679397583	0.9464585185050964	0.6393216252326965	1.2506873905658722	-0.7228438854217529	1.0728747844696045	0.6750456094741821	0.3510892987251282	0.29023677110671997	0.8427072167396545	0.7168574035167694	1.380588710308075	-1.3765878677368164	0.5564604103565216	1.7522631287574768	0.7309870421886444	0.8984780460596085	1.2675741910934448	2.712186336517334	1.6227784752845764	-2.6699624061584473	1.7062722444534302	2.4102535247802734	0.9989092749310657	0.30106985569000244	0.1146816611289978	1.0267481822520494	0.9712229296565056	0.4678933024406433	1.4491932690143585	2.2123507261276245	-0.22808170318603516	2.2546980381011963	2.262945532798767	1.8013002276420593	0.9232517406344414	0.0022139549255371094	-1.392890453338623	2.4462246894836426	1.683472216129303	0.7778121680021286	0.8289870172739029	1.4789441227912903	1.50300794839859	2.193140983581543	2.0382604598999023	0.2543674111366272	0.7411835491657257	-1.7004237174987793	1.438294142484665	-0.03778421878814697	0.36544543504714966	1.8848454356193542	1.417803168296814	1.1047181263566017	-0.2270641326904297	1.521805465221405	1.0400788858532906	-0.46511173248291016	1.677041471004486	2.5817893743515015	1.7755809426307678	0.9058490693569183	0.18344664573669434	2.186625838279724	0.1694086194038391	0.6118737459182739	-0.7688353061676025	0.16198080778121948	0.10062044858932495	2.2844589948654175	21.314468383789062	1.1435479074716568	-0.510848879814148	2.3855148553848267	2.5488760471343994	1.3063129484653473	2.485965371131897	2.882020115852356	1.1704647541046143	0.9907245188951492	0.685854583978653	-0.11353921890258789	2.323723316192627	0.7159207463264465	1.9835014939308167	1.2077315300703049	-0.3428936004638672	-0.43015193939208984	4.693476915359497	2.5552818775177	2.0470000505447388	0.3886227011680603	2.389082908630371	0.458854079246521	0.04920494556427002	1.8509284853935242	2.7002490758895874	0.805497407913208	1.743152678012848	1.8687708973884583	0.49206143617630005	1.6998568177223206	1.520906686782837	2.1672009229660034	-0.1770869493484497	0.19209331274032593	0.41452211141586304	0.009369611740112305	-0.7381962537765503	0.15143918991088867	-0.4609558582305908	0.36395013332366943	1.959445595741272	0.17798107862472534	1.5677408576011658	1.2116571068763733	-1.9556505680084229	1.7325050234794617	2.909756064414978	-0.7181432247161865	-0.26686787605285645	0.9477970562875271	0.4850652813911438	2.4909316301345825	4.459839820861816	-1.650449275970459	-0.0654916763305664	2.628036618232727	-0.39021623134613037	2.03236186504364	-0.20665311813354492	2.431665539741516	1.8955420851707458	1.5739834308624268	1.4639173746109009	0.9158363416790962	1.1917314976453781	2.0364519357681274	0.7094855010509491	-0.18339896202087402	0.764405220746994	0.9555993303656578	1.5948104858398438	1.957736074924469	1.3951973617076874	1.0241179317235947	0.5712845921516418	2.191252112388611	1.5946505069732666	0.6905746161937714	0.6550599932670593	1.7386487126350403	0.4764972925186157	1.0099994605407119	0.5680158734321594	-1.5376548767089844	3.4067134857177734	0.6571578085422516	0.8651455491781235	0.37946850061416626	10.746743202209473	1.3285143077373505	0.23495733737945557	0.7127484083175659	0.5535368919372559	1.002234552288428	0.18137812614440918	1.9705535769462585	0.5923519730567932	1.3139860033988953	1.9773956537246704	0.37599074840545654	0.5428318083286285	3.9936678409576416	1.203237622976303	3.50960636138916	-0.16331565380096436	3.1555888652801514	0.6590660214424133	-0.4574092626571655	1.9011290073394775	-0.6421278715133667	1.5427932739257812	1.3064024448394775	0.7801127284765244	0.07520246505737305	2.4941097497940063	0.3390514850616455	2.410198211669922	1.9980674386024475	0.5398471653461456	2.2847431898117065	1.493297666311264	1.695555031299591	-0.30396103858947754	2.5860376358032227	-0.1501849889755249	2.21957528591156	0.5812890827655792	2.519463062286377	2.811750650405884	-1.641406774520874	0.7164786756038666	1.2704443335533142	1.559183418750763	0.8285787999629974	0.9191288501024246	0.2790531516075134	2.801727771759033	3.4176528453826904	0.6098496615886688	2.10202956199646	0.4772711992263794	1.7295580506324768	1.4365885555744171	1.1334640234708786	1.0848583206534386	0.1382840871810913	1.755130112171173	-0.32309913635253906	2.359826683998108	0.8532381951808929	1.453912079334259	1.2876432240009308	1.3831915259361267	1.0243497919291258	0.8758001253008842	0.7789216488599777	0.36193329095840454	-0.05817389488220215	1.3365203738212585	0.7983356714248657	-0.12054729461669922	1.4298761188983917	0.8194119036197662	-1.4077894687652588	0.0289575457572937	0.11437463760375977	1.893239438533783	0.8777475953102112	3.453411340713501	1.2767911851406097	1.5403392314910889	0.8155923038721085	2.746962308883667	-0.5668708086013794	0.8885006457567215	-0.02221834659576416	2.840709924697876	0.22930550575256348	1.0230488423258066	2.0449873208999634	-1.293757438659668	0.38500189781188965	2.287183403968811	1.9103452563285828	3.3135499954223633	1.6930813789367676	0.9521809741854668	2.0336307287216187	0.5394987761974335	1.0728030353784561	-0.7085893154144287	2.400677800178528	0.5222427248954773	1.150686725974083	0.2177451252937317	1.2224835753440857
offrire_1	nan	nan	nan	nan	nan	nan	nan	nan	nan	nan	nan	nan	nan	nan	nan	nan	nan	nan	nan	nan	nan	nan	nan	nan	nan	nan	nan	nan	nan	nan	nan	nan	nan	nan	nan	nan	nan	nan	nan	nan	nan	nan	nan	nan	nan	nan	nan	nan	nan	nan	nan	nan	nan	nan	nan	nan	nan	nan	nan	nan	nan	nan	nan	nan	nan	nan	nan	nan	nan	nan	nan	nan	nan	nan	nan	nan	nan	nan	nan	nan	nan	nan	nan	nan	nan	nan	nan	nan	nan	nan	nan	nan	nan	nan	nan	nan	nan	nan	nan	nan	nan	nan	nan	nan	nan	nan	nan	nan	nan	nan	nan	nan	nan	nan	nan	nan	nan	nan	nan	nan	nan	nan	nan	nan	nan	nan	nan	nan	nan	nan	nan	nan	nan	nan	nan	nan	nan	nan	nan	nan	nan	nan	nan	nan	nan	nan	nan	nan	nan	nan	nan	nan	nan	nan	nan	nan	nan	nan	nan	nan	nan	nan	nan	nan	nan	nan	nan	nan	nan	nan	nan	nan	nan	nan	nan	nan	nan	nan	nan	nan	nan	nan	nan	nan	nan	nan	nan	nan	nan	nan	nan	nan	nan	nan	nan	nan	nan	nan	nan	nan	nan	nan	nan	nan	nan	nan	nan	nan	nan	nan	nan	nan	nan	nan	nan	nan	nan	nan	nan	nan	nan	nan	nan	nan	nan	nan	nan	nan	nan	nan	nan	nan	nan	nan	nan	nan	nan	nan	nan	nan	nan	nan	nan	nan	nan	nan	nan	nan	nan	nan	nan	nan	nan	nan	nan	nan	nan	nan	nan	nan	nan	nan	nan	nan	nan	nan	nan	nan	nan	nan	nan	nan	nan	nan	nan	nan	nan	nan	nan	nan	nan	nan	nan	nan	nan	nan	nan	nan	nan	nan	nan	nan	nan	nan	nan	nan	nan	nan	nan	nan	nan	nan	nan	nan	nan	nan	nan	nan	nan	nan	nan	nan	nan	nan	nan	nan	nan	nan	nan	nan	nan	nan	nan	nan	nan	nan	nan	nan	nan	nan	nan	nan	nan	nan	nan	nan	nan	nan	nan	nan	nan	nan	nan	nan	nan	nan	nan	nan	nan	nan	nan	nan	nan	nan	nan	nan	nan	nan	nan	nan	nan	nan	nan	nan	nan	nan	nan	nan	nan	nan	nan	nan	nan	nan	nan	nan	nan	nan	nan	nan	nan	nan	nan	nan	nan	nan	nan	nan	nan	nan	nan	nan	nan	nan	nan	nan	nan	nan	nan	nan	nan	nan	nan	nan	nan	nan	nan	nan	nan	nan	nan	nan	nan	nan	nan	nan	nan	nan	nan	nan	nan	nan	nan	nan	nan	nan	nan	nan	nan	nan	nan	nan	nan	nan	nan	nan	nan	nan	nan	nan	nan	nan	nan	nan	nan	nan	nan	nan	nan	nan	nan	nan	nan	nan	nan	nan	nan	nan	nan	nan	nan	nan	nan	nan	nan	nan	nan	nan	nan	nan	nan	nan	nan	nan	nan	nan	nan	nan	nan	nan	nan	nan	nan	nan	nan	nan	nan	nan	nan	nan	nan	nan	nan	nan	nan	nan	nan	nan	nan	nan	nan	nan	nan	nan	nan	nan	nan	nan	nan	nan	nan	nan	nan	nan	nan	nan	nan	nan	nan	nan	nan	nan	nan	nan	nan	nan	nan	nan	nan	nan	nan	nan	nan	nan	nan	nan	nan	nan	nan	nan	nan	nan	nan	nan	nan	nan	nan	nan	nan	nan	nan	nan	nan	nan	nan	nan	nan	nan	nan	nan	nan	nan	nan	nan	nan	nan	nan	nan	nan	nan	nan	nan	nan	nan	nan	nan	nan	nan	nan	nan	nan	nan	nan	nan	nan	nan	nan	nan	nan	nan	nan	nan	nan	nan	nan	nan	nan	nan	nan	nan	nan	nan	nan	nan	nan	nan	nan	nan	nan	nan	nan	nan	nan	nan	nan	nan	nan	nan	nan	nan	nan	nan	nan	nan	nan	nan	nan	nan	nan	nan	nan	nan	nan	nan	nan	nan	nan	nan	nan	nan	nan	nan	nan	nan	nan	nan	nan	nan	nan	nan	nan	nan	nan	nan	nan	nan	nan	nan	nan	nan	nan	nan	nan	nan	nan	nan	nan	nan	nan	nan	nan	nan	nan	nan	nan	nan	nan	nan	nan	nan	nan	nan	nan	nan	nan	nan	nan	nan	nan	nan	nan	nan	nan	nan	nan	nan	nan	nan	nan	nan	nan	nan	nan	nan	nan	nan	nan	nan	nan	nan	nan	nan	nan	nan	nan	nan	nan	nan	nan	nan	nan	nan	nan	nan	nan	nan	nan	nan	nan	nan	nan	nan	nan	nan	nan	nan	nan	nan	nan	nan	nan	nan	nan	nan	nan	nan	nan	nan	nan	nan	nan	nan	nan	nan	nan	nan	nan	nan	nan	nan	nan	nan	nan	nan	nan	nan	nan	nan
oltrepassare_1	1.5370039343833923	1.4931722283363342	1.9230530858039856	0.5655326843261719	1.3095488250255585	3.8918375968933105	0.7722960263490677	-7.216320037841797	-1.6646811962127686	3.2407755851745605	0.570235401391983	1.730700135231018	1.0276892129331827	1.8808490633964539	-0.2015845775604248	1.8453373908996582	0.08522641658782959	1.6761541366577148	0.4256715178489685	2.1940388679504395	-0.7386916875839233	2.1984703540802	2.6030490398406982	-0.889113187789917	0.9469545893371105	0.3325098752975464	1.7495318055152893	2.165828824043274	1.0024661272764206	1.5269797444343567	2.061300754547119	0.7708650082349777	2.509466290473938	2.971996307373047	2.561074733734131	1.5204697847366333	1.394890010356903	1.799716055393219	2.64571213722229	0.759119912981987	1.2616817951202393	1.828916072845459	3.7340197563171387	1.2868080735206604	-0.9501403570175171	-17.865232467651367	0.7805116474628448	1.5898388624191284	0.1786176562309265	3.921100616455078	2.437859296798706	-0.7253932952880859	-1.313713550567627	0.3496304750442505	2.494166851043701	2.8529746532440186	1.2166057080030441	-1.1018540859222412	0.7437648177146912	3.1777920722961426	1.4024475514888763	2.5022099018096924	1.7001041173934937	2.507933259010315	0.7025989890098572	1.3199639916419983	1.3805178105831146	1.2803152203559875	3.7284538745880127	0.8302827775478363	2.3395875692367554	-0.4264545440673828	1.2375757694244385	0.7235594987869263	1.167983204126358	4.036431789398193	2.028225302696228	1.9589832425117493	2.3987367153167725	1.080165408551693	1.5057010650634766	0.4665861129760742	1.7294718623161316	0.387337863445282	1.657823622226715	1.5132163763046265	-1.5465412139892578	-1.5953261852264404	2.100482940673828	0.3335610628128052	1.104197934269905	2.004488706588745	1.13923878967762	0.37440556287765503	2.734628915786743	0.336337685585022	-0.6999130249023438	-1.3139543533325195	1.227317526936531	-0.24016404151916504	0.5304813385009766	1.149116113781929	-1.6572346687316895	0.2608709931373596	1.7160440683364868	0.014966785907745361	1.2289237082004547	1.5414708852767944	-0.05288243293762207	-0.5132769346237183	1.0399058125913143	0.4836573004722595	3.2115859985351562	-0.9247395992279053	1.220478504896164	-0.45704686641693115	2.536395311355591	1.1358334571123123	1.8146419525146484	0.20426076650619507	-0.27707862854003906	1.0669442117214203	-0.1185603141784668	1.6499610543251038	2.4289106130599976	2.8095762729644775	1.774710774421692	1.359080970287323	0.6201767325401306	2.3224064111709595	1.2085577994585037	2.2354891300201416	1.6554890275001526	1.3055578172206879	0.541532039642334	0.7740415632724762	1.5816596746444702	0.868746429681778	1.5481170415878296	-0.4449141025543213	2.4674811363220215	2.6553595066070557	-1.1299219131469727	0.22253304719924927	2.19293749332428	0.9440427199006081	0.9140859618782997	2.358879566192627	1.92025887966156	2.5761464834213257	-0.10635292530059814	-0.7801214456558228	-0.08388304710388184	1.575853705406189	0.8662364184856415	0.42489612102508545	2.8937768936157227	0.5840419232845306	-0.793262243270874	2.0279977321624756	0.5866692960262299	2.760875701904297	1.248442143201828	1.4808693826198578	0.8027082085609436	3.148789882659912	-0.03805720806121826	2.7535855770111084	2.1419620513916016	0.7794932574033737	1.5968237519264221	2.308228611946106	1.6872736811637878	2.032108783721924	1.370998203754425	2.1946046352386475	0.16935551166534424	2.8992780447006226	2.5504281520843506	-0.00984799861907959	1.8555302619934082	1.2045481652021408	-0.6385223865509033	0.8565929234027863	0.31772494316101074	0.9852010607719421	1.538953423500061	0.0534282922744751	1.4435988366603851	-1.1424534320831299	3.144296169281006	0.30079805850982666	-0.3709605932235718	1.5375149846076965	-0.3725402355194092	1.0974715799093246	1.903596043586731	-0.24827635288238525	0.6735217869281769	4.2738518714904785	0.6043089032173157	0.802027553319931	1.4295064508914948	1.7723121047019958	0.2860771417617798	1.039288341999054	-0.2637573480606079	1.4220159947872162	1.0155926225706935	-1.390636682510376	1.6381666660308838	1.2071366757154465	0.7317911386489868	-0.06131327152252197	-0.4323277473449707	1.6096094250679016	0.587355226278305	5.074897766113281	3.780874013900757	-0.12656927108764648	1.146751120686531	3.3206725120544434	2.5174174308776855	0.7394326031208038	-0.5623552799224854	2.372882843017578	0.852691262960434	-0.10507059097290039	-1.066054344177246	0.5118514001369476	1.0852165967226028	0.7998729199171066	1.2012302428483963	0.7625027000904083	1.7494505047798157	1.4816319346427917	2.7119487524032593	1.4100576043128967	2.6782373189926147	0.4844512939453125	0.5897173881530762	0.4561525583267212	0.5302138924598694	2.5736106634140015	-0.011513829231262207	2.5295486450195312	1.6283815503120422	1.757837951183319	-0.1392524242401123	4.368864059448242	0.8772556334733963	3.085930347442627	0.3127399682998657	1.180971771478653	-0.28292667865753174	0.28355395793914795	1.0256114788353443	0.8279016017913818	-0.2550917863845825	1.1687783002853394	1.4290928840637207	3.1998090744018555	0.7040606737136841	1.1501097977161407	0.46217334270477295	1.4423936903476715	-0.696078896522522	-0.5584878921508789	0.8071962594985962	0.46127694845199585	1.6746240854263306	0.6232306957244873	4.317397356033325	2.5802392959594727	1.4718700051307678	2.0832738876342773	1.6389339566230774	1.502245843410492	0.6978465914726257	0.8383603394031525	0.16990602016448975	0.7152519524097443	-0.020672082901000977	2.283184289932251	1.3631033897399902	0.7601834833621979	0.31323105096817017	2.072873592376709	2.3367778062820435	1.7362813353538513	0.883514404296875	-1.495622158050537	-1.0654730796813965	1.8855774998664856	1.3646908104419708	1.0529997237026691	-0.3507755994796753	0.16403180360794067	-2.6192352771759033	1.3139066100120544	0.5868879854679108	0.18446624279022217	2.5926079750061035	-0.16236424446105957	2.9803539514541626	1.056421123445034	0.8529476970434189	1.1899356544017792	1.2982897460460663	0.1622987985610962	-0.24897217750549316	-0.2685887813568115	-0.04276299476623535	0.7378934323787689	1.6728481650352478	3.104086399078369	0.6474987864494324	-0.32288026809692383	-1.4394090175628662	-0.1542140245437622	-7.158361434936523	1.0627009868621826	0.22305697202682495	0.2670207619667053	2.0670053958892822	1.6332760453224182	0.2992108464241028	1.4218128621578217	1.4411772787570953	0.15353745222091675	1.7056095004081726	0.07773047685623169	-2.899251937866211	2.509123921394348	0.42294853925704956	2.0623666048049927	2.716313600540161	0.39449334144592285	2.4073545932769775	-0.2068922519683838	1.466605007648468	1.5811470746994019	2.145539879798889	0.563713788986206	0.7292865812778473	0.3821974992752075	-0.2926286458969116	1.6281557083129883	2.535346269607544	-0.12880194187164307	0.38605713844299316	-0.6720699071884155	-0.9224542379379272	2.737986922264099	-0.6478866338729858	-0.2272564172744751	1.4680094122886658	0.2996765375137329	0.18508654832839966	2.497778296470642	0.792944997549057	0.5445091724395752	0.8362717628479004	1.2002863436937332	2.9291807413101196	-0.05977511405944824	0.3178356885910034	1.6072198748588562	1.4678014814853668	1.187584564089775	1.7035077810287476	1.9979239702224731	0.9833414908498526	-1.33056640625	-0.35563790798187256	0.5839977860450745	1.4492191672325134	1.7886089086532593	0.8553815186023712	1.9649103879928589	0.4208180904388428	1.0992186814546585	2.014755964279175	1.0947700813412666	2.0297569036483765	1.946158766746521	-0.225610613822937	-1.2345404624938965	1.6124171018600464	2.4136016368865967	0.4514244794845581	2.7176955938339233	2.707267999649048	-0.8365113735198975	1.2821034789085388	1.3687959909439087	2.21014666557312	0.38372647762298584	1.5945623517036438	1.2926330864429474	-0.1551048755645752	0.8984600529074669	1.944747269153595	0.15364181995391846	1.8529890775680542	0.48987042903900146	0.563079833984375	0.8544607907533646	1.3473232686519623	-0.4239335060119629	0.004058659076690674	1.2876554727554321	1.410384327173233	1.6925859451293945	1.0830460712313652	-0.07261252403259277	1.793940246105194	1.5770904421806335	1.9019041061401367	-1.491384506225586	0.6056997776031494	1.0431662946939468	2.449987530708313	-0.1604907512664795	0.9847810743376613	0.7007425725460052	3.2771925926208496	2.9995330572128296	0.8729950934648514	1.7053756713867188	1.1011290550231934	2.1433818340301514	0.1007186770439148	1.65291166305542	0.7927952259778976	-2.2579987049102783	-0.1531926393508911	0.9243598580360413	1.2836569249629974	0.3676469326019287	0.6749345660209656	1.9992632865905762	2.3222973346710205	2.727339744567871	0.289315402507782	0.30726921558380127	2.099575400352478	0.6915262639522552	0.786115974187851	1.735025703907013	0.7869873046875	1.9905353784561157	1.6362742185592651	0.366937518119812	1.4625446200370789	1.7397368550300598	1.4976471066474915	-1.035055160522461	1.5510162711143494	-1.1553330421447754	1.1015750393271446	0.10789221525192261	0.7236459851264954	0.8543238937854767	2.263238787651062	-0.28692686557769775	3.7226967811584473	0.5338391661643982	0.6002581715583801	0.20832741260528564	1.1977683007717133	0.5533171594142914	0.9422690980136395	-0.254284143447876	1.4049215912818909	1.3510407209396362	2.8632932901382446	1.1343560367822647	2.4257638454437256	1.2564811408519745	1.4588427543640137	1.0466928519308567	1.6262887120246887	1.9435977935791016	-1.865861177444458	1.2201978266239166	1.6141964793205261	1.6689539551734924	0.6820267140865326	2.3195778131484985	0.6791072189807892	2.146136522293091	1.4131778180599213	0.6037935614585876	-2.821945905685425	-0.38633739948272705	0.35003072023391724	0.1463155746459961	2.208384394645691	3.758729934692383	1.5718554258346558	1.0662290826439857	3.2924208641052246	1.65207040309906	1.9801114201545715	2.242250442504883	1.9325626492500305	-0.30394434928894043	1.4046198427677155	2.4872876405715942	3.7160658836364746	0.9267535358667374	2.061556816101074	1.553885281085968	-0.3279728889465332	1.3519082069396973	-0.0493546724319458	1.3879477381706238	1.3217639923095703	-0.30540359020233154	2.2425674200057983	3.1444945335388184	0.6680150926113129	0.3097447156906128	1.407576322555542	0.30225467681884766	0.3700825572013855	-0.8076591491699219	1.7053656578063965	2.303797483444214	1.1230063438415527	3.391174077987671	1.9959574937820435	0.6155111193656921	1.4131514132022858	0.6069714426994324	0.4985036253929138	1.2264304161071777	1.2180793285369873	0.9538682475686073	3.1236650943756104	1.714718759059906	1.5686454772949219	2.430011749267578	2.3231006860733032	1.4174516797065735	-0.959301233291626	-1.8972218036651611	0.8966663926839828	1.4011938571929932	0.5424323678016663	2.288057565689087	1.7941247820854187	-0.25755763053894043	0.22691190242767334	1.499164879322052	-0.30991482734680176	0.36821699142456055	1.5564370155334473	2.6339820623397827	1.5270406007766724	2.1224825382232666	-0.044762492179870605	2.3035356998443604	0.8850751146674156	1.1451515406370163	-0.7235615253448486	-0.11748933792114258	2.254087209701538	-0.22515761852264404	20.468891143798828	1.2124253511428833	0.7431536316871643	1.2860636115074158	1.1717604249715805	0.8907644376158714	0.9751312993466854	1.6404913663864136	-0.5818383693695068	2.1643344163894653	1.681904673576355	1.3892368078231812	2.1488099098205566	0.18919718265533447	2.414299964904785	1.1461499482393265	-2.1565728187561035	1.973360538482666	0.7611885070800781	2.5675647258758545	1.582650065422058	0.987399029545486	1.3093226552009583	0.37825119495391846	1.0398184321820736	1.4315012395381927	0.7317672073841095	-0.36936020851135254	1.969264030456543	1.027081873267889	0.8972876891493797	1.5055862665176392	2.0341176986694336	0.6765580475330353	0.861528605222702	-0.9742991924285889	0.3003944158554077	0.010497689247131348	0.03798961639404297	-0.1816016435623169	1.0116848591715097	3.0194621086120605	0.2992643117904663	0.18163174390792847	3.2573225498199463	1.943024456501007	-3.2564258575439453	1.8724174499511719	-0.029122114181518555	0.6833613812923431	-3.116783618927002	2.3427345752716064	0.6795345842838287	1.1718058437108994	2.2885046005249023	-0.7933356761932373	1.1893933564424515	0.39076828956604004	-0.6430740356445312	2.0754425525665283	0.7982867211103439	2.3924028873443604	2.448249578475952	1.0517352111637592	0.42159193754196167	2.860295534133911	0.6903545260429382	1.547126591205597	0.732900470495224	-0.046661376953125	1.3770512640476227	-0.09309792518615723	0.793714314699173	2.459749221801758	1.5145543217658997	0.10262191295623779	1.048297107219696	1.4172092378139496	1.9574202299118042	1.3609756827354431	0.6576694250106812	0.6205641329288483	-1.5601699352264404	1.4085009694099426	-0.5983726978302002	0.9675004780292511	2.186095714569092	0.577793538570404	0.5187222063541412	0.6310393512248993	8.488539218902588	-0.3125087022781372	-2.0420825481414795	0.8824787959456444	1.154825359582901	2.5049397945404053	0.061664879322052	3.4902420043945312	0.29132211208343506	3.0035290718078613	2.7145988941192627	1.5859548449516296	1.256525069475174	2.13303005695343	2.4140756130218506	2.4021880626678467	2.7014747858047485	3.826657772064209	1.0484674535691738	0.2857509255409241	1.2952598631381989	-0.4017528295516968	1.824245810508728	1.2674506306648254	0.668970376253128	-0.6634511947631836	0.3327389359474182	1.2028687000274658	3.0245206356048584	1.4816697537899017	1.0664594992995262	0.33400678634643555	1.2178858816623688	0.13287580013275146	1.8855196237564087	0.8782898411154747	0.5762003064155579	0.4077272415161133	1.3191339373588562	0.9406539499759674	0.7415258884429932	-1.5040829181671143	0.5390063226222992	-0.036357879638671875	0.2712249755859375	0.5726374983787537	1.1367121636867523	0.35464930534362793	1.357919156551361	4.513688325881958	0.11983668804168701	1.420749008655548	1.3891099095344543	1.4570583403110504	1.0384608693420887	1.9693084955215454	2.64684522151947	0.911989688873291	-0.20085787773132324	0.23706716299057007	0.7977270185947418	1.2254843711853027	1.6360402703285217	1.5128611326217651	-1.7373037338256836	-1.0146372318267822	0.7568728923797607	0.3937801122665405	-1.327587604522705	0.9653409942984581	1.170892208814621	1.1089468449354172	-0.13097989559173584	0.878145769238472	0.9661915525794029	0.34843552112579346	3.352339267730713	2.1490989923477173	1.7868046760559082	-0.1876823902130127	2.6575546264648438	-1.0957155227661133	-0.13679468631744385	1.2924787402153015	1.7725600004196167	1.514660894870758	1.7528480887413025	1.1346696019172668	2.1861393451690674	-0.33534860610961914	-1.292297124862671	-0.8598304986953735	-0.2855091094970703	1.2510165870189667	0.006777465343475342	1.6961652040481567	2.114460587501526	1.1310290843248367	-1.9988772869110107	1.2679206132888794	1.7381426095962524	-0.3785158395767212	0.3449098467826843	3.7713115215301514	1.1422252655029297	0.2764521837234497	-0.19051778316497803	2.4221551418304443
oltrepassare_3	2.136573910713196	1.6449615955352783	1.552217721939087	1.595632791519165	0.821260005235672	5.1812744140625	1.446914792060852	-9.787440299987793	0.26581668853759766	4.73197603225708	-0.10715925693511963	2.1682493686676025	1.067842811346054	1.5845027565956116	-1.169597864151001	2.4253246784210205	1.5467105507850647	3.114436149597168	1.3920795619487762	1.9289742708206177	-0.11708760261535645	2.670783281326294	1.6921720504760742	-1.4717442989349365	0.47438502311706543	0.07443588972091675	0.7015806138515472	1.8750157952308655	1.3906319439411163	1.0185322035104036	1.3729705810546875	0.6137937009334564	3.1937997341156006	3.0498874187469482	1.7146422266960144	0.9117350801825523	1.0592155270278454	1.6020612716674805	1.5874858498573303	-0.18457317352294922	0.6004010438919067	3.669226884841919	3.109729051589966	2.134653091430664	-0.2879621982574463	-18.08517074584961	0.03264033794403076	0.8631298691034317	0.5501968562602997	5.308820724487305	1.7977325320243835	-1.7148396968841553	-1.0051326751708984	0.18717056512832642	3.728734016418457	0.40777456760406494	0.1663501262664795	-1.2264339923858643	0.2677749991416931	3.4745993614196777	1.920100748538971	1.6642296314239502	1.7447556257247925	2.9017622470855713	-0.20189523696899414	1.7220556139945984	1.7449442744255066	1.0874481573700905	3.8257153034210205	1.6242882013320923	1.238840639591217	-0.20467615127563477	0.8145351856946945	0.8747078329324722	2.108234405517578	4.264772176742554	2.5196701288223267	1.801750898361206	2.2296979427337646	0.48363494873046875	-0.2598247528076172	1.6850443482398987	2.7015233039855957	0.9474053531885147	1.891758918762207	0.7214859426021576	-0.5094567537307739	-1.5442156791687012	0.7510250955820084	-0.10012483596801758	1.2387927174568176	1.2681508362293243	2.2872231006622314	1.2522135376930237	6.147584915161133	0.4854552745819092	-1.0702307224273682	-1.5085973739624023	1.7177398800849915	-0.4737769365310669	0.19764381647109985	0.6174987554550171	-2.5510799884796143	1.4264436960220337	1.6037914752960205	-0.5589256286621094	0.6319304704666138	1.5933670401573181	-0.5623960494995117	-0.29435205459594727	1.643487811088562	0.7386674582958221	2.9690088033676147	-0.37426209449768066	-1.2730906009674072	-0.7149657011032104	0.81600421667099	0.5116284787654877	1.5860154628753662	-1.2664365768432617	0.35868650674819946	2.9662797451019287	0.196272075176239	3.0549275875091553	1.649739682674408	1.9683974385261536	2.468982219696045	1.7122889161109924	2.3713029623031616	2.675846219062805	0.6489855051040649	2.053456425666809	0.5894008874893188	0.18278998136520386	0.6026323437690735	1.299984484910965	0.690978080034256	0.957361988723278	0.7182593643665314	-0.3910391330718994	3.381275177001953	1.6784639358520508	-0.5759844779968262	0.8239974677562714	2.63665235042572	0.954040952026844	0.5001794099807739	2.484720826148987	1.4396414458751678	2.75198233127594	0.3578421473503113	-1.0336720943450928	0.5053806304931641	1.0541340298950672	0.0246579647064209	0.05988478660583496	0.9883236028254032	1.0625418052077293	-0.5347326993942261	2.8303263187408447	0.9115333184599876	3.0529227256774902	2.712860107421875	1.2453501522541046	1.2836254835128784	1.778310477733612	-0.1095588207244873	2.239868402481079	1.902522087097168	1.2241982817649841	1.8725605607032776	1.8601138591766357	1.0912463143467903	1.091092973947525	1.8133478164672852	0.8981511518359184	-0.9844235181808472	3.4654295444488525	1.140142783522606	0.43576622009277344	1.608091652393341	1.5997369289398193	-1.1902949810028076	2.523927092552185	1.985959768295288	0.6678653657436371	2.8243147134780884	1.1991884112358093	1.6315149664878845	-1.40093994140625	2.9892667531967163	-0.45816946029663086	-0.4754575490951538	2.469664454460144	0.3114885687828064	1.4683215916156769	1.0044672023504972	0.2391960620880127	-0.06325864791870117	4.403733491897583	0.2495175004005432	0.34428250789642334	1.8149396181106567	1.5912392139434814	0.2688404321670532	0.9138655066490173	-1.2491579055786133	0.9090331345796585	0.5996621251106262	-2.0052542686462402	0.8730517029762268	0.5968788862228394	1.1430022418498993	-0.511106014251709	0.04152446985244751	2.33686363697052	1.5692498087882996	4.481493711471558	2.9995757341384888	0.5467251539230347	1.9553775787353516	2.65301513671875	1.4259441494941711	0.8944303393363953	0.01046741008758545	1.2823468446731567	1.1516917049884796	0.10813343524932861	-1.1541662216186523	0.8868458941578865	2.094272017478943	1.9457265138626099	2.1360846757888794	0.5851478278636932	2.3507461547851562	-0.057773470878601074	3.3941965103149414	1.200398862361908	2.0973305702209473	1.068701297044754	0.46810781955718994	1.2677454948425293	0.5151626765727997	2.062977433204651	-0.7132267951965332	2.630242943763733	0.6217639148235321	2.55981707572937	0.023601770401000977	2.462992548942566	0.3186982274055481	2.911976933479309	1.332660049200058	0.5826306343078613	-0.16314947605133057	1.0416221171617508	1.2796567380428314	0.4842713475227356	-0.2018808126449585	0.24436324834823608	0.5373011827468872	2.686027407646179	0.33328181505203247	1.9584875106811523	0.8302035629749298	2.4064069986343384	0.18464189767837524	-0.6059237718582153	0.6952506899833679	-1.7423877716064453	0.7153864502906799	0.4393468499183655	2.842816710472107	2.610387682914734	2.24447238445282	2.447581648826599	0.8059944808483124	1.0558247715234756	1.1431288123130798	-0.13452458381652832	1.0534344464540482	1.090368501842022	0.5700231492519379	2.5209078788757324	0.6530319452285767	1.5965299010276794	0.5908709764480591	0.6449192762374878	3.092846393585205	1.2751142978668213	1.2043022513389587	-0.39638590812683105	0.5610814094543457	1.5186688303947449	0.3763474225997925	1.1219114735722542	0.34662389755249023	-0.6197092533111572	-1.8394334316253662	1.2573236525058746	0.20832973718643188	-0.8464914560317993	2.7723143100738525	0.752035915851593	3.608211040496826	0.07434821128845215	0.31571048498153687	1.8036611676216125	1.4968528747558594	-0.10131919384002686	-0.9872796535491943	0.7403261661529541	1.1504797637462616	0.8273781538009644	1.3803436756134033	3.437161684036255	1.6483572721481323	0.17494964599609375	-1.4913828372955322	-0.8572309017181396	-8.991412162780762	1.0330291241407394	0.23475545644760132	-0.1556093692779541	2.226631999015808	0.8020816892385483	0.7060361504554749	2.555125594139099	1.5337032675743103	-0.25289034843444824	1.3209121823310852	0.26095789670944214	-2.8969383239746094	1.7537727355957031	0.9997159366903361	2.7203599214553833	1.8919106721878052	0.6154801845550537	1.9878581166267395	-1.1541566848754883	1.3561351001262665	1.361610770225525	3.372725248336792	1.0796094834804535	1.6593489050865173	1.2222635447978973	0.6305492222309113	1.9176220297813416	1.9099858403205872	1.5796327590942383	-0.4692641496658325	-0.21258997917175293	0.05471259355545044	2.1205860376358032	0.7194567918777466	0.34143853187561035	-0.0674213171005249	-0.31758129596710205	-0.4099169969558716	2.5181779861450195	-0.10793304443359375	-0.5949794054031372	1.242581531405449	1.4639009833335876	1.4835001528263092	0.5081192553043365	0.6212475001811981	2.496284246444702	1.270479679107666	1.6139935851097107	1.1408853232860565	2.1732537746429443	2.371256709098816	-0.6535873413085938	-0.7228096723556519	1.2901109755039215	1.5285489559173584	1.0104376189410686	2.5555496215820312	1.8989466428756714	1.4480099081993103	0.5684550702571869	1.5881165266036987	1.6990689635276794	2.894451379776001	0.36309176683425903	-0.21130502223968506	-1.3938798904418945	0.8336840122938156	1.3485806286334991	0.8728773444890976	3.567185878753662	3.133641004562378	-0.9805940389633179	2.4343249797821045	1.131141945719719	1.8370001912117004	2.2915239334106445	1.507559895515442	0.9624302238225937	-0.30705761909484863	0.8347759544849396	2.049724578857422	0.03264737129211426	1.4532679319381714	-0.38163888454437256	0.8467248678207397	1.1241395846009254	1.677733838558197	1.2524930834770203	-0.31847310066223145	2.1734774112701416	-0.33399152755737305	3.006861686706543	1.8045480847358704	0.42606937885284424	1.5432602167129517	1.8491873741149902	1.6197946667671204	-0.8080490827560425	-0.529657244682312	1.9785407185554504	1.6049774289131165	-0.8311045169830322	0.3862781524658203	-0.006242036819458008	3.0442934036254883	1.2911017835140228	0.7771883755922318	2.1709855794906616	0.9491212442517281	2.150209903717041	-0.8602805137634277	0.9390526674687862	0.7744637578725815	-2.0675806999206543	-0.6169806718826294	1.507380723953247	1.5293827056884766	-1.4837260246276855	1.3705814480781555	1.3751359283924103	0.9754394255578518	3.029654026031494	0.8632044196128845	0.6168776750564575	2.3084356784820557	0.9025001376867294	1.7707059383392334	0.12410223484039307	1.5582258701324463	2.1464744806289673	2.347543716430664	0.9657142609357834	1.5636652708053589	0.3628076910972595	1.8913806080818176	-1.0241146087646484	1.2726157903671265	-0.45562922954559326	1.8358945846557617	-1.4504356384277344	1.2101663053035736	0.6019264757633209	2.349702000617981	0.6794321537017822	4.6451709270477295	0.2466549277305603	-0.5215407609939575	0.7789685130119324	1.442522257566452	-0.8252546787261963	2.4177823066711426	-0.6833682060241699	1.4955484569072723	3.26696515083313	2.60289204120636	0.6126891374588013	2.502918243408203	1.069255530834198	1.492864727973938	0.18595260381698608	1.5659221410751343	2.0677307844161987	-1.782893180847168	1.7488523125648499	0.5480418801307678	1.0929622650146484	-0.2966412305831909	2.0343143939971924	0.9778105337172747	1.9481210708618164	1.36588716506958	0.5394488573074341	-0.1456432342529297	0.44357651472091675	1.3349260985851288	0.23462337255477905	1.7207356095314026	1.9859346747398376	1.2961508929729462	2.630802273750305	2.769129753112793	-0.07342231273651123	1.722251296043396	1.8128340244293213	2.152261257171631	-0.21605300903320312	0.6870431900024414	1.8390312790870667	3.5566341876983643	-0.6768019199371338	2.520071864128113	2.348447322845459	-0.7507408857345581	-0.3177076578140259	0.6815799474716187	0.9245887622237206	-0.26634764671325684	-0.8588767051696777	1.5312550067901611	3.1976804733276367	0.6202799379825592	0.8734488785266876	0.3123331665992737	0.3604249954223633	0.7808385193347931	-1.2947804927825928	1.7437816262245178	0.8158531486988068	-0.0837714672088623	4.3408708572387695	2.3330646753311157	-0.20492231845855713	2.1509573459625244	1.0583772249519825	1.1784802377223969	1.8017655611038208	1.34830904006958	0.06609600782394409	2.6027581691741943	1.2380246073007584	0.33042407035827637	2.241062641143799	2.475279927253723	2.59627628326416	-0.6713652610778809	-0.9443037509918213	0.8249088525772095	1.553590178489685	1.5780193209648132	2.609601140022278	3.4244067668914795	0.43344634771347046	-0.6279712915420532	1.727486491203308	-0.0030901432037353516	-0.42237770557403564	0.9608764946460724	2.481825590133667	1.8756132125854492	0.8346996456384659	0.8467552065849304	2.244989275932312	0.6501038670539856	1.3355520963668823	-0.4501368999481201	0.13280892372131348	1.9174123406410217	-0.9099928140640259	21.092966079711914	2.0537281036376953	0.3682193160057068	-0.19100749492645264	1.4485898613929749	0.6506425440311432	1.3898321688175201	1.4097172617912292	0.21389305591583252	1.7514140605926514	1.1182241067290306	1.6654778718948364	2.2067112922668457	-0.3197885751724243	2.0110539197921753	0.8409354835748672	-1.3266973495483398	1.7960910201072693	0.017345964908599854	3.092771530151367	0.5941532850265503	0.944520678371191	2.279206395149231	0.3734387755393982	1.2268249690532684	2.6757479906082153	2.1386256217956543	-1.382495403289795	2.129549264907837	1.1159809678792953	1.8136778473854065	1.582197368144989	2.3524739742279053	0.9263588562607765	0.05291050672531128	0.7279611527919769	0.5462072193622589	-0.4747798442840576	-0.6891436576843262	0.04717797040939331	1.6549713611602783	2.2191662788391113	0.5228945016860962	-0.7076617479324341	3.6600940227508545	1.7962058782577515	-1.4851927757263184	2.034263014793396	-0.8112779855728149	-0.7280329465866089	-2.2918663024902344	2.2643485069274902	1.222988873720169	2.080417037010193	4.085261106491089	-1.194495677947998	0.07818222045898438	0.8180490285158157	0.7309168577194214	2.1022905111312866	1.0576857589185238	2.8745943307876587	2.4700417518615723	1.3326843976974487	-0.2373563051223755	1.6511762738227844	1.1286154240369797	1.0828146263957024	0.3436582684516907	-1.058598279953003	0.5622827410697937	1.181523323059082	0.8796409070491791	2.531656503677368	1.5988791584968567	0.4334695339202881	-0.035474181175231934	0.39986294507980347	1.8963897228240967	2.2758939266204834	1.6170060634613037	0.033189237117767334	-0.4784046411514282	1.6375983357429504	0.2256079912185669	0.3420689105987549	2.2752000093460083	0.8874709084630013	0.7078555822372437	2.6609413623809814	9.031473159790039	-0.1591120958328247	-1.983694076538086	0.5561449229717255	2.688035488128662	2.8582814931869507	0.18487125635147095	4.178572654724121	0.017254531383514404	2.0689656734466553	3.0354909896850586	2.7363346815109253	1.1824316680431366	2.010454535484314	2.0580495595932007	3.7285399436950684	1.7078421115875244	3.265589714050293	1.027826325967908	0.3914075493812561	2.63396680355072	-1.4900474548339844	2.584222435951233	0.8521024882793427	2.067442774772644	-0.535183310508728	-0.11007583141326904	0.7872735410928726	2.6081337928771973	1.9102156162261963	0.5010931193828583	-0.30608510971069336	1.4363714456558228	-0.17798805236816406	2.5489532947540283	0.5685324668884277	-0.34623289108276367	-1.255965232849121	1.801389217376709	-0.1823974847793579	0.8215398639440536	-2.433896780014038	1.0964035764336586	2.0882484912872314	-0.16449034214019775	0.6359732151031494	3.059220790863037	-0.08931255340576172	0.958147257566452	3.53800630569458	1.3125375509262085	1.9250280857086182	0.4489443302154541	1.4511688947677612	0.4775581955909729	1.8878962397575378	3.622983694076538	0.20669853687286377	0.8368911594152451	0.5693999528884888	1.8864564299583435	0.5954135358333588	1.7886658906936646	1.8007997870445251	-1.9925804138183594	0.18370020389556885	0.2359974980354309	0.5065262615680695	-0.8104463815689087	-0.4291194677352905	0.9001044929027557	0.6063144505023956	0.7805688381195068	0.4662134647369385	0.6265977621078491	-0.3049274682998657	2.6787350177764893	2.0688915252685547	1.2456728368997574	-0.44858860969543457	2.7092700004577637	-0.16885018348693848	-0.12517070770263672	0.9146763533353806	0.9447451047599316	0.40152812004089355	2.6970839500427246	1.6068887114524841	0.003027796745300293	-0.8531657457351685	-0.6489266157150269	0.8132297694683075	-0.5817837715148926	1.1179849803447723	0.2518634796142578	1.8566864728927612	2.1307581663131714	-0.11706459522247314	0.06169658899307251	1.5713694095611572	1.656481146812439	-0.42285311222076416	-0.5525742769241333	4.285291433334351	1.2151863276958466	1.5529634952545166	-0.4875136613845825	2.3616456985473633
